1084 150
('에','Josa') -0.061287455 0.121337 -0.0520223 0.18930003 0.4334137 -0.24054942 0.1819858 -0.5382564 0.121195346 0.37951347 -0.32954258 0.06343623 0.08183773 0.12194261 0.06733958 0.037123796 0.4621059 -0.38615265 0.2729475 -0.38185042 0.30355674 -0.30046535 -0.23983781 0.287744 0.45038795 0.18911919 -0.02876998 0.12251468 -0.031636097 0.36099648 -0.6556462 0.10112605 -0.14679967 -0.21940784 -0.11459204 -0.020818552 0.2665193 -0.22710174 0.108862884 0.017139956 0.15815882 0.27069196 0.17051627 0.3852984 -0.086124174 -0.08283128 0.1521327 -0.13827851 0.45782453 -0.06882376 0.03876305 -0.34025934 0.039301198 -0.16453207 0.19711453 0.4201563 -0.069266625 -0.08980804 0.062869586 -0.55667615 -0.10417245 0.057064045 0.030076226 -0.1422677 0.027553534 0.13049027 0.059580658 -0.196844 0.23304088 0.06397537 -0.3200754 -0.12555526 -0.29325715 -4.608417e-05 0.06660177 0.31182477 -0.039824218 -0.17851608 -0.04427089 0.103909254 0.19697393 0.31118253 0.42559552 0.1119763 -0.12181146 0.33976942 -0.084698394 -0.34615564 -0.09756683 0.16425128 -0.35962337 -0.15819967 -0.1985291 0.15036784 -0.024015708 -0.20897025 -0.22832428 -0.0885631 0.17641269 -0.19971457 0.42324805 -0.43359143 -0.1933027 0.0129162865 0.12516415 -0.33370766 -0.055165716 0.033075258 -0.31697202 -0.19578326 0.0042301444 0.18981995 0.08828307 0.25720355 -0.27020687 0.07695057 -0.43033192 -0.062421687 -0.17803155 -0.3249582 0.03024457 0.046432108 -0.103230916 -0.18237658 -0.0975893 0.11189229 -0.42314306 0.08209367 -0.36350387 -0.275285 0.21903385 0.36249995 0.21219023 -0.0012417857 0.34483874 0.009450181 0.17687018 0.16370107 0.19843766 -0.34693372 0.034101814 -0.0032317508 -0.70597476 0.18084954 -0.07943044 0.113179214 0.17417806 0.15965284 0.061590742 -0.29316604
('을','Josa') -0.12536749 -0.010994867 0.2390093 -0.1086593 -0.34350365 -0.16615984 0.17651969 0.052959133 0.31790856 -0.24620543 -0.086363345 0.6266222 0.4019389 -0.09697969 0.190553 0.16389255 -0.24520922 -0.40316644 -0.12985115 -0.031870823 -0.17396012 -0.19141495 -0.14649688 0.3705736 -0.29362777 0.36497205 -0.0021412866 0.11024608 0.45953345 -0.3295258 0.39289573 0.07217406 -0.25636378 0.17605928 -0.21069703 0.39632803 0.4457145 -0.44527134 0.08637005 0.23112652 0.38928878 -0.37497082 -0.09512897 0.30474362 0.3428321 -0.090525046 0.2324714 -0.07362398 0.62198764 -0.4232391 -0.094052255 0.22012194 -0.056424696 -0.1359151 -0.24904561 0.36639342 -0.1894303 -0.1729954 0.3293645 -0.12554123 0.26854637 -0.30773735 -0.10074465 0.08136048 0.098684035 -0.09121557 -0.20996709 -0.066295035 -0.12575595 0.28153637 0.07403429 -0.20466067 -0.13981447 0.20785856 -0.3849789 -0.3185004 -0.18254709 -0.56830746 -0.41665873 -0.04641517 0.14134839 -0.06067027 0.07738641 0.23967877 0.26513004 0.27364573 0.18896097 -0.23978297 0.19213313 0.026897749 0.007667794 0.04534902 -0.6104744 0.8412071 0.41201922 -0.36202994 -0.07177791 0.7063206 -0.089492045 0.38948652 -0.23992187 -0.101859376 -0.075476795 0.41637042 0.5335114 -0.25739384 -0.4826595 -0.2053535 0.10271458 0.0676211 -0.17246841 -0.08630416 -0.14387512 -0.16970772 0.2715607 0.4109237 0.0016972822 -0.5641849 -0.1688922 0.2043027 0.27961588 -0.21587484 0.04417786 -0.034563523 -0.09729908 -0.18529177 -0.017798105 -0.052148867 0.01564175 -0.1656754 -0.12565407 0.2289855 -0.15602037 -0.22096646 0.1563186 0.14665441 -0.47952667 0.18171547 0.460021 0.17168736 0.12649517 -0.3819107 0.3798509 -0.18711679 0.025469756 0.5617464 0.111999705 0.14289263 0.46199146 0.11007471
('이','Josa') 0.161258 0.21086913 -0.27632296 -0.2920645 -0.44641873 0.10681792 0.059792835 0.04359918 0.11399773 -0.21027283 0.06165242 0.3385452 -0.16504924 0.04724175 0.047985025 -0.358498 0.20647387 0.23825534 0.08723818 0.07331095 0.5630622 -0.014667632 0.26131347 -0.34106448 -0.042614788 0.08012205 -0.1502363 -0.10612186 0.19649994 0.23523358 0.07458149 -0.1606061 -0.11371749 -0.20059349 -0.49251097 0.25429583 -0.1133748 0.11175719 0.23413001 0.3767633 -0.29367623 -0.08737593 0.047975313 -0.48857936 -0.08372325 0.38298735 0.19206774 -0.043787293 0.20389414 -0.22962506 -0.15302674 0.055435937 -0.049820237 -0.25217924 -0.001385558 0.012966592 0.043337923 0.07132042 -0.0048765414 0.08318178 0.48229635 0.018369833 -0.45432755 0.01742198 0.35256058 0.009521525 -0.17786345 -0.11063608 0.29662699 -0.1980515 -0.33493716 -0.09267291 0.035021175 -0.038676232 -0.24221441 -0.066311836 -0.33571735 0.04602513 -0.1900855 0.14181478 -0.04879171 0.47772762 0.3218896 0.259407 -0.19809167 0.1811424 -0.20475961 -0.12375363 -0.14603543 -0.04274405 -0.27014163 -0.060732517 -0.24356803 0.10887947 0.17224388 0.07320978 0.13873419 -0.20379028 0.14596987 -0.19516511 -0.31194255 0.017260224 0.39140064 0.06963854 -0.12626609 -0.07552007 -0.15125675 -0.07730661 0.33844903 -0.14379126 -0.14739287 -0.04361298 -0.08554264 0.07241063 -0.114371024 -0.60010505 -0.314742 -0.061484233 -0.19085243 -0.12632735 -0.13335681 -0.020130564 -0.021710372 0.24829118 -0.01723424 0.36490113 -0.15614688 -0.17866388 0.0082926415 -0.011213415 -0.13922854 -0.17356989 0.19266498 -0.0031118786 -0.19185479 -0.053870164 -0.089776225 0.17682885 -0.110559486 0.26318586 -0.31027934 0.063322805 0.44912556 -0.16969243 -0.17825818 0.22063722 -0.116692536 -0.17114751 0.010865403 -0.44660872
('가','Josa') 0.35265595 0.10591854 0.19020991 0.12685722 0.045417894 -0.09408524 -0.5473449 0.16045284 -0.19898672 -0.13273467 0.13290118 0.21708372 0.13435502 -0.15912423 0.14427747 0.1986093 -0.26961607 -0.70510864 0.24637462 -0.15985614 -0.5460738 -0.13500588 0.4752024 0.21396658 -0.027963514 0.1327239 -0.007094321 -0.2837414 -0.20020118 0.16079862 -0.16844901 0.36469322 0.040297832 -0.20576222 -0.13906324 -0.14154686 0.050967842 -0.030981138 -0.16806723 0.12191983 0.5717746 -0.14532092 0.20059822 0.24545169 -0.1662264 0.15259527 0.028274199 0.6162445 -0.12890339 0.03223224 -0.291682 -0.23642376 0.15655722 -0.3178611 0.08016117 0.3149718 0.5767126 0.29581943 -0.18856761 0.389437 -0.17650387 0.23718908 0.31280065 -0.080705434 -0.015446446 0.12837048 0.13866863 -0.13914861 0.16328408 -0.15147193 0.63303953 0.11119401 -0.09322638 -0.31811136 0.14490299 -0.031099118 -0.048111215 0.18639031 -0.23519814 0.039776485 -0.27715743 0.6254482 -0.5492147 -0.20058925 -0.5129696 0.63109094 0.44105268 -0.33730233 -0.21949562 -0.22629443 0.12474 -0.04875734 -0.16314612 0.09990512 -0.32106268 0.41292658 0.2769349 -0.21832848 -0.18722972 -0.3499016 0.27733213 -0.43050438 0.4094796 -0.09227705 -0.21320654 0.4345627 -0.08490572 0.08004798 0.26014587 0.061246924 0.018399103 -0.26687738 -0.22097856 0.24462126 -0.53147405 -0.10363492 -0.22796194 0.47003838 -0.3100659 -0.2007229 -0.09908815 0.65990317 0.10737328 -0.3635454 0.088474736 0.03404784 -0.21285363 -0.18241015 0.5746194 0.23860255 -0.30139393 -0.039113395 -0.2824728 0.20607223 -0.21259055 0.4123478 0.05681106 -0.020978183 0.037924204 -0.26235202 -0.027522834 0.016069178 0.456874 0.4194128 0.11141766 -0.7212224 -0.3198293 -0.36211768 0.11205871 0.48597467
('도','Josa') -0.6941285 0.1033691 0.30981755 0.0852962 0.1338549 -0.20908698 -0.6200901 -0.3001739 -0.10966945 -0.047741637 -0.07070287 -0.29091138 0.072884046 -0.18302877 0.08707429 0.627291 -0.12172839 0.09031279 0.5455767 0.3567885 -0.29882962 0.27913713 0.030774573 -0.08560682 -0.7336669 0.52545404 -0.510765 -0.12503265 0.10802254 -0.019734254 -0.34088385 0.117398284 0.23749164 -0.21741965 -0.15262912 -0.6506398 -0.07389038 0.5009447 -0.17587326 -0.21467417 0.117157295 0.13324736 -0.06375964 -0.38699478 -0.42343956 -0.11189832 0.5156661 -0.25321907 -0.30340317 -0.33153987 -0.46086678 -0.04085314 -0.46315593 -0.509656 -0.09326604 0.037170876 -0.51022184 -0.009997431 0.34201965 -0.06799242 -0.12626715 -0.072299786 -0.31414148 0.10120003 0.53489673 0.017202344 0.0828015 -0.21614574 0.18801177 0.51745474 -0.42017913 -0.14392787 -0.040352494 -0.015411951 -0.18542917 0.14222711 -0.02554239 -0.32235602 -0.02408002 -0.13558786 0.45453236 -0.11679059 -0.18115778 0.18780369 -0.012805075 0.014116315 0.4120662 -0.058159046 -0.49621636 0.2907786 0.09274765 0.4706047 0.075412266 0.30650344 0.024119759 -0.061424065 0.36550906 0.39938882 0.31956056 -0.09143172 -0.3027183 0.47831494 0.24052818 0.28393435 0.2706866 -0.4581913 -0.48106605 -0.41128108 0.15330608 -0.40710852 -0.15893249 0.3003749 -0.00054694666 0.06618171 -0.21916646 -0.6965056 -0.17002122 0.064798124 -0.27215266 0.25387025 0.37396714 0.0033204698 -0.09949178 -0.21124488 -0.2762396 0.3542544 0.08074869 -0.09241002 -0.8441012 0.2377937 0.11289484 0.08109733 -0.31903136 -0.597407 0.20606469 0.12702203 0.16108766 -0.30544898 0.19877397 -0.30791372 -0.24662097 -0.20849013 -0.34793985 -0.5516129 -0.37746173 -0.067034766 0.115538135 -0.26777047 0.21792975 -0.34185627
('를','Josa') 0.34849966 -0.2981977 0.0030758479 -0.11085744 0.015662437 -0.33513436 0.41209117 -0.3436396 0.34978116 0.4912004 0.34860787 0.10510237 -0.05173492 0.097514726 -0.45152733 0.23085739 0.26876655 -0.28041285 0.11045259 -0.16659169 -0.36391708 -0.026340114 0.348913 -0.21247888 0.14352456 -0.23125021 -0.2489008 -0.05099822 0.29523647 -0.3339708 0.73745036 -0.29484355 -0.12079987 -0.3004075 -0.17582792 0.3520987 0.0592828 -0.43584076 -0.56963116 -0.02982946 -0.095450394 -0.40565777 0.40944618 -0.5018004 0.30445808 0.17450081 0.14994095 -0.14538845 -0.35352647 -0.069710374 -0.50594634 0.009451624 -0.0034615411 0.1019376 0.044107214 0.22162394 0.12368709 -0.26656598 0.043925513 0.4139467 -0.28371722 0.25127637 -0.41172203 0.36113316 -0.43274227 0.06924008 0.27407625 0.16348805 -0.35406426 -0.022981694 0.18189715 0.16915128 0.01452509 0.039085064 -0.30840558 0.17452677 -0.17256722 0.09042749 -0.33764774 0.07548955 0.11979604 -0.49503052 0.25559837 -0.35160834 -0.07011218 -0.5350328 -0.54081666 0.3390352 -0.3986976 0.16938652 -0.54003435 -0.023921628 -0.32919738 0.48154655 0.16196047 0.07112466 -0.18114144 -0.14517003 -0.1659436 -0.011758113 -0.21478093 0.5022283 0.383339 -0.24495652 0.3487542 0.27660826 -0.422632 0.08219047 0.34830448 0.062290736 -0.26837346 0.077377476 -0.14128746 -0.29036167 0.04247307 -0.18906945 0.16732466 -0.061422657 0.13734947 -0.10115291 0.35532016 -0.12565073 -0.21970424 0.25290444 0.50038147 0.39096412 0.4397408 0.38688618 0.1341017 0.35458684 0.14015599 -0.2653311 0.24951449 0.038283985 0.13421635 -0.28557846 -0.058776844 -0.28011024 -0.27463466 0.07139353 -0.37191728 -0.2499892 -0.072733216 -0.16204332 -0.6115886 -0.40356362 0.10042727 -0.23009324 0.37859774 -0.5485657
('은','Josa') -0.23818114 0.14206845 0.26635742 -0.35164812 -0.74834037 -0.42370033 0.035979148 -0.1346587 -0.009966805 0.23023467 -0.611567 -0.34582543 0.26555094 0.5413672 0.0567779 -0.009507887 0.2567047 -0.028037695 0.6121599 -0.254073 -0.037537575 0.5045271 -0.15733115 -0.57885003 0.0318553 0.18534239 0.08108785 0.24925698 -0.3473961 -0.22052447 -0.0042259125 0.015163632 -0.123237155 0.20351644 0.25158164 0.6615853 0.13036057 0.5677838 0.48833412 -0.35727844 -0.23041867 -0.2537177 0.17526373 -0.45809394 0.035002843 -0.072345816 -0.43098497 -0.19581568 0.48306808 -0.52182686 -0.15531583 0.46981958 0.09099981 -0.1407864 -0.004802208 0.13474898 0.1678017 -0.27773872 -0.25154233 0.57578444 0.6191585 0.034238894 -0.5815156 0.42530236 0.18796736 0.33620656 0.102963686 -0.28093123 0.043638173 -0.24479933 0.41756874 0.2057978 0.060130626 -0.035296958 -0.09095881 -0.19669354 0.1444157 0.06148419 -0.22207499 0.46032062 -0.10420509 -0.22592857 -0.33190444 0.44615847 -0.064693324 0.037469663 0.26012123 0.03352406 -0.59530663 -0.04940957 -0.32798162 0.17972209 0.06573578 0.20739284 -0.004588739 -0.20839377 0.54336834 0.13718262 0.1039839 0.13247016 -0.42812258 0.05006051 0.2963949 0.27292708 0.6308252 -0.05024601 -0.27354708 0.15988912 -0.011167459 0.47117585 -0.01577041 0.4958458 0.6082472 -0.6014945 0.15654416 0.117410205 -0.14216276 0.32138386 0.015261981 0.12242625 -0.104191765 0.022283047 -0.27417928 0.079748705 0.122776024 0.36320338 -0.35269952 0.45954812 0.19148242 -0.30010763 -0.31792077 0.43347722 0.31782186 -0.17395593 -0.12726119 0.4731193 0.021518432 0.75839347 0.40348133 0.10846131 -0.13602558 -0.43095347 0.3657433 -0.9254364 0.13119616 0.35195738 -0.8280794 -0.34653273 -0.030570585 0.047143824
('는','Josa') -0.35357752 0.4375644 -0.03367946 0.25699785 0.49270302 -0.19814615 0.36407912 -0.056851957 0.24505468 -0.19555092 0.40001166 0.34791857 0.5430475 0.72774106 -0.21723154 0.09094655 0.3235902 -0.3919653 -0.29575747 0.28779992 0.40172204 0.24294612 0.36479703 0.49348015 0.07584646 -0.023170821 -0.016513102 -0.28226706 0.17201397 -0.012150985 -0.062391836 0.0323739 -0.09516075 0.28540456 0.18141884 -0.23973 -0.33504352 0.23538618 0.100941785 -0.54098666 -0.118526064 -0.046423163 -0.25715086 0.24848504 0.38553306 -0.4643388 0.09022603 0.29582015 -0.13195077 0.22661704 0.11374655 0.10696543 -0.19550599 0.44753185 -0.23616041 0.35878468 -0.5724386 -0.08494562 0.09933224 0.33276543 -0.42583835 -0.43353054 0.4820823 0.1852944 -0.19438528 -0.5585886 -0.0009137537 -0.38870817 -0.19074008 -0.0009761703 0.1871352 -0.2759375 -0.18359056 -0.27465352 -0.18280046 0.3770248 0.21295206 -0.3157344 0.53607064 -0.28247425 -0.12048809 -0.27743232 0.020156644 -0.53476346 -0.4534217 -0.37025416 0.05864741 -0.19084719 0.39367208 -0.048121005 -0.09703425 0.10575432 0.31345066 0.053110454 -0.068647616 -0.3439843 -0.061105724 -0.06734023 0.33746147 -0.12739389 0.0056991316 0.21167831 0.45394522 -0.06548293 0.16198494 0.49320593 0.2776086 -0.11024206 -0.15443337 0.17814739 0.052951545 -0.13535339 0.1143286 -0.25515574 -0.31176713 0.04865399 0.12783921 0.06399334 0.14394985 -0.45788687 0.25823492 -0.043685045 0.028831141 0.2204317 -0.08087245 0.34644854 -0.21260515 0.007201729 0.13008331 0.16791645 -0.057387542 -0.17148298 0.3840995 -0.12058861 -0.28778145 0.07363178 -0.13735877 0.08164824 0.278864 -0.360179 -0.22442874 0.14226057 0.3422507 0.2466055 0.26894784 -0.024645038 0.12465704 0.23679 -0.11258737 0.0655499
('수업','Noun') 0.25662652 -0.30307737 -0.20707694 -0.10909383 -0.07626218 0.46936297 -0.4147135 0.5953142 0.2569678 -0.041509077 -0.111042224 -0.21184693 0.2575134 -0.47238913 0.14941454 0.66545486 0.28153205 0.439415 -0.18436399 0.2626764 -0.30449152 -0.16172579 -0.11119341 0.12930845 -0.20925109 0.071818836 0.6218251 0.14009841 0.43296063 -0.12558772 0.13508685 0.17696895 -0.43337163 0.13559476 -0.7512094 0.1086849 0.22767909 -0.6517891 0.045523282 -0.16832952 0.24355239 -0.3293973 -0.14070114 0.024025874 0.4535429 -0.4200923 -0.0309999 -0.12332217 0.11724775 0.26638418 0.15179962 0.42091364 0.34105512 -0.16198821 0.4474895 0.29401562 0.45823723 0.6165198 -0.07342035 0.014057453 -0.443538 -0.62000424 0.12562367 -0.15103081 -0.60018045 -0.12130669 0.5493449 0.11683749 -0.13683683 0.4738892 0.020436442 -0.101204455 -0.105801806 -0.4026192 0.38958457 0.20665272 0.5974587 0.2607606 0.20952195 0.25417128 0.030111788 0.2910821 -0.30154455 -0.09782072 -0.4806492 0.43144408 -0.71233386 0.45309055 0.29327276 -0.064920746 -0.30053747 0.5625625 0.062250912 0.19427852 0.38845205 0.24142721 0.04707222 -0.26719797 0.055471867 -0.17519812 0.21502805 -0.47990793 -0.17857626 0.48922423 0.2716239 -0.25870615 0.24922356 0.41785693 0.11531365 0.23386958 -0.22480825 -0.3671722 -0.07855931 0.6696792 0.49957106 -0.4139757 -0.30791572 0.22797634 -0.44537318 0.1069973 -0.23320307 0.3034082 -0.3673123 -0.20930761 0.4663968 0.4895539 -0.3679364 0.18303727 -0.27430427 -0.27853933 -0.20578755 -0.65717834 0.19985618 -0.25075865 -0.31761333 0.4067551 -0.5841309 -0.4355589 0.38173172 0.047096398 -0.09995462 -0.3810757 0.29584613 0.16121554 -0.021471417 0.15437953 0.21767403 -0.014988669 -0.03729779 0.22117248
('님','Suffix') 0.3414679 0.5672082 -0.26825818 -0.007939137 0.28193778 -0.20856193 0.13843466 0.020678379 0.48770413 0.18110988 0.2594202 -0.49368176 -0.206743 -0.26544404 -1.0301192 -0.21761471 -0.24393962 -0.38056982 -0.5613207 0.39317244 0.4127016 0.7074728 -0.46202707 0.10636429 -0.61913204 -0.58474845 -0.31226867 0.20972571 -0.6761627 -0.2736291 -0.67981243 -0.25988555 0.04565604 -0.16037133 -0.04987027 -0.36819395 -0.06918554 -0.6335953 0.10664493 -0.53014505 0.11791972 -0.008725382 0.38373163 -0.011827048 0.41640928 -0.08677953 0.21827513 -0.5732425 -0.42965057 -0.4020545 -0.65440303 -0.57129294 -0.54349667 -0.19793513 -0.009824351 -0.7072531 0.43514395 -0.6985561 0.6872107 0.14289044 -0.12089777 -0.26987043 0.035297405 0.24626176 -0.9550138 0.41496667 0.46907854 0.22785282 -0.11769961 0.48130384 -0.2760075 0.86771727 -0.73771393 -0.67396563 0.26182756 -0.2687074 0.37977746 -0.4656271 0.2427069 -0.013764664 0.27548212 -0.5125339 -0.6161669 -0.11397211 -0.44647583 -0.4207961 0.36377704 -0.23420209 0.3392075 0.18340333 -0.27226943 0.15255578 0.27556324 -0.6101003 0.36377296 -0.2320082 0.05777473 -0.34111556 0.03625056 -0.10927644 0.122601226 0.38717905 -0.46005115 0.030161014 -0.59145266 0.49221775 -0.05612183 0.4474491 0.67367345 -0.78624344 -0.093714826 -0.34028155 0.483292 0.29913476 -0.15429787 0.14027806 0.618531 -0.6466379 -0.37525052 0.14501588 -0.17618163 -0.052731864 -0.28763792 0.088496104 -0.44608393 0.24683042 -0.23937954 -0.03580671 0.037687644 -0.05327717 0.3603544 0.31892875 0.02882983 0.09162579 -0.29853418 0.9071294 0.09239683 -0.43970117 -0.20389882 -0.20403528 -0.4358333 -0.050020937 -0.1684012 0.1309262 -0.36722532 -0.8950199 -0.5014098 1.0092257 -0.06816677 -0.5083066
('의','Josa') 0.31315297 0.5328764 0.20300497 -0.66746473 0.11458091 0.5809354 -0.25947708 -0.008657187 -0.63075775 -0.23799019 0.36720222 0.67526793 0.5629117 0.33247247 -0.0033048606 -0.4085295 0.5242728 0.5005715 0.0063598924 0.40926647 -0.016095348 0.7754465 -0.38409132 0.37212047 0.22748646 0.39332652 -0.57167596 -0.37350178 0.43836734 0.6888838 0.024494858 0.13239606 -0.12307876 -0.28105524 -0.10102168 -0.73347723 0.5775221 -0.39891538 0.6620024 0.37083936 -0.1040525 -0.077898376 -0.6587881 0.08572683 -0.50635374 -0.65343344 0.05139188 0.15918735 0.40481973 0.46557817 -0.36852401 -0.07708289 0.56776303 0.43240497 -0.0589695 -0.22653097 0.20079291 -0.16525273 0.07795478 -0.6331721 0.042572524 0.8917365 0.058306344 0.010679851 -0.06375628 -0.4575188 -0.29975826 -0.1956633 0.035689026 -0.41671526 -0.0023599141 -0.6486557 0.32297525 0.38789558 0.17243062 0.32033667 -0.11905389 -0.3156977 -0.37162963 -0.04493851 -0.026786983 0.28228322 -0.3957033 0.5396038 0.34628823 -0.7057456 -0.28948826 -0.53717333 0.4238657 -0.14856026 0.64439076 -0.32978454 0.17594306 -0.21128644 0.25925863 -0.021060955 0.1273067 0.18880422 0.27544314 0.34547302 0.06899169 0.028505238 -0.5422896 -0.440319 -0.019993784 0.087504074 -0.58269477 -0.7840741 0.0840398 -0.5834211 0.28734407 0.28138992 0.6658687 -0.28056806 0.26622579 0.021569185 0.13305806 -0.72080714 0.5739104 0.21516684 0.05764909 -0.21526957 -0.77612543 -0.7045332 0.21457504 0.114521146 -0.12284627 -0.6671249 -0.5373198 0.3362091 -0.50700927 0.25344664 -0.7142251 -0.5095887 -0.4414936 0.20757847 -0.46014208 0.052614577 -0.10173602 0.016168805 -0.3103432 -0.11700425 0.28342643 0.4419118 0.6149275 0.37357795 -0.41209567 -0.69603646 0.42368528 -0.5762067
('들','Suffix') 0.5531854 0.6147356 -0.10552982 0.32234403 0.65944535 -0.59444505 0.41955394 0.21362333 -0.8343893 -0.70981246 -0.6749997 0.00271906 -0.14736506 0.37640247 -0.5184514 0.16371392 -0.64465094 -0.44823316 0.04250341 0.01812434 -0.3575626 0.103117846 -0.19991237 -0.5553153 0.7165958 -0.6711515 0.28211772 -0.5811305 0.08580872 0.3638116 -0.2984342 -0.57994384 0.43924242 -0.4688765 0.1732596 -0.4834392 -0.5444608 0.439478 0.23472026 -0.5966511 -0.15689804 -0.53947234 0.46383902 -0.14175275 -0.90070224 -0.18488382 -0.35345346 0.04721134 0.10046549 0.4198363 0.70162916 -0.20428197 -0.73551464 -0.2955749 -0.7439846 -0.34220624 -0.040800456 0.6361804 -0.6338987 -0.062197402 -0.037022177 0.1488939 0.25787896 -0.79688835 -0.5225879 0.37455985 -0.37488624 0.9474807 0.13291751 0.039018337 0.52032155 -0.8476319 -0.39054948 -0.14645752 0.17935391 0.03993976 0.025642172 -0.29609063 -0.57781935 -0.85598 -0.14266893 0.22739607 0.39799154 0.2809003 0.70557404 0.18062365 -0.1942335 0.7764433 -0.6239873 0.22521982 0.10112015 0.24120899 0.16883951 0.46861196 0.50658745 0.13033997 -0.5030815 -0.3447477 -0.14146012 0.3336805 -0.6103259 0.47943372 -0.089151196 0.67150176 -0.74660015 0.591368 0.16163827 0.6599633 0.7132861 0.52002215 0.03245064 0.07301377 -0.34618825 0.71285284 -0.21103294 -0.03861933 0.19550206 0.6585933 0.7825157 -0.035058655 -0.070465505 0.25608152 -0.36142766 0.33084 -0.26298147 0.26460966 -0.3076399 0.24901855 -0.48819226 -0.47087815 -0.32347995 -0.21233618 -0.4576557 0.36019558 -0.41657302 -0.096549734 0.6523952 -0.25128138 0.71581686 0.53533906 -0.42195934 -0.1173826 -0.6605995 0.7240027 0.13179691 0.08064221 0.31894556 0.32398337 -0.344459 -0.34930247
('로','Josa') 0.41797456 0.5222839 -0.17388508 0.20718914 0.66268563 0.11519303 0.71160954 -0.3306728 0.1543073 -0.6866647 0.4038969 0.019755784 0.7312056 0.3723045 0.3301861 0.7194977 0.33078057 0.29610416 0.354316 -0.39255407 -0.27584776 -0.010351276 0.055060845 0.11957486 -0.42548835 -0.5773825 0.3790847 -0.09509355 0.79967153 0.2924851 -0.065318465 -0.28942943 0.014867776 0.63141936 0.49287897 -0.65527433 -0.3293433 -0.8183911 -0.7444319 0.10347928 -0.15181632 0.5616668 -0.13479115 -0.5072987 0.18152502 -0.5693832 -0.29258627 -0.40109542 0.4207678 0.66578203 -0.15678008 -0.12470344 0.7273413 -0.24454655 0.26750165 -0.42508623 0.2560109 0.85456395 -0.07136055 -0.31399024 -0.18229342 -0.15091157 0.16267549 -0.2488504 0.6219376 -0.08324897 -0.5013475 0.17820854 0.14462537 -0.43480533 -0.20486288 0.20097655 -0.022894444 0.23447716 0.44866106 0.2002423 0.6344766 -0.5813673 0.123368196 0.28898624 -0.49812585 -0.13388509 -0.72028846 0.14361893 -0.37977427 0.71954817 -0.008348895 -0.0799574 0.26556802 -0.29059952 0.3804041 0.92051375 0.18483973 -0.7618128 0.18139529 -0.446306 -0.17132899 -0.18050656 0.36008292 -0.57826024 -0.42129582 -0.051683974 -0.3374415 0.39633346 -0.69841367 -0.57859015 0.025815737 0.36850592 -0.24897495 0.5898848 0.5104728 -0.105704084 0.19605601 -0.49496627 0.5477911 0.3890471 0.039600294 0.04935885 -0.055221263 0.081438884 0.86305845 -0.7092582 -0.6162983 0.2780871 0.3797098 0.5049579 -0.55412567 0.2307011 0.16656643 0.18073061 -0.041844495 0.720931 -0.82894087 0.8167301 0.44197804 0.11131176 -0.40059644 0.5356239 0.41487744 0.45501563 0.0767166 0.3123167 -0.29060215 -0.20714223 -0.707755 -0.10210614 0.5468825 0.1894385 -0.25087604 -0.29810348
('것','Noun') 0.02080461 0.46953562 0.35217693 -0.66399497 0.5085804 0.115925394 -0.40122506 -0.13747236 -0.17822146 -0.5480227 0.8022989 0.015337247 0.39038908 -0.020787854 -0.35084423 0.34527504 0.4344642 -0.34673765 0.56972307 -0.41085234 0.45731074 -0.61329895 -0.74750835 -0.546933 -0.410544 0.4677383 0.61768 0.54368925 -0.08055281 -0.4099367 0.033209458 0.139758 -0.689801 0.44816986 -0.44694585 0.38708195 -0.5032344 -0.4064427 -0.15634501 -0.1048599 -0.08423492 -0.21474452 -0.1014424 0.4186124 0.55176055 -0.3750169 0.122707136 -0.2688009 -0.35245207 0.34010315 0.20032115 0.23136227 -0.27722356 -0.04275663 0.05176996 0.0364067 0.49645004 -0.39660028 0.36184946 -0.506391 -0.48289332 -0.20276143 0.36663085 0.06734474 -0.33487234 -0.6980855 -0.40464416 -0.5207913 0.21100931 -0.12032203 0.34776258 -0.2999137 0.40120277 -0.42711505 -0.37112838 0.22376736 0.37227204 -0.33775988 0.42498028 -0.122355126 -0.46470115 -0.51703304 0.07486946 0.14136165 0.23944122 0.032138493 0.01062651 -0.04545714 -0.13437381 -0.17553273 -0.4460502 0.009080408 -0.20381546 0.2350727 0.83658916 -0.115086354 0.48529312 -0.5111034 0.13157567 -0.22155418 -0.6207545 -0.4969283 0.28881815 -0.37484124 0.046280354 -0.53838766 0.17210644 -0.30124977 0.27156436 -0.46492824 0.024783002 -0.047615964 -0.3961323 -0.18543616 -0.3437968 -0.022761483 0.20627435 -0.84941286 -0.07116249 0.2753962 -0.7000733 0.64348954 -0.8874666 -0.60723746 0.03398731 -0.2823205 -0.3164583 0.3503705 0.13226038 -0.15634583 -0.38587922 -0.34951624 -0.31148773 0.22800222 0.68720233 0.49175847 0.48527828 -0.6045418 -0.22604592 -0.32695463 0.638485 0.08346384 1.0070255 0.27697903 0.43942818 0.3973851 0.38477498 -0.07588192 0.22982083 -0.34670207
('강의','Noun') -0.024875736 -0.48896784 0.76042515 0.14675581 -0.5389232 0.8008733 0.32949492 -0.20189731 0.40697235 0.20816073 0.0956 -0.22003044 0.50760716 -0.26505965 -0.61581486 0.5903847 0.030116765 -0.30940446 -0.33298376 0.49932152 0.34081262 -0.7437932 -0.7256788 -0.15643477 0.32459056 0.2646508 0.38530716 -0.29234165 -0.20521492 -0.1724595 -0.0018939148 0.53856003 0.26639965 -0.059737794 -0.28816697 -0.5268526 -0.5767637 0.061736457 0.04542724 0.48931062 -0.45259875 -0.28814575 0.68334454 0.5537343 0.39454758 -0.6723948 -0.3209488 0.25193328 0.0005124316 -0.6247524 0.33009717 -0.0707824 0.90901226 -0.70439744 0.50514567 -0.15424865 0.82457995 0.5717702 0.6816742 0.46408758 0.4177945 -0.951749 0.44423285 -0.4982892 -0.48477972 -0.7231215 -0.11015797 0.15062802 0.31963846 0.23318112 -0.5698668 0.36906463 0.38909408 -0.12237537 -0.2994891 0.29314712 -0.23766388 0.72813714 0.40619233 0.511337 0.5639176 0.67118096 -0.5129108 0.1448273 -0.17147218 0.5362069 -0.26042506 -0.31352723 -0.054297574 -0.22157264 0.28131565 0.5182344 -0.21586609 -0.28373197 -0.21454802 0.65110666 0.35898313 -0.48979545 -0.22364433 0.46720648 0.27099362 0.49076378 -0.35281467 -0.35332912 0.5966065 0.22010943 -0.5692239 0.5114179 0.13539656 -0.87770844 -0.77781135 0.085526 -0.72913784 0.5366962 0.5967758 0.62905747 0.7051073 -0.081927404 -0.67884177 -0.13785943 -0.7058998 0.5937203 0.4982186 -0.30977598 -0.25160602 0.43589568 0.17380781 0.73369074 -0.4816596 -0.09725322 -0.6842475 -0.0019017765 -0.363501 -0.4739983 -0.25212398 -0.026134916 -0.548374 -0.972802 0.15648682 0.021948176 0.57710516 -0.28825787 0.7148887 -0.1420132 -0.34999123 1.1455914 -0.41843054 0.015210232 0.87898374 0.1184973
('으로','Josa') 0.6889445 -0.46432632 0.3079752 -0.014351072 0.41221216 0.5361338 -0.77818054 0.12965089 0.45770016 0.12306743 -0.044929013 -0.5617355 0.920416 0.464977 -0.43705118 0.7421313 1.0246034 -0.27591676 0.46417835 0.39234754 -0.58578724 0.564217 0.15100025 -0.5854002 -0.31278312 -0.48481598 0.19420405 -0.5593264 0.2166308 0.4229 -0.29088268 0.114544794 -0.13497584 -0.3822728 -0.3817554 -0.16827762 -0.5216706 -0.99606824 0.1959495 -0.50232595 -0.0411413 -0.1867217 0.6314439 -0.3656317 0.5213143 0.315118 -0.28398755 0.25620803 -0.7324467 -0.7482493 0.16300513 -0.5361814 0.8286294 -0.43229672 -0.06256886 0.2553155 0.66906184 0.23746729 -0.15208277 0.1480828 -0.72714126 -1.0650218 0.74464524 0.14537828 -0.5487431 -0.12479406 -0.39235145 -0.4553274 0.8300916 -0.18277004 -0.65174156 -0.15390857 -0.79111665 0.11649418 -0.13068658 -0.23992404 0.7570281 0.032463375 -0.3415244 0.24703956 0.508289 0.19869749 0.67836654 -0.056905244 -0.7714684 0.29636815 0.37947926 -0.27011508 0.16024064 -0.81420165 -0.70845354 0.71393573 -0.060271204 0.12641683 -0.3420319 0.33070827 -0.0068232603 0.096927874 -0.35806346 0.081806615 0.56213486 0.57476336 -0.58781314 0.13966003 -0.03122922 -0.022147218 -0.48833036 0.31291255 -0.25913638 0.49103346 0.1866093 -0.12332276 0.56238157 0.32813716 0.00880513 0.10800382 -0.037937455 0.6088448 -0.40188465 0.51774657 0.0130107 -0.3992831 0.07079449 -0.27766514 -0.15334429 -0.25317267 -0.73777485 -0.22478606 0.08794349 -0.34170452 -0.2556893 -0.0027147203 -0.4742456 -0.17235586 0.5949484 0.78550804 0.68263656 0.37275594 -0.33279866 0.41876253 -0.22452675 -0.7197301 0.01892649 -0.21936591 -0.45785952 0.78491414 0.37725228 0.57603395 -0.09423128 0.04367548
('문제','Noun') -0.30791032 0.6628547 0.1783182 -0.5724966 0.7996607 0.24384163 0.5083773 0.4259845 -0.79400903 -0.88889813 -0.023213007 0.5888966 0.76867354 -0.76898587 -0.18832795 0.5158663 0.6540548 0.15469222 -0.4573541 -0.26691547 -0.28470582 0.051465817 0.27371535 0.7950147 0.48018435 0.8999238 0.6799071 0.7997674 0.33382443 -0.16655779 0.46087402 0.7283456 -1.1196358 -0.07522825 -0.17102595 0.6400156 0.2191391 -0.702887 -0.015098663 0.5163044 -0.32273835 -0.20874456 0.58138704 0.6496986 -0.38219333 -0.38814825 -0.3485053 -0.7496208 -0.07285916 -0.39456147 -0.36927748 -0.30500537 0.46768087 0.02876998 0.10264082 -0.52653354 0.069569156 0.7165442 -0.24627107 -0.22699462 -0.11192974 -0.9994665 -0.3996854 0.60931534 -0.15735106 0.13092764 0.17252143 -0.5267649 0.2326726 -0.2171776 -0.87013704 0.2587658 -0.07108452 -0.70226955 0.3954623 -0.59898794 0.26776946 0.31746298 -0.0847914 0.593518 -0.039205227 -0.7130264 0.4281261 0.27583143 0.17033832 -0.05245243 0.11135275 -0.057238616 0.090750635 0.03949005 -0.1894156 -0.18445452 -0.5452893 0.3129282 0.2426122 -0.42171878 -0.49367675 -0.2449981 0.15467842 0.48710805 -0.8558945 0.2145423 0.00016507343 -0.114821576 -0.4665156 -0.68672335 0.5827239 -0.106236614 0.50971574 -0.17623809 -0.036024652 0.46110985 -0.62395847 1.1653097 -0.33265325 0.47852245 0.2195448 0.17213821 0.110704176 0.5710509 -0.7064325 0.14616825 0.17197198 -0.2999994 0.2065603 -0.27544543 0.22778633 -0.19763684 -0.14403981 -0.54752743 0.8428323 0.07874533 0.5321389 -0.5176407 -0.17138202 0.55564314 -0.3538187 -0.16543676 -0.12578359 0.15558432 0.68799365 0.5372671 -0.5044491 -0.011832355 -0.40440187 -0.024232356 -0.448331 0.55573124 -0.21056536 0.20355617
('학생','Noun') -0.087406665 -0.8870767 0.69816965 0.27017274 -0.50301003 0.3290955 -0.23292992 0.70685875 0.071490094 0.18154977 -0.13604604 0.67381 -0.074152455 -0.41773453 0.23256148 -0.40140137 -0.30215988 0.23210692 0.18828788 0.28851545 -0.6444695 0.20517117 0.42609847 -0.4811164 0.7134831 0.59528726 0.17581728 0.1895811 0.13184696 0.7458689 0.43210897 0.25870252 -0.35433692 0.6224456 -0.0057692826 0.53454715 0.65023035 -0.5439514 0.41911775 -0.226575 0.71838313 0.2988264 0.5134738 0.3166513 0.59236443 0.27400768 -0.7687436 -0.06862353 0.586937 -0.5832471 0.54268396 0.25240612 0.7885356 -0.11528333 0.69255066 -0.25541657 0.4105084 -0.4169968 0.12722874 -0.44215697 -0.48233175 -0.7101093 0.56217617 0.534257 -0.20886876 0.6823366 0.31949815 -0.46083835 0.24019082 -0.16521458 0.20361958 0.48507664 -0.0057868552 -0.83428055 -0.46059814 -0.47104686 -0.26885626 0.45551154 -0.011745801 0.936213 0.26636133 0.19867226 -0.28107718 0.5634413 -0.5801435 -0.080793075 0.5420876 -0.22006361 0.46691856 0.12748007 -0.35186344 0.2090658 0.15363236 -0.5422644 0.12561008 0.0318948 -0.096991435 -0.39821905 0.89295924 -0.54856884 -0.5091433 0.14829792 -0.55897194 -0.4921512 0.6522936 -1.0836408 -0.5277273 -0.38706717 -0.08593273 -0.6570614 -0.5836178 0.26097524 -0.4344008 -0.28349876 -0.62488896 0.23077866 0.3412389 -0.067098014 0.03880925 -0.7626414 -0.32311755 -0.33983785 -0.16106428 0.07285114 0.22236457 -0.5057649 -0.4218414 -0.5154632 -0.75337917 -0.7238497 0.81762606 0.5223484 0.7053148 -0.64258915 0.5227705 0.35252172 0.1446821 -0.5671843 0.013665151 0.21579057 -0.10200385 -0.8773737 0.832442 0.8398497 0.15731528 0.33911163 0.30020562 0.63280714 -0.29939598 -0.3256022
('교수','Noun') 0.45757908 -0.7481003 0.4785538 0.01781321 0.012779567 0.29298165 0.34245124 0.08483227 0.09728392 -0.24775633 0.14511864 0.89904755 0.36010173 -0.5523089 0.66588897 0.6232892 0.08195346 0.19415815 0.3409758 -0.14917481 -0.46935433 -0.7844379 0.23451188 -0.43165192 0.5354645 0.7148214 0.59322846 -0.7285734 0.70136446 -0.55143076 0.6486299 0.030340755 -0.2959231 0.11648646 -0.06435969 0.44819972 0.05394111 -0.48139504 -0.15949532 0.16794047 -0.010585658 0.38240814 0.052266352 0.5022086 -0.11014889 -0.40539533 -0.029356351 -0.11309102 0.53429866 -0.4699456 0.8162554 0.13502319 1.0468874 0.49649253 -0.1132609 0.39376155 -0.09974493 0.32400382 -0.054032367 -0.59862226 -0.1870556 -0.61417156 -0.47970742 -0.6514591 0.44226098 -0.8833018 -0.46699145 -0.5182147 -0.30892804 -0.44647074 -0.54153687 -0.80597264 0.87489194 -0.19159025 -0.124822214 0.078383945 0.4412974 0.5496493 -0.065698564 -0.32133225 -0.331623 0.8014905 0.31655005 -0.18200177 0.51916987 0.7707859 -0.52385205 0.33583593 0.32588258 -0.7108689 -0.50678676 0.3321178 -0.16916804 0.3405543 0.565252 0.83392817 0.058942482 0.24864043 0.022811238 -0.018843668 0.12846628 -0.9913136 -0.4051151 0.015735105 0.4799136 -0.37157926 -0.055699207 -0.2726098 -0.38614798 0.41702804 -0.47723028 0.03416721 -0.6967305 0.22714964 0.3487618 0.13613349 -0.6614112 0.328436 0.20164737 0.37420246 0.43443888 0.031293757 -0.02493962 -0.77022135 0.92552316 -0.10052906 -0.34652925 -0.30210376 -0.14506194 0.22522463 -0.009425824 -0.5114958 0.101366505 0.010075932 0.13297229 -0.3856904 0.026632205 0.4499486 0.56000733 0.7096178 0.31664675 -0.26765943 -0.059977286 -0.21109177 -0.20599961 1.1123506 0.18333535 -0.25343087 0.17581116 0.5844634
('과제','Noun') 0.4968026 0.16309187 -0.356261 -0.5369406 -0.31768706 0.36584705 0.23179452 -0.038027856 -0.15224592 -0.45008454 -0.81024206 -0.2293697 0.7108826 -0.43186188 -0.22843322 0.5959967 -0.24538057 0.13289544 0.46346486 0.26850262 -0.17399485 -0.78731877 -0.198325 -0.71806306 0.45323882 0.4563905 0.28485486 -0.023410397 0.40914378 0.08965339 0.565145 0.44920012 0.3115531 -0.1687258 -0.20021169 -0.33565614 -0.17072777 0.083071105 -0.39219886 0.0723436 0.036574658 0.2589175 0.055568296 0.36859086 0.8108002 -0.7970542 -0.38378176 -0.32964507 0.33840844 0.13380387 0.18673879 0.30071592 -0.46631065 -0.46655512 0.7585476 -0.66012245 0.07169348 1.0461545 0.3074408 0.53131866 -0.60367894 -0.5441693 0.4609752 -0.45677695 0.09366 0.45959944 0.4314917 0.2924893 0.02133988 0.051007494 -0.0009338299 -0.00959225 -0.43709555 -0.3160433 -0.035032474 -0.09177872 -0.41079122 0.5661718 0.4519341 0.21691892 -0.6445463 -0.46829766 -0.18261957 0.35876045 -0.01693877 0.4644677 -0.6671399 -0.23592341 0.4821964 -0.8257952 0.2734419 -0.34423468 0.514751 0.6946946 0.20991747 0.29342607 0.42872378 -0.13956967 0.43419698 0.15756567 -0.4464606 0.0040213917 -0.43966484 -0.41536134 0.553532 -0.18231751 0.65719944 0.3024843 0.3649837 -0.7907519 -0.7215888 0.101880245 -0.39051065 0.17439173 -0.27604753 0.4253016 0.033078354 -0.4051388 -0.097903065 0.58493334 -0.12789686 -0.120466 0.14116508 -0.007121471 -0.24847916 -0.55192435 0.421823 0.46188885 0.18844749 -0.32019523 0.65490305 -0.49826813 0.2574005 0.5350115 -0.3175502 -0.32885906 0.4908033 -0.18314038 0.7096781 0.566668 0.060000837 -0.7814425 0.09446727 0.64178944 0.1848651 0.17346579 -0.7820275 0.2289064 0.13595505 -0.39560536
('적','Suffix') -0.9597739 -0.8338994 -0.58071226 0.35334888 -0.26574415 0.3422472 0.064814836 -0.4856973 0.6747198 0.030223059 0.5362183 0.12671861 1.0103283 0.10146381 -0.5263601 -0.8119445 -0.46931306 -0.30053303 -0.5108657 -0.38361046 -0.5934363 -0.62738186 -0.11095763 0.05507691 -0.39921546 0.6591573 -0.13135627 0.068649165 -0.23799053 0.029111683 -0.66024435 0.36020285 -0.18850239 0.36996868 -0.65543133 -0.9236532 -0.33684906 0.30515584 0.5334916 0.62729794 -0.670355 0.40786824 -0.673489 -0.12270519 -0.29302835 0.20226496 -0.1980713 -0.19019987 -0.14504157 -0.61641914 -0.41853994 0.51692843 -1.1258376 0.3895161 0.6256761 0.013565945 -0.51804733 0.84695697 -0.077203445 0.8209338 0.043778688 0.31089103 -0.51186526 0.1952764 0.31804323 0.79357445 -0.16313724 0.41987622 -0.24888963 0.02916906 0.47727364 -0.13933438 0.04613573 -0.55293655 -0.60941964 -0.46254215 -0.52722263 0.5781594 0.09040755 -0.86018395 0.5373615 0.7153337 -0.043851547 -0.17175722 -0.64597625 0.391666 0.71560407 -0.1363969 -0.07815673 0.9337604 0.03646985 0.2187873 0.7401325 0.33589604 0.30352762 0.5356741 -0.72958827 0.6283244 0.37368026 -0.4995493 0.49602446 -0.019164661 0.6106687 -0.7931168 0.09519263 -0.70246875 0.8519722 -0.8217343 -0.53637373 0.305935 0.37102553 -0.30128524 -0.31902426 -0.03645095 -0.54532886 0.9374179 -0.85640514 -0.0104940925 -0.108936235 0.4817493 -0.5333614 -0.36790082 0.5239666 -0.037290514 0.0716914 0.96676177 0.24955614 -0.37676796 0.5535577 0.79533476 0.23225531 -0.847784 -0.58766776 -0.75125164 -0.5946419 -0.14240824 0.7428921 -0.023832554 -0.28673705 -0.228129 0.5231447 -0.32981908 -0.3900162 0.9355631 -0.012279705 0.395882 0.74161 -0.019921308 0.48325375 0.49371195
('과목','Noun') -0.41538826 -0.19094478 0.9062825 -0.79986095 0.9917227 0.55140185 0.24413271 0.8293578 0.2631248 -0.62471175 0.5913146 0.20556836 -0.20679931 0.33940274 -1.1298952 -0.16633002 -0.12494486 -0.9243082 -0.37281722 0.93144983 -0.17979243 0.6143359 0.29487205 -0.42030907 0.37158868 -0.34411508 -0.1794756 0.8652477 -0.294511 -0.063829854 -0.4812186 0.48131046 0.58883333 0.094568096 -0.7849606 -0.3749834 -0.6458862 -0.9260652 -0.8405849 0.4106154 0.18819222 -0.008913987 0.55506134 -0.37065592 -0.79959273 0.33587086 -0.64692926 0.40855944 -0.14787413 -0.83436155 -0.55216175 0.17240028 0.6279902 0.5982057 0.7355415 -0.46116403 -0.72078866 0.24628736 -0.77350485 0.1639272 0.32400694 -0.14438471 0.700597 -0.5475583 -0.5228518 0.34503064 0.059825722 0.13000539 -0.4417135 0.8398755 -0.26545757 -0.2565124 0.39344037 -0.13137567 -1.0536007 0.36858132 -0.35326603 -0.19747384 0.6145159 0.11616379 0.015041887 0.73979086 -0.23446216 0.74808735 -0.10791128 0.27156073 0.11843127 -0.030531479 0.22597441 -0.06794298 0.009549575 -0.36384565 -0.76696384 0.24625522 -0.08527379 0.55220956 0.5212832 0.24376684 0.63228893 0.4128883 0.46595824 0.02717033 0.7977413 -0.060294796 -0.7427896 0.6682613 -0.94030166 -0.49133587 0.5135847 -0.7104835 -0.16621032 -0.33931887 0.47769812 0.48342553 0.49964625 0.9606445 -0.47496438 -0.17122926 0.24350545 0.18789934 -0.75725496 -0.39944372 -0.45034018 -0.38078037 -0.120680794 -0.44060117 -0.725775 0.43107298 -0.22042666 -0.7097317 -0.39154166 0.12854902 -0.29309425 -0.19927858 0.80980086 -0.1829982 -0.28801802 -0.46375075 0.45977765 -0.29437247 0.10909345 -0.8854439 0.07036668 0.29415998 0.29026613 0.88086253 -0.4687943 0.29857153 -0.7351594 -0.9470338
('에서','Josa') 0.5857524 -0.09423018 0.70859206 0.7735568 0.08453175 -0.42950872 -0.4971939 0.39278933 -0.7764176 -0.20202711 0.04208608 0.18102875 0.14577669 -0.48149282 -0.07649504 0.019112889 -0.042206522 0.6565853 0.4882145 0.8427144 -0.03527644 0.3255645 0.66792214 -0.26634485 0.5196404 0.16792282 0.7579206 -0.25976264 -0.8049972 -0.6606471 -0.82607657 0.43886185 0.2737723 0.8835042 -0.30503055 -0.4414082 0.48537484 0.75919914 -0.35189283 0.5332478 -0.46023232 -0.1752253 0.65928024 0.64277756 0.8347748 -0.34836325 0.54700667 -0.85514206 0.80052584 0.18474016 -0.3905689 -0.33916038 -0.04091971 0.430144 -0.64126825 -0.8075999 -0.39813167 0.5338639 -0.08903322 -0.39576232 -0.7420537 0.3721601 0.11215547 -0.70359147 0.7613037 -0.6291416 -0.55326116 0.4782849 -1.0977829 -0.648648 0.6098427 0.7500448 -0.46851385 0.7622496 -0.24460939 -0.37690103 0.014491977 0.6090848 -0.11738337 -0.5919525 0.30825862 -0.47419554 0.064280614 0.07487363 -0.62257373 -0.36877996 0.14556172 -0.31179425 0.0032145695 -0.10672682 0.48312765 0.5524638 -0.7053121 0.19172117 -0.16885242 0.029993813 -0.15754174 -0.41069132 -0.0496243 0.9594914 -0.8259506 -0.27194783 -0.5552282 0.63692975 0.90595 0.34109205 -0.25888553 0.0019969423 0.407958 -0.0042030397 -0.028801536 -0.08218568 0.73447156 -0.0035755634 0.7154806 -0.8279509 0.7790815 -0.32378262 0.11836106 0.31195524 0.06526033 0.526851 -0.117600895 -0.7813455 -0.5060816 0.07531682 0.26754534 0.24200825 -0.040122777 -0.3339849 0.74119455 0.79060423 -0.84714943 -0.20132144 0.6977325 0.6749352 -0.4671131 0.29303485 0.3735114 0.2418465 0.38686433 0.55436057 0.831233 0.7584216 0.4441969 -0.052093286 -0.17450608 0.33089495 0.348746 -0.84659255
('하는','Verb') -0.30012724 -0.41743702 0.38419187 -0.6840514 -0.48406494 -0.7866757 0.6028264 0.828763 0.4784537 0.06661947 0.15435852 0.62939143 -0.29316774 0.3857712 0.08660586 0.9615219 -0.20151815 0.061596643 0.3413403 0.18043543 -0.01127136 -0.5324003 0.044985313 -0.07306276 0.7254977 -0.09337529 0.7852611 -0.66635895 1.1840891 -0.27592528 -0.23831402 0.67350984 -0.8479033 -0.25369433 -0.8308112 -0.6840934 -0.18800978 0.26213238 -0.7183554 -0.05182341 0.08287238 0.004879732 0.5211851 -0.6358695 -0.09416236 -0.4000241 -0.8941483 -0.42075455 0.48646834 -0.8941994 0.61992764 -0.43148902 -0.42510015 0.29235575 0.32353622 0.38141426 0.35881883 0.7830909 0.67820126 0.47536126 0.46060356 -0.7795735 0.47740805 -0.49422804 -0.40576732 0.44865826 -0.22459057 0.24485166 -0.60473335 0.37533662 -0.42794672 0.4491324 -0.18177457 -0.7851355 -0.6841011 -0.2947807 -0.19271296 -0.4363699 0.58276016 -0.09513089 0.45175835 0.26846358 -0.5623795 -0.4024804 0.751579 -0.20706153 0.013921734 -0.4456325 0.7870316 0.24475595 0.11898626 -0.17903213 0.4588636 0.40118328 -0.041661065 0.9517428 0.56998444 0.011643062 0.09474768 0.35782236 0.07469461 0.29510307 -0.124024495 -0.23732065 -0.21771336 -0.8229597 0.079739824 -0.028143244 -0.007981227 -0.3946666 0.52072227 -0.477654 0.39511684 0.147602 -0.44245332 -0.27924988 -0.044802506 0.6168986 0.3927479 -0.5322635 0.82407945 -0.3291212 -0.30641463 0.46728078 -0.372176 -0.5176625 0.48707718 0.53340334 -0.044604287 -0.8003683 -0.15528193 -0.57033783 0.0014569124 0.34516546 0.30283377 0.85279244 -0.6409653 -0.16584241 0.34214064 -0.5191051 0.6393365 -0.5822507 0.4352576 -0.39231554 0.65694284 0.329652 -0.22074708 -0.29164255 0.77321327 -0.86401755
('내용','Noun') -0.39262223 -0.7068266 0.6892125 -0.025614822 -0.26501176 -0.12110594 0.60599136 0.62636167 0.46638215 0.074367195 -0.73312867 -0.017320273 0.65964055 0.32353342 0.6384919 0.86898345 0.8028296 0.12002027 0.46782842 0.6648753 0.7155287 -0.4171352 -0.17508093 0.56530416 -0.07461046 1.1820345 -0.104118474 -0.6297845 0.24029984 -0.85128653 0.22760352 -0.040626608 -0.037627466 0.4898351 -0.33455208 0.62955314 -0.98239225 -0.70390844 -0.5415775 0.53638583 -0.53302985 0.068247035 0.3094431 -0.5281498 0.14768815 0.14596017 0.54646903 -0.52752286 0.42195213 0.34922013 0.45367974 0.089552075 0.06692079 0.91097087 0.6760819 0.65075964 0.9839977 -0.29994535 0.22872098 -0.3093642 0.43429494 -0.15015867 0.097085305 -0.0853552 -0.59880084 -0.63478476 -0.19327034 0.6472546 -0.013099759 0.2896632 0.5943593 -0.5092197 -0.062015347 -0.9925568 0.032780066 -0.3325008 0.38744408 0.33637422 -0.17979836 0.19205132 0.5942782 -0.30430654 0.067884415 0.45026404 -0.46801266 -0.30653083 -0.05357843 0.016015526 0.9550305 -0.7101508 0.21375483 -0.401699 -0.6253031 -0.15678652 0.35571176 0.34301984 -0.05141779 0.018672785 -0.6668877 0.117572755 0.07207453 -0.20199747 0.67705804 -0.6112442 0.468246 0.58781457 -0.44169852 0.10451749 -0.4024297 0.5534711 -0.5101424 -0.37410417 -0.35167077 0.4454844 0.2931998 0.516757 0.49893513 -0.20272313 -0.55729437 0.42573515 -0.21458267 -0.48305812 -0.100309186 0.2802177 -0.15749349 -0.13092715 -0.8886438 -0.8509381 -0.30357534 -0.43551543 -0.22792454 0.0019373965 -0.6425516 0.36989537 0.5133974 0.254355 0.28628796 -0.004065417 0.7386063 -0.18947504 -0.38112113 -0.12024046 -0.20787224 0.44797927 -0.23388712 0.6066577 0.09388508 0.19106422 -0.5241329 0.19952898
('생각','Noun') -0.021568302 -0.34056965 0.44017354 -0.44201896 0.91192263 -0.35330313 0.6953541 0.066849716 0.7488587 0.35056278 -0.5515271 -0.5746635 0.43570492 0.734359 -0.13326605 0.90636796 0.47343534 0.43401447 0.44157383 0.868279 0.02435182 0.026229555 -0.24653317 -0.7096359 0.79735434 0.13272078 0.5996239 -0.17371465 0.75455916 0.7441642 0.20882769 0.06497484 0.48162568 0.76838326 -1.0699346 -0.30083412 -0.06756868 -0.16797261 0.62741077 -0.3211924 0.23272315 0.6925217 0.051872116 -0.6474058 0.3683515 -0.34750593 -0.45872325 0.18592228 -0.31343925 -0.8293427 0.37182224 -0.24833415 -0.17183377 0.6807403 -0.32404456 0.17436136 -0.57976896 -0.6050752 0.5068899 0.30912155 0.17675395 -0.16303769 -0.12515873 0.251504 -0.49407268 0.4192756 -0.69602567 0.58850086 0.69306743 -0.3666755 -0.6431103 0.32083535 0.24759503 -0.51443976 0.67754555 -0.20678265 0.7489549 -0.8195859 0.3759517 -0.48012426 0.1951942 -0.2732632 -0.57335997 0.8177455 -0.055365928 0.47409236 -0.096392095 -0.8329257 -0.53756154 -0.51479125 0.7681692 -0.2552199 -0.5235668 0.8173768 0.15780447 -0.5613927 -0.7191342 -0.44172657 -0.41131705 0.23017749 0.7883974 -0.77446467 0.54745156 0.20239842 -0.49777192 -0.019923208 -0.826512 0.07305233 1.0628659 -0.03814445 -0.5323943 0.06309056 0.4016263 0.24095969 0.94526106 0.52263427 0.7696249 -0.017393809 -0.43481192 0.043822777 -0.16691616 0.7287594 -0.87629473 0.41794306 -0.51453394 -0.59891534 0.16161883 -0.5065784 0.8321905 -0.21364596 0.7097043 -0.14559789 0.7907667 -0.6398592 -0.23319721 -0.73513013 -0.6982223 -0.3533247 0.079508916 -0.9428052 0.0009175249 -0.012767091 0.75698644 0.31568125 0.23321232 0.43379807 0.69543564 -0.47702685 0.26244682 -0.19306974
('시험','Noun') -0.8358933 0.55340075 -0.044844393 -0.57323027 -0.70016754 -0.583351 0.657062 -0.10905482 -0.0009882192 -0.9530017 -0.4976351 0.24735402 0.7862646 0.23450208 -0.265014 -0.5532362 0.14874348 -0.4484316 0.054007422 0.4153413 0.2042224 -0.52509755 0.04623445 -0.49192652 -0.39161852 -0.369864 -0.6728141 0.9222146 0.8537398 0.46445304 0.027039194 0.09053785 -0.84994215 -0.34303156 -0.38067234 -0.50183 -0.21762718 -0.8929059 -0.20349158 -0.3522515 -0.21847151 0.15771544 0.7859262 0.54372936 0.52328813 0.07465328 -0.27201402 0.4885295 -0.6119331 0.13785623 -0.18539755 0.06711107 0.020464348 0.5210861 0.5201187 0.57727176 0.5205984 0.38146192 -0.4185072 0.6876664 -0.35437432 -0.5266537 -0.4948574 -0.5871231 0.5681139 -0.24001832 0.5889169 -0.6100135 -0.46081895 0.016846292 -0.31165418 0.13467294 -0.65515226 -0.36822727 -0.54418397 0.59059477 -0.28319964 -0.11003406 0.08262148 -0.29308507 0.19455115 0.46936864 -0.2786422 0.113241404 0.13605031 -0.5525166 0.0020538177 -0.357582 -0.44681638 0.50350994 -0.8190263 0.058304418 -0.589099 0.8848752 0.49257383 0.40084085 0.014479931 0.021499872 -0.7218254 -0.87610155 0.2755528 -0.47391626 0.107307136 -0.5549758 -0.77612054 0.58099645 -0.55325246 0.35629463 -0.48793346 -0.21900591 -0.54387456 0.4180549 0.22489859 0.7052989 -0.71788156 0.9195952 -0.07593985 -0.43617836 0.34976152 -0.24248205 0.61533386 0.720896 0.15950817 -0.8669434 0.08778097 -0.17982566 -0.32134044 -0.5862436 0.077428706 -0.7592015 0.7065761 0.22552353 0.57552505 0.27461904 -0.47769007 0.3003561 -0.1771882 -0.25303495 0.36907554 0.04806922 0.61938626 -0.63617 0.2958752 0.590777 -0.79465353 0.59724325 0.61602145 -0.29871652 -0.26994872 0.62552977
('입니다','Adjective') -0.38066113 0.37447256 0.20458053 -0.18444917 -0.69014096 -0.24891064 0.77738076 -0.07182247 0.87945956 -0.26468727 -0.5528945 -0.2843715 0.29018342 0.45756197 0.2911945 0.8466907 0.3707241 -0.8407304 -0.34115097 0.818712 -0.6713698 -0.76728714 -0.0024995152 -0.33327317 0.011156347 -0.12393798 0.30411315 0.29006603 0.83589196 0.36867508 0.5329182 -0.5481595 -0.2962834 0.6155621 -0.8880684 -0.4624832 0.9167033 0.8851808 -0.9434455 -0.6977081 0.22274022 -0.04383264 -0.97051567 -0.33346546 -0.11902773 0.021343522 0.43457744 0.51093245 0.042008642 -0.9998102 0.18817356 0.07568107 0.40166637 0.6973637 0.36864382 -0.08402007 -0.56674916 0.31433418 0.092974834 0.39001924 -0.13520475 -0.58410966 -0.1061054 0.13397951 -0.3235304 0.09590545 -0.729715 -0.32265195 -0.008140484 0.0059656748 -0.07760984 0.024001177 0.76661575 0.33696595 -0.31945193 -0.4094699 0.8967565 -0.1771666 0.6143073 0.75010926 0.19246079 0.7817936 -0.6336026 0.039537836 -0.1258648 0.7238118 0.35285658 -0.4319103 -0.40722564 0.2533542 0.1852652 -0.04440856 -0.83562547 1.0875106 -0.5421073 -0.177679 -0.55940646 0.05744298 0.20465972 0.7163225 -0.8873988 0.6060446 -0.7087633 -0.70978004 0.24336265 -0.14172593 -0.84928465 -0.084864825 0.58268607 -0.49211112 -0.86539495 0.114594236 -0.3571121 0.37401566 0.12386605 -0.76720995 0.017482646 0.11092505 0.11042545 -0.94482243 0.8210188 0.098323725 -0.295145 -0.8180347 -0.7028889 -0.049108747 -0.69431317 -0.23592389 -0.5285785 -0.0043556183 -0.17891464 -0.5934773 -0.709611 0.3088214 -0.31708992 -0.4025498 0.10529276 -0.43765095 0.72828066 -0.16570237 -0.82856566 -0.721983 -0.21696538 0.77949405 0.14065556 0.2250792 0.0653728 -0.3497632 -0.71244454 -0.41590452
('이해','Noun') -0.22195837 0.061816923 0.28571007 0.25733554 0.6316406 -0.67839897 -0.1894958 0.45475513 0.6955683 -0.40318152 -0.7172931 -0.78897095 0.73316103 -0.5950615 0.28392446 -0.75523186 0.097811386 0.09131283 -0.5392574 0.53827167 -0.0052910796 -1.0130748 -0.036860768 -0.24667269 0.48592958 -0.0746754 0.5045767 0.28280848 -0.71636945 0.16417873 0.86669123 -0.2862417 0.074529015 0.31013978 -1.0874889 0.5792288 -0.91963416 0.35979524 0.053510513 0.39097622 -0.20861243 0.49053437 -0.45543727 -0.07548371 -0.14614165 -0.4922047 -0.6013993 0.32406643 0.046722434 -0.45306176 -0.3052545 -0.5787501 -0.54562336 -0.74690646 0.64541435 0.6958286 -0.22013578 -0.15069254 0.56586355 -0.5735862 -0.6535625 -1.0434171 0.13445029 -0.6078723 -0.19532366 0.14444618 0.07896939 0.2235008 0.08772959 0.079246074 0.30626658 -0.24857874 -0.24311703 -0.37713835 0.3863481 -0.052456494 0.3739976 -0.7598792 -0.4591377 0.027630296 -0.535718 0.5877901 0.3559005 -0.38309693 0.6220225 -0.61349255 -0.21938713 0.6330478 0.75897443 -0.67051685 -0.6566367 0.028009523 0.08003758 -0.05480272 0.9010172 0.8833215 -0.5468007 -0.702577 0.48239467 0.29360798 -0.22354653 -0.074316226 0.50474375 0.87666863 0.12176278 -0.44156346 0.75436646 0.5306377 -0.22182542 -0.2382944 -0.5520271 -0.13545673 -0.8717044 -0.11479955 0.21194945 0.218798 0.0051578376 -0.8222988 -0.23432341 -0.33035296 -0.4462913 -0.71367264 -1.004529 -0.43810508 -0.15217341 0.041321397 0.5127676 -0.25314727 0.33475357 0.39879417 -0.348203 -0.4360487 -0.07086871 -0.45342055 -0.680142 -0.6087571 -0.81804687 -0.14885706 1.1786284 0.8179323 -0.18487294 -0.77133846 0.92964494 -0.59531236 0.72939384 0.768751 -0.19683975 -0.5974548 -0.17265545 0.40346384
('개','Noun') -0.9505755 -0.632138 0.3605498 0.989757 0.20598955 -0.8155599 -0.33843422 0.37480715 -0.2096541 0.68878025 0.7767153 -0.15688416 1.0401878 -0.42850626 0.6946743 0.7357376 0.5201131 -0.14951715 -0.082897566 -0.57212377 0.15446474 0.49952725 -0.53826284 -0.6911917 -0.95316106 0.66067076 0.15041737 0.91369796 -0.3564834 0.08403913 -0.80184424 -0.55210644 0.2514239 -0.04973443 -0.30147162 0.5309651 0.5844347 -0.05770619 0.7744088 -0.2819973 0.26582402 -0.8753449 -0.91606337 0.22701712 0.84492964 -0.7799098 0.05527157 -0.60620946 -0.15070142 -0.26931268 -0.35437566 0.3390827 0.411947 0.43263388 0.084682144 -0.83865607 -0.03656804 -0.47414103 0.063123405 0.8874785 -0.4013282 -0.9121726 0.5741247 0.6848709 -0.033894777 0.61480224 0.14220852 0.61599183 0.4802612 -0.23707591 0.4536531 -0.44598982 -0.1000543 -1.1646807 -0.84297246 -0.13033478 0.801641 0.39992747 0.92397565 0.80045456 0.43748555 -0.34132516 -0.4539263 -0.24910499 -0.3245082 0.6003089 -0.93617207 0.64948285 0.92830116 -0.48151094 -0.6179084 -0.1778865 0.30335572 -0.08874699 0.48097134 0.050048057 0.13994186 0.5222378 0.3707789 -0.6300555 -1.0552099 0.07188093 0.8071674 -0.3156446 -0.34767032 0.13571674 -0.006822676 0.06033734 -0.16670479 -0.6271169 0.89388967 0.7587452 -0.77687305 0.01834792 -0.4579342 0.3718257 0.87100047 -0.31842723 -0.53145164 -0.4250352 0.6967236 -0.06411795 -0.31807324 0.45664585 0.64950496 -0.37343845 0.48545823 -0.40518615 0.050427373 -0.3164068 -0.31033656 -0.08404991 -0.79356295 0.4717961 -1.0360426 -0.5807935 -0.91012174 0.8242564 0.35179678 -0.5218249 0.7471265 -0.4004676 -0.51100165 -0.38723314 -0.078973375 0.6286008 -0.2653934 -0.090862356 0.22632042 -0.1531296
('하면','Verb') 0.3225482 0.35660908 0.69819117 0.32330537 -0.24620667 -0.36454642 0.6418686 -0.42363992 -0.035978228 0.16448675 0.23504387 0.5196599 -0.4798045 -0.6293967 -0.83126515 0.20620309 -0.27417782 -0.66615015 -0.16844133 0.61476547 -0.019534914 -0.573043 -0.25459257 0.48530844 0.31903496 0.5256013 0.5374096 0.7441333 -0.43087795 -0.21575469 -0.26275757 0.76359355 -0.9747946 -0.030605992 -0.83162427 -0.7683036 -0.49191594 -0.45928892 -0.22587202 -0.7614105 -0.42595693 -0.8032087 -0.6769726 -0.46200663 0.6239566 -0.24217376 0.46056706 0.59624946 0.053963926 0.21864396 -0.07386066 0.14890976 0.7365397 0.29841647 0.32798913 -0.56726235 -0.4168992 0.72425646 -0.714331 -0.11702446 -0.8619002 -0.07285789 -0.5099171 0.072937 -0.2206336 -0.6561525 0.6725724 0.88018715 0.994109 0.09529538 0.42641446 0.55165976 0.6900934 -0.7709101 -0.26142606 -0.6192145 -0.101464905 -0.03450562 -0.19219054 -0.13465229 -0.33292672 -0.5667388 -0.2931456 0.022196377 -0.82920074 0.5533092 0.5883037 -0.7241242 0.23637165 0.2102122 0.23565476 0.43992373 -0.7584592 -0.08872259 0.8250737 0.102147244 0.8533982 -0.6423464 0.031261127 -0.36203602 -0.620227 -0.5070435 0.5637829 -0.16729493 0.44986537 -0.28105184 0.61024994 -0.7236019 0.30700102 -0.22426262 -0.08746603 -0.7184048 0.15871228 -0.17467993 0.14285901 -0.5263271 0.30771676 -0.8673387 -0.70747304 -0.38459584 0.28391376 -0.73188174 -0.4777567 -1.0082597 0.7218359 0.2978328 -0.62992567 0.73281646 -0.17309105 0.8009844 0.7741348 0.62332016 -0.0827501 -0.655916 0.4572644 0.33783516 -0.15673503 0.45408446 -0.31115064 0.62752575 -0.13932039 -0.2335111 0.12531576 -0.556242 0.66513664 0.23779385 0.41487217 0.37827858 0.6481553 0.34009227
('정도','Noun') 0.16101274 -0.13628982 -0.24249615 -0.10197526 0.42226014 0.17793775 0.5691375 0.61990446 -0.4935487 -0.80484927 -0.53351957 0.37792364 1.0835598 0.19913316 -0.8293945 -0.32083386 -0.020014647 0.673697 1.1158832 -0.0033086156 0.23016055 -0.58915997 0.4283433 0.081770964 0.40959826 0.21737863 0.7643547 0.48383197 -0.12348788 0.6887668 0.76681834 -0.46498683 -0.06710154 -0.8102624 0.25988555 0.85184723 0.26980656 -0.8200841 -0.3510064 0.7849733 -0.0015369538 -0.4636119 -0.38265532 -0.49616647 0.57132643 -0.6931321 -0.8601531 0.36663166 -0.39558125 -0.39658538 -0.8911075 0.061926484 -0.16914852 -0.5931545 1.0625025 -0.13488781 0.6675067 0.2812914 -0.44677335 0.5111733 -0.38090244 -0.74830157 0.6469718 0.43979475 -0.65197897 0.32793793 0.48755586 0.04685391 -0.46158856 0.28567094 0.49665457 -0.7432558 0.5428888 -0.6936525 -0.6889089 -0.8844223 0.006621252 0.31805593 0.3788023 -0.5584404 -0.076361135 -0.19279861 0.6794336 0.1625816 0.06919521 -0.5605622 -0.623309 0.22600971 0.30477488 -0.8351964 0.43841752 0.5473644 -0.3603644 0.11960958 -0.13089438 0.18920773 0.5858927 0.45991844 0.10621287 -0.30802342 0.12900648 -0.023753528 0.111890614 -0.5389794 -0.25624257 0.68050027 0.037304375 0.6231121 0.58211 -0.7377587 0.3114443 0.005482967 0.09876524 0.4078763 -0.12873754 0.4121803 -0.2890304 -0.14070164 -0.7651751 -0.5204755 -0.1902013 0.70563406 -0.027508674 0.39589846 0.7723056 -0.50469095 -0.8577949 -0.32410768 0.030686297 -0.6221642 0.39544648 -0.43611276 -0.25352618 -0.2439411 -0.87972105 0.31494847 0.67500675 -1.1586148 0.06295697 0.24053833 0.3997364 -0.767536 0.4739849 0.7247457 -0.112723246 0.48812807 -0.2102344 -1.0642014 -0.25042355 -0.74780893
('과','Josa') -0.35223815 -0.2931791 0.083309524 0.2684455 -0.07384525 0.49185643 -0.4464568 0.20698018 0.7019399 -0.012284415 0.40207234 0.47189137 -0.14985394 0.60523254 0.5124221 -0.54067284 -0.5480196 -0.06573423 0.39810038 -0.39244854 0.30449355 0.5181788 -0.01645064 0.531312 0.67907155 0.23459527 -0.6247092 0.6545398 0.38206115 0.010100964 -0.53699446 0.82296956 0.5191963 0.671561 0.38883048 0.6258856 -0.27583852 0.014046458 -0.7940325 0.74544024 0.071509555 -0.999525 0.54441345 -0.37010953 -0.7714687 -0.3451822 -0.7034926 -0.94270515 -0.7234158 0.84480757 0.81719357 0.37595797 0.11433678 -0.25361297 -0.02732841 -0.65672547 0.004801815 0.6180286 0.5014866 -0.4397634 -0.2803851 -0.31603745 -0.07198306 -0.7665317 0.5789836 0.6473371 0.74668425 -0.48375472 -0.20438166 0.23270608 0.5258458 0.5187847 -0.185777 0.25029504 0.5767066 -0.86740136 0.45014957 0.8795946 -0.5801897 -0.012526562 0.34166765 0.69612586 -0.79586816 -0.52401406 0.21198636 -0.038630508 -0.4633623 0.070174485 0.14232196 -0.18094492 -0.21796857 -0.08777981 -0.66224766 0.9017035 -0.38940617 -0.63288385 0.43170115 0.20495169 -0.565387 -0.6020564 0.0896101 -0.64065653 0.11921719 0.30632418 0.08361063 0.46472308 0.7773052 -0.70225585 1.0162222 -0.84373194 -0.9243878 0.92165536 0.21730283 -0.39763343 0.35698745 0.18750446 0.68044937 0.039978646 -0.6852091 -0.21973123 -0.8162473 -0.26616734 0.4140286 0.44968536 0.31010062 0.11615963 -0.9147962 0.73999745 0.93169737 -0.6462629 0.9823083 0.86364406 -0.3462715 0.40086743 -0.21085736 0.61873925 -0.2932602 -0.7971989 -0.50673956 0.023405317 0.07923413 0.08463752 0.4291775 -0.28011286 0.27255568 0.22204906 0.53766537 0.22215661 -0.69815296 0.76231885
('공부','Noun') -0.30221084 0.57343274 0.7720802 -0.755004 -0.76874185 -0.79133445 -0.60097426 0.75871366 0.39407936 -0.38612583 -0.027866717 0.4598339 -0.1025919 -0.29532707 0.35316062 -0.33359647 -0.02824143 -0.2007689 0.4681416 0.37343124 0.52997255 -0.7156851 -0.78289735 -0.11386127 0.44971728 -0.2943972 -0.42455974 0.40778682 0.72763175 -0.64956915 -0.37216654 0.5551606 0.2534259 -0.37394953 -0.34516388 -0.13555022 -0.21224964 0.21289994 0.34333974 0.27561158 -0.4283562 -0.8332298 0.46549487 0.28349072 -0.0068394104 0.25512108 0.1659329 -0.19853318 1.0671233 0.30502978 -0.045573562 0.26475325 0.09830081 0.95069563 -0.007754047 -0.6256032 -0.30886573 -0.37241608 0.9468179 0.3592387 -0.4874289 -1.4955403 0.20461957 -0.6836024 0.91535836 -0.75562143 -0.52628124 0.6768364 0.32253742 -0.48560214 -0.6103755 -0.20636655 -0.7695031 0.3615828 -0.7581715 0.22038712 0.5517563 0.06065516 -0.082443506 -0.49393052 -0.8334684 0.028122261 -0.088381834 0.14827937 -1.0585173 0.80933326 0.23798142 0.4067729 0.24037258 -1.03768 -0.037264094 0.37779468 0.6928546 -0.4025748 -0.19310868 0.47711697 0.4233811 -0.505729 0.61683077 -0.22347791 -0.6399608 -0.5969607 0.06821618 0.34228086 -0.2520852 0.12388115 -0.7087715 0.20074041 0.41001603 -0.41897815 0.23816696 -0.78862125 -0.32844698 -0.23510307 -0.81941414 0.37280625 -0.9161268 -0.14359356 -0.04298664 0.72032255 0.6943233 0.47915053 0.11759003 -0.025693757 0.16700295 0.7705259 0.14712258 -0.3810679 0.44052947 -0.9212255 0.42618048 0.054084513 -0.509515 0.7636457 0.38411903 0.88667643 -0.21461637 -0.7655188 -0.41451424 -0.30325538 0.8958194 -0.19178183 0.093354285 -0.18960011 0.25349927 0.89834076 0.7243369 -0.48171443 -0.39787862 -0.031164793
('조교','Noun') -0.13939227 -0.5166252 0.7216344 -0.53309214 0.20538767 -0.70020735 -0.2896024 -0.25730264 0.026612816 -0.5311869 0.53570646 -0.48831582 -0.05927547 -0.7663123 -0.22698231 0.054575656 -0.36479273 -0.111161746 0.016670663 -0.21195993 -0.56996727 0.5451266 -0.22480543 0.04588942 -0.5095301 0.10356026 0.5336869 -0.4173315 1.3161681 -0.28065866 -0.016196523 0.95680916 -0.6011155 0.4066136 -0.60971606 0.055111364 -0.75514 -0.2949376 0.08092151 0.6609226 0.47784933 -0.62979865 -0.5039851 0.9845146 0.43548453 -0.34879264 -0.32428697 0.31809926 0.935671 -0.21109961 0.2899824 -0.267334 -0.4020794 1.0726712 -0.3193399 -0.23383042 0.5164686 1.1446831 0.5346658 -0.052503105 -0.40818122 -0.16743983 0.8776529 -0.02126607 -0.06848741 -0.11698501 -0.35548413 -0.30017745 0.48436886 -0.12207023 0.37687176 -0.7980661 0.5057117 0.32750502 -0.75044996 0.05047159 -0.71988046 -0.75389457 0.46702302 -0.6027867 0.12572557 -0.6663982 0.45564353 0.10033477 -0.85931015 -0.36317712 0.86532176 -0.13153848 0.90547734 -0.7680686 0.2848623 -0.2072765 -0.3907538 -0.31262118 -0.023578325 -0.49440974 0.2655523 0.22208166 -0.41969103 -0.47483435 -0.3465373 0.5632433 0.6520566 -0.6467952 -0.13574994 -0.7678158 0.34833643 0.49733838 0.5554537 -0.24039094 -0.075984016 0.07756484 -0.06007575 0.5225814 -0.10426583 0.4687401 -0.26708552 0.4767758 -0.16792324 -0.0797982 0.37864134 -0.62361497 -1.365314 0.098893784 0.24780035 0.75044125 0.68161386 -0.4603714 -0.90618795 -0.624193 0.8611005 0.8996569 -0.13343456 -0.34053382 0.42746505 -0.2509137 0.0025816548 -0.052947618 1.2603592 -0.46253437 -0.6415745 0.40829477 0.8675543 0.19577476 -0.76208293 0.46455002 -0.32017696 -0.2162116 -0.25886238 0.15446201
('때','Noun') -0.52477556 0.7899272 -0.27130044 -0.8465003 -0.5985791 0.062017832 0.6637961 0.41276178 0.3869347 -0.069492884 0.64994097 0.45435753 0.019193497 -0.7943062 0.31694123 -0.023755848 0.43351611 -0.5221465 0.5214837 -0.6075166 0.1770608 0.145912 -0.9112951 -0.6454037 0.37137458 -0.17711464 0.30224437 -0.1545162 0.22905591 0.44327387 -0.8190821 0.97907287 -0.38431996 0.15990892 -0.8094179 -0.32829252 0.29804623 0.19356349 0.15449198 -0.6631653 -0.6145584 -0.6440599 -0.4598918 0.15225641 0.35965136 -0.46684298 -0.6745798 -0.12065998 0.18789616 -0.23959629 0.56149596 0.611055 -0.20645317 -0.053707086 -0.32934555 -0.60373735 -0.81317383 0.73159474 0.21005306 0.6106521 -0.052123025 -0.7169675 0.42660388 -0.34992775 -0.86954707 -0.47986382 -0.23402983 -0.37938377 -0.17769036 -0.34810138 -0.7051385 0.64276195 0.012778299 -0.30334467 -0.2272887 -0.71506214 -0.105067216 0.9275049 -0.3009496 -0.6971285 0.5397693 -0.10660987 0.3026459 -0.1660789 0.32884485 0.4367584 0.51593953 0.70834404 0.48503706 -0.26800764 -0.44830832 -0.078543045 -0.4218906 0.7357132 0.58933854 -0.037263393 0.27225995 0.3801933 0.3190537 -0.5073959 -0.98392457 0.20803966 -0.33329692 0.12776144 0.2510185 -0.4694068 -0.3935812 0.37239096 -0.45854503 0.101383634 -0.27463567 -0.52596265 -0.12694088 0.7691823 -0.11903357 0.45447734 0.4158253 0.7135136 0.021799777 0.624412 -0.41375062 0.7095278 -0.45001394 -0.78424025 0.26231086 -0.5443631 -0.59684724 -0.16144629 0.25845507 0.6173399 -0.23819928 -0.12049831 -0.6634899 0.38151118 0.23754664 0.26436338 0.46020064 0.19052032 0.5430699 0.26813117 -0.100252695 -0.568426 -0.5102337 -0.29218155 -0.53984326 0.32411766 -0.7587114 -0.36853653 -0.36369318 -0.27266282
('말','Noun') -0.112566516 0.13763918 0.083549045 0.8336287 0.36543345 -0.09430895 0.05602347 -0.23884536 0.5687978 0.29468262 -0.39028984 1.0020014 -0.38044336 -0.2820245 -0.02517337 0.22583775 -0.6355286 -0.43246424 0.85046697 0.65033036 -0.3043128 -0.6122935 0.52650553 0.100514 0.92044795 0.29078257 0.004028032 -0.8045992 0.053890795 0.3636004 -0.46400872 0.15414849 0.052887622 0.5435947 -0.023609161 0.6349984 -0.3568162 -0.20819467 -0.018247796 0.32470885 -0.5023639 -0.590484 -0.11403703 1.060864 0.87628365 -0.019340534 0.21978803 -0.9070566 0.052281614 0.43262294 -0.5657097 0.9200799 0.646071 0.70515823 0.7279753 0.12612493 0.0026158718 -0.21646646 0.77160305 0.43785602 0.32538396 -1.0498943 0.9042608 0.12251486 -0.8449804 0.72934157 -0.30611217 0.75455403 -0.7046518 0.57220167 0.5478665 -0.14514379 0.026564522 -0.24124445 -0.3796621 0.08372691 0.46153942 -0.5496558 0.6869185 0.26960012 0.4864271 -0.7995508 -0.23828243 -0.42385647 -0.6602883 0.32415682 -0.45646936 0.9191709 -0.6337577 -0.7924174 -0.4308104 0.3620522 -0.5013421 0.8237194 -0.04292288 -0.4150344 -0.37327832 0.7574893 0.66273415 -0.0087355105 -0.85997736 -0.8107241 0.18574232 -0.2952229 -0.34335622 -0.9686847 -0.45907626 -0.84813434 -0.046984814 -0.1653833 0.24554074 -0.8539665 -0.60509884 0.7996261 -0.532783 -0.36025348 -0.2458189 0.7371626 -0.12079118 0.8264628 -0.5499694 -0.017204108 -0.81059074 0.60100687 0.66698307 0.13048105 0.21170504 0.70356184 0.12572692 0.37325865 0.68426967 0.3440207 -0.15514317 0.36631083 -0.07098822 -0.301383 -0.072306864 -0.6077966 -0.21937932 0.6946277 0.089523755 -0.4832145 0.041088432 0.3942227 -0.16912508 0.22742885 0.057369772 0.5727459 0.7325244 -0.39830446
('숙제','Noun') -0.84087723 -0.5450546 0.39909992 -0.5905441 -0.57059324 -0.7915257 -0.4868301 0.24220563 -0.17710188 -0.50003356 0.49508846 0.16069263 0.028692188 -0.33633333 0.43501443 0.07184528 -0.12910739 0.62165976 0.62782 -0.29783735 0.83828604 0.11986317 -0.071135625 -0.15751527 0.012617856 0.88502485 -0.50526905 0.15583184 1.0040823 0.48709556 0.057898168 0.7601015 -0.79898363 -0.22538142 -0.3350455 0.36515114 0.43612513 0.5656407 0.2253672 0.0009722707 0.6656961 -1.0455055 0.44800332 -0.051763408 0.02929857 0.1322119 -0.53282124 0.03601079 -0.41540587 -0.7004153 -0.28503728 -0.01909819 0.29641578 -0.18156266 -0.12768312 0.07377232 1.221991 0.8277146 -0.4469879 -0.26464695 -0.19563153 -0.89559555 0.2180488 -0.56353974 -0.9310616 -0.76149243 0.6302212 0.5665143 -0.068859875 0.6390926 -0.17738558 -0.6426742 0.41186336 -0.105240546 -0.50028443 -0.660337 0.8347851 -0.4476157 0.3339333 0.452675 0.42308846 -0.22125347 -0.29777023 0.61151254 0.53395873 -0.13022232 0.10846939 -0.16128728 0.42203984 -0.5120865 -0.7212754 0.13099281 -0.7926785 -0.11777462 0.6981841 0.8667354 0.22219664 0.25986522 -0.17722864 0.45934203 0.019551713 0.07819403 0.53388804 0.026279802 -0.36931747 -0.20236197 -0.018477928 -0.76898825 -0.02507673 -0.75723 -0.30179906 -0.08449313 0.27803573 0.4169125 -0.45906043 -0.7669492 0.7448728 -0.79981697 -0.049020402 0.15981294 0.47879344 -0.46443555 -1.0070649 -0.22230308 0.45065004 0.07660983 0.119651996 0.69133973 -0.14428563 -0.036322646 -0.46418568 0.122825295 -0.10157387 -0.71554685 0.53096175 -0.47320223 -0.38653454 -0.7322052 -0.0945056 0.06635697 0.664299 0.6984057 -0.16956112 -0.6761726 -0.4615065 0.82942456 0.5302376 0.14748338 0.2886658 0.0978889
('시간','Noun') 0.76163983 0.37873715 -0.4180839 0.6508217 -0.20384325 -0.08496256 0.08181675 -0.3677065 -0.307968 -0.44933432 -0.5589969 0.34760278 1.1325872 -0.3328736 -0.4559982 0.18464056 -0.20509674 0.16477983 -0.4152128 0.52064306 -0.313496 -0.2700252 -0.7284739 -0.52777004 -0.6620643 0.5803513 0.34247133 -0.23601347 0.65435636 -0.60766715 0.45079532 0.34631386 0.3391105 -0.6366417 -0.3839949 -0.42491236 -0.22010696 -1.0056305 -0.93420535 -0.6096515 -0.26582658 -0.3619365 -0.097447194 -0.2939115 -0.44994992 -0.0630555 -0.8931209 0.017915245 -0.11840033 -0.7716276 0.003248992 -0.31282672 -0.2995123 -0.7406178 -0.5984327 -0.1623288 -0.17773926 0.56218755 -0.2390445 0.71394694 0.21475272 -0.09659034 0.38584143 0.6572326 -0.07360262 -0.6114798 0.501057 0.4436758 -0.7213102 0.38911486 -0.27015933 0.50868654 0.15007365 -0.17060737 -0.7190367 0.05860819 0.5056235 0.1951876 0.16747555 0.45479676 0.53204596 -0.08244445 -0.10660809 0.03433723 0.054563962 -0.3486118 0.10747857 0.22803293 1.1856854 -0.79074347 0.23570506 0.4195295 -0.8146874 -0.3505998 0.5499358 0.36941376 0.060538888 0.65035045 -0.38699973 -0.19745982 0.040211696 -0.20438208 -0.51778543 -0.36024886 -0.098244555 -0.4085582 -0.5168794 0.35958672 0.14124109 -0.38412958 -1.0509073 -0.112183794 0.30637687 0.9462912 -0.32143906 0.50709707 -0.61420274 0.1874152 -0.66145605 0.3254947 -0.4708613 0.4484022 0.18059663 -0.03450464 -0.31556985 -0.27651015 0.5007306 -0.1386263 0.6987183 -0.9013415 0.8645003 0.069220126 -0.121697225 0.23206082 0.38017288 0.11318587 0.20210187 -0.7560246 0.83272415 -0.047099162 0.34621647 -0.016295688 0.067432016 0.20804723 0.56061465 -0.26057205 0.4525483 0.69978565 0.2750687 -0.9760344
('전산','Noun') -0.23460184 -0.32643458 0.9349301 0.5613091 0.40893224 -0.24475145 -0.24905509 0.46237364 -0.28638086 -1.0718637 -0.6667122 -0.4530352 -0.16988875 -0.7010799 -0.5494832 -0.50314885 0.58087146 0.28507182 -0.36560574 -0.39118975 -0.37421295 0.07607953 0.1399972 0.47874337 -0.7431473 0.09214768 0.7232799 0.92823964 0.83135813 -0.7835232 0.04702186 0.20538838 -0.77741957 0.9790555 -0.83688176 0.46678537 0.8867319 -0.8051943 0.52067447 0.67351735 -0.7905938 -0.21919934 -0.0074623767 -0.01729495 -0.11556043 0.052802525 -0.45892668 -0.09291501 -0.28598654 -0.8553106 -0.5749366 0.54883933 -0.094960466 0.6589441 0.5528477 -0.04802779 0.38264176 0.14069667 -0.43991423 -0.36708558 -0.6590269 -1.1933756 0.31244907 0.15946278 -0.36194375 -0.8690871 0.5037882 0.6118657 0.13708723 -0.4239074 0.29047388 -0.09746662 0.53552985 -0.19046232 0.58680934 -0.010557606 -0.70845824 0.7049055 -0.22087282 0.17173864 -0.7361944 -0.88460386 0.18222927 0.45260364 0.55747503 -0.31061783 0.52649504 0.25700742 0.59480786 -0.23710229 -0.029205747 -0.001074936 -0.2895377 -0.54505926 -0.21043663 0.30419523 0.9064986 0.29209885 0.016633542 -0.29893315 -0.3577995 0.5899459 -0.6314337 0.17723608 -0.03816993 -0.27049807 -0.80427766 0.38104296 0.1756956 -1.0744135 -0.57413495 0.08789831 -0.6133524 0.14588599 -0.44279054 -0.23876897 0.14757311 0.6799319 -0.9451269 -0.41437173 0.9233084 0.2541573 -1.0493366 0.6718392 0.94850266 0.3844997 0.53356135 -0.7516064 -0.18300588 -0.54704124 -0.68876714 -0.65671295 -0.49957377 0.770861 -0.035808954 -0.7333596 0.37989226 0.23042272 0.47958717 0.46675837 -0.5643936 0.34332362 0.7051672 -0.8584532 -0.95930535 1.0793436 -0.31672996 0.6644539 0.57706565 -0.3310717
('해서','Verb') -0.14153491 -0.6040616 -0.047210563 -0.59397566 0.66038543 0.03640811 -0.5971311 0.8702507 0.04364017 -0.52271605 0.32367232 -0.32140702 0.42176515 0.56460685 -0.09951494 -0.1820169 -0.47508475 0.21439 -0.5739077 0.15942699 -0.1842218 -0.19164121 0.69222105 0.63446784 -0.7262127 -0.053644247 0.8706299 -0.000955685 0.76650214 -0.28358066 0.31248015 0.6098562 -0.86210597 -0.03866937 -0.4114262 0.79097134 -0.8481888 -0.8913371 -0.61635655 0.89034086 0.636267 0.16108032 -0.23403166 0.8361257 -0.73082405 0.41388595 -0.34795505 -0.5330038 -0.19055532 -0.83966076 0.13679439 0.053967196 0.90066165 -0.75951654 -0.3591528 -0.049677752 -0.54339904 1.0173136 -0.0664132 -0.008943107 0.70284915 -0.733118 -0.08546409 -0.010951633 0.4128655 -0.04811365 0.42159146 -0.0909983 0.2394649 -0.61061317 -0.033286754 0.41776305 0.4140791 -1.1027555 0.8463245 -0.74973625 -0.018397117 0.5526632 0.10227823 -0.45007783 -0.3726288 -0.04611886 0.5860471 0.06923648 0.59283984 0.14754027 0.67226064 -0.030503202 0.6549442 -0.72936255 -0.842194 0.59451246 -0.34541374 1.004028 0.55973834 0.85760397 0.3930011 -0.6721765 0.07791918 -0.494594 0.32272026 0.041576773 0.5161632 0.11883833 -0.5096372 0.5130837 -1.064833 -0.38904262 -0.6622175 -0.2022967 -1.2393242 -0.4498103 0.376194 0.28719428 -0.34449807 0.072000735 -0.096612126 -0.6809187 -0.021587294 0.58429414 -0.22412477 0.12642998 -0.6473608 -0.6547169 0.1711545 0.81900513 -0.41638353 0.8892129 0.5850453 0.56959736 0.83891433 0.39417672 -0.062443852 -0.7694461 0.17999002 0.24103463 -0.7574 0.4588056 0.019840285 -0.8280797 -0.29358605 -0.4437412 -0.5111677 0.8626183 0.4562897 -0.05632848 0.75650936 0.2885787 0.23414026 -0.023693899
('잘','VerbPrefix') -0.7370126 -0.26894283 0.2569047 0.5277321 -0.025644802 0.5847674 -0.8576905 0.63715035 0.3090538 -0.47224125 0.94748974 0.9788641 0.39151847 -0.19935685 0.50438446 0.39648098 0.7009161 -0.5093953 0.16948327 -0.37797648 -0.7060221 -0.2258057 -0.9842259 0.61202866 0.207692 0.26960796 0.79622036 -0.13179722 -0.34103647 -0.798761 0.27922115 0.41971558 0.41614813 0.7508734 -0.7123449 0.8107595 -0.15763395 -0.60932803 0.73291594 0.44022167 0.79247224 -0.33388206 0.10012244 0.641794 -0.6441936 -0.31114417 0.052044284 -0.81143963 0.4864039 -0.53946453 -0.3418484 0.88439196 -0.49424088 -0.55763817 0.3106897 -1.0844024 -0.76945055 -0.07297407 0.0008045335 0.13065714 -0.06399747 -0.2696366 0.40503675 0.9991156 0.97430545 0.47899896 -0.36867663 -0.24858512 0.29884923 0.5259079 0.19019337 -0.25469673 0.3090284 -0.29342806 0.8230148 0.06437165 -0.4898663 0.60475117 0.6687563 0.49458572 0.14705624 -0.35214558 -0.12044594 0.24837136 0.7756994 -0.31656405 -0.43003875 -0.8016554 -0.968632 0.695812 -0.69485116 -0.24631996 -0.8306801 -1.0358815 -0.4835212 0.25404677 0.13066171 0.30397567 0.20720217 0.376069 0.050523836 -0.19027753 0.066170715 -0.73090506 -0.7093078 0.53652596 0.016150685 0.9507208 0.022056451 -0.45426038 -0.76186717 -0.2341118 -0.24554634 0.83853626 0.12034324 -0.1257296 -0.039107088 -0.26176885 -0.26117268 -0.379541 0.26122636 0.8583655 0.092418216 -0.33234695 -0.6452465 0.353441 -0.12653358 -0.7096513 -0.37273866 1.1556537 0.42978686 -0.19391313 -0.2007477 0.94129384 0.1735127 0.88160574 0.68828326 -0.5370154 0.7126452 -0.5673111 0.7285261 0.19735228 0.6801446 0.89428246 -0.85256106 -0.9763591 0.09035949 0.52510244 -0.1800185 -0.29372814
('번','Noun') 0.14082013 0.04082283 0.3489033 0.08599225 0.37736154 -0.05474675 0.96228653 -0.016312258 -0.38503876 0.37940845 0.14231199 -0.5904739 -0.043351855 -0.3876093 -0.3375684 0.45800447 -0.885913 0.5156747 -0.08449023 0.32192615 1.018498 0.8455796 -0.5672535 0.7837834 0.93572986 0.74908537 -0.42744476 0.025061589 0.08601865 -0.6603289 0.13273865 -0.473198 -0.8415343 0.71683836 -0.91684276 -0.65298516 -0.09467833 0.46000046 0.76751316 0.64104784 -0.15818536 -0.85403264 -0.14831959 0.13694121 0.16916806 0.23146224 -0.8836904 -0.98864204 0.037727777 -0.2906716 -0.76184 0.30791038 0.61794156 -0.10723115 -0.50805146 -0.7676086 0.6426472 -0.854427 -0.30690277 0.13671675 0.012462652 -0.76127774 -0.6926588 -0.6396823 0.88263714 0.2000227 -0.013934534 -0.52281696 -0.71439385 0.3974171 0.30910158 -0.3465964 0.2806623 0.19656904 -0.2546571 -0.5204554 0.7073288 0.3600916 0.099403694 0.50896424 -0.024869181 -0.51959115 0.28210133 0.97900504 -0.04146278 0.776678 -0.07463718 0.67224735 0.32710478 -0.32354957 0.5315983 -0.4220073 0.21152672 0.4233522 0.7649072 0.20692515 -0.25043973 0.5907953 -0.4740105 -0.2133402 -0.21460521 0.39875647 0.9394357 0.3211996 0.7558069 0.07652116 0.12778501 0.6649101 0.013711203 -0.2715178 -0.35631022 -1.1551288 -0.5546265 -0.27940565 -0.17192648 -0.075259015 0.06516205 -0.503593 0.6870421 -0.15201233 -0.19193749 0.077096194 0.09870031 0.13265342 0.5924007 0.8875976 -0.18303452 -0.13006191 -0.5741319 0.26823393 -0.84934336 0.18363819 0.17601807 -0.48344058 1.0708224 -0.7343144 0.17997992 -0.8098795 0.29779273 -0.09847217 0.47989398 -0.5567442 0.2525089 0.0071052453 -0.22458285 0.798316 -0.36016133 0.5980167 0.71482205 0.41178745
('질문','Noun') -0.6937197 -0.69881856 0.3664391 -0.10711535 0.05696017 0.02199392 -0.28297824 0.7204884 0.04288757 -0.46810123 0.61695373 -0.16178799 0.6983963 -0.20148613 -0.42494524 0.44539273 0.23585947 -0.49127796 -0.035449743 0.30256158 -0.5505119 -0.5726105 0.45201766 -0.07168268 0.18436521 0.74859256 0.7461199 -0.04582501 0.46192652 -0.6638993 -0.7655675 -0.19126341 -1.1048262 0.2601463 0.14473632 0.48015946 -0.052405775 0.2065975 -0.08929397 0.3472185 -0.36188608 0.29255193 -0.76905894 0.8366296 0.36083138 -1.0466696 0.40023896 -0.2855669 1.0264465 0.5315205 0.18712959 -0.669406 0.6318116 0.75444126 -0.18907939 0.24599652 -0.6599766 0.25452784 0.4759441 -0.4316766 -0.26756018 -0.08718785 -0.3690162 0.32227725 -0.4988808 -0.49191028 0.3784576 -0.50933963 -0.015194366 0.15906537 -0.8326149 -0.5067579 -0.18124977 -0.58251506 0.7745823 -1.1642385 -0.06496175 -0.45295587 0.4825445 0.17073736 -0.44135344 -0.27233672 -1.0045965 0.54979163 -0.76857495 -0.3665522 0.0046671494 -0.17038552 -0.1934684 -1.0321724 0.100776576 -0.67168134 -0.994039 -0.6268451 0.5095307 0.9386266 0.60668594 -0.09946249 -0.41422808 -0.44351012 -0.4795946 -0.3176849 -0.6276999 0.55370855 -0.2315754 0.6852201 0.35274413 -0.234455 0.2599113 -0.3998307 -0.580844 1.1096383 0.004503348 0.51635 0.45926604 0.868817 0.63467914 0.10989756 -0.81799126 -0.13363634 -0.2685256 -0.14613663 -0.8072567 0.24484676 0.50643843 -0.35038683 0.012122804 -0.57376367 0.02604344 -0.49000028 -0.31467456 -0.3240853 -0.20294467 -0.08730877 0.0763387 0.36422712 -0.043488298 -0.7098098 -0.15413323 0.6056501 -0.57755005 0.3269237 -0.8150886 -0.44566107 0.13777527 0.5557246 -0.85624415 0.3510734 -0.8185724 -0.9185097
('한','Josa') -0.73391134 -0.70861727 -0.113154836 0.40382695 -0.49389926 0.5013181 -0.17706601 -0.5152468 -0.39125332 -0.26448765 -0.044837765 0.42710993 -0.24621817 0.6289338 0.20878725 -0.67272985 0.31827247 -0.89079374 0.91817355 -0.03413098 0.55668414 0.54140913 -0.9340242 0.59333414 0.76100856 0.43036383 0.06894155 -0.3689549 -0.2298042 1.0587904 -0.06830996 0.44483688 0.3835907 0.4876832 -0.81197554 0.4085951 -0.14245905 0.05631223 0.6352183 -0.9297605 0.03454799 0.20195778 -0.54041696 0.27995268 0.36383462 -0.9490709 -0.19277276 -0.75402623 -0.4570221 0.5626966 -0.20846191 0.6068132 0.1763806 0.81409955 0.8234984 0.33807695 0.72763526 0.9944349 -0.5164289 0.095754355 -0.56849605 -1.3705087 -0.6390701 -0.6551109 0.16616577 0.048590917 0.095899455 -0.6248177 0.31149122 -0.13757087 -0.3888819 0.4334703 0.81375813 -0.6336977 0.0860295 0.54356456 -0.18476108 0.5283469 -0.004257569 0.8873985 -0.6036142 -0.7193596 0.2155023 0.6754219 0.4930197 -0.6423578 0.78428084 0.70742565 -0.5670062 0.69138616 0.20850824 0.10308409 -0.2685462 0.68273884 0.19025053 -0.36787006 0.013853255 0.016578132 -0.15181868 0.66565675 -1.10107 0.35780287 0.51856726 -0.456921 -0.08234837 0.49487138 0.5677304 0.053789515 0.6781384 -0.027713425 0.12198408 -0.41891047 0.83603793 -0.3621852 0.0039995997 -0.79776263 0.8217103 -0.5734021 0.39068818 -0.5275414 0.42905667 -0.35566947 -0.54675007 0.8231409 -0.5308313 0.6772403 -0.35258585 0.27953288 -0.46093917 -0.7186315 -0.14032713 -0.03732856 -0.14769658 0.7672661 0.748084 0.8017817 -0.57206714 0.87476206 -0.43083677 -0.7249917 -0.10821545 0.53318185 0.99823123 0.6607127 0.6981603 0.6350889 -0.000318972 0.8226726 0.37247127 0.27319953
('중간','Noun') -0.76031107 -0.7625849 0.15801895 0.12524019 0.04240215 -0.386761 0.41856053 -0.20895992 -0.15866037 -0.44977835 -0.7656974 0.38755366 0.94681007 0.2854921 -0.09634102 0.63721555 0.46616346 -0.62696505 -0.18491371 0.5220729 -0.1741214 -1.0988725 -0.32121667 -0.50182176 -0.4616548 1.010521 1.023881 -0.2449995 0.9648319 0.18782988 0.34030733 -0.3750225 -0.61573637 -0.08007326 0.25076568 0.34428465 -1.0657513 0.18320209 -0.10788732 0.024298998 -0.7809254 0.3283447 -0.047423244 -0.18957174 1.1436017 0.048620902 -0.2925152 0.505627 0.46175393 -1.0219795 -0.65592927 0.101642944 0.18355542 0.5237832 0.57807446 0.56462866 -0.5198227 1.1583446 0.121224746 -0.6456499 0.5596426 0.087680355 0.74115443 0.05401818 0.11239109 -0.8491023 0.108356655 0.4955284 -0.39750066 -0.3814879 0.4033715 0.049821626 0.5282564 0.35886922 -0.023672204 0.2871296 0.58154947 0.57018375 -0.24260831 -0.59204483 -0.3926935 -0.3562649 0.7288607 -0.69136393 0.266919 0.6823956 -0.088314556 0.7096106 0.61141247 0.44270778 -0.4152714 -0.54675406 -0.82225746 0.67319685 1.171033 -0.21564597 1.0836803 -0.31109497 -0.7189535 -0.611349 -1.0035958 -0.13479026 -0.16117376 -0.4100643 -0.5362481 -0.12216631 -0.83953375 -0.19291537 -0.3125815 -0.27883044 0.044358756 -0.8493333 -0.17181365 0.8482797 -0.5282212 -0.46643975 0.4864075 -0.25020656 -0.19950506 0.87576485 -0.21624583 0.31159627 0.42584294 -0.30739716 0.602663 0.6817024 0.6849273 0.045217764 0.1840901 -0.44139373 0.6727759 0.7660163 -0.109715894 -0.025419133 -0.42006668 -0.3878387 -0.014736838 -0.5875371 -0.21251819 0.24892542 0.27461925 -0.9351492 -0.17569913 0.64081496 -0.8635696 0.19818197 0.26247054 0.2555018 -0.16884279 -0.31009763
('합니다','Verb') -0.31447184 0.19058102 -0.015027359 0.52206135 0.23025514 0.0823127 -0.21274094 0.9449035 -0.24309148 0.5317372 -0.6218851 0.05590888 0.4238268 -0.96440053 0.13413875 0.15045017 1.017652 0.14433022 0.1680424 -0.5644833 0.35015535 -0.14310624 0.772654 -0.023065273 0.5643023 1.0328692 -0.04233265 0.051006284 -0.4753625 0.62464345 0.43053925 -0.30158395 -0.32823834 -0.19546068 -0.7744569 0.008533525 0.07838545 0.10056018 0.215876 0.6104349 -0.4051102 0.24880232 -0.23193744 0.31711248 0.33306175 0.16202253 0.05183081 0.39863348 0.59144133 0.014207966 -0.17274417 0.1966716 0.5928573 0.22849263 -0.36892858 -0.14958803 -0.65809035 -0.05532567 -0.4840766 0.9018467 0.43952426 -0.022410966 0.5193151 -0.87134194 0.007357687 0.61390316 0.7091227 0.78129 -0.76914835 -0.56627816 0.750649 0.61520636 0.5745029 -0.5258548 0.3044385 -0.53805315 0.7109347 -0.22678031 0.27081984 0.6600469 0.16444771 -0.524402 0.058754314 -0.42377296 0.23805037 1.0199581 -0.57376117 -0.183458 0.9497292 -0.84725136 -0.6864097 0.40383327 0.08181745 0.8234127 0.14998057 -0.16174509 1.0479138 0.69747686 -0.009303184 0.27957729 0.3765355 -0.10728759 0.7398012 0.35927045 -0.10698836 0.42919296 -0.6275168 0.0055977865 0.0714998 0.24756785 -0.56185424 -0.079545245 -0.23259732 -0.22989501 -0.060874976 0.22813444 0.69188625 -0.32830274 -0.7300168 0.6012967 -0.017427461 -0.50040656 -1.1210746 0.23550498 0.567525 -0.5061221 0.078561895 -0.2768935 -0.6485638 -0.38458753 0.21059279 0.025195733 -0.56094265 0.20530413 0.8537233 0.11705686 0.35120684 0.6910806 0.30110937 0.5730554 -0.6215443 -0.8374953 0.7802129 0.2377264 0.2405808 -0.2518603 -0.6851659 -0.65775967 0.3783211 -0.6130874
('학점','Noun') 0.44788808 -0.28216928 0.22724763 0.5574193 -0.3772844 0.029586373 0.7937033 -0.71628296 0.6980758 -0.7337927 -0.55739605 -0.28177708 0.5199865 0.10256311 -0.28463382 0.82644564 -0.49514127 -0.96038234 -0.5580391 0.65684706 -0.8612998 0.19193113 0.22347301 0.19610564 0.7988506 0.84943646 0.7234898 0.24315208 -0.45069167 1.1060486 0.7108322 -0.4142083 -0.88295364 -0.32110205 -0.12119109 0.72342384 -0.5076044 0.18581603 0.5379368 -0.2875636 0.7038634 0.24818112 0.3376484 0.41605654 0.34100866 -0.077 0.6158338 -0.7130514 0.63218826 0.67966366 0.37153465 -0.37282905 -0.5683868 1.0248152 0.38408288 0.06353648 0.56309783 0.25882116 0.24563217 -0.39329213 -0.103666216 -1.0580181 0.7890178 -0.9888686 -0.8812217 0.3616159 -0.8251489 0.45958287 0.6723831 0.103359 -0.2872532 0.86703765 0.7975689 0.43930274 -0.27124792 -0.21582636 -0.03475509 0.18030573 0.6079127 0.19117028 0.7530869 0.11671991 0.13222405 0.09715578 0.68645537 0.30172765 -0.8316981 0.7237116 0.8950982 -0.21004522 -0.9015781 -0.42282254 0.06837548 0.5235721 0.259453 0.6764404 0.2854449 -0.38329658 0.6309057 -0.24186589 0.61644745 -0.7386128 -0.012774242 -0.5537348 -0.04385396 0.743755 0.06487902 -0.30494544 0.49199498 -0.67637867 -1.0598136 -0.5276317 -0.23261534 -0.2794346 -0.020219767 0.24808253 -0.4374159 0.23672327 -0.88935524 0.55493534 -0.742479 0.061734937 -0.14487357 -0.033815376 0.77013165 0.6383198 -0.43014243 -0.8511739 0.15909944 -0.695706 0.12598397 0.33591962 -0.44635054 0.326954 0.6853145 -0.49667966 0.33600357 -0.4836155 -0.3048038 -0.39670643 0.30686724 -0.28457442 -0.33491325 -0.41564465 -0.53608316 -0.15299217 -0.48883823 -0.6547155 -0.43016243 0.47702926
('기','Modifier') 0.5064999 -0.80028564 -0.38323602 0.2664051 0.5850983 0.71288896 0.15362817 0.6674253 -0.3677536 -0.38379407 -0.75008625 -0.59015167 -0.13974446 0.44130158 -0.6657275 0.037526377 0.79158473 -0.3835497 -0.4139302 0.8908699 0.35887694 0.27312896 -0.0139868 -0.85716456 -0.8677051 -0.08418673 0.8495109 0.82201856 -0.63349336 -0.92421746 -0.6368314 -0.06275034 -0.3856854 0.34732205 -0.33569944 -0.40474865 -0.3603776 -0.115257815 0.2865298 0.76560336 0.64156103 0.515853 0.3940779 -0.1771619 -1.0650716 -0.58754784 0.63244915 0.9067134 -0.5273235 0.24425434 0.90798634 -0.8016736 -0.2590994 -0.23211014 -1.0853786 0.0816351 -0.17717358 0.55311584 0.056446593 -0.7300119 -1.0304075 -0.46925098 -0.22914764 -0.7406617 -0.19355576 0.34769088 0.617456 0.34170723 0.29218012 -0.25789225 -0.8288167 0.6655075 -0.037488583 -0.4686656 -0.8423798 0.19774711 0.8876931 -0.40267682 -0.844178 0.46955806 0.053940095 -0.44710028 -0.6241304 0.1975106 -0.64797026 0.4812969 -0.3807088 -0.81485957 -0.7841377 0.22073577 -0.7679877 -0.28879327 0.2577027 0.42048475 0.79409504 0.6558189 0.8478143 -0.2321251 0.16707784 -0.48611975 0.46252564 0.8858458 -0.23100746 0.2982112 -0.23565668 -0.4496252 -0.70818704 0.37375122 0.4557038 -0.6094599 -0.76311845 -0.32949662 -0.96831363 -0.8056315 0.19842148 -0.14514872 0.5110147 -0.6749455 -0.22936513 -0.08369369 0.8328194 0.77874845 -0.4234277 -0.13669501 0.61490566 -0.20767568 0.47111258 -0.0027468286 0.009695437 -0.5908226 0.8349173 0.5596312 0.14115016 -0.32943696 -0.18970563 0.10961877 -0.30947557 0.17668131 -0.28670835 -0.49846622 0.16891286 0.44286504 0.53355145 -0.7910779 0.2649647 0.25143564 0.18671648 -0.75380164 -0.092378475 0.9273815
('성적','Noun') 0.3426209 0.67107636 0.20300157 0.3601939 -0.09644359 -0.8240737 -0.32400432 -0.21943612 0.40766218 -0.91687465 0.06111309 -0.22209872 0.14857128 -0.7290172 -0.16580732 -0.2403254 0.19076437 -0.8295732 0.67841005 -0.44088045 -0.42572367 -0.50463736 0.2982631 0.16115034 -0.2100154 0.42545402 -0.40866902 0.8279869 0.3454553 -0.863461 -0.5982784 0.62690634 -0.88498694 -0.21948515 -0.652713 -0.51113397 -0.56666964 0.09758768 0.0039883056 -1.0539513 -0.7738951 -0.6371356 0.15880767 0.95150256 0.3321252 -0.29996943 -0.091677465 0.61132574 -0.5340527 -0.34161714 0.17614639 -0.21678534 0.4506494 0.6033426 0.5379148 0.872587 0.5490929 0.6501992 -0.0048227925 -0.38098437 -0.46849033 -0.5572228 0.70663035 0.32847664 -0.9181834 0.058814224 0.474476 0.76340044 -0.20255768 0.6629444 0.82296973 0.59299123 0.5016878 0.13103466 -0.8694006 -0.7183454 0.6413149 -0.045007993 -0.5986768 -0.16255692 0.3322915 0.14492826 0.82825357 0.2791227 0.086997926 1.002302 -0.05576444 -0.44344392 1.0128206 -0.21961355 -0.563464 -0.270618 -0.017144937 -0.23591973 -0.1365772 -0.75194037 0.5554088 -0.116151415 -0.18552457 -0.6943989 -0.72689116 0.10809631 0.7614317 -0.03722536 -0.6559084 -0.8078159 0.5137072 -0.7047234 -0.17708603 -0.17211707 -0.43973905 -0.74817586 -0.11820194 0.22517629 0.46503863 -0.07950245 0.20835942 0.23177895 0.35200804 0.16652592 -0.9091566 -0.03093941 0.3315813 0.5112334 0.54428464 -0.1270823 0.40707165 -0.6066234 0.47630745 -0.19147602 -0.2635478 0.15402934 -0.8068971 0.96848124 -0.4709168 0.49553013 -0.82677716 0.2990219 0.06644054 0.1715786 0.36042604 -0.8382701 -0.04279656 0.41414285 -0.13886903 -0.44324365 0.12392936 -0.73063827 0.3229312 0.2897594
('할','Verb') 0.19264366 0.21671225 0.27233383 -0.5334322 -0.008265142 -0.2936894 0.7634084 0.90243596 -0.46498388 -0.5197623 -0.04910066 0.31745028 1.116912 0.28108463 -1.0550032 -0.48196766 0.93403697 0.47459608 0.9199072 0.13531351 0.4572453 -0.31728885 0.2540318 -0.9610149 0.074065365 -0.46787977 -0.780395 -0.32536605 -0.47312805 -0.20666628 0.3471916 1.11487 -1.1754178 0.5850218 -0.75514835 0.2669712 0.71186626 -0.6812571 0.28745377 0.17949641 -0.35344622 0.35313872 0.6863976 0.11776384 -0.593677 -0.8090272 -0.3928216 0.101786785 -0.0059888856 0.10228128 -0.009554841 0.36636186 0.095206566 0.36638597 -0.79418963 0.18188117 0.5198015 -0.5052615 0.50812036 0.6077359 -0.67481524 -0.9188796 0.48625016 0.29960632 0.6938073 -0.30707747 0.57208 -0.53224456 0.53423256 -0.36050874 -1.0540706 -0.37429616 -0.03287408 -0.7949763 -0.73741853 -0.50831914 -0.78931206 0.6661138 0.2582899 0.13573216 -0.6721414 -0.89982945 0.13896571 -0.37438428 -0.35897702 -0.2564429 -0.43150124 -0.42407322 0.8718883 -0.82743293 0.35334584 -0.16556737 -0.53843945 0.38940588 -0.26701376 -0.31518677 0.032771353 0.025712365 -0.17471713 -0.42329782 0.18790545 0.4425003 0.6272312 -0.65591925 0.3961059 0.3034318 0.5185339 -0.8653705 -0.4200482 -0.819598 -0.4275666 -0.011506814 -0.54678094 -0.013489062 0.53666526 -0.68240386 0.612871 0.69029826 0.46037298 0.6139089 -0.88625646 -0.32295114 0.41444993 0.34143555 -0.4626545 -0.37248498 -0.940623 0.4963968 0.62241304 -0.03418344 -0.6088771 0.42317453 -0.6532881 -0.66926366 -0.12498388 -0.1541575 0.626398 -1.0347815 0.8573282 0.81108224 0.21046035 -0.08833016 0.10699312 0.40301818 -0.83270085 0.54989964 0.13968219 0.6272377 0.63593817 -0.7278221
('프로젝트','Noun') 0.16568032 0.1950163 0.18084589 -0.48497766 -0.23515995 -0.903916 0.5254687 -0.41346857 -0.4118827 -0.041354287 -0.5654542 0.43335038 1.0287609 -0.6245557 0.31479317 -0.5166453 -0.30902126 0.51451415 -0.18534584 1.0331378 -0.4685925 -0.8751774 -0.04622225 -0.19273686 -0.08936506 -0.26438162 0.3769226 0.13765946 -0.39628223 0.20554543 -0.952964 -0.17495272 0.52412057 -0.45447475 -0.7364209 0.34757057 -0.28061467 0.12062824 0.39745778 -0.48581618 -0.058064695 -0.83586246 0.016040556 -0.07698005 -0.27183366 -0.34628752 -0.390836 -0.8513689 -0.36900362 -0.3654119 -1.0702403 -0.26021683 0.032347143 -0.3129916 0.7183344 0.2865359 0.12051656 -0.16443183 -0.12705556 -0.14095819 0.46195588 -1.1490519 0.3513228 0.34340724 -0.31209525 0.5712804 -0.16650294 -0.4816113 -0.08389102 0.42379993 0.564619 0.7375599 -0.72350127 0.11397735 -0.19409896 -0.52450037 -0.14219801 0.30480123 0.53568923 -0.70910925 0.027167121 0.25648624 -0.5103051 0.10857669 -0.7575092 -0.68197393 0.3864493 -0.104696 0.05325925 -0.033990424 -0.52651626 1.0065157 -0.0035099275 0.7236525 -0.1404628 0.21704157 0.62773275 -0.8330796 0.76442957 -0.38172072 -0.10487603 -0.48932648 -0.12568659 -0.9660424 0.40690884 0.16807857 -0.8166614 0.11022393 -0.07164758 -0.54876006 -0.40739083 0.77992004 -0.50409025 0.43378797 0.45735198 -0.8646729 0.21378621 -0.5631608 -0.5226465 1.0000091 -0.83760375 -0.2691525 -1.0071305 0.19329162 0.49493212 0.88952696 -0.73221034 -0.19144407 0.33436954 -0.5496724 0.021016894 -0.4285685 0.41280523 -0.42490083 -0.3762198 0.84652627 0.094032325 0.0067989677 0.7513567 0.42081773 -0.14926387 0.009326854 -0.69396925 -0.2618585 0.41927713 0.7571252 0.5806533 0.33804387 0.95523477 -0.32667202
('로드','Noun') 0.70475304 -0.80868745 0.69801134 0.18536521 1.0952194 -0.12579243 0.496422 0.26426676 0.2859241 -0.43569803 -0.14541551 0.87439865 -0.22161269 -0.036112506 -0.79515785 0.75560594 -0.44969097 0.23812991 -0.41151422 0.43538263 0.60218805 -0.8769133 0.261184 -0.61127377 0.6697235 1.0583704 -0.17663257 0.21084861 -0.21395332 0.08799367 -0.9309306 1.0670562 -0.5541448 0.43745154 0.102565676 -0.5311786 0.4035101 -0.19130503 -0.21008226 -0.13556358 -0.53655916 -0.061895814 -0.35456848 0.74926406 0.47751623 0.019149255 -0.34668785 -0.24793778 -0.6917861 0.14932036 -0.5519825 -0.1691796 -0.19885175 0.09619623 -0.2717998 0.036054797 0.00054186565 -0.5500116 0.18300489 -0.7990387 -0.3414854 -1.1639587 0.14932482 -0.68838364 0.2110889 0.7192086 0.7398839 0.48413658 -0.16054831 0.54618484 -0.19853882 -0.5448854 -0.13900027 -0.4492344 0.52593017 -0.7883922 0.11937301 0.24679528 -0.5048026 0.9206341 0.3431471 0.40279168 -0.5790348 -0.03633339 0.49738395 -0.51448685 -0.8348115 -0.59500885 0.93033856 -0.46011722 0.7422745 0.35527098 0.31582963 0.8613534 -0.043160487 0.9784651 1.013493 -0.13461275 0.03698941 0.58847255 0.046034683 0.82644033 0.28272682 0.6848218 0.2561568 0.15934856 0.0075021163 -0.04079273 0.9896123 -0.020152828 0.48455825 0.4420117 -0.4883621 0.6114107 0.5763925 0.22778395 0.024562817 -0.7487644 -0.20247497 0.52810645 -0.84693 -0.26344207 0.1461784 0.16680627 -0.35263556 -0.521768 -0.7656834 -0.54998577 -0.6169887 0.41148466 0.4920162 -0.7423246 0.11464677 0.10009264 -0.32526562 -0.5320935 -0.41602403 0.16885646 0.40262815 0.58756256 -0.5629266 -0.39828733 0.92274654 0.1570318 0.303219 0.6285222 -0.5525311 -0.24378328 0.18763563 0.4090745
('하나','Noun') 0.4828811 -0.14160864 0.32713547 0.4747499 -0.08472728 0.5222675 -0.46561292 -0.3143018 0.063461624 -0.89419717 -0.4616547 -0.029393634 -0.27423257 0.34008917 0.32969892 -0.1931982 -0.14979461 0.45903555 0.40008864 -0.23042797 0.19044924 -1.0077963 -0.11442281 0.07503347 0.1477434 -0.105153844 -0.3714028 0.73957574 0.25767663 -0.28568786 0.4113405 -0.46743152 -1.1149737 0.31527594 -1.1238878 -0.5119915 0.6381491 -0.5493467 -0.2924513 0.74382585 -0.04185902 -0.6875848 0.24945273 0.64693964 1.124617 0.5157005 -0.1139383 -0.49942535 -0.45653126 0.52295893 -0.06293874 -0.28753296 0.5678619 0.94829136 0.739049 -0.83456975 0.35820037 1.2192627 -0.50636303 0.10883537 0.57535946 0.21307074 0.33502874 -0.14108242 0.79702735 -0.36211362 -0.65575695 0.44262838 -0.2682913 1.0373218 -0.93991363 0.48969275 -0.37801847 -0.26629072 0.42578274 -1.1489207 -0.14100352 -0.10175024 1.0100473 1.053169 -0.558033 0.2554116 0.29660752 0.23022662 0.49967504 -0.21480939 -0.3097274 0.24581325 1.0224513 0.263242 0.1773294 0.3344181 0.16117603 0.55553454 -0.19188243 0.0605387 -0.49369726 -0.68924105 -0.6268206 0.1551642 -0.1002066 -0.2340413 -0.19189094 0.27450293 0.55296147 -0.4782426 -1.1988907 0.49493036 0.69256943 -0.52984047 -1.142795 0.7545939 -0.7135337 -0.18024871 -0.17844442 0.13919407 -0.5911164 -0.12542333 -0.098837264 0.83348525 0.43427947 -0.21470007 -0.07786659 0.24691047 0.46966723 -0.030770892 -0.44342113 0.33344546 -0.6994088 -0.4297839 -0.139713 -0.27602664 0.7684181 -0.0109901875 0.71161586 -0.04152541 -0.6637427 0.23746471 0.22473592 0.31779638 -0.066082194 -0.024845352 0.62458277 0.44501844 -0.63636965 0.6881895 -0.54511565 -0.682384 0.4928079 -1.000917
('를','Noun') -0.5256401 -0.40901902 -0.12719569 0.2985858 0.012434741 -0.8173216 0.40567192 0.48776972 -0.24664237 -0.4000433 -0.27783325 0.2587878 -0.4942648 -0.79413253 0.7091662 0.5006706 -0.022086624 0.8636438 0.19411886 -0.03143352 0.038239162 -0.85677916 -1.0419978 0.17235121 -0.73219335 0.848809 0.4464795 -0.4758736 0.75894916 0.08445156 0.09314003 0.97317123 -1.0097986 0.08859428 0.12356843 0.6967626 -0.71234393 0.75124633 -0.118340135 -0.5314564 -0.25114316 0.5311285 -0.0036915322 0.37599912 0.5578485 0.5322905 0.6195395 -0.030862916 0.60441023 0.26597738 -0.19396457 -0.60384095 -0.70043355 0.6988408 0.021164985 0.942795 -0.3827016 0.8715913 0.6678353 0.36220852 -0.477835 0.36863276 0.57762015 -0.3194109 0.2825401 -0.28384218 -0.109229386 -0.35838133 0.20716533 -0.07902434 -0.52066207 -0.3241888 -0.6703175 -0.38655165 0.67648685 -0.70410717 0.7234764 -0.02205334 0.8097639 0.5374499 -0.93465364 0.5893074 -1.0899982 0.8670666 -0.18766034 0.35137573 0.77489614 -0.018353645 0.19632244 0.50557375 -0.62680876 0.7737861 -0.42969328 0.82037616 -0.25870997 0.36605632 0.43137005 0.23886947 1.0211178 0.52411526 0.27392837 0.07546059 -0.19261047 0.034795962 0.815365 -0.17612687 -0.46902737 0.20982847 -0.50483584 -0.065306194 0.61916316 -0.39189938 0.5191636 -0.60324794 -0.24220337 0.95835966 0.67726594 -0.33346522 -0.92878914 -0.54806745 -0.14797466 -0.18807091 -0.5434104 0.015401192 -0.30711558 -0.7114179 0.6899711 -0.9381823 -0.12784587 0.022351481 0.1052735 0.44900915 -0.6809454 0.6230868 -0.5744466 0.7727492 -0.8083005 -0.12984823 0.9037364 -0.16087767 0.59349823 -0.86206573 -0.40620685 0.16647464 -0.14946096 0.1143237 0.031419832 0.6555812 -0.34219655 -0.68060035
('설명','Noun') 0.6355206 -0.41671342 -0.041937783 0.015913151 0.40396523 -0.2966621 -0.6845198 0.56754327 -0.5217569 -1.2062465 -0.23866482 0.52465993 -0.23159814 0.35363728 -0.51277983 0.47864556 0.13724026 -0.08756014 -0.6137795 -0.25310394 -0.00675238 0.50621784 -0.07183701 -0.84832925 0.83662814 1.1061531 -0.7572846 -0.47899196 0.3829404 0.6675714 -0.7781135 -0.42142764 -0.8625937 0.4165618 -0.86033607 0.16776018 0.6605293 0.5538819 0.31491643 0.1254256 -0.3226541 0.31672952 0.57066035 -0.08816948 0.9021209 -1.006418 -0.2765006 -0.36170572 0.07412378 -0.8592448 -0.8017252 -0.03553045 0.8227662 0.19792221 -0.4840939 0.60378087 -0.49317482 0.373178 -0.80917937 0.4483145 -0.081651516 -0.64629674 -0.5446157 -0.278831 0.26151282 -0.023857765 -0.68618023 0.91087437 0.34858143 0.9273739 -0.26815584 0.35929313 0.25816324 0.2120009 -0.50669175 -0.7281197 0.08081231 0.62432635 0.18256506 -0.12764531 0.38840398 0.71488553 0.7295766 -0.43360454 -0.75032276 0.4113651 -0.06561654 -0.36828816 0.003401516 -0.3563386 -0.36527312 0.10379029 0.68075633 0.42833987 0.3038839 0.7435183 -0.3744012 -0.2893144 -0.038169697 0.71547234 -0.43001673 -0.6556307 -0.3114298 0.611161 0.55015194 0.19725366 -0.800229 -0.33367547 0.86478066 0.61932135 -1.0088494 0.07852238 -0.8319739 0.3558584 -0.3349246 0.43615603 0.71276206 -0.05670963 -0.7703241 -0.5596402 -0.6187044 0.6379531 0.20960926 0.678332 1.0045098 -0.727143 0.2857453 0.65361106 0.42190713 -0.46378267 -0.03578998 0.25811735 -0.6566938 0.01525739 0.44676983 -0.6421846 -0.8504095 -0.66652787 -0.031517893 0.22098403 -0.29950407 0.71372575 -0.54440904 -0.6473691 0.5640515 -0.124224335 0.1709018 -0.45870593 0.40999433 -0.52070975
('에는','Josa') 0.18680993 -0.29473615 0.056828175 0.8988418 -0.45886433 -0.13493168 0.4901334 0.6029235 0.5753537 0.32026625 0.6773575 0.43581215 -0.28432572 0.35422382 -0.15229347 0.7462249 0.58953136 -0.8108192 -0.3746342 0.23125738 -0.27782366 0.7258274 0.4445198 -0.871273 -0.25438997 -0.8633188 -0.25282374 0.7024045 -0.84221476 -0.44334114 0.5050923 -0.39212936 -0.8595178 0.22169134 0.0325544 0.29627773 0.6187551 -0.6213794 0.75709236 -0.63960665 0.18653086 -0.7070647 0.15826786 0.93053484 0.52628684 -0.88839436 -0.12536487 0.25712207 -0.8057954 -0.35185486 0.027026264 -0.39388093 0.1734953 0.47326618 0.61253226 -0.7336153 0.053502314 1.0327772 -0.33419952 -0.6769714 -0.6645881 -0.8431269 0.45090482 0.3935465 -0.08935255 -0.46983927 -0.13749425 0.15147033 -0.9132156 0.25950304 -0.7273003 -0.7057328 0.84107727 -0.6642923 0.22079985 0.15754813 -0.75249654 -0.6546907 0.3054424 -0.42218316 0.51198435 0.49960127 -0.47888884 0.039792597 0.742004 -0.10373777 -0.7133369 0.009352503 0.52496785 0.2618537 0.36653054 0.80909985 -0.6889746 -0.514078 -0.8668125 0.44530833 0.17649108 -0.89885676 -0.18738542 -0.34825614 0.78855217 0.7274896 -0.7134577 -0.3679521 -0.12786067 0.5249532 -0.5802545 -0.6916286 -0.623494 -0.43652147 -0.057185505 0.87063336 0.3188679 0.13452789 0.49089357 -0.92216134 -0.04525636 -0.15948948 0.20608048 0.20532885 -0.7536479 0.14627299 -0.32665154 0.64840794 -0.6774743 0.5777041 0.6685841 0.8063831 0.5344886 -0.70893407 -0.4168416 -0.3882144 0.35282275 0.73646957 0.51196206 -0.10575655 0.5469358 -0.03913283 0.25416353 0.10514872 0.50419056 -0.48809475 0.02689305 0.58454245 -0.15544496 -0.46342131 0.35141248 -0.802322 -0.6408132 -0.22943114
('2','Number') -0.2985525 0.4505115 -0.3212568 -0.36997727 0.892273 0.23021875 -0.5637353 -0.015453581 0.88475394 -0.5843845 0.4073872 -0.33357942 0.103137925 0.36265233 -1.0339994 0.01868417 0.25427473 0.12701406 0.9520962 0.39442086 0.219195 -0.5879745 -0.34400293 -0.8671103 -0.7002857 0.7731536 0.65047425 0.019022087 0.59470797 0.69444114 -0.30217186 0.23054272 -0.07526142 0.4655504 -0.17608896 -0.38333738 0.10980065 -1.1038897 -0.28843254 -0.7910609 -0.19605093 0.6773896 -0.567218 0.11540543 0.5978742 -0.1376981 0.016135437 -0.15536834 -0.55163175 0.23785006 -0.9253258 0.16310918 0.81937575 0.82885927 -0.30659997 0.5201163 1.0170771 -0.19367318 -0.32735783 0.86634797 -0.04639437 -0.8793648 0.18307132 -0.3285265 0.26527107 0.22402555 -0.3180849 -0.6468928 -0.61060345 -0.5179166 0.3464274 -0.67102903 0.42374414 -0.9633059 -0.17912158 -0.36160415 -0.15233359 -0.7794024 0.5327648 -0.7911682 -0.24635729 0.011034495 0.6879108 0.5838734 -0.96303487 -0.35690904 -0.61274457 0.056749318 0.6976936 -0.3153971 -0.1672765 -0.110149466 -0.007083211 -0.11272729 -0.2702496 -0.65606856 0.33027875 -0.46887532 0.7031525 -0.55701375 -0.8891915 -0.18332124 -0.7677898 -0.03713972 -0.6335644 -0.49205765 0.39863783 -0.32840648 -0.19244866 -1.3061823 -0.2236125 -0.51445174 -0.928967 0.95234305 0.29808956 0.5087773 0.3515831 -0.49335602 -0.484013 0.55184054 0.73978466 0.16537103 -0.7304756 -0.6821407 -0.5747005 -0.6930861 0.3071072 -0.47827438 -0.14238529 -0.8025605 -0.7744227 -0.21196526 -0.6407565 -0.22093517 -0.5136109 0.4831183 0.61028457 -0.8853283 1.0684296 -0.57258236 0.027928565 0.304753 -0.06948445 0.6497025 0.40807354 0.8694015 -0.023942662 -0.20045313 -0.13543586 0.18861671
