1150 50
('적','Suffix') -0.45020232 -0.6705509 0.5352599 0.03095692 0.28027058 0.5306338 -0.6118194 -0.1966335 -1.0326784 -0.027719732 0.40743056 0.16162716 -0.05984502 0.73757774 0.23164673 0.085370064 -0.05970983 0.32727847 0.097202204 0.29126942 -0.757959 0.3707847 0.5330927 -0.026857944 -0.4364134 -0.6852578 -0.12079436 0.29607752 0.11653733 -0.41651383 0.31337097 -0.14789006 -0.78516793 -0.6489403 0.4548151 -0.028636701 -0.23898974 -0.31330302 -0.42623162 0.5166976 0.22224289 0.01959698 0.4505889 0.25432235 0.6140294 0.19082108 -0.028373899 0.79548126 -0.75063163 -0.7170568
('번','Noun') 0.11117624 0.47616148 -1.0436004 0.087197505 -0.4535829 -0.37991622 -0.6192096 -1.1490324 -0.5910998 0.16867748 0.38830462 0.12508906 -0.88636345 -1.0073227 0.34919646 0.52227545 0.7291536 0.850152 -0.72644806 0.117148794 0.484929 0.65642357 0.15705086 -0.20872326 -0.48448622 0.1854991 -0.012411398 0.15629964 0.48659715 0.5717498 0.5723992 -0.7777041 0.1730905 0.6012268 -0.52605045 0.06431639 0.8306894 0.06953699 -0.8272391 -0.7016942 0.99132216 -0.95799494 -0.031327356 -0.18392526 0.19855267 -0.48482487 -0.025885794 1.2689395 1.2326484 -0.4981277
('개','Noun') -0.4823017 0.74592125 -0.64920545 0.49712816 -0.22117072 -0.49937484 -0.58906037 -0.59444636 0.6101023 0.1353666 -0.7711322 0.015723053 -0.11510854 0.8920469 -0.5151777 -0.87032264 -0.14898132 -0.70562476 0.044527143 0.24578908 0.3025186 0.7484228 0.2569694 -0.48108512 0.78945607 0.3552583 0.44969118 0.09305929 0.0115556335 0.34959552 0.7537513 0.32207882 -0.6461709 0.598273 0.0026715456 -0.739815 0.3540223 0.0033503156 -0.6036092 -0.7917626 -0.25955302 -0.11864971 0.31977716 0.24892166 0.79692954 -0.5031275 0.5484963 -0.4387084 0.81144917 -0.098735794
('수업','Noun') 0.11179991 0.080350675 -0.61058444 0.030717354 -1.2861786 0.6544887 0.05187225 -0.47679812 0.32346204 -1.0389024 0.5637955 0.18925782 0.59671 0.4049557 0.6165324 0.08519544 -0.5039683 0.19300418 -0.37149823 -0.027730193 -0.53963447 0.6633232 -0.18893445 -0.49220356 -0.20315522 1.2516536 0.2520654 -0.18957001 0.7450236 0.3448071 0.7376298 0.20333658 -0.22413112 0.38704923 0.0868325 -0.6532237 0.36248088 -0.7461003 -0.59993863 0.07565448 -0.71279424 0.7917032 -0.36615032 0.82164806 -0.0007634752 0.092081696 -0.14765672 0.4490482 0.34721223 0.19925065
('점','Noun') 0.32845584 -0.19968985 -0.7030953 -1.2253045 -0.5915081 -0.011574732 0.24528658 -0.6240282 -0.37245727 -0.5474279 -0.016255109 0.32352167 0.51317114 -0.94054 0.15990208 0.2958655 0.96818805 0.7183081 0.34251574 0.26465094 -0.48129818 -0.48172146 -0.56453705 -0.4707787 -1.1403347 0.5787649 -0.13621227 0.95627296 0.6845947 0.63240814 0.88429105 0.09735302 -0.19346243 -0.06758513 0.39031976 0.20079096 0.13405281 0.51767904 -1.1912603 -0.72579235 -1.0285497 -0.8997247 1.2943367 -0.3248808 0.86458135 -1.061964 -0.19138601 -0.65240204 0.23049721 0.066220425
('2','Number') -0.44767776 0.8522834 0.54207873 0.5203242 -0.42396465 0.8881886 0.5364893 -1.0769432 -0.4664779 -0.6893788 0.42530555 -0.6734956 -0.91120905 -0.5445904 0.69980764 -0.77167565 -0.3373054 -0.45425418 0.7492114 0.076194294 -1.159251 0.83953255 0.6043354 -0.811767 0.44380617 1.0038059 0.47284415 0.10548734 0.7266699 0.04702451 1.2269341 -0.22726353 -0.487006 1.3421648 0.10694167 -0.020647695 -0.7358812 0.04613384 -0.44902116 0.75412816 0.77607054 -0.54065996 0.62606686 0.080413826 0.43923524 -0.33789584 1.0485275 0.7553432 0.08761318 0.2597711
('교수','Noun') 0.6122179 0.51751 0.4686375 -0.57280976 0.03588829 0.35853156 0.13982254 -0.2899487 -0.6583082 0.23269652 -0.062433846 -0.35903567 0.7646311 0.23143822 -0.79763466 -0.41627702 0.73717 0.6628988 -0.08514627 0.47209355 -0.7923143 -0.033796553 -0.3766234 -0.7408782 -1.2224672 1.1848694 0.52622086 0.2189915 -0.14859678 0.5342148 0.25931484 0.12364748 0.09601998 0.8136426 -0.28889632 0.35971335 0.2917811 0.66614395 -1.0004888 -0.90645665 -0.46617523 0.086658336 0.093756065 0.87648356 0.027215 -0.2041148 0.68003094 0.29765692 0.2607663 -0.6369736
('시험','Noun') 0.73293066 1.3270928 0.38671288 -0.3668535 -0.8576692 -0.21462542 -0.3569418 -0.51541376 -0.58460146 -1.0869985 0.48130053 0.6233578 0.5213406 -0.46202606 -0.6907676 -0.8428115 0.03889495 -1.1078792 0.40113875 0.281262 0.6704714 0.633189 0.7923039 -1.2998697 0.06243661 0.8053554 -0.9645261 0.7344871 -1.0735301 0.21558976 0.33804005 0.39931872 -0.17742209 -0.36457065 -0.6791196 -0.8754149 -0.27106258 0.26192012 0.11555784 -0.7750435 -0.7442741 -0.2727995 -0.09155694 -0.40900165 0.01240999 -1.0703444 0.9111135 -0.023278126 0.12789029 -0.80752665
('강의','Noun') 0.06790098 1.0360196 0.25608993 -0.58022827 -0.06835345 0.33659816 0.30787754 -1.1012015 0.56587255 -0.051567186 -1.0151207 0.104949705 0.7824747 -0.31006852 -0.25695816 -0.2613492 0.18348034 0.6423893 -1.1032349 -0.22816128 -1.2131447 -0.71160895 -0.8246457 -1.3324177 1.0594972 -0.23480211 0.3512225 0.71183836 -0.22710587 0.90761256 0.6707084 0.08469544 0.07669384 0.6754003 -1.0645239 -0.2153096 0.3656701 0.9751685 -0.049460396 0.52754295 0.27947018 -0.16035432 0.48757273 -0.8740207 0.28873992 0.4422545 0.98657674 0.067204185 0.33251563 -0.4601025
('문제','Noun') 1.0763077 0.21740632 -0.018744553 -0.10393001 0.2801022 1.0867815 0.19000758 -0.7469871 -0.7160501 0.079154514 -0.48381567 0.5905291 -0.09149153 -0.11638819 0.11504946 -1.1785817 0.82377493 -0.28751627 0.121780224 0.17539641 0.4670602 0.71614116 0.9099465 -0.015224511 0.05163976 -0.5447368 0.28412834 1.1106414 -0.26693004 0.61422664 0.5858242 -1.0139815 -0.286345 0.7257353 0.4948941 -0.6784644 0.39020517 1.2848183 -1.0077152 -0.37651205 -0.35913447 0.61050254 1.1706446 0.544356 -0.17334007 0.29450154 -0.31918427 -0.38990662 0.60382974 -0.556721
('1','Number') 0.71398306 1.3459978 0.1811091 -0.79659015 0.02720208 0.12280437 -1.0119833 0.4652136 -0.14541426 -0.095267214 -0.0909782 -0.42322308 0.8279773 -0.24443066 0.19689794 -0.61715627 -0.4166271 0.5335789 -1.0642854 0.15229803 0.41013786 0.56313086 -0.48486194 -0.8660846 -1.0744375 -0.2494905 0.79912657 0.5318138 -0.063907616 0.01622493 0.859987 -0.15214366 0.50165373 0.22526383 -0.26163697 -0.87187237 -0.55940396 1.1335421 -0.12694408 -0.44961673 -0.6135087 -0.25880048 0.57291305 0.40180093 0.82591844 -0.21312128 -0.025695655 -0.24148962 0.35285404 -0.29512388
('3','Number') 0.47354323 0.04519374 -0.33673942 0.5017162 -0.8766182 -0.19204119 0.532975 -0.68011695 -0.282981 -0.074900605 -0.049857426 -0.9094438 -0.4150648 -0.23424098 0.14406833 0.014292874 0.6756148 0.9024305 0.48757043 0.9598396 -0.15542653 -0.57044977 -0.43951464 -0.06063477 0.5823834 -0.2808595 0.49199894 -0.4132067 -0.49679685 0.52354634 0.51384956 0.15428507 -0.13874818 0.6200861 0.027905956 -0.73887694 -0.5228845 0.64790624 -1.0418092 0.70680946 0.55797315 -0.5709191 0.064532295 0.8949777 1.0062146 -0.40419665 0.5349311 -0.11369589 1.2714082 -0.9978938
('이','Determiner') -0.16818056 0.12393197 -0.16263199 -0.6252317 0.23018518 -0.028490493 0.0826808 -0.34065706 -0.36293986 -0.7511624 -0.632904 0.6374854 0.14520769 0.17176344 -0.082454816 -0.7279572 -0.8788353 -0.71793956 -0.17636816 0.71762246 0.16845208 0.43722498 -0.43557343 -0.91933167 0.14539056 -0.53285164 -0.39516884 -0.22733857 0.69344896 -0.33587998 -0.87739325 -0.3120689 -0.75150305 -0.07399056 0.96716684 0.5772938 0.6909253 -0.03870291 0.23576842 0.18469799 -0.7097909 0.83775544 0.70485646 0.22368541 0.91905785 0.9908127 0.7508711 0.13426194 0.22912675 -0.7833
('님','Suffix') -0.6814002 0.8883469 -0.65363944 0.36146513 -0.099399105 0.5123064 0.5633027 0.28168774 0.3981302 0.45582384 0.110444486 -0.69705343 -0.7484583 0.4194414 -0.18295223 0.25024495 -0.10960724 0.32031584 0.9077312 0.30551872 -0.4670163 -0.75166726 -0.48299423 0.82577235 0.76869947 -0.017233014 -0.19895433 -0.25163788 0.57963663 -0.57386786 -0.6835053 -1.1123431 -0.052032888 -0.31080544 -0.9438539 0.7390746 0.976708 0.19706453 -1.0427918 -0.24347354 0.45892355 0.37579605 -0.33926925 0.019615555 0.3475113 0.077511534 -0.37832505 0.87863314 -0.56477374 0.76162785
('과목','Noun') 0.27413714 1.0920913 -0.029980209 0.024723545 -0.4164275 0.2115437 0.37159267 -0.28429574 0.5890605 -0.2949615 -0.10098238 -0.16921626 0.71901774 -0.4551244 0.48378035 -1.19588 0.26881334 0.28018644 0.13511722 -0.29047063 -0.5941737 -0.34112632 0.9380793 -1.0875077 -0.080880545 -0.53074074 -0.2118697 0.21442176 -0.0015518605 -0.10603842 -0.27700195 0.2347319 -0.64106005 0.2625831 0.33026317 0.19003594 0.3627791 -0.19433664 -1.1450641 0.66541904 0.45621613 -0.19701491 0.8587166 0.36298484 1.4360379 -0.13096231 0.90132195 -0.20470011 0.4532412 -0.56427616
('시간','Noun') -0.032772448 0.7044288 -0.6238603 -0.36126754 -0.9771656 0.18948892 -0.6642747 0.8569488 0.6820772 -0.897281 0.024495788 -0.7464748 -0.06991334 0.08153448 1.2405802 0.1828179 0.7284476 0.65718824 0.17033462 0.47750217 -0.17623903 0.37553895 0.09326838 -0.82151324 -0.19900699 0.25876456 -0.77402574 0.67866963 -0.3654728 -0.42860365 -0.25612217 -0.6551632 0.18374665 0.8292665 -0.0017723524 -0.7743953 -0.5093109 0.19443907 -0.5922292 -0.95483476 -0.49957967 -0.17200412 0.8630319 0.33498183 -0.2771522 -0.79635346 0.71810895 0.98597044 1.0101523 -0.17103328
('중간','Noun') 0.8236886 -0.17566548 -0.30215225 -0.36217493 -1.1856418 0.60777557 0.76770806 -1.104875 -0.8252822 -0.18822098 0.7603583 0.66521883 -0.5837568 -0.17561549 -0.21681045 -1.0984737 -0.014833981 0.7354028 -0.3103338 -0.056664553 0.4449873 0.19058223 0.17022584 0.10533153 0.30366838 0.7799824 0.9599292 0.29152393 0.73755556 0.77502364 0.26925224 0.77774686 -0.25741297 0.7996787 -0.10735612 -0.79597133 0.117220886 0.50072354 -0.05646979 -0.6304894 0.5795266 0.33462498 -0.12299736 0.5228658 1.3852283 0.278356 -0.46767902 -0.15026636 0.58992773 0.24409117
('학기','Noun') 0.61325276 0.046036065 -0.97677433 0.5765945 -0.81670934 0.7681715 -0.5781477 -0.4532877 -0.7860926 0.027094275 0.045010675 -0.5718241 0.9106349 -0.14400065 0.480306 -0.35111657 -0.4948343 0.14711134 0.07518224 0.6692915 -0.298543 -0.11475007 0.0023255316 -0.5012579 0.4974931 -0.19085912 0.24124566 0.64554656 0.78434926 -0.4159211 0.68295944 -0.73079705 0.037849803 0.8122422 0.7644696 -0.6459522 0.11402131 0.6670397 0.15645672 -1.0419726 0.4168044 1.0503665 -0.82776845 0.9570208 0.69421524 0.22620592 1.1267493 0.8446689 1.3744624 0.5380014
('4','Number') 0.051901378 -0.29789266 -0.7140371 -0.13478845 -0.5388891 -0.07165943 0.10421049 -0.6153684 0.20957693 -0.21373318 -0.79612225 -0.32843357 -0.8468433 0.54646367 0.32629612 -0.86781853 -0.39115074 1.1084934 0.35725003 -0.28866082 0.41629705 1.1064625 -0.42857042 -0.43895367 0.46720386 0.5561646 -0.3756798 0.39764607 0.12927394 -0.18884169 0.6143793 -0.073323674 0.09340506 0.52770466 0.4940481 -0.87995064 0.47327107 0.62736946 -1.0705329 0.801554 -0.6086781 -0.3568023 0.6968801 -0.50591975 -0.20438641 -0.45071808 0.8481956 0.6561296 1.2692269 0.44019476
('명','Noun') 0.5109326 0.53545433 0.66648984 -0.8951116 -1.0219265 0.34126797 -0.7571213 -0.5698133 0.5272905 0.46021423 -0.8048915 -0.79206246 0.28411034 -0.2995756 0.38942286 -0.6072212 0.22901171 0.45861438 0.2882234 1.1119394 -0.4579431 0.08267657 0.595078 -1.010798 0.38405076 0.81718624 0.36178333 -0.2265119 -0.38926855 0.18176165 0.982344 0.83944464 0.18542495 0.33171302 0.41402993 -0.12893075 0.056510482 -0.25989074 -1.0227875 0.21212716 0.52573115 -0.36067417 0.076788664 -0.0682075 0.2485413 -0.62085253 -0.3076801 0.96957105 0.3919294 -0.27400437
('것','Noun') 0.9995655 -0.15533948 0.026190626 -0.46573058 -1.3517306 -0.2676971 0.82838553 -0.90860313 0.74113476 -0.98484087 0.12541057 -0.06941776 0.4971366 -0.81543684 -0.87630594 0.21407141 -0.24410848 0.8297478 0.02047875 -0.46460938 -0.8021331 0.6421656 0.9192669 -0.38661376 -0.111476466 -0.3329193 -0.06582673 -0.34723353 1.0135754 -0.29402822 0.4512456 0.46119508 -0.8629359 -0.541828 -1.0869241 -0.79199815 -0.5530345 0.70217806 0.012455636 0.18731576 -0.21047345 0.5696354 0.60945094 0.27173436 -0.1615433 -0.97230786 -0.76196504 -0.5568501 -0.1207736 -0.49441192
('과','Josa') 0.90465975 -0.1871389 0.47737393 -0.023141783 0.9722689 -0.943822 -0.56352603 -0.42206773 0.013516803 -0.7697138 -0.82850665 0.53522986 0.09072443 -0.3974665 0.8787209 0.63413775 0.80476195 0.6027411 -0.46638435 -0.079332545 -0.7712263 -0.34234774 -0.5797352 0.37626216 -0.5810866 0.835443 -0.49842837 0.384415 -0.48094684 -0.109121904 0.4993801 -0.7590893 -0.516085 -0.37035584 0.16050076 1.0086474 0.34489346 0.733655 -0.79058707 0.51278603 0.46472302 0.81501585 -0.34760627 -0.3201513 -0.42284593 -0.73386824 0.02322565 -0.68042326 0.56078196 -0.014811942
('학점','Noun') 0.26439747 -0.05957658 -0.30662325 0.3635447 -0.29762033 -0.00070073246 1.1769773 -0.78779876 0.69414866 -0.6672962 -0.29122663 0.8808329 0.7352645 0.5588491 -0.81994045 -0.90000594 0.90747046 0.32486877 -0.065884106 -0.009776959 0.01668284 0.72136 -0.30216596 -0.48701617 -0.5672234 0.36641857 0.4150302 -0.1493009 -0.19452693 0.017942304 -0.1134973 0.40142974 -0.12448504 -0.21350278 -0.658215 -0.7524483 0.28210846 1.0796509 0.088509224 -0.5323403 -0.3705256 -0.6462386 0.90021855 -0.46945447 0.23050277 -0.17842923 0.33691815 0.12065193 0.62909985 -0.9097027
('전산','Noun') 0.39396703 0.442324 0.6998036 0.675745 -0.92099434 0.18691434 -0.18858266 -1.9124509 0.6757999 0.033875618 -0.6512159 0.15897948 0.3735119 0.6261382 -0.66613215 -0.3418868 0.30116662 -0.42743108 0.13060144 -0.09291409 -1.2280354 0.96194285 -0.71603996 -0.2666364 -0.44772598 0.2696117 -0.29580334 0.45281044 -0.3923725 -0.16768637 0.3452977 -0.40826687 -0.899669 -0.33738104 -0.7738586 0.25902018 1.0078114 0.5485053 0.42505684 0.2837117 0.52679354 1.0568528 -0.07096686 0.28127897 0.12108427 0.29428723 -0.42844263 -0.25728372 1.6048802 -1.0735478
('코딩','Noun') 0.63008136 1.0540721 0.43771875 -0.47075722 0.3618456 1.0396975 0.14367528 0.102007985 -0.15170231 -0.53666234 0.05044461 0.85759485 0.5438297 -0.20407224 0.71362424 -0.113330066 -0.08589095 0.6815621 0.11928358 0.21533342 -0.87882626 0.5625594 0.406786 -0.4452763 -0.81490904 0.7589169 0.7309528 -0.42984176 -0.7626998 -0.3602202 -0.28328723 0.22552405 0.06635124 1.1886663 -0.94184893 0.14927855 -0.14219393 0.24672297 -0.93439287 0.14895129 0.045560963 0.7706774 1.0579358 0.28061113 -0.53206 0.23641284 0.12807143 0.8954968 0.45205802 -1.068818
('구조','Noun') -0.18393832 0.91594577 -0.35560206 0.45087257 -0.28668925 0.6190132 -0.33384857 -0.54365796 -0.66560423 -0.6344064 -0.21982022 -0.97462565 0.6136085 0.32366818 -0.7874558 -0.859074 -0.22271061 1.1253005 -0.7108141 0.11443382 0.69891113 -0.27876374 -0.09797354 0.60005504 0.2522976 0.7062306 -0.15629974 0.9029128 -0.19142571 1.3319895 -0.45786223 -0.28851226 0.15748926 0.4688781 -0.72176707 -0.66316676 -0.5613262 -0.8379531 0.86583275 0.12704666 -0.43044207 0.08979014 0.5224152 -0.92329806 0.11313083 -0.9779148 0.6509981 0.762386 0.5702234 -0.64484334
('10','Number') -0.5798754 0.012779433 -0.8454649 -0.5319289 -0.27496353 0.17161278 0.40020907 -1.4357829 0.39535397 -0.17831668 0.011287297 -0.12258786 0.8915464 0.91472113 0.18478891 -0.6599323 -0.6048601 -0.7215359 -0.08061552 -0.4356199 -0.15789495 0.061595764 -0.12449038 -1.4456593 -0.61927885 -0.61726904 0.83831304 -0.12756006 1.0516561 0.044251624 0.43977648 0.004557864 -0.7408325 0.36828393 -0.40394637 -0.91439116 0.6945026 0.50292724 0.4377806 -0.9247307 0.94652593 -0.18099721 0.35170233 0.5831961 0.7458665 0.093659274 0.4780755 -0.02738706 0.46899202 -1.1716673
('생','Noun') 0.35992685 1.5296688 -0.95521456 -0.89306104 -0.6549187 -0.12091557 0.49596643 -0.5234811 0.70303684 -0.5825436 0.2426848 -0.3242027 -0.16579989 0.33680028 0.034712866 0.018072369 0.8933798 -0.3038775 -0.839731 -0.18161868 -0.6103689 -0.19707799 -0.47643778 -1.3214179 0.005307958 -0.29081768 -0.1787861 -0.36212617 0.5964795 0.7600702 0.42255825 -1.0221978 0.7462679 0.16764514 -0.6227205 0.35800713 -0.3351545 0.42102924 -0.6264897 0.2754907 0.22075215 0.60932875 0.04203148 0.13083771 0.2775472 -0.102957994 0.023132756 -0.39623037 -0.01572556 -0.07689155
('오','Modifier') -0.59938323 -0.47922808 -0.012167898 -0.058060665 -0.46224296 -0.7174235 -0.9250051 0.33998343 -0.39870843 -0.04841349 -0.8364926 -0.13365078 -0.5727411 -0.5143336 0.03535756 0.5037729 0.25037387 0.15327005 0.32330403 1.0221184 0.91055954 0.8824785 0.5212747 -0.45322478 0.04050852 0.55060756 0.6926307 0.20026085 0.9452488 0.8260401 0.28845194 -0.92267615 -0.52186775 -0.14406908 -0.06598185 0.07639744 0.4560683 0.5514026 0.27031967 -1.0351417 -0.41348836 -0.50062925 0.578207 0.8109237 0.84294355 -0.26306123 0.93515325 -0.6282636 1.2143134 -0.06057273
('기','Modifier') 0.4395515 -0.30849785 0.3794326 -0.63914096 -0.18506546 -0.5681172 -0.8115769 -0.40663427 0.102041714 -0.45217228 0.42293757 0.014202651 -0.88269794 0.21880704 0.3251739 0.16575351 0.8271099 -0.33258033 -0.31737062 0.40243608 -0.6999194 0.17025436 -1.026727 0.36778855 -0.4196118 -0.23364857 0.46247587 -0.8745871 -0.2273479 -0.6958298 0.4825945 0.90127003 0.5088734 0.4774872 0.1408436 -0.2570093 0.6362498 0.080115356 -0.28933328 -0.5057331 0.4977649 0.49360844 -0.25412357 0.2577727 -0.43505442 0.22836237 0.31079972 -0.95896864 0.57736576 -0.22164473
('말','Noun') -0.56105864 0.12195689 -0.37263128 -0.732791 -0.32779607 0.7458308 -0.45903498 -0.010480139 -0.6311322 -0.89704305 -0.09790046 -0.4926903 0.08532651 -0.53854346 -0.81336236 -0.87903816 -0.1792615 0.883696 0.8868419 0.859924 0.29238537 0.9299351 0.7943514 -0.22773254 -0.84444743 0.840666 -0.8138418 0.8502674 0.8841022 0.042251825 -0.7328878 0.062010184 -0.29784924 0.79173476 -0.5852704 -0.38292992 0.04655041 0.95679593 -0.36609107 -0.3146005 0.18928063 -0.5132785 0.97596914 0.21822119 -0.057312235 0.058338802 -0.6079973 0.35135573 0.970719 -0.23196101
('숙제','Noun') 0.24469955 0.64132375 -0.08585043 -0.5846011 -1.3075027 0.05992905 -0.48577604 0.43355 -0.18684357 0.42873284 -0.67091537 0.9522771 -0.85192704 -0.13516057 0.8388278 -0.5735762 0.96489835 -0.6118161 0.360803 0.28631088 -1.1517491 0.8715055 0.89773315 -0.6762691 -0.053338926 0.9030342 0.4760332 0.4553025 -0.43506652 0.85899043 -0.88287413 -0.3271012 -0.17426722 -0.37785646 -0.34269464 -0.46066087 -0.10910014 0.49011263 -0.05913239 0.46618187 -0.91481614 0.90670234 0.09345691 -0.2555014 0.87404 -0.87724924 0.88543415 0.9653194 -0.13799693 -1.2346691
('공부','Noun') 0.3324532 -0.040424082 -0.17701982 0.42295474 -0.93692726 -0.075941764 -0.43767235 0.1969105 0.4226322 -0.70442766 -0.16781908 0.8775127 0.37353668 -0.14912568 -0.28230345 -0.984589 0.6561216 -0.4697649 0.21197256 0.8250785 -0.6627037 -0.59489834 0.5389342 -1.2302967 -0.96141803 -0.14070779 -0.3358007 -0.31615436 0.35712534 0.013084545 0.72963893 -0.4641038 0.002534938 0.92582685 0.46838844 -0.81885874 0.914154 0.26634917 0.03565626 0.26993042 -0.6287969 0.753627 -0.37456658 0.7145437 0.25915226 -1.0239345 0.7124873 0.4402722 0.88295406 -0.79748
('영어','Noun') -0.14086348 1.3452835 -0.113343135 0.0857634 -0.61747414 0.27137783 0.29492393 -1.0463217 -0.46280694 -0.43476823 -0.4969508 0.39595985 -0.3187447 1.1295577 -0.43836668 -0.13489306 0.793391 0.608064 0.2305866 -0.42453972 -1.073691 0.050126933 0.38841757 0.4558129 -0.0059221704 0.9531557 0.1277158 0.67961663 0.22887518 0.72097564 0.38197032 0.8697649 0.8431976 -0.69521767 -0.5306901 -0.94492334 0.38996065 -0.69801027 -0.6508001 -0.1320733 -0.43037733 -0.7682702 0.1848025 1.0822619 -0.56287414 -1.0819571 0.9481182 0.8657485 -0.26712796 -0.6837937
('하나','Noun') -0.22132221 0.88073105 -0.20705277 -0.3032486 -1.3154026 0.7708618 0.7962107 -1.0963199 -0.7928581 -0.9958132 0.6378324 0.2332327 0.30562386 0.16578639 -1.1092377 0.33983028 -0.2200586 0.24227616 -1.0114346 1.1990926 -0.0592135 0.12939696 -0.88898784 -0.7535425 -0.09650892 0.2080878 0.8790753 0.034339435 0.008937513 -0.1385326 -0.004266979 0.2972756 -0.086519174 -0.19452475 0.35658193 -0.14492543 0.96397626 0.14735727 -0.71946687 -0.086126246 0.48595095 1.2668184 0.6248768 0.4662498 -0.07945735 0.18417192 -0.31660992 -0.020391446 -0.48005226 -0.5378266
('점수','Noun') -0.4228558 0.93181634 -0.47187757 -0.6756327 -0.63649905 0.81189054 -0.49594387 -0.6281262 0.2891993 -1.0017141 -0.14766502 0.7723656 -0.17809078 0.5891473 0.042358402 -0.89209706 0.6657275 -0.14462407 -0.53763366 0.30604059 0.40882924 -0.513718 -0.09396685 -1.331206 -0.80226326 -0.47208092 0.24959342 -0.2233463 0.07552459 -0.17236648 -0.30254874 0.50576717 -0.74393123 -0.42119998 -1.0324862 -1.0348208 -0.48127016 0.8677749 0.18575639 -0.7062315 0.41703865 0.32106268 -0.070753634 0.45110163 0.36013392 0.07862353 0.22524376 1.0772029 0.62279105 0.5333193
('출석','Noun') -0.7373782 0.891232 0.13742769 -0.2096931 -0.5649441 0.008605022 0.1802632 -0.32922584 -0.28650257 0.6587637 0.31056717 -0.57513744 -0.52485293 -0.80835503 -0.64599264 -0.19847631 -0.42957106 0.73779017 -0.26593775 0.8242443 0.5382382 0.7752901 -0.90013623 -0.80022776 -0.9269852 -0.6070702 0.17815238 0.6830715 -0.5068592 0.822357 -0.22323127 -0.44583637 -0.5841602 0.7519007 -1.0539056 -0.6928136 1.1143358 0.13538389 0.37195918 -0.09361871 0.5512709 -0.52847177 0.9051921 -0.48840055 0.2969796 -0.6336116 -0.35719314 0.34112614 1.0989511 -1.0610629
('5','Number') -0.06994116 1.3852448 0.074108936 -0.6345832 -0.2275604 -0.7184243 -0.2751032 0.07337552 -0.01966761 0.35269755 0.03274439 0.18017545 0.6515975 -0.46994665 -0.07180055 -0.931151 0.4048384 -0.47902155 0.14005351 0.513757 -0.17403753 0.0928967 -0.74546343 -0.40574563 -0.6438962 0.38477212 0.60365397 0.37335873 0.9558921 0.16203587 0.32674363 -0.041806445 -0.64650726 -0.6038307 -0.56223387 0.0044766865 0.7596496 0.34214848 -0.969624 -0.65296936 -0.4092489 0.839541 0.77105504 -0.5460138 1.0605237 0.34312764 0.39978623 0.94639385 0.0695298 -0.5225998
('개인','Noun') -0.24892518 1.6696134 -0.4162558 -0.03585686 -0.29623812 0.85768515 0.59446156 -0.8576772 -0.45544085 -0.47328615 -0.9180461 0.63855577 0.8092511 0.5395868 0.6789882 -0.43873867 0.11987022 0.6343781 0.8325985 -0.0019440635 -0.99656343 -0.40591457 0.7329183 -0.23099186 -1.0497938 0.52212894 0.42188066 -0.12116603 -0.7242976 0.8229929 -0.7382801 -0.88003963 -0.19269599 -0.37796324 -0.53915185 -0.3111395 0.30471113 0.9958328 -0.429895 -0.1874798 0.4527388 -0.4231425 0.13232185 -0.88092035 0.8359112 -0.3815276 0.01887074 -0.46523598 -0.031994585 -0.0943678
('6','Number') -0.011224314 0.739178 -0.059452865 0.68391585 -0.39471468 0.99848443 -0.83474934 -0.87877446 -1.2258133 0.06593549 -0.22140995 0.54111606 -0.22104548 0.18528275 0.16653432 -0.1727079 -0.20360096 -0.005307195 -0.2778508 -0.07004818 0.15698242 0.07860009 0.2082346 0.13239476 -0.7971671 0.23744775 0.62943685 -0.06041771 0.47465667 0.9686821 1.12495 -0.043296557 -0.18635164 0.21876456 0.29413024 0.047867857 0.38225257 0.55967146 -0.5766976 -0.45519757 -0.1699292 -0.5335676 0.73289955 -0.44288397 0.31875923 -0.004447939 -0.23002836 0.5469472 1.8829637 -0.5748279
('시','Noun') 0.18262832 0.44211364 -0.91838557 -0.07093474 -0.11650868 0.32146844 0.09113262 -0.13623224 -0.3963766 -0.38310656 -0.90761715 -0.0006648635 0.55315524 -0.16627558 0.21336725 -0.63550216 0.9865803 -0.5713127 0.5056034 0.16921361 -0.9141383 0.53580713 -0.12953298 -0.49375665 -1.1980678 0.4144246 -0.81845397 -0.2635312 0.38243118 -0.24532495 -0.7529775 -0.03925625 -0.08772099 -0.62186235 -0.80589056 -1.0052258 0.05403795 -0.06866573 -1.769439 -0.14850467 0.3126039 0.53308743 0.53794914 0.54682153 0.7681843 -0.95075357 -0.11516121 0.81672704 0.14475015 0.028576516
('연습','Noun') -0.3372665 0.96233714 -0.78925556 0.77483535 0.28034037 0.78562385 0.6888358 -0.7344575 -0.15460302 -0.022901108 0.11545203 -0.90043265 0.3805927 0.3012655 -0.28274098 0.017907608 0.51832 -0.46222925 0.15647075 0.40763813 -1.0284667 0.18813744 0.10264247 -0.06780046 0.48536766 -0.3177859 0.49132505 0.40935087 0.6089997 -0.01573997 0.56582093 0.81731504 0.3206008 1.0048428 0.49265692 0.088362835 0.11505448 1.1366537 0.11692976 0.65223104 -0.7022914 0.71448004 0.5431846 0.29593506 0.686673 -1.2936422 1.0432725 -0.6532376 1.179464 -0.013981678
('100','Number') 0.03955078 0.8311985 -0.47359583 -1.1176853 -0.1294354 -0.410135 0.48978662 -1.379041 0.6590897 -1.0085475 -0.9974504 0.98436797 -0.878136 0.5984426 -0.06981538 0.55568844 1.0172065 0.036842164 0.36670384 0.42442977 -0.096982196 -0.989254 -0.312105 -0.24185489 0.14347331 1.214982 -0.720181 0.21463253 0.46827573 -0.59709305 -0.045858804 0.9080158 0.82146925 0.6829376 -0.06299743 -0.06323131 -0.8688308 -0.25556254 -0.0919639 -0.42059362 -0.6309365 -0.4091165 0.84184206 0.5783392 1.2204584 -1.336728 1.1438425 0.17951018 0.39350665 0.13593945
('학부','Noun') -0.5011292 0.7947504 0.44429463 -0.52476776 -1.1181098 0.8896234 0.48894724 -1.1941222 0.16538508 -0.9717773 -0.029622937 0.7321959 -0.39127347 1.2947879 -0.029844068 -0.14200307 -0.33645913 0.04978557 -1.125371 0.80833435 -1.3099327 -0.28963688 0.042796057 0.4516219 -0.8794689 -0.32599553 0.7781688 0.37884864 0.4691309 0.8115373 -0.8650584 -1.0585735 -0.06701706 -0.026402092 0.51226014 0.38471827 -0.2596685 0.9888506 0.19270921 0.7718772 -0.25431207 -0.39762846 -0.42029148 -0.4545796 0.43124008 -0.45299655 -0.5023934 0.060136124 -0.08452362 -1.1941466
('기초','Noun') 0.21046495 -0.33273104 0.5752162 0.91301864 -0.34958696 0.29038313 -0.12857051 -1.4993503 -0.13155591 -0.6018397 -1.1652129 -0.26541397 0.8256087 -0.55062234 0.40460253 -1.0463866 0.13167064 -0.4546231 -0.675817 0.049740843 -0.8280988 -0.80237746 0.58976775 -0.9052065 -0.84007615 0.5350124 0.011344996 0.58518875 1.1632596 0.54661554 0.5193748 -0.4054945 -0.68351346 -0.07460953 0.335928 0.05158057 1.15549 0.03807102 -0.81324357 -0.41524825 -0.62310773 0.45807192 -0.24610847 -0.584745 0.47333547 -0.51282763 0.7453001 0.47465461 1.2381144 0.006914626
('팀','Noun') -0.49435854 0.11567001 0.5523583 0.41430703 -0.6290577 0.09234059 -0.023162132 -1.3587242 -0.21132357 0.51993674 -0.97706527 0.06128418 -0.714092 -0.042843394 -1.0926373 -0.63495564 1.01975 0.15657376 0.412405 -0.33484772 -0.26333317 -0.6359281 0.39837986 -0.48137623 -0.90643305 -0.35321656 -0.46701032 1.0644766 0.9351342 0.81634766 0.09285183 0.9319379 -0.4211205 0.060373347 0.44566977 0.5016375 -0.6320698 -0.3011269 -0.6273393 -0.28476435 0.4693059 1.0405436 0.7555087 0.2507394 0.75167716 -0.6270322 0.4209449 1.3414257 1.0220361 0.25630793
('8','Number') -0.2202227 0.21764678 0.19336471 -0.20883574 -1.0066297 -0.29286712 0.29919067 0.09828232 -0.8890777 -0.7672706 -0.26683635 0.2602262 0.7090622 0.35979605 -0.3431164 -1.2653552 0.6464402 0.5385302 -0.40855232 0.6056009 0.42708847 0.71222043 -0.5210425 -1.126744 0.63184214 0.4670949 -0.47944623 -0.14832865 0.27155143 -0.6297907 0.6713547 -0.9207844 -0.23905751 0.44782367 -1.1836674 0.032190252 0.9039532 1.1197809 0.035661064 -0.04408897 0.36747968 -0.32286888 1.1715692 0.39664847 1.1412922 0.31647238 -0.2805417 0.47242433 -0.22074367 0.32832757
('타','Noun') 0.8591939 1.1289725 -0.9473136 -0.7468123 0.071155615 1.1305915 0.5167694 -1.1421926 0.24030912 0.24607897 -0.93160695 0.11639659 -0.40868407 -0.4598895 0.7070828 0.552478 -0.693247 0.010260393 -0.875653 -0.23227751 0.5190774 1.1477877 0.9577295 -1.1157647 -0.42032078 -0.6971702 0.1950332 0.5240775 -0.5677723 0.93459 0.8543256 -0.2532006 0.6135528 -0.5500485 -1.0711575 -0.8878845 -0.707802 0.7154936 -0.026143596 0.35752326 -0.34116858 0.95401645 -0.5184404 -0.060399327 0.3925706 -0.10629276 0.48698065 0.5412615 1.5280099 0.35852653
('류','Noun') -0.66566306 1.3450224 -0.25194174 0.6438805 -0.88808894 -0.6451722 -0.18460219 -0.9181195 0.021548579 0.12698908 -0.4086341 -0.21162573 -0.74485594 0.64426684 0.3326585 -0.6547361 -0.8774052 0.4199843 -0.1734417 0.6587113 -0.6121697 0.9007865 -0.20418268 -0.7610779 -0.80630314 0.5616677 0.27272415 -0.7609771 -0.19391698 0.5654086 -0.7614184 -1.028546 0.45570818 -0.49322233 -0.22082406 -0.37020344 0.021631386 0.5812482 0.49392948 -0.7745166 -0.703343 0.21158461 0.15113816 0.91079396 -0.4385241 -0.1482918 0.11812767 -0.03756443 1.0048573 0.11017913
('심','Noun') 0.2260091 -0.14714244 0.548823 -0.74619 -0.09639112 0.60714847 -0.0051961117 -1.1003871 0.5828275 0.66853195 -0.056881253 -0.3747045 0.44464758 0.9767893 0.059555553 -0.87222874 0.86006045 -0.39145377 -0.5303729 0.3816137 -0.7688221 -0.049243957 -0.8330374 0.0042703613 0.10249272 -0.60527676 0.24044348 -0.7744004 -0.27912948 -0.93387836 0.14189677 -0.910657 -0.5385384 0.7167499 -0.5680418 -0.82536197 0.6671387 0.88396394 -0.7071201 -0.61643565 0.18926379 0.4619701 0.321161 0.4975998 -0.31041604 -0.2512961 -0.20310779 -0.622943 0.25004157 -0.86890787
('기본','Noun') -0.085602805 1.0289822 0.23623446 0.5609928 -0.7941091 0.68920356 -0.2980229 0.27462652 -0.15538456 -0.9600474 0.8607752 -0.14055054 0.7894364 -0.5423286 0.058167107 -0.9433141 -0.4654333 0.26403525 -0.616749 1.0957059 -0.043826338 -0.090056494 -0.7567621 -0.5275955 -0.17309886 -0.677382 0.9374964 0.4300751 -0.13934703 0.26058158 0.34613204 0.34029114 0.35378566 0.449532 -0.245512 0.4120872 -0.27649137 -0.01478859 -0.79559886 0.66774726 -0.03811775 0.5151998 0.842244 0.1596231 1.1560929 -0.04389687 0.66702753 -0.3374057 1.3301504 -0.7188798
('학년','Noun') -0.5573149 -0.33209848 0.59681815 -0.690864 -0.45151475 -0.14771 0.43560046 -0.8988907 0.32399556 0.5111638 -0.29681414 -0.95141536 -0.81604 0.6151591 -0.65459245 0.48339102 0.45612273 0.89015454 0.23054989 0.5382597 -0.19457763 -0.5407906 0.927095 -0.32117894 0.637837 -0.176724 0.6205273 0.97739786 -0.30957803 0.28804746 -0.2859639 -0.39225504 0.17821407 0.38977692 -0.42951962 -0.024773303 0.60233784 1.1886532 -1.1390779 0.22718954 1.1434273 0.7827123 0.7522166 0.003606288 0.5906938 -0.91308767 -0.10957428 -0.41046926 0.4696572 -0.7407647
('9','Number') 0.28590593 0.08689076 -0.8298146 0.051893238 -0.72334236 -0.4498738 0.22856033 -1.6450417 0.14474234 0.08958813 0.016013285 0.49550712 0.4437931 0.91321224 -0.6991358 -0.9619638 1.0419449 0.8663979 0.4371156 0.60393655 0.043980766 -0.24419619 0.99672925 -0.68262327 -0.7972404 0.027345182 0.89405364 0.5945571 -0.4928023 -0.40992227 0.9409913 -0.61314 0.81373733 -0.32676208 -0.42402405 -1.1536267 -0.40660873 -0.24474737 -0.28775254 0.26523337 -0.8480674 -0.8545741 1.0745698 0.10963708 1.2039376 0.6262815 1.1756335 0.94709957 -0.1924131 0.26843733
('북','Noun') 0.2258559 -0.28028738 0.17932203 -0.8098011 -1.0481128 -0.094442174 0.38914022 -0.7218905 -0.26213217 -0.30340368 -0.54515433 -0.12776537 0.79246145 0.60283273 -0.03683951 0.1071712 -0.24589762 0.106672995 0.052122705 0.04248156 -0.3605051 -0.88286406 0.21581393 -0.17468803 -0.93278015 0.5191898 0.2145475 0.60983425 -0.91100794 0.71773934 0.36326283 -0.15501402 -0.04366809 -0.24686553 -0.05117526 -0.83022726 0.57714605 0.03997212 -0.69632345 -0.87950945 0.28066662 0.07553079 0.93964255 0.797998 0.13499443 -1.1060233 -0.7844499 -0.021966822 0.7022415 -0.3054974
('인','Noun') 0.037708614 1.1461157 0.42927104 -0.26452395 -1.0414718 0.06640999 0.41947973 0.117942356 -0.21913457 -0.20253032 0.08956498 0.19703671 0.3997441 1.048889 -0.026816817 -0.11791364 1.2383665 0.31320962 -0.061907683 0.14425485 -0.8346325 0.5821482 0.112336874 -0.061052565 -0.26202545 0.1407983 0.31483057 0.24278018 0.009884151 -0.6030822 -0.4790251 -0.7134651 0.65475655 -0.24069384 -1.0524099 0.28312382 -0.6257451 0.82248443 0.6664327 0.8810017 -1.086764 0.11908706 0.054440774 0.2526728 1.6506181 -0.12021592 0.6070851 1.1455438 0.6744193 0.52233547
('권','Suffix') 0.7460925 0.29796386 -0.36286032 -0.8234923 -0.089066155 -0.8156348 0.50583136 -0.43418685 -0.10778789 0.23002128 -0.4778484 1.2578175 0.1292252 0.82302845 -0.7725693 -1.0268182 0.014966395 0.83644265 -0.8231818 0.32001746 0.30303222 -0.23060349 -1.0499146 -0.97676784 0.04040491 -0.6282623 -0.1924582 0.043062877 0.6982781 0.24489199 -0.6753275 0.4924518 0.23901202 -0.12948935 0.3505539 0.41548476 0.0386013 0.013403232 0.059480112 -0.9562685 -0.21520226 0.9463903 -0.142658 -0.19240792 -0.9169063 -0.8008861 0.47804338 -0.83012885 -0.015808567 0.97324234
('러닝','Noun') -1.0162325 0.92121726 0.009337039 -0.75460607 -0.5546314 -0.072536655 1.1317991 -0.44022572 0.16341351 -0.3108127 -1.1457496 -0.6581492 -0.65937495 -0.6595556 -0.33540386 -0.35763687 -1.1957113 1.1834666 -1.2147179 1.124098 0.8645146 -0.7080366 0.80203116 -1.3500947 0.45074055 -0.22086273 0.04040323 -0.39275536 1.2264702 -0.5519345 0.71767855 0.07040296 0.50785846 0.94208634 -0.49012685 0.76125675 0.7715508 0.43409833 -1.0131571 -0.3576656 -0.41999725 1.1175932 0.15487407 -0.7766883 0.2078009 -0.023874803 0.011062177 0.5874775 0.5705053 0.0699615
('플','Exclamation') -0.034302827 0.2620563 0.6095241 0.53714687 -0.95808303 1.1599412 0.3802928 -0.9651672 -0.2817732 0.2943668 -0.06546483 -0.3563489 0.7865669 0.5678552 -0.22469595 0.3898799 0.036369957 1.2254647 -0.492834 0.11044299 0.3816374 0.8283397 0.17928551 -0.30556393 0.040912706 -0.27452838 -0.7860959 1.1091291 0.32203272 0.17603803 0.20715491 0.50151426 -0.3452142 0.2562646 -1.1625481 0.92109686 -0.57679445 0.73933417 -0.70512056 0.4943891 0.7975115 0.50147283 -0.3530889 1.1219941 -0.19706132 0.069429584 0.14678395 0.89456344 1.2247713 -0.7697624
('워','Noun') -0.00625942 1.3425436 0.45959786 -0.14462517 -1.4125286 -0.11003609 -0.7449076 0.46624428 -0.74499583 0.23570046 0.7907624 -0.62678564 0.16436511 -0.82032096 0.7254084 0.071801536 0.5625198 1.0060339 -0.23242068 0.5044128 -0.25004187 -0.7969071 0.43436772 -0.08330265 0.40645027 0.21030389 0.49121904 0.518718 0.9445715 -0.46732676 -0.46651864 0.3091945 -0.9073396 0.31704652 0.30757087 0.34705406 -0.45917964 0.6209574 -0.88141567 -0.27084854 0.26372874 0.89086777 1.2893009 -0.48342648 1.265634 0.39878175 0.071680866 0.12142608 0.78974706 0.44264817
('이','Josa') -0.47915277 -0.41359434 -0.9668838 0.81087714 0.50566196 0.40017483 -0.43481988 -0.7009544 0.78698313 -0.6911304 0.50119287 1.0770282 0.8124039 -0.5995085 -0.20181012 0.7140406 0.76694864 -0.79559356 0.17737599 0.10656103 0.383097 0.7166083 0.7120922 0.2576536 0.115862876 -0.27483335 -0.43057472 1.0207546 0.21526815 0.2747394 -0.6533914 -0.45763254 0.6182674 0.46568054 -0.65389496 0.32966894 0.3212504 0.46406338 0.090005964 0.20023222 0.44385877 0.07464995 0.7439994 0.72929764 0.16237536 -0.77270114 0.09562616 -0.47153813 -0.74372894 -0.62137055
('영','Noun') 0.455108 -0.27344957 -0.014080467 -0.42837426 0.26024023 0.28115898 -0.16546457 -0.9933736 0.2772665 0.82594186 0.19830254 -0.8772346 -0.39469305 0.6083278 -0.8110954 -0.22732027 -0.25064617 0.36937356 0.3912475 -0.04000822 0.61550266 -0.48519814 0.81769645 0.19066991 0.4058169 0.8025974 0.53207886 0.6313732 0.5728156 -0.21465878 0.72406787 -0.88884103 0.077039704 0.12643409 -1.1283017 -0.55867517 -0.7774479 0.8565665 -0.37539443 0.11639134 0.5130252 -0.35939386 0.24280915 0.5856703 1.185135 -0.9490099 0.38300914 0.7208974 1.171617 -0.5441921
('두','Determiner') -0.4486882 0.61354065 -0.6645508 -0.8193174 -0.32058993 -0.820779 0.62224084 -0.05607616 0.2720375 0.785032 0.65982646 -0.42529824 0.60837525 -0.6895712 0.8152215 0.4089329 -0.35005262 -0.17136738 -0.32060227 -0.014892202 -0.7514171 -0.117659025 0.15246484 0.124971665 -0.6125749 0.7903572 -0.12347135 1.0716913 0.100585476 -0.21191886 0.66253346 0.99424034 -0.076607905 -0.42037398 0.72429323 0.16202013 -0.6734722 0.83635896 -0.82527095 -0.24538364 -0.5194627 0.45803848 0.14725754 -0.29092985 -0.7266179 0.7820563 0.69033307 0.9073996 -0.3951612 -0.24196832
('계획','Noun') 0.6541189 1.4634923 0.37421066 -0.1756696 -0.15108684 0.6744395 -0.26504773 -1.0301553 -0.24048595 -0.84037936 -1.0268217 -0.7649807 0.56717896 0.11465554 0.8022526 0.32152247 0.52689654 0.43549743 -1.0002447 0.84334934 -0.61424196 0.5900328 0.55695236 -1.5678039 0.9776067 0.56327176 1.0121408 -0.33488613 -0.09939754 0.66822875 0.27043954 0.9620843 -0.28939977 -0.9708471 -0.7956322 -0.4507602 0.028138878 0.22747697 -0.3591901 -0.5972068 0.018211575 -0.4912117 -0.1512202 0.80637074 -0.4185164 -1.029702 -0.57111967 0.55895686 0.27903104 0.1327658
('내용','Noun') 0.17054376 0.04073228 -0.83489794 0.6434135 0.1471011 1.3694371 -0.12519917 -0.5937701 -0.8289822 0.18735991 -1.1638536 0.36181712 0.04392101 0.7012477 -0.54403234 -1.2078311 0.032066777 -0.60480946 0.4686185 0.8311474 -0.70729995 -0.4873572 0.013138686 -0.39487565 0.503977 1.2649417 -0.78280354 1.1554861 0.3944765 0.24306135 -0.41513535 -0.6924936 0.40900838 -0.63963234 -1.1654838 -0.9425822 0.39944434 -0.50631315 0.13152467 -0.35811207 0.6468043 0.6937217 0.61399174 -0.074322715 0.88962716 -0.1868108 0.68773365 -0.39967644 0.84213805 0.32419634
('과제','Noun') 0.54148936 0.63631785 -0.83293545 -0.47484908 -0.9963238 -0.50485396 0.6151551 -1.1079953 -0.5565295 -0.9196183 0.53721714 0.5499833 -0.66768193 -0.035333276 0.23867957 0.03663726 -0.15947933 0.22486734 0.5881835 0.9780109 -0.05228723 -0.29480994 -0.057142176 -1.159362 0.6514283 0.8412884 0.23993056 0.5088634 -0.32944837 0.294852 0.6243854 0.49106792 0.68808174 -0.10652082 0.09248545 -0.41044283 0.80751836 0.1315546 -0.6788557 -0.9335874 -0.3866877 0.78261334 -0.30589685 0.9794572 1.097833 -0.37454015 -0.5588047 -0.5645856 0.3258249 0.65683424
('때','Noun') -0.21370062 1.4108158 -1.0623337 0.48428556 -0.3665518 0.39816597 0.9473972 0.33469447 -0.7987494 0.45693323 0.081535205 0.40715396 0.46379992 -0.51652807 -0.49443495 -0.6424232 -0.61687374 0.50998855 -0.29211405 -0.04678088 -0.7906602 0.1985252 -0.04949487 -0.49226445 0.3848774 0.6603035 -0.68071157 -0.39716008 0.9968962 -0.020232432 0.30107528 0.26195994 0.28955746 -0.37388492 -0.39183202 -0.6252889 -0.014198813 0.40555444 -0.95386904 0.47721395 0.14182076 0.3231044 0.21670303 0.7565754 0.8179427 -1.1346701 0.26369995 0.3363148 0.4234564 -0.3678349
('정도','Noun') -0.53747594 0.34309542 0.43919137 -0.069676265 -0.33286268 0.8539217 -0.605006 0.01534151 0.3644174 -0.8363285 0.23089737 -0.6434003 0.5772656 -0.024983265 -0.803203 -0.23191407 0.4168983 0.6538266 -0.35744634 0.49303943 0.2599253 0.7114018 0.63343453 -1.1382164 -0.90321887 0.28461146 0.31545025 0.026341824 -0.010089898 -0.18148574 0.4854648 -0.8756194 -0.06274085 0.6794162 0.50278914 -0.8056877 0.47816062 1.2380868 -0.6680414 -0.08390427 -0.007404556 -0.033567175 0.5851981 -0.40305018 -0.28280723 -0.56739813 0.07263811 0.30354258 1.7686762 0.17371416
('거','Noun') 0.00495043 0.32724726 -0.45870495 -0.4759853 -0.7670411 0.575496 0.4928427 -0.95949244 -0.59073526 -1.0631433 0.19962089 -0.29443035 -0.57199854 0.5782018 -0.6449324 -0.7486401 -0.49494326 -0.40522957 0.072091825 0.8951998 -0.9615538 0.15097852 -0.929881 -0.014151868 -1.14276 0.053492732 0.11669922 0.7792067 0.39221478 -0.037402265 0.529063 0.33612344 -0.21403377 -0.006559189 0.55792636 0.34134004 0.48199552 -0.37372923 -0.57950664 0.46760136 0.6086617 0.19519365 0.1559438 -0.61583894 1.4233253 -0.68246436 0.60297674 -0.36922473 0.6784393 0.1996158
('분','Noun') 0.18508576 0.33239484 -0.53000265 -0.93516564 -0.66044813 1.1555618 -0.7200051 -1.093994 -0.5206204 0.70935094 -0.42086643 -0.76534694 -0.20569426 0.44259194 -0.23253936 0.76380634 0.5333795 0.405464 -0.797485 -0.4450077 -1.0231605 0.65123063 -0.070712484 0.36112162 -0.32406375 -0.489294 0.59931916 0.10164011 0.19575854 0.51330245 -0.4267785 0.58451426 -0.38754657 0.26993862 -0.98318636 -0.807392 0.8374765 0.9233586 0.19218117 -0.6728497 -0.5721167 0.94523937 1.3627986 1.1167818 0.10955807 0.16543227 0.228492 0.6183677 -0.36349168 -0.69936305
('프로젝트','Noun') 0.15845124 1.3909575 -0.3268437 0.2364727 0.042329602 0.96886545 0.010630893 0.016790323 -0.41616067 0.43742347 -0.9216216 0.56862175 0.79735184 -0.6185204 -0.49789408 -0.7612607 -0.18918192 -0.77553034 -0.8554905 -0.23875396 -0.18652865 -0.20605576 0.16179486 0.120917976 -0.6808499 -0.2406886 0.62371564 0.5761231 0.14229573 0.44920528 -0.5646386 -0.69710356 0.38047788 -0.15045656 -0.49853244 -1.1957406 0.6176592 1.3240876 -0.024859138 -0.4198941 1.0888971 1.0080364 1.0040832 -0.15536591 -0.11979537 -0.8842858 0.11586901 0.007874898 0.21528687 0.2604606
('설명','Noun') 1.0388855 1.0631112 -0.6206547 -0.55750924 -0.482038 0.7279289 -0.88748455 0.07800957 0.8254145 0.17169946 -0.918199 0.43306172 0.066787794 -0.53669965 -1.0162827 0.840454 -0.7952121 0.664439 -0.59792876 0.4347711 -0.7674396 -0.20192027 -0.14868346 0.58792365 0.08144419 0.17791273 0.12718539 0.799823 0.86332715 0.52016205 -0.28774688 0.1595707 -0.5700227 -0.54338217 0.19453089 -0.20472272 1.0316623 0.3084049 0.7309329 -0.49566558 0.38677666 -0.16139224 1.0023292 -0.65769064 1.1677372 -0.6435849 0.7736684 -0.015083624 1.0462711 -0.95894533
('조교','Noun') 0.075921945 0.84295255 -0.8224973 -0.7924298 -0.20247383 0.03315379 -0.50735605 -0.6232972 0.20167936 0.1994461 -0.23271541 0.044472445 0.49694967 -0.4460406 -0.21623744 -0.905221 -0.47141537 0.6185469 0.465491 1.0695324 -0.85729986 -0.06852075 1.0632094 0.27393946 -0.04823809 0.15989342 0.8895641 -0.50452864 0.65775114 0.36657113 0.0087608835 -0.3648696 0.45221162 0.5343949 0.41627228 -0.7072087 0.43378717 0.58070934 -0.24757352 0.12917607 0.73511636 0.38936642 1.1904203 -0.51102954 1.1758026 0.34703562 0.59129167 0.36517328 1.0325893 0.3828316
('널','Noun') 0.58332783 1.4584165 -0.67808807 0.5950587 -0.62183857 -0.42486158 0.80175406 -1.4298083 -0.038267992 0.016366366 -0.1368042 0.11009583 -0.12381248 0.9690795 0.46048376 -0.5500101 0.05571427 0.8321144 -0.14744645 0.41420293 0.027394079 0.24023172 0.38779554 0.09686532 -0.09509476 -0.15664738 1.0706742 0.25126848 0.9427072 -0.6460519 0.49723992 -0.6510771 0.18062243 0.37935963 -0.9078022 0.546818 0.2502615 0.4403339 -1.1397928 -0.74850327 -0.82638353 0.21821024 0.15239166 -0.53624713 -0.17974582 -0.85734 -0.08790787 0.82968265 0.037969757 -0.012558941
('평가','Noun') -0.5477451 0.91725653 0.3332646 -1.0004274 -0.3752172 0.20032962 -0.795423 -0.36674777 0.02962459 -0.7905603 -0.49179548 -0.7086402 0.63358754 -0.09687368 -0.32331795 0.2995825 -0.44584566 0.054262284 -0.8146642 -0.20775925 -0.041744743 0.9814049 0.40456557 -0.5155834 0.25628248 0.07896289 -0.8028112 -0.04983103 0.23850182 0.7223875 -0.52815294 0.23051974 0.9518012 -0.326404 0.076972775 0.19142751 -0.10447688 0.14611234 0.42384446 0.7094018 -0.05277046 0.8458918 1.6384517 0.44096088 1.4495964 -0.39811862 1.2356132 0.23103632 0.65633714 -0.6103456
('부분','Noun') 0.5711501 1.0150154 0.17697474 0.02905177 -0.84555817 -0.20775652 -0.42079687 -0.554605 0.102170914 -1.1561365 -0.49707726 -0.43286178 0.008535022 -0.7582919 -0.78964645 0.4914957 0.7494996 -0.5134833 -0.024265168 1.0662758 0.17473184 -0.70788085 0.024863774 -0.4671895 -0.905022 0.4981351 -0.33071488 0.97803754 -0.8147497 -0.7112592 0.31914067 -0.9531603 0.7295298 0.024343982 -0.6629176 -0.5776705 0.6775426 1.3547502 0.04984771 0.29829666 -0.18548195 0.9246647 -0.05218437 0.5899664 0.11062607 -0.26646653 0.34356523 -0.120679654 0.8216553 0.0054637506
('이','Noun') 0.80192876 1.3788538 0.1573169 -0.42039433 -0.54287946 0.43066025 0.09239379 0.17466918 -0.3579195 0.4581532 0.48357624 -0.45775393 -0.21736874 -0.3380926 0.34040514 -0.034188945 1.0870111 1.1661526 -0.5582868 1.1772685 -0.7847581 -0.49847394 0.40584588 -0.31785396 0.535129 0.34700006 0.9490811 1.1439046 -0.40707505 0.062371872 0.88647354 -0.25629184 -0.82008094 0.4053208 -0.25095987 -0.34526303 -0.49514255 0.5084507 -1.3318073 0.63879937 -0.082607 0.59823656 -0.15880972 0.62069017 -0.23256609 -0.27606472 0.5990515 0.66912365 0.5683409 -0.061731
('주','Noun') 0.21837844 0.8112584 -1.1374388 -0.55477315 -0.022749592 -0.3475229 0.45385116 0.26681027 0.082661614 -0.84519905 0.02501995 0.16051996 0.48608762 1.2431117 0.4347148 -1.430048 -0.12922174 -0.39544964 0.2861785 0.08493114 -1.0873758 0.14585473 0.14720316 -0.4578773 -0.88211256 -0.20723727 0.8032669 -0.39835396 -0.558222 -0.20537406 -0.24014603 0.30882877 0.41641828 -0.32333046 -0.79853404 0.1808844 0.4772573 0.87416744 0.16281848 -0.24073854 -0.14159177 -0.45793965 1.1798078 -0.8879812 0.636246 -0.95544773 0.55274147 0.043680064 0.83984774 -0.921382
('평균','Noun') -0.38941598 -0.05051002 0.63354766 -0.4262474 -1.3726625 0.89032674 0.13689183 -0.44384825 -0.025845332 -0.37883714 -0.31012148 -0.5754529 0.40717566 -0.6846711 0.29768875 0.20631367 0.8181308 0.7377949 -0.90434825 0.64524496 -0.37026632 -0.21253644 0.7837349 -0.08398517 -0.8246266 -0.22309233 0.20877662 0.540932 0.4646812 -0.03835024 0.22688907 0.8958631 -0.54725033 -0.15920252 -1.1822168 0.14272915 -0.23848368 1.1707687 -0.1692703 -0.10296919 -0.38315535 0.5054732 0.42647538 -0.09561327 1.0511218 -0.8836114 0.3644632 -0.63197744 0.113805406 -0.36129832
('0','Number') -0.238461 1.0798981 -0.6020863 -0.96368444 -0.030510692 -0.4868638 -0.53279907 0.3247081 0.19878978 0.41593102 -0.9854387 -0.26396722 -0.48197284 -0.050010372 0.58661145 -0.43382415 1.0176798 -0.7177495 -0.5767304 0.86412984 0.24366935 -0.49958175 0.559998 -0.23630427 -1.1972294 0.40848428 -0.49043968 0.7020252 1.0505668 0.14787708 0.20309937 0.37427565 0.8626843 0.57795715 -0.41025722 0.01790848 1.0666789 0.8165147 0.44652066 -0.27025875 0.78532726 0.76932806 0.8404156 1.0830615 1.325625 0.15769832 0.12203187 0.53624356 -0.0039576553 -0.22781354
('개념','Noun') -0.38379395 0.3822041 -1.4019396 -0.41479555 -0.3085605 1.2050174 0.50799656 -0.8094823 -0.24907126 -0.8227678 -0.19364142 -0.70000124 0.43850598 -0.23191257 0.8247632 -0.054746285 0.08083601 -0.029553179 -0.023556493 1.051049 -0.8439696 -0.46676657 0.025591815 0.0643356 0.84142303 0.6663336 -0.32935172 0.07965884 0.021307485 -0.35272083 0.5396679 0.20025797 -0.6965038 0.5087368 0.093135715 -0.64756405 -0.30460227 0.64770174 -0.18105851 -0.013721935 0.34465715 0.36101696 1.3401242 0.51699877 0.51333416 0.30453315 -0.36653972 0.3225804 0.8116257 -0.9366576
('랩','Noun') 0.8678731 0.9984265 -0.42703676 0.70026827 -0.7172318 0.030403143 0.86046696 -0.18564455 -0.15773183 -0.5781999 0.39189228 -0.19429503 -0.24202487 0.5459783 -0.31096214 -0.64891374 -0.058584403 1.0109203 0.852554 -0.23993891 -0.24402085 0.34942204 1.133601 -1.2029921 -1.1259485 -0.1945282 0.7136223 0.43258223 0.3899316 -0.7025189 0.0040216357 0.5948343 0.10816262 0.9485818 0.5515608 -0.75742316 0.88409364 -0.44046837 0.0054183872 0.6585663 -0.6197812 0.050208427 -0.24871363 0.61412746 0.21398559 0.1944834 0.022593562 0.9173457 1.2260518 -1.1241288
('이번','Noun') 0.79259974 0.38487735 -0.07505547 -0.65197146 -0.26191092 -0.24741957 0.63338774 0.1902832 0.392392 -0.029604513 -0.47481045 -0.08987407 -0.60258615 -0.0045837592 0.6509693 -1.1257082 0.3293047 -0.5570145 0.46370754 0.3562702 -1.0894655 -0.9081591 -0.17636558 -0.8617164 -0.9793768 -0.63630015 -0.6945477 0.56774926 0.39053175 0.5718067 0.24873441 0.2571566 0.2578216 0.6203003 -0.01090008 -0.7093242 0.041352365 0.617252 -0.98659664 -0.016994987 -0.12357507 0.20391604 -0.2574393 0.68822026 0.3286417 -0.71159935 0.7044317 -0.057782564 0.9250566 -0.77457064
('사용','Noun') 0.518367 0.07085516 0.05864581 -1.1098243 -0.48118347 -0.15889877 -0.45383325 -1.1267701 -0.5300749 -0.58874124 -0.55681473 -0.8011845 -0.18144222 0.38897368 -0.7422204 0.264599 -0.013670665 -0.05348567 0.114245795 1.2399646 0.62223065 -0.5029833 0.031242125 -0.5748932 -0.80146956 0.13048348 -0.09017505 0.6904515 0.046510983 0.090137586 -0.59056014 0.82666457 0.6727923 0.5546292 -1.0813649 -0.43057087 -0.120810024 0.5002244 -0.97433406 0.03909817 0.8226393 -0.4191663 -0.22658388 0.9594854 -0.24646965 -0.6191126 0.53807765 -0.5703363 0.89611393 -1.3880677
('자료','Noun') -0.6006733 0.7953816 -0.0686244 -0.8072507 -0.030736266 1.1453657 -0.44341478 0.032829504 -0.11301081 -0.077332996 0.030651588 -0.8780712 -0.5408989 -0.12715447 -0.18969694 0.11382661 -0.016594939 0.6076374 -0.6627696 0.33343956 -1.2862895 0.8430141 -0.451576 -0.6759996 0.34634304 1.090202 0.1273443 0.9278972 0.9079121 0.5601334 -0.21282916 0.6902261 0.24040216 -0.7010826 -0.5453936 -1.1266377 0.81595314 0.30820018 -0.12093623 -0.58717024 -0.6635426 0.024355128 -0.16917561 0.6927043 0.0891686 -0.46572766 0.6983885 1.0172969 -0.27715346 -0.80012965
('진행','Noun') -0.17003946 -0.16251637 -0.73611444 0.62256145 -0.014132312 0.6635767 -0.7912398 -0.20655759 -0.45378608 -0.31519815 0.73798937 0.30984285 -0.03257118 0.26967993 -0.62140733 -0.80705696 0.7059339 -0.24043265 -0.27078354 0.0938619 -0.012263929 -0.53234094 -0.0385161 -0.5417084 -0.20786014 0.59751886 -0.55636895 0.7348275 -0.06368148 0.4825699 -0.26582816 0.44653085 1.0142148 0.11567063 -0.6999532 -0.91141087 0.039307926 1.5047178 -0.24632412 -0.27098262 0.20347716 0.72166735 0.35633737 0.94343346 1.1647953 -0.3722484 -0.048349023 -0.42324272 -0.12217101 -1.1119335
('준비','Noun') 0.10920988 0.49532834 0.5890591 -0.12988557 -1.1601673 0.31491497 0.869605 -0.31119663 -0.7806555 -0.21764587 0.13542922 -0.03164605 -0.6859968 0.11572581 0.17724325 0.18114957 0.9023149 -0.431769 -1.0805438 1.3125452 -0.6914311 0.9689845 -0.62298125 -1.4061171 -0.79207194 0.071577124 -0.9507124 0.07025415 -0.74167055 -0.65574163 -0.6960127 0.04460451 0.3130783 0.076782875 -1.1136875 0.21279833 0.6612407 -0.10662518 -1.3011419 0.14902934 -0.22370608 -0.20727491 -0.34682894 0.2240922 0.82894564 0.28911868 0.6963634 -0.23387529 0.39596862 -1.216442
('채점','Noun') -0.3798695 -0.10860287 0.5222892 -0.5595291 -1.2842792 0.58271086 -0.31205136 -0.22424453 -0.3108131 -0.8877079 -0.6468178 -0.5664741 -0.71704966 0.050274752 -0.0067361873 -0.107472055 -0.83515066 -0.48341966 -0.84304535 -0.12483437 0.39593005 0.44592685 0.20535553 -0.61338043 -0.45017886 0.84227 0.2695419 -0.7475098 0.18533434 0.31395283 0.63395274 0.82917005 0.6783866 0.00848704 -1.1508186 -0.66221035 0.91393155 0.53978014 -0.4969521 -0.48346046 -0.3756603 0.8960285 0.77573586 0.9655471 -0.19663194 -0.4677596 0.08902454 0.5575974 0.96448106 -0.75200754
('하다','Verb') 0.34982902 0.3524874 -0.29781392 0.12601127 -0.6841812 1.1856674 0.24303417 0.19774348 0.31149426 0.27673528 0.21646352 -0.29383856 0.47199866 1.0274087 -0.7389041 0.033437725 0.7239899 0.7490666 -0.79754186 1.0195702 -0.6879183 -0.24177614 0.025315365 -0.5472921 -0.44761583 0.88182044 0.59794885 0.51825714 -0.6284193 -0.09602959 -0.6368177 0.21980727 -0.34709546 -0.4108171 0.043168847 0.1864052 -0.61840796 1.0517842 -0.94922 0.17128028 -0.09311279 -0.39715183 -0.108501695 -0.35497272 1.0325648 -0.7903184 0.684422 0.5798089 0.08628879 -0.5912145
('수학','Noun') 0.4281202 0.20038101 0.20670785 -0.78841573 -1.0538698 0.84324306 -0.74420995 -0.39316142 -0.6128692 -0.5222528 -0.95327586 -0.67668927 0.9781793 0.4741107 -0.8017533 0.054881908 -0.55492777 0.53222287 -0.004986108 0.8253985 0.34819797 0.86218804 -0.030560706 -0.7651867 0.6462701 0.40270814 0.6794103 -0.16849498 -0.687076 0.8536027 -0.100300744 0.14149049 0.10478025 0.7166461 -1.0175847 -1.1167164 0.22532463 -0.397637 0.5152531 0.27261335 0.4918791 -0.72740495 0.95645344 1.0780482 0.51936203 -0.94160014 0.524053 0.8657563 0.27162302 -0.24428011
('반','Noun') 1.1970421 0.6965024 -0.7107155 -0.5907837 -1.5035701 0.47508293 -0.6697715 -0.052309357 0.023629993 -0.54291505 -0.7580059 -0.7832149 0.76032263 -0.5591097 0.4689996 -0.5035027 -0.055932637 -0.17680271 -0.1786594 0.26203626 -0.37967035 -0.6526036 -0.24409084 -0.75292516 -0.6978528 0.8746699 1.1188387 -0.3087968 1.0549237 0.15981138 -0.26220787 -0.25081253 -0.92948186 -0.5338465 0.29212102 -0.4214185 -0.035795316 0.63250005 0.47599506 -0.86128217 0.569999 -0.46054623 -0.28033432 0.66503406 0.62516975 -0.5422259 0.867784 0.14950326 0.593633 -0.30703092
('이산','Noun') 0.6181997 0.7855128 -0.90423614 0.32398397 -0.6531129 0.49136513 0.057874713 0.016715566 -0.69709605 -0.7197151 -0.39091963 0.15358266 0.81178397 -0.48515996 -0.29073888 -0.02500733 0.44791946 0.7057909 -0.095721126 0.16194944 0.4970488 1.1151574 1.0572115 0.49276268 0.103841625 0.9239165 -0.1956166 -0.07294347 0.017660646 -0.124109246 -0.113906346 -0.5891467 0.18027948 0.7739299 0.28399986 0.21801412 -0.4381572 0.5353454 -0.19553782 -0.6168361 -0.5112774 0.0877614 0.096177965 -0.17430136 0.56170624 -0.9260837 0.202143 1.0260826 -0.099958576 -0.97573835
('제','Noun') 1.0196115 0.6550951 -0.38869217 -0.31004992 -0.37798277 -0.42945784 0.18861373 -0.9703289 0.3008507 0.43240392 -0.017984778 -0.20142075 -0.5738515 0.85326767 -0.3771136 0.36138687 0.963862 0.4745208 -0.4029364 1.0249557 0.039466504 -0.28894472 0.5792072 -0.15682808 -0.46991667 0.5392008 -0.4255425 0.9985326 -0.14451747 0.4835406 -0.07454389 -0.7623292 0.48152566 -0.52341634 -0.6467137 -0.37097332 -0.7888938 -0.24743766 -0.72993773 -1.1582478 -0.26588374 0.2179259 1.0053453 1.0654032 0.090991996 0.14623511 0.64576876 0.93049407 0.72810256 -0.07317426
('가','Josa') -0.1421006 0.93466 -0.56304634 -0.23557061 0.771618 0.020513466 0.56359816 -0.8613417 0.18261197 0.17707177 0.11215006 0.6516916 0.45720714 -0.6063871 -0.8619864 0.44627893 -0.8113787 -0.5965822 0.2671839 0.68586504 0.759886 0.18277884 0.368928 0.06254552 -0.69717807 -0.28746495 0.6054608 -0.6795379 -0.7118634 0.70297563 -0.14729616 0.5825563 -1.0165998 -0.52597034 0.1740037 0.12010748 -0.7154902 -0.6541742 0.8650893 -0.45249474 -0.17929034 -0.022155235 0.8484862 -0.84622854 0.32288238 -0.82309186 -0.025502384 -0.6347321 0.91801536 0.2317013
('방식','Noun') 0.7562946 -0.011696196 -1.1614096 -0.09061296 -0.6010068 1.0912226 0.51611847 0.307232 -0.05612585 -0.4127422 -0.8501123 -0.6254289 0.5676493 0.5699325 -0.29009622 -0.1396808 -0.5907532 1.205259 0.5381763 0.5281078 -1.0710245 -0.3811972 0.9532812 -0.16105346 -0.6606492 0.48136696 -0.008045296 0.26467568 -0.69732165 1.0222871 0.21890996 0.41757312 0.32066357 -0.30533296 -0.123392105 -0.3711478 0.43717682 -0.17807056 -0.40753847 -0.5487065 0.854078 0.78992075 0.027706929 0.0130928 -0.13915578 0.20120524 -0.4363222 0.5403587 1.1052642 -1.2003812
('7','Number') -0.24648719 0.6757606 -0.29590988 0.17437628 -0.602545 0.35638267 -0.89797455 -1.0141939 0.86176145 -0.23749553 0.36032355 0.24735883 -0.42249689 -0.83491397 -0.018470548 -0.21231379 -0.44536537 -0.3582334 -0.6015491 0.7184375 -0.57511294 -0.28099722 -0.97874725 -1.1375971 0.44016975 0.5704477 0.37240753 1.4527283 0.015908347 0.26959327 0.7716051 -0.8340806 0.51604503 -0.5224055 0.28126648 0.5213634 -0.015836485 0.5389354 -0.07894715 -1.067444 0.47351262 0.025967656 0.14277509 1.2066684 0.5201682 0.25764766 0.7629054 -0.3001616 1.0070443 -0.0032227603
('한글','Noun') 0.96872383 1.3682946 0.38517067 0.5607817 -0.62036544 -0.3109372 0.1737589 -1.0482639 0.29936883 -0.61067367 -0.25160158 -1.0202683 0.9395124 0.48057622 0.30045164 -0.06127161 -0.66841686 -0.63043433 -0.7459275 0.3195295 -1.1584195 -0.85330755 -0.40620697 -0.8223399 -0.3097018 0.045434542 -0.6829294 0.758685 -0.7470143 0.7745295 -0.27038726 0.82165474 -0.42337582 0.21628726 -1.3445101 -0.941354 -0.4627761 -0.37963203 0.39771995 0.42572415 -0.6967316 0.33531982 1.0950933 -0.5738777 0.75960845 -1.00613 0.38635746 0.1257055 -0.03817121 -0.6139485
('기간','Noun') -0.32971933 1.0650172 0.5452728 0.096664794 0.3375865 0.020177184 -0.8195009 -0.08100284 0.3831571 -0.35244337 -0.8374675 0.068113804 0.3963718 0.88724214 0.06981924 -0.5594319 -0.8211693 -0.546828 -0.8371098 1.0926974 -0.03195421 -0.2160498 1.101197 0.14686958 0.22673947 0.9427602 0.38502538 0.19189744 -0.14343627 0.09461825 0.6746253 -0.19524087 -0.7721482 -0.05991614 -0.77359915 0.2816574 0.78849113 0.99570775 0.056421027 0.67824584 0.27381384 0.50703853 -0.0803363 0.93549603 0.96355397 -0.9016932 0.6206753 -0.3134138 0.989216 0.28145573
('한번','Noun') -0.61225533 0.23091201 -0.7009769 0.9660297 0.027975405 0.7972808 -0.54126537 -0.5171953 0.48249915 -0.48989087 -0.77137727 -0.54243726 0.22803645 0.415468 -0.80108106 -0.9046008 -0.78259885 -0.5078172 0.74487007 0.98851365 -0.12571013 -0.13039021 0.89537597 0.37837175 0.02874413 0.7625089 -0.617075 0.6856827 0.278868 0.7336982 -0.7524366 0.4924627 0.020064816 0.58821136 -1.020855 -0.2066871 -0.13663282 1.1564796 -1.0763847 0.14344542 0.3979492 -0.5410693 1.3301235 0.044802077 0.13576551 0.17191394 0.22494003 1.0109859 0.90845 -0.5828216
('허','Verb') 0.85862434 0.4638966 -0.82732207 -0.8518571 -0.85397154 -0.121126436 0.59320354 -0.0071099843 1.0144457 0.39245427 -0.24389745 -0.034020826 -0.37013626 0.6992524 -0.75184333 0.57253885 0.035474982 0.39516947 -0.19759823 0.52846354 -0.9579633 0.7626749 1.0270866 -1.0572428 1.006609 0.8597855 0.6049804 0.2184634 0.53144765 -0.30664533 0.091836564 0.119605884 -0.6703608 0.861374 -1.1922319 -0.4092007 -0.61054194 -0.4072531 -1.3141997 -0.06712997 -0.2471612 -0.43927786 0.21292292 0.40292406 0.02698331 -0.062694445 0.3186929 -0.45547453 0.67825806 -0.82443494
('동안','Noun') 0.50161743 1.0929716 -1.1139202 0.52580905 0.058516428 0.8105038 -0.82265556 -0.7532044 0.6330424 -0.811169 0.76188505 -1.2062736 -0.83762497 -0.62328595 -0.27020514 -1.0035839 0.16687196 -0.2427426 0.6275149 0.64657116 0.015392129 -0.62553054 -0.04825568 -0.8338326 0.2450295 0.279819 -0.09344914 -0.15703267 0.062006608 -0.19051732 -0.3395872 -0.9770306 0.4569095 1.1385565 -0.6141133 -0.8703544 0.7230753 1.2839903 0.22374806 0.1997959 -0.6947523 0.6060696 0.7612817 0.7293646 0.36083493 0.076282814 1.0080868 -0.5321063 0.2803483 -0.59580904
('손','Noun') 0.80098385 1.2372277 -0.13521186 -0.55393106 0.20020331 0.92184836 -0.6009099 -0.66079706 -0.3322347 -0.2077661 -0.94345355 -0.35738915 -0.2989566 -0.73855007 -0.5726358 -0.14552504 -0.4765687 0.47632122 0.68233305 0.7080592 -0.01205275 -0.795738 -0.41470456 0.52203405 0.033364594 -0.6120929 -0.54019934 0.2258952 -0.5683192 -0.6240162 -0.21911573 0.27868956 -0.5581857 0.14638527 -0.87000185 0.32992104 0.31989667 0.28849217 0.50160635 -0.6999716 0.5913869 0.71418977 1.4746578 1.0353442 0.4516818 -0.77137333 0.3425916 0.6620975 1.0730273 -1.171196
('체크','Noun') 0.91867113 -0.023090411 -0.6116199 -0.91736275 -1.304501 -0.60967594 -0.8825305 -0.6987978 0.5594893 0.03473079 0.034383517 -0.7895279 0.22492427 0.5811307 0.14108045 -0.7278318 -0.4936096 0.004993491 -0.63975847 1.0505618 0.67626184 0.7518143 0.8895607 -1.0435493 0.13434203 0.08747866 -0.052230466 0.7279271 0.56377643 0.4949254 0.42808175 -0.017279502 0.68376404 0.17681457 -0.64725614 0.02823977 -0.49328884 0.5429931 -0.9204269 -0.44171193 0.45596156 -0.7132964 -0.20532559 0.6900088 0.57694876 -0.3976198 1.0725667 -0.49056295 -0.1726688 -0.25014022
('다음','Noun') 0.01752749 0.3203363 -0.6837919 0.060534395 0.15815738 -0.15925609 -0.91961026 -0.07961552 -0.11128287 -0.29534924 0.3074609 -0.73719895 0.7740381 -0.39240292 -0.1859691 -0.23015252 1.1032546 -0.40770578 -0.52001464 1.2602572 0.5168299 0.84938097 -0.8079894 0.16249537 -0.444534 0.910837 -0.7093733 -0.29521313 -0.2614639 -0.69043016 -0.2640194 0.64226085 0.75381345 0.08492222 -0.26160148 -1.0840025 1.1318816 0.31246752 -1.1599975 0.38204896 0.7368154 0.8471398 0.85316896 0.41517445 0.66634744 -1.2986255 0.64185494 1.0058628 0.34806108 -1.1685487
('하루','Noun') 0.67141634 -0.16691098 0.82239807 0.43995067 -0.2989791 0.82538927 -0.41305318 -1.1778387 -0.10066353 0.3073186 -0.38885587 0.65008944 -0.80152124 0.306077 -0.2783415 -1.2311436 0.032675635 0.26907808 -0.608752 1.5632082 -0.18373597 -0.24272574 0.8753327 -1.3382546 0.50003755 1.1340854 1.0066097 0.20680857 -0.5889194 0.6033083 0.36990786 0.72192585 -0.5965676 0.21926972 -0.584947 -0.574072 -0.11339276 0.14182247 -1.2374727 -0.25388783 -0.11830592 0.70487237 -0.27054104 -0.4514082 -0.00118534 -1.2025881 -0.59432745 1.008997 0.15301016 0.25072885
('노트','Noun') -0.2568837 1.5816042 0.10647259 -0.5574277 -0.14975938 0.45903262 0.34773326 -0.6060603 0.19545826 -1.0034873 -0.703695 0.29467717 -0.07625074 0.5608432 -0.24547914 0.25222728 -0.71783006 0.35124803 -0.50794566 0.19774675 -0.6898719 0.42751598 -0.80461687 0.22618559 -0.265938 -0.117375344 0.24796449 0.8193526 -0.2986465 0.6361009 -0.91689557 -0.1505333 0.8342799 0.07393216 0.61390334 -0.8445133 -0.83948 -0.044721335 -0.6488435 -0.9490684 -0.08114577 -0.10111826 1.5243914 -0.36320108 0.8125847 0.3149566 0.8320424 0.3908457 0.11416277 -0.8128708
('교','Noun') 0.47080913 1.0981193 -0.65299994 -0.789255 -0.2456743 -0.26300612 1.101082 -0.8251799 -0.08700188 -0.0072932616 -0.30858332 -0.10020441 0.3133081 0.74824935 -0.5472519 -0.64274186 0.36643553 -0.3931962 -0.75749207 1.2133597 -0.43959153 0.97866726 -0.84290737 -1.2219895 -0.8403101 -0.34453285 -0.8203021 0.95410043 -0.3725512 -0.38505682 0.9254782 0.36623323 0.4850928 -0.8665727 0.5108428 -0.22344036 0.37382588 0.85944504 0.19728586 0.025291555 0.8083685 -0.54683834 0.32784602 -0.5515563 0.45656976 0.36932278 -0.16512254 1.0918968 0.65395975 0.5761114
('토스','Noun') 0.01851426 0.42847598 -0.21931536 -0.13745059 0.06416799 0.952716 0.09779269 -0.57750046 0.8563333 -0.23680143 0.032570656 0.18756637 0.65223163 -0.7879227 -0.9040363 -0.47460377 0.7029996 -0.29058704 -0.8863044 -0.22059608 -0.89191085 0.9515693 -0.038763516 -0.25900516 0.14780958 -0.33044583 -0.71008474 -0.35128593 0.16819273 -0.59664434 0.17223653 0.19011275 0.3619403 0.7267354 0.26687446 0.62754244 1.2101591 -0.4941756 -1.0177677 -1.0188732 0.057798084 0.117545374 1.302406 0.98804766 -0.09304045 0.22899601 0.58010006 0.47697875 1.3033521 -1.051183
('20','Number') 0.7416591 0.6282632 0.14181998 0.63162506 -0.7120673 -0.083130665 0.019361528 -0.22196455 -0.13179024 0.6240955 -0.72957563 0.58468163 0.9798479 0.4676857 -1.0320164 -1.1486645 -0.32245293 1.0618956 -0.39854702 -0.22353263 0.20803939 0.08157776 0.62837005 0.014062286 -0.9736171 -0.63947797 -0.015484083 0.9714891 -0.5606384 0.4046899 -0.042417187 0.8370998 0.38301328 0.8942383 0.4917695 -1.223189 0.5614377 1.4879953 0.48748648 -0.981165 -0.05618533 0.8982561 0.98476136 -0.29184765 1.2553827 -0.8417127 -0.32118943 0.99433213 -0.27116352 0.061444055
('실습','Noun') -0.706188 1.3813908 0.4795862 -0.7999863 -1.0079353 0.12285917 -0.57460815 -0.6029647 -0.54659414 -0.14175752 -0.2023426 0.40726903 0.43571115 0.32784253 -0.13679878 -0.54429406 0.0028990048 0.7905243 0.6578842 -0.21969968 -0.61376715 -0.7486401 -0.03603794 -0.35133994 -0.6502498 0.6778787 -0.6951682 1.0313572 -0.13279526 0.3650962 -2.7617789e-05 0.20004688 -0.5952819 -0.5771652 0.22897582 -1.0139525 -0.38036907 -0.37918445 -0.47490233 0.7780655 0.10266893 -0.5541418 0.9830583 0.8152497 0.724512 -1.017998 -0.5835909 1.6961925 0.13478439 0.71694356
('핀','Noun') 0.43452007 0.5196804 -0.053624958 -0.8027757 -0.66847444 0.46723953 0.7707084 -0.47840434 -0.11663006 0.7737337 -0.41648296 0.76833487 0.30239353 -0.6730408 0.68597883 -0.7703471 -0.75860983 0.26468757 -0.5782744 0.790657 -0.64773995 -0.11234155 -0.25954592 -1.090712 -0.05618033 -0.59845954 -0.10462877 -0.3973933 0.5831958 -0.9714546 0.4922597 -0.6701393 -0.6925396 -0.5194606 0.026627516 0.48965207 1.1400493 -0.12572092 -1.3387164 -0.30546337 1.1804047 0.7877681 -0.5053306 -0.29121688 0.41242358 -1.1486466 0.3288353 0.010160542 -0.110854864 -0.87142146
('가능','Noun') 1.0411683 0.8249427 0.53345054 -0.3341916 -1.5611277 0.94370556 0.53228146 -0.32541093 0.096883096 -0.67333674 0.7254882 -0.1743142 -0.7859486 0.6936878 0.7111214 -0.5250001 -0.6850581 -0.058577858 -0.31737196 -0.24207757 -0.45683792 -0.8243818 0.7455165 -1.1580307 -0.1419127 -0.41914374 -0.33516514 1.1157808 -0.25963825 0.6743789 -0.6468584 0.62675905 0.055499375 0.41564894 0.55402344 -0.20042947 -0.33396354 -0.20934533 -0.09999632 0.41401118 -0.44592026 0.647673 0.53376496 -0.772508 1.1868576 -0.11483955 0.506769 0.742306 0.13001107 -1.1821884
('기준','Noun') -0.39154068 1.4209989 -0.36133495 0.49464044 -1.0511407 0.042630617 0.16198434 0.1525035 -0.538922 0.05919068 -0.5161693 0.46580553 -0.12503864 -0.375178 0.4848603 -1.325301 -0.16940187 -0.58450806 -0.08670618 -0.19454753 -0.6689451 0.6201529 0.32941452 -0.6527362 0.080297835 0.2117879 0.9162179 0.3749465 0.24926148 1.0087293 -0.18290237 0.113290966 -0.01461533 -0.48243967 -0.90722156 -0.46389025 0.5937559 0.8690434 -0.26610082 0.6552901 -1.0238103 0.04685889 0.45013973 -0.19560766 1.3085823 0.30184639 0.9165581 1.2254975 -0.20854908 0.41988218
('터','Noun') 0.9769707 1.3101673 -0.6194665 0.53567207 -1.0298663 -0.07721543 0.78162706 0.11204292 0.0002181493 -1.2834315 -0.5851833 -0.6737667 0.07034525 -0.44558063 -0.7301707 0.45255333 0.31316808 0.6287784 0.52175766 -0.38113046 -1.0620766 -0.7457575 0.8497361 -1.4507722 0.5039429 -0.16188486 -0.49705175 0.09749842 -0.13785598 0.6838555 -0.474044 -0.36022082 -0.8493467 -0.58035326 -0.3363496 -0.6195408 0.26026452 -0.05928319 -0.2766944 -0.87796944 -0.6104819 -0.39582676 1.2383254 -0.15526675 0.8024036 0.25091356 0.9041397 0.87700576 0.6041114 0.22555736
('필기','Noun') 0.5732305 0.7433441 -0.92044395 0.2470965 -1.1947634 1.0141426 -0.9749614 -0.5855271 0.17519675 -0.58155394 -0.9922004 -0.6654835 0.84951466 -0.49705356 -0.98768467 0.6049019 -0.5353861 -0.8667925 0.667822 -0.33972594 -0.8435091 -0.56384414 0.2720099 -0.64640385 -0.5014994 0.53236395 0.4522788 -0.5699857 -0.06774094 1.0916368 -0.12620157 0.7569724 1.0615042 0.95828277 -1.2355534 -0.33292663 0.6960156 1.244023 -0.7270484 0.40202114 0.10726466 0.60489774 0.08348022 -0.20927024 -0.5469249 -0.6055054 0.5270489 0.3606018 -0.49904007 -0.91618305
('참여','Noun') 1.1490363 1.5094676 -0.910058 -0.81227887 -1.0929486 1.3890997 -0.51853997 0.15192103 -1.056567 -0.14084527 -0.28840873 0.7402147 -0.59021974 0.026166247 -1.1171131 -0.14797169 0.37180966 -0.099460386 0.18322328 1.0086339 -0.23365217 -0.5668844 0.683053 -1.2019655 0.07913035 0.5597937 -0.6748948 1.0378344 0.40302762 0.14326166 0.040335372 0.6193861 -0.027069582 -0.2847934 0.34570375 0.3254279 -0.27147698 -0.5111636 0.31971732 -0.43936637 -0.028490238 -0.034177884 0.093071856 0.76636726 1.1982926 0.11750008 0.97604805 0.9297321 -0.26140407 0.48204675
('봄','Noun') -0.22337256 1.3325533 -0.6875918 -0.34443277 -1.3932103 0.1551607 0.943312 0.09691324 -0.02864719 0.51193905 0.048738092 0.62776226 0.055008557 -0.37165758 0.5117874 -0.9475807 1.0897574 -0.4416233 -1.1161596 0.5949469 -1.1018487 -0.3254052 -0.44272196 -0.82328767 -0.3115569 0.25948745 -0.7061628 -0.48203444 -0.67573035 -0.33253673 -0.06686057 -0.20860063 0.39209208 -0.4417276 0.50445753 0.15020046 -0.21113665 0.058662314 -1.3535167 0.5067665 0.93991464 -0.34997422 0.15077966 -0.65360504 0.9779862 -1.4382106 0.7224713 0.030891694 -0.13633914 0.2624032
('후기','Noun') 1.1799449 0.35692918 -0.83010286 -0.8625826 -0.81417704 -0.28870818 -0.5804563 0.16551499 -0.23815453 0.30406412 -0.5734859 0.3083879 0.97919154 0.6934034 -0.014560711 0.33934748 0.30716145 0.32817197 0.2624478 -0.5081702 -0.6996393 1.0791361 1.0388942 0.12793477 0.10948299 0.68389887 -0.46865162 1.3638146 0.89554507 -0.03868365 0.7084495 0.62311554 -0.33174247 0.69366145 -0.34987432 -0.34013948 0.19999823 0.90530443 -1.1323373 -0.10383245 -0.38717625 0.13521093 1.3043357 -0.18080911 -0.047532894 -0.38002905 0.59108645 -0.56324077 0.8072418 0.33567676
('기출','Noun') 0.99651444 0.20836812 -0.30037794 -0.3289884 -0.5738119 0.2536209 -0.6945081 -1.5517966 0.7059778 0.10658022 -0.11181144 -0.3444089 1.0584251 0.7431955 -0.67890006 -0.12630232 -0.70397264 0.39698908 -0.068954736 1.4171718 -0.6807288 0.4579885 -0.42978215 -0.96251047 0.14503644 -0.3739798 0.5482435 0.3646205 -0.24947535 0.1211935 -0.9396549 0.7809085 0.91955227 -0.16918717 0.37605828 0.34133944 -0.44095042 0.05877986 -0.97626007 0.55471903 0.25153157 -0.08671741 0.21911813 1.0669695 1.22741 -0.050304566 -0.618129 0.54699665 1.2178206 0.07845978
('티','Noun') 0.88637155 0.6326882 0.6628348 -0.17637803 -1.463097 0.78942853 0.29295993 0.29128504 -0.6184352 -0.019474378 0.09422 0.6004162 0.7521011 -0.21777812 0.58977854 0.4773274 0.9252463 1.0068184 0.27684858 0.7043474 -1.0466511 0.77230275 0.42565453 0.12891719 -0.85481375 0.03880553 0.9591871 -0.4425198 -0.31634408 1.1410501 0.80222917 0.2562691 0.8345815 0.5583777 -1.3351545 -0.17217642 -0.714128 1.497688 0.45539933 -0.96375006 0.19366635 0.23299088 0.08797749 -0.2973033 0.7811871 0.30457282 -0.20451511 0.84422994 0.19861028 0.096418805
('필','Noun') -0.43678218 1.3430204 -0.46045113 0.56508946 -0.8823369 0.83892494 -0.5294177 -0.0939402 0.88370305 -0.8952087 0.33203694 0.8821797 -0.43182606 0.85671747 -1.0208167 0.49592373 -0.3356133 0.55663586 0.7673936 1.0093745 -0.73598003 0.11734703 -0.7449481 -0.021015348 0.43353665 0.10616052 -0.17921118 0.8626544 -0.7729067 0.2569062 0.5502092 0.07042307 -0.09323971 -0.38896418 0.32637203 0.30769616 1.0316552 1.1599762 -0.58555585 0.090277776 1.0050219 -0.5479645 1.2220542 0.46796238 1.2022668 -0.26295063 -0.43311518 1.1905857 -0.05885033 -0.0102792
('필수','Noun') 0.8014406 0.9015563 -0.13761155 -0.9734304 -0.567116 0.363954 -0.13114357 -0.91391313 -0.64397895 0.45031732 0.25273895 -0.72710305 0.82219243 0.31088933 -0.77556354 -0.8171335 0.84104484 0.13001436 0.6921111 0.00466823 -0.14183289 0.011607312 0.33781344 0.7062253 0.035810553 0.80460525 0.15998417 -0.73736167 0.21459499 0.49142244 0.5703587 -0.7753042 -0.77848303 -0.41777205 -1.0174012 0.60604626 0.36142975 0.70614046 0.49036965 0.6931227 0.87421954 0.88951075 0.46808678 0.68836963 -0.1572157 -1.1425557 0.89071894 1.0408398 0.999811 -0.2589133
('개론','Noun') 0.15225881 0.54496694 -0.016722487 -0.38259158 0.25040504 1.675971 0.15489063 -0.43631825 0.12556544 -0.93122005 0.3651923 -0.49255624 0.029520709 0.51566666 0.43872124 0.02756047 -0.31666183 0.7484824 -0.37293825 0.10202074 0.5807882 0.83148223 0.7562776 -0.5163938 -0.43703428 0.7778716 -0.52315927 -0.55675536 0.8454163 1.0355564 -0.5557745 -0.27851442 -0.41865188 0.6331455 0.43920958 -0.10759582 0.5529919 1.2972853 -0.48730856 0.7450682 0.698052 0.5262522 1.0073527 0.5398277 1.0899259 -0.4703625 -0.7097579 1.4344748 0.7424252 0.49267244
('하','Exclamation') 0.3005279 0.31840834 -0.27406776 0.25590664 -0.459715 1.1448841 -0.71716696 -0.7062487 0.6905643 0.19392288 0.009547554 -0.15724137 0.3912548 0.24369526 -0.9872267 -0.5846998 0.8130724 0.22713321 -0.9058633 1.2620491 -0.37571174 0.26275212 0.19672976 0.54375476 0.044266656 -0.25779256 -0.9043254 1.2115214 1.2006078 -0.3566558 0.86618567 -0.7771663 0.3224572 1.0178099 -0.73447514 -0.81300706 0.33154628 -0.30263418 -0.33301193 0.112463474 -0.859596 -0.3174801 -0.23604885 0.7394912 0.27542096 0.2242778 0.38014787 -0.029839413 0.83993816 0.026954938
('데이터','Noun') -0.291139 1.462782 0.34015092 0.1684995 -0.49770316 0.2697387 -0.4268273 -0.5762749 -0.67091596 -0.047369234 0.16430113 -0.78990394 -0.48501542 0.830393 -1.1369762 -0.8117518 -0.1041042 0.9982604 -0.18966798 0.15299994 -0.6722647 0.5725897 -0.6752411 -0.31135118 -0.08733392 1.3628651 -0.46989548 0.80853283 0.2767436 0.6402835 0.31183138 -0.3360718 0.9666043 0.35233504 0.52127236 -1.1393783 0.8132629 -0.3975418 -0.5317701 0.64768046 -0.46750304 0.53735423 0.25912532 -0.82782406 -0.11543168 -0.49079368 0.22779621 0.28909746 -0.09630156 -0.3312601
('날','Noun') 0.69369465 -0.2763149 -0.43756044 0.38766325 -1.1286193 -0.3472309 0.28791082 -0.3638607 0.3203976 -0.022401778 0.51476675 -0.35087115 0.74193734 0.29674858 -0.6392687 0.5332517 0.9266236 -0.7485901 0.7744369 0.8551093 0.54837126 0.10116253 0.40680313 -1.2149403 -0.31829372 0.864158 0.6542012 -0.21849257 -0.7987292 -0.7729884 -0.6876561 -0.59967804 0.72963184 -0.25345916 -0.39900318 0.19903964 1.1841254 0.2175093 -1.0555882 -0.08908191 1.0322561 1.2407472 0.31407866 -0.36103323 0.8232454 -0.557662 -0.81885815 1.2071596 1.2132211 -0.7493467
('전산학','Noun') 0.59108186 1.029041 -0.67384636 -0.9616742 -1.1713185 0.98239046 0.17165977 0.042878203 0.46939918 0.5014587 -0.49737835 0.3092047 -0.58031154 0.25073874 -0.16274026 0.5043112 0.7407927 -0.00019397703 -0.2877479 0.65899575 -0.65037644 -0.30592084 0.71949583 0.5130447 0.7342918 0.31555495 0.6402828 0.9452366 0.37525946 0.43691185 -0.09889723 -0.2557028 -0.24309333 0.69498104 -0.31294632 0.6447997 -0.31961507 0.1755174 0.4586777 0.088097446 -0.39855623 0.021248294 0.8555164 -0.6820501 1.1375102 -0.60695356 0.709948 1.0333806 0.82966214 -0.49314398
('80','Number') -0.080151364 0.21861522 -0.8190989 -0.092469044 -1.1066886 0.8266534 0.74417114 0.031175753 0.5868598 0.004574616 -1.0896626 -0.43173087 -0.35580388 0.55874693 0.7665091 0.14376068 -0.77045125 0.7522424 0.6473385 0.012711084 0.06594179 0.49533263 0.9545823 -0.52142996 -0.86086285 1.14883 0.8464925 -0.5399936 0.20766078 0.25717923 0.56871706 0.51477146 -0.30837145 -0.26021528 -1.0092599 -1.1799319 0.82320786 0.2819456 -0.42467842 0.7841256 -0.27257344 -0.19984014 1.265572 -0.5484183 -0.18361558 -1.1821783 0.7265302 -0.45734224 0.1883286 -0.06795132
('임','Noun') -0.17845753 0.6789214 -0.591227 0.78696376 -1.0573423 -0.07595325 0.071517676 -0.24328323 -0.26457924 0.5265435 -0.34386674 -0.5887055 -0.88820595 -0.30121613 0.36617574 0.56639403 0.8140253 0.88720584 -0.278854 0.008565632 -1.2960235 0.98264736 -0.26910102 -0.39803946 0.19018485 1.2127366 0.3911693 0.17716934 -0.019649485 0.06026632 0.05601865 0.5780704 1.0117874 -0.42107126 0.066859536 -0.66388154 -0.51417214 0.64486027 -0.6081369 0.41689727 -0.72026527 0.14473583 1.1129464 0.002771029 -0.19882911 -0.69270754 -0.55257314 0.10554933 1.0506936 -1.2465309
('위','Noun') 0.3152912 0.58986706 -0.83704746 0.5453282 0.2065581 0.057402305 0.7535897 0.2547116 -0.25451785 -0.9647954 -0.15828681 0.798015 0.90982664 -0.22318147 -0.6827152 -0.7250301 0.07459129 -0.037614472 -0.7554356 1.2511219 -0.5088408 -0.26594397 0.9681834 0.48327887 -0.47259536 0.025220351 -0.07829365 0.8427245 0.7028076 0.6231208 0.69475245 -0.6747025 -0.7561633 0.06359889 -0.83922416 -0.65987706 -0.8356019 -0.20751007 -1.2476276 0.15350907 -0.77077025 0.93828744 0.06719552 0.82506704 0.06514657 0.15813923 -0.3703735 0.09011414 0.9109459 -1.1839036
('차','Noun') -0.010145299 1.347974 0.90023494 -0.8431339 -0.12396847 0.5131695 -0.40653637 -0.043134723 -0.023120545 0.35535452 0.6676532 -0.78786016 0.36565143 -0.14678796 -0.18196277 -0.8448882 -0.005377708 0.8051661 -0.4895789 -0.2757506 0.2732407 0.35984504 -0.42362636 -0.5484732 -0.1855227 -0.7153199 -0.04136733 -0.15559904 0.27869943 -0.15090795 -0.5379662 -0.98177326 -0.68726224 0.09866635 -0.9587402 -0.6085048 0.3370059 0.8866841 -0.99494517 0.33054546 -0.7147701 -0.58760566 1.1735268 -0.7571165 1.0752603 -0.46505198 0.30828178 -0.17681372 0.95215964 -0.47566056
('장','Noun') 1.0173352 0.45971668 -1.0773357 0.1632139 0.44016165 0.5176658 0.6903925 -0.15983708 0.8324506 -0.6497101 0.29041013 -0.620433 -0.19554086 -0.35469097 -0.7980617 -0.24914245 -0.7575594 -0.35861704 -0.14803866 1.0029676 0.35596135 0.7652483 0.37284124 0.4635643 -0.89326733 0.82858 0.8459309 1.0209403 0.41088325 -0.42093858 0.13699478 -0.84429294 0.8824759 0.088037305 -1.139536 0.43822154 0.22979827 1.1526587 0.41492605 0.33401674 0.63952076 -0.59928864 0.89523125 1.0312396 0.33710742 -0.86766565 0.41020912 -0.24599953 1.1967325 -0.11011365
('90','Number') 0.35387647 1.0751815 -0.89572895 -0.1387012 -0.12242762 0.08839377 0.6960154 0.01813463 0.6430248 -1.1672182 -0.22084108 -0.19494157 0.49335557 -0.7576748 -0.9057828 0.1779873 -0.38870648 -0.6440864 -0.9649195 0.44513184 -0.5342139 0.94685316 -0.795078 -0.25586987 0.6277791 0.9810769 0.49906963 0.81719095 0.13963929 -0.751555 0.19038473 0.06957978 0.20624322 0.10055663 -0.93734 -0.1068742 0.30475333 0.3899756 -0.054045875 0.14661953 -0.81717336 -0.7118389 0.62515104 0.7374848 1.2702137 -0.9411548 0.381234 -0.26392728 -0.32931253 -1.0986401
('전체','Noun') -0.17754814 1.2825148 0.69563574 0.5538915 -1.1956232 0.647395 0.7192938 -0.6200268 -0.36233118 0.45833883 -0.85037047 -0.7823631 -0.23127463 -0.2690203 0.7242798 0.31330064 0.59791404 -0.78296816 0.0033949867 1.050613 0.16796835 0.66848737 1.0660431 0.6576259 -1.0453937 0.92746127 0.1961292 1.067459 0.38787523 1.0828958 0.569525 0.5167947 0.41314715 0.62006456 -0.30231497 -0.52136487 0.5917442 0.5986565 -0.052958604 0.51257986 -0.5913024 -0.5488569 1.0976589 0.8363887 -0.3288744 -0.3936635 -0.74432284 1.1274365 -0.4248729 -0.45746225
('머신','Noun') 0.41642684 0.3105167 0.31041574 0.5519534 -0.61309683 -0.32285658 0.9138803 -0.6536836 -0.42172328 -0.32366645 0.05963279 0.028894195 -0.9122482 0.9352444 -0.6871997 -0.27551934 -0.75323904 0.88335615 0.5687405 0.8847981 0.323499 -0.2769242 1.0796943 -1.3346146 0.34559706 0.7550316 -0.42815363 0.5383785 0.8120812 0.7545803 0.47016013 0.41655275 0.70981604 -0.44670308 -0.3847735 -0.77787554 0.078308925 -0.6433478 -0.5445365 0.58722025 -0.60445726 1.0101435 0.6766654 -0.5400849 0.50613993 -0.6403192 0.050496265 -0.5783451 0.6767212 -0.8432223
('로','Josa') 0.1543911 0.6681973 0.21855778 -0.14523137 -0.7717356 -0.51014704 -0.9542189 -0.1916873 0.99123365 -0.7778705 0.7276014 0.04929519 -0.62463015 -0.6903721 -0.7875564 0.07485972 0.28460667 0.2319166 0.8690216 -0.34802574 0.11498493 -0.9595216 -0.85111 -0.17844856 -0.70586824 0.12043676 -0.9210995 0.70991105 0.6871569 -0.24673302 -0.7747414 -0.26428023 -0.35451323 -0.1657987 -0.5512205 -0.2431191 -0.049164817 -0.2690196 0.1069088 0.42326507 0.25887737 0.110809974 -0.58820486 -0.82776153 1.0416926 -1.111165 -0.6188328 -0.06784501 -0.29744202 0.20416807
('평','Noun') -0.27357024 1.1494304 -0.117714755 0.20135158 -1.0182287 0.3068592 0.9686691 0.5313246 0.024197446 -1.0452403 -0.782516 -0.32193357 -0.23126476 0.9842415 0.23052044 -1.1446574 -0.6335415 0.78632283 0.041838683 1.1014109 -1.12702 0.2737605 0.32145947 0.58814645 0.018116016 0.5894018 0.4620225 -0.3188912 -0.56503886 0.67389953 -0.79144627 -0.2670025 0.66571856 0.29791456 0.5592711 -0.024366343 0.12242932 -0.2835674 0.4723394 0.038693633 0.7559554 0.29754588 0.52427274 1.0702752 0.4381409 -0.024171744 1.0881615 0.63795376 1.3033428 -0.17846848
('쪽','Noun') 0.41654724 -0.17933682 -0.63076377 -0.0050247326 -1.3903736 0.78941196 0.88978535 0.3294053 -0.84971213 0.30806035 0.09933781 -0.76131856 0.2561063 1.0409335 -0.17005414 0.3694626 -0.14370424 0.8810645 -0.06065367 0.2056951 -1.1630814 -0.1911006 -0.5783286 -0.45128775 -1.0277753 0.682717 0.52205706 0.3343399 1.120892 -0.58982354 -0.39291984 0.18880978 0.86697346 0.19817893 0.68115515 0.41542542 -0.09461054 0.27160588 -0.112332255 -0.20429023 0.064806186 0.64284354 1.1306463 0.9151843 0.108874515 0.21331427 0.4305313 0.32839504 0.35185513 -0.39446887
('열정','Noun') 1.0345966 -0.41118503 -0.7416822 0.29368216 -0.053818468 0.8255524 0.23480536 -0.5111427 -0.014309169 -0.89399344 -0.4027469 0.14825943 -0.7840807 0.6027164 0.10773782 -0.8720852 0.38715708 -0.6911491 -1.0883745 0.4247081 -1.1029171 0.62675345 0.0025917618 -0.8247305 -0.032980137 -0.20011394 -0.8335505 -0.13306032 -0.18037458 0.42440188 0.8748789 0.47333017 -0.044601675 0.8796622 0.2529022 -0.6928838 -0.15964809 1.1498221 -0.23083156 0.5744366 0.5883018 -0.3746758 1.2052253 -0.6028709 -0.597274 -1.1277004 0.1458816 -0.5305761 1.2686712 -0.7595898
('석영','Noun') 1.0409125 0.5846435 -0.34352246 0.02513951 -0.18126538 0.07664886 0.6410332 -1.0637811 -0.3310531 0.20878348 -0.6284705 0.20407845 0.33008853 0.2948462 0.05608159 0.37681022 -0.5492569 -0.12553203 -0.8149022 -0.027163353 -1.0776964 -0.51495993 -0.16518612 -1.1532277 0.40268004 -0.315044 -0.043420196 0.67674637 0.17387241 0.3251651 0.8011868 -0.14694229 0.94412655 1.1817873 -0.98577267 -0.2997117 -0.56033677 -0.72929037 -1.037824 -0.3616882 0.7123869 0.3607681 -0.06917957 0.2169847 0.018567905 -1.1487659 -0.13061002 -0.7531613 1.2914891 0.657587
('중','Suffix') -0.7133917 0.7163965 -0.44127366 -0.3075313 0.7145008 -0.411483 -0.89579254 -0.7220775 -0.4535047 -0.70562047 -0.83033293 0.7127034 0.040087104 -0.7179725 0.24544321 -0.5867101 -0.26801413 -0.32708392 -0.4913422 1.0170594 -0.32297194 0.36276135 1.0687094 -0.50718737 0.26669022 -0.70915073 0.9319513 -0.12146477 -0.23172615 0.6831726 -0.25660467 -0.5050863 -0.75129074 0.8522977 -0.18439126 0.5416673 -0.82320833 -0.067012124 0.17651948 0.65367866 0.22774617 0.107916825 -0.7795806 0.34081167 0.65908056 0.19661453 -0.17672747 -0.30712712 0.24982767 -0.61152536
('오픈','Noun') -0.62817454 0.7689157 -0.8768906 0.38113868 0.053428255 0.53160596 0.7492537 -0.46229896 -0.6396781 -0.94624966 -0.82003117 -0.13177627 0.7364121 -0.19375755 0.17719659 0.40555725 0.8186694 -0.7364352 -0.32503974 -0.4608148 0.34069285 0.0013120162 1.0447044 0.0016886614 0.38639688 0.30059403 0.5933133 0.13257274 0.8638033 1.1049889 0.8382359 -0.49004787 -0.630662 0.3348237 -0.69746554 -0.9004692 0.14006206 -0.36301276 -1.3016927 -0.42366132 0.16055863 1.1313369 1.4336977 1.2413081 -0.2514521 -0.5834787 0.31787404 0.031921465 1.3391732 -0.07303276
('량','Noun') 0.6003604 0.99360687 -0.9255543 -0.6863095 0.055042863 0.52168345 -0.17114286 -1.1606526 -0.18696287 0.55740374 0.72718483 0.4199588 -0.75127393 0.8269528 0.56925863 -0.65523744 -0.17415339 -0.43667704 0.12646592 -0.62989426 -0.119110495 -0.8030591 0.6070916 -1.2291288 0.38387868 0.35369357 -0.10661575 -0.57958037 0.20407219 -0.24876145 1.0739385 -0.3059046 1.057757 -0.69103116 0.3122234 0.77766365 0.73125035 0.5468228 -1.1487749 -0.48798013 0.25647134 0.38862514 -0.15157677 -0.13273908 0.66262823 -1.0326726 -0.16284503 -0.0065994766 1.3500717 -0.7476696
('상위','Noun') -0.010198372 0.88090616 0.37138435 -0.20695655 -1.2024486 0.5658879 -0.79756624 -0.92164636 -0.55050194 -0.18208517 0.56994146 0.038958933 0.07943665 0.008665344 -0.04504585 -1.0740469 0.93102473 -0.41941994 0.47178394 0.7994674 0.6382585 0.76220626 0.27904505 -1.4458697 0.35154843 -0.54006314 0.19899176 -0.45363456 0.3279675 0.55130684 0.95428276 -0.077696934 0.13121301 -0.65188974 -0.43754914 -0.7258487 0.106336035 0.56346637 0.2713746 -0.845633 -0.41166836 0.6039822 -0.486718 -0.015849236 1.1044358 -0.032543242 1.1674808 -0.29447135 0.15606278 0.14678691
('적극','Noun') 1.1281779 -0.022622826 -0.7285465 -0.07035495 -0.63683003 -0.44504943 0.57075936 -1.4165983 0.8443381 -0.4054228 0.52189773 -0.94629437 0.5498248 0.11411025 -0.52587724 -0.41716892 -0.32207686 -0.1568935 0.7997873 0.025246365 -0.16714834 -0.56110054 -0.08937586 -0.93469197 -1.1346233 0.8231433 -0.55328214 0.93534243 0.5261149 0.9279508 0.39866832 -0.54667497 0.8176755 -0.13543831 0.5105879 0.24240223 0.42898154 -0.43211168 -0.2620664 0.15411255 0.19704708 0.21757768 1.3179215 -0.006856695 0.1365977 -0.8022601 0.31463337 0.23706192 0.51644325 -1.3410791
('버스','Noun') 0.8715056 1.2316669 0.47497576 0.36308086 -0.45320207 -0.2323375 0.3685159 -1.1192766 0.5048365 -0.4148635 0.32092974 -0.44428292 -0.6331975 0.07158001 -0.083454035 -0.19198634 0.86104316 -0.04485362 -0.7071348 1.1846784 -0.25010917 0.18378948 -0.6281084 0.37222224 -0.3915917 0.9712548 0.50638926 -0.06416666 -0.18562444 0.1317826 0.789204 0.3106164 0.1738242 1.1027014 -0.9822761 -1.0096506 -0.23724505 -0.46422055 -0.65035903 0.7670598 -0.26383132 -0.274337 0.12029571 -0.8581666 0.64241856 -0.32607496 -0.32851774 0.40813154 0.8917619 0.38111725
('내','Noun') -0.4423092 -0.17101462 -1.0705794 -0.5932856 -0.14094819 0.60733014 -0.7004603 -1.2057979 0.27986658 -0.98050857 -1.1641886 0.33161893 0.11110329 0.6772171 -0.1951674 -0.92750037 -0.5052666 1.1043789 -0.7554947 0.07905795 -0.51467806 0.09551165 0.06701517 0.35850006 -0.9576496 -0.16529126 -0.35002133 0.59700674 0.2722803 -0.1269313 0.18782984 -0.03348688 -0.042160437 0.65034616 -0.6463793 0.38015577 -0.42683265 0.57834756 -1.3354698 -0.714341 0.6183145 1.1705076 0.10167886 0.051371325 -0.20309462 -1.1411548 0.7710365 0.31335518 -0.17264482 -0.42502806
('테','Noun') 0.47463146 0.70250386 0.75032413 -1.0470879 -0.746473 -0.52865255 0.081873804 -0.6339744 -0.06612886 0.21856417 -0.864523 -0.40388432 0.32507452 0.8322861 -0.94765574 0.4486692 0.48426747 -0.5217924 0.8109591 1.0976746 0.56175816 0.31174123 -0.14127484 -0.76187545 0.12282891 0.42682308 -0.29717457 -0.576996 0.35146186 -0.26228583 -0.40557128 -0.21166821 0.09107733 -0.8681484 -0.6797674 -0.46190718 0.8477062 0.5483857 -0.85725033 -0.17834148 -0.23435779 1.0063205 0.51096773 0.54070973 0.5376681 -0.14476867 0.93867743 -0.8101359 1.1917588 0.5245408
('감','Noun') 0.55881363 1.4031528 0.7830525 0.14048919 -0.912416 -0.15819252 -0.8149853 -0.37287137 0.021462258 -0.7398908 -0.59620154 0.7444543 -0.3977226 -0.7656453 -0.59257686 -1.3473359 1.0492381 1.0967292 0.6745158 -0.23343585 -1.2846514 1.061872 0.85858595 -0.65083295 -0.037113857 -0.127908 0.54851776 0.9501165 -0.17084096 -0.042178392 1.0321856 0.5485926 0.5387576 -0.3435199 -0.35589847 0.23163968 -0.12829411 1.2580885 0.33376446 0.38988867 0.909614 -0.49707276 1.2175139 -0.35045648 0.29628897 0.07778951 -0.52219266 -0.5169585 -0.16877568 -0.6386274
('3시간','Number') 1.2245477 0.3356362 0.39013132 0.05477523 -0.0665388 0.27637184 -0.87777597 -0.05618459 0.60364443 0.07625556 -0.37406644 0.20592639 0.26623556 0.7887576 0.5977471 -0.81973916 0.6641143 0.014798147 -0.19148605 0.16732904 -0.058585774 0.6399822 -0.5020983 -0.6378761 -0.74480903 0.0020542603 -0.17788166 -0.10515273 -0.49306175 -0.4614217 -0.6817186 0.77118176 -0.5176276 -0.59491116 -0.61845905 0.02263319 -0.61149895 1.6419431 0.46736383 -0.75306463 -0.05735471 1.0917357 1.4867222 -0.30426222 1.3606061 -0.2857195 0.56893116 1.3592157 0.38414174 -0.82654697
('그마','Foreign') -0.48523757 0.7129459 0.73422295 0.620934 -1.5490746 0.05781318 -0.46976745 -1.226994 0.43265742 -0.6876348 -0.28045633 0.4268853 1.0536145 0.39128822 -0.011215548 -0.16547753 -0.052456263 -0.35631332 -0.22998115 -0.48540092 -1.160102 -0.681984 -0.8631278 -1.0804517 -0.58048046 -0.0051933937 0.6081604 -0.4066898 -0.16346338 0.4857652 0.65242726 0.27343228 -0.16178879 -0.09705346 0.15874708 -0.78110206 -0.3950518 -0.29972833 -0.9203795 -0.36141387 -0.35799986 -0.09933551 -0.41475675 -0.55584484 0.911568 -1.2393856 -0.10939669 0.5276956 0.34569994 0.60026836
('시기','Noun') -0.56759995 0.2697812 -0.608861 -0.7998308 -0.24229026 0.33469036 0.70021355 -0.43997103 -0.6325519 -0.5184057 -1.0816535 -0.67611367 -0.29874566 0.49005005 0.66772497 0.26941752 0.71315867 -0.5096626 0.11879884 -0.5962441 -0.4580089 -0.5869513 -0.040890392 -0.21677041 -0.6265658 -0.07406731 0.0739918 0.6186939 1.0119401 -0.29806462 0.19901724 0.20656262 0.11405282 1.0674489 -1.2159421 -0.8100786 0.21398239 1.3780993 -1.3185521 -0.56187046 0.13759877 0.36093327 -0.1514428 0.75211483 -0.10105299 0.018540068 0.25066563 0.9785436 1.4076949 -0.3434967
('메','Noun') 0.14454502 0.49987254 -0.90659314 -0.17384547 0.74358827 0.3011794 -1.0338763 -0.8781998 0.6605297 0.70057005 -0.6637861 -0.40561485 -0.539611 0.34410375 -0.8008297 0.6347023 0.20964374 -0.09681524 -0.32517734 0.5299975 -0.39947164 0.28074017 -0.014008822 -0.7139848 -0.9401682 0.8214672 0.82659733 -0.2507156 -0.76316404 -1.0093037 0.59956384 -0.7777551 0.69224274 -0.86785316 0.0022418047 0.52208436 0.52827024 -0.7175358 0.18882647 -0.23197815 0.89045125 0.43133143 0.8211697 -0.13695003 -0.82550323 0.78396136 0.46544898 0.07612152 0.17307904 -0.6455945
('무','Noun') 1.2163709 1.4711152 0.3395763 -0.37080514 -0.58428 -0.40899178 0.0146183595 -0.9972473 0.46378845 -0.30903468 -0.56146365 0.4205631 0.47038177 0.0798187 -0.64521396 0.07143747 -0.4655713 -0.28977224 -0.751282 0.9444123 -1.2000842 0.4100184 0.80190295 -0.28524783 -1.2078991 -0.1814588 -0.6021629 -0.6262925 0.5142967 0.0038868424 -0.0035900187 -0.3666966 0.5532266 -0.37039697 -0.6924428 0.5544328 0.09829677 -0.2979846 -0.25023866 -0.43933356 0.54626304 -0.07855017 0.42058447 -0.7076469 0.49811494 -1.0054891 -0.34331176 0.008562217 0.6265432 -0.15485372
('300','Number') -0.07775721 0.7226085 0.1473715 0.76181054 -0.8822502 1.3266257 -0.6529384 -0.19576715 -0.45586395 -0.21017733 -1.194942 -0.83188105 -0.20149735 -0.03435654 0.68311775 -0.01792794 0.534444 0.44145912 -0.98914033 0.71250296 0.18601076 0.8405889 -0.85213786 -0.444204 -0.65921164 0.3076815 0.7218124 0.096448995 0.29571876 -0.5815321 0.9196768 0.40106574 -0.6135158 0.3499109 -0.25829172 -1.1419421 0.5921118 0.71810347 0.36103237 -0.15501298 0.7179136 0.12801325 1.2598306 0.76893616 0.40791512 0.4576511 0.6934065 -0.31520134 0.12022893 -0.03562974
('이론','Noun') 0.6797556 -0.16530804 0.15622205 -0.73612136 -0.5345356 0.21028401 0.5787174 -1.5266508 -0.3808074 0.30386078 -0.28629568 0.92593724 -0.40917104 -0.19505936 0.12734573 0.26092312 0.6847924 0.62372786 0.06274191 0.32661605 0.16302347 0.93208593 0.37426075 -0.13422877 -0.8288933 0.68563735 0.8051816 0.81044394 -0.0067863828 0.4142722 0.1125942 -1.0998279 -0.094849534 0.9290895 0.37301642 -0.6248966 -0.26224357 1.2173193 0.018927827 -0.7152222 0.12670314 -0.3754907 0.07158778 1.0869721 0.027774638 -0.16233373 0.6280028 -0.22239828 1.1286716 -0.96376187
('산','Noun') 0.46802753 -0.013586616 -0.43353492 -0.74866265 -0.7118019 0.83906054 1.1266555 -0.9676023 -0.59605986 -0.72425723 -0.39867985 -0.7465901 -0.19249026 0.60935605 -0.19783898 -0.8297389 -0.667922 0.4820217 -0.4311209 0.38429305 -0.7531625 -0.15644749 0.14137292 -0.41704407 -0.89071053 -0.5851634 -0.66490185 0.26345378 -0.46665493 0.47405744 0.47920573 0.77337843 -0.21005367 -0.58446187 -0.5718349 0.32032213 0.3903863 -0.704223 0.17307612 -0.15280537 0.53774846 0.51338875 1.0026232 0.84978586 0.94420785 -0.29732794 -0.010170941 0.5939304 0.15870759 0.17303926
('후반','Noun') 0.15282533 1.105218 0.69676673 0.6513444 -1.352235 -0.59641 0.17160462 -0.3976179 0.25881332 0.476135 -0.77540445 -0.15564308 0.02763572 -0.14973503 -0.8633945 0.16663134 -0.15536816 0.586329 -0.49744084 0.65397877 -0.7899437 0.78192884 -0.38805857 0.1298085 0.58896 0.89790654 -0.5840983 0.38505694 -0.6588491 -0.85125136 0.70077074 0.38467258 -0.38473195 0.41695789 -0.6507908 0.106227554 -0.49031717 0.11854575 -1.2609521 -0.5925647 -0.46056247 1.1109225 0.51612806 -0.39964682 0.024955776 0.18154454 0.094025634 0.088986196 0.4900648 -1.065467
('부','Noun') 0.13649225 0.0972701 -0.21494016 0.82854384 -0.908137 1.0475514 0.65143114 -0.07304257 0.79180944 0.16696326 -0.4108615 0.07299667 -0.20256321 -0.542639 -0.4666709 -1.2152553 0.34909916 1.0113133 -0.7841529 0.83157986 0.34393078 0.2655685 -0.01809709 0.30956292 -0.2680005 1.0874227 0.9026005 -0.23094846 -0.73277766 -0.7772611 -0.8321526 -0.35176772 0.78171855 -0.04366519 -0.6384632 -0.73219055 -0.055153705 -0.19474532 -1.0998108 0.2327833 -0.5266731 -0.63484067 0.93411684 0.4777027 0.29973468 -0.20451438 0.31086436 -0.020939048 0.8382963 -0.30494928
('기필','Noun') 0.45633712 0.5190752 0.07071019 0.3582185 -0.40008295 0.77937895 0.7884284 0.35697204 0.97893924 0.3007293 -0.6070876 -0.27423608 0.617406 -0.31983608 -0.3146374 -0.7381968 0.19964792 -0.4968073 0.5543128 1.0336796 -0.42502576 0.44246975 0.97305965 -1.0574026 -0.26294428 0.56807405 -0.039837457 0.4145869 0.43848965 0.27760002 0.6109022 0.037304744 -0.9120259 -0.13047752 -0.6992023 0.27413377 0.65127015 -0.11209005 0.7691551 -0.07301139 -0.48127398 0.82602197 -0.16796596 -0.031232754 1.1838523 0.5179955 0.10197766 0.8186467 0.028135076 -0.11585242
('이틀','Noun') 0.05240554 1.064035 0.2513051 -0.9330536 -1.2139131 -0.06216837 -0.44243744 -0.69035983 -0.80632544 0.09401796 -0.42037755 -0.6320633 -0.38375998 1.068617 -0.7412093 0.32235157 0.7650698 -0.5180493 0.27152264 0.2799533 -0.45803973 0.92365885 -0.19442211 -1.1780812 -0.8382366 -0.19669612 1.0362009 -0.8000497 -0.74928594 -0.18313734 -0.27712256 0.9618562 -0.1442493 -0.7983406 -0.4727051 -0.43670803 0.1253549 0.8905147 0.4435331 -0.60899407 0.22171588 -0.53606033 1.1772954 -0.7141749 1.2468572 0.67025787 0.0718677 -0.31226292 0.77601093 0.00083240296
('실라','Noun') 0.04378462 0.6961465 0.27671576 0.13552013 -0.50169575 -0.15486187 0.26551923 -0.66203046 0.11658332 -0.43902352 -0.7696262 -0.7691319 0.33256814 0.764859 0.5099318 -0.96333045 1.0680906 0.12802039 -0.099806696 0.09587734 0.46950468 0.31832737 -0.39463437 -1.1123195 -0.8911894 -0.07326692 -0.6161777 1.2810279 0.37045947 -0.28687158 0.26634228 0.737581 -0.3838759 0.58610183 -0.11425561 -0.37104818 0.57215554 -0.25136518 0.55447537 0.6182088 -0.12481754 0.2740847 -0.034765035 0.6182526 0.409428 -0.029247843 1.1714185 -0.5180844 0.67553335 -0.6747787
('적','Noun') -0.5431188 0.9069369 0.2071385 -0.10022206 -1.0815511 -0.50942194 1.013526 0.18179692 0.74150056 -0.5618635 0.18930914 0.4447936 0.9339395 0.16544482 -0.7768773 -0.85300195 -0.060141888 0.7237012 0.75066507 1.1388927 -0.6845 0.35567537 0.90022826 -0.78745514 -0.5751606 1.1877133 0.9126466 0.4805907 0.27423584 0.17634432 -0.27842274 0.5687164 0.7453971 0.08575765 -1.1620896 0.4837948 -0.103887275 0.10332563 0.03772895 -0.013029261 0.86119556 0.6704822 0.03220059 0.086637 0.4585212 0.44148132 -0.29465434 -0.33567256 0.8846969 -1.03696
('인','Josa') -0.07516798 0.31511223 -0.3220258 0.23930489 -0.006103699 -0.5643662 0.14150755 0.40216193 -0.23717274 -0.36673546 0.26384875 0.970976 0.34233376 0.57500565 -0.8397866 0.7165602 0.34519303 -0.6218259 -0.5251905 0.46378636 -0.60291046 0.3192215 -0.6993828 0.15927038 0.6754421 0.2111574 0.6222293 -0.8134009 -0.2153173 -0.74753976 0.6675217 0.65749264 -0.0036419118 -0.83770245 -0.36617035 0.5554251 -0.60286003 -0.4883886 0.047523633 -0.45104435 0.8007028 1.0813795 1.2161844 0.98464334 0.27351588 -0.95861584 -0.26770002 -0.9455405 -0.14297624 0.22565351
('응','Noun') -0.052868567 0.5324823 -0.9496699 0.10295527 -0.4124952 -0.50930005 -0.869944 -1.0133729 -0.90014523 -0.8963653 -0.5052842 -0.90626436 -0.7572709 -0.55012125 0.64944553 -0.16697878 1.0080503 0.102997944 -1.0197197 1.2167956 -0.42984277 -0.4264713 0.42497206 -0.4932523 -0.5947338 0.27769813 0.27731 0.43953547 -0.40963987 0.80262595 -0.68921417 -0.23499405 -0.50882083 0.23812036 -1.0523071 0.5851323 0.9005574 -0.0003479278 -1.1969979 -0.61190414 -0.7711328 0.43038407 0.77928054 -0.25755826 0.45393556 0.2898936 0.006294866 1.1107192 -0.19206339 -1.216132
('양','Noun') -0.8080057 0.9392497 -0.6754864 -0.49840617 -0.81308615 1.1947882 -0.74958897 0.48483574 -0.76926345 -0.68379164 0.42475024 -0.49028176 -0.11826737 0.6175241 -0.8962116 0.4155778 0.9846411 -0.39942673 0.5631909 0.8641199 0.31674972 0.8141879 1.0257542 -0.36046302 -0.35754123 0.51935124 0.5733623 0.63191104 -0.8221428 0.4001724 -0.430655 0.8527756 0.53184146 -0.09572366 -0.7722256 -0.97427976 -0.65139097 -0.3554505 -0.94988245 0.09523801 0.22552228 -0.47642186 0.48202282 -0.4028112 1.1304041 -0.6808534 0.5502551 0.68143076 1.1651139 0.17586257
('도','Josa') 0.8229748 0.80401784 0.73213506 -0.22505687 -0.36258292 -0.5050657 0.327597 -0.25344205 0.4604736 -0.30402952 -0.771629 -0.104673795 0.1230631 0.301032 -0.23080751 -0.81538683 0.47721636 -0.21469414 -0.79488593 -0.36317468 -1.0346966 -0.6013201 -0.72665906 -0.99728316 -0.19215503 0.14050932 0.29161167 -0.045718286 0.23939231 -0.62040573 0.5640204 -0.8039797 0.28131914 0.007039061 0.117756635 0.3723658 -0.80119485 -0.6681788 -0.16680096 -0.11128756 0.8107105 1.021427 -0.47527304 -0.9541018 -0.6977055 0.74391985 0.2778801 -0.9186524 0.09535121 0.6954548
('데이타','Noun') 0.36027345 0.37343135 0.38070574 1.0014914 -1.1681994 0.4987449 -0.18045501 -0.99916244 0.8468064 -0.9205132 -0.9204156 0.67174244 -0.36654353 -0.39742833 0.4818301 -0.14280954 0.62162256 0.23422956 -0.9048201 0.97008216 0.14316042 1.0870032 -0.24318153 -0.2934465 -0.45240983 -0.08566419 0.4954349 -0.37395605 -0.3768763 0.15148243 0.10848226 0.1981912 1.0288239 -0.27910796 -0.84139425 -0.4561975 -0.20888549 0.356379 -1.0539021 0.10167294 0.94778585 0.08666945 1.1678756 -0.41654617 0.39410323 -0.27164245 -0.97838634 -0.52791524 0.11004787 0.81576145
('최종','Noun') 0.35488406 1.1626269 0.42961055 -0.33827123 -1.2303132 0.70930755 -0.61724204 -0.91336584 -0.121236496 -0.64609736 -0.9288555 0.36296874 -0.7653964 0.06976846 0.26904136 -0.42437887 -0.68593603 -0.21202555 -0.89364946 0.19526954 -0.12551048 -0.13381204 -0.41155097 -0.7703209 0.08101193 0.38743252 -0.54064196 -0.24627423 -0.18331367 0.62070453 -0.20915401 -0.5627854 0.6151964 0.6035127 0.05539369 -0.7532069 0.90226126 1.1626076 -0.6932682 0.46014038 -0.14407185 0.31305802 0.020819485 0.92713696 0.33297098 0.30234483 0.34721383 -0.6373112 -0.3234603 -0.952461
('분','Suffix') 0.56510687 0.49474898 0.26039645 -0.23932634 -0.024412934 0.07920395 0.5849999 -0.999334 0.24512088 -0.5497202 -0.8394268 -0.050385844 0.7950239 0.075100854 -0.2997393 0.86193806 -0.5431032 0.4296745 -0.97105455 -0.6108221 -0.62732 -0.55721945 0.49240375 0.8873045 0.41324383 0.9469651 -0.034936402 -0.86738384 -0.04018545 -0.777056 0.4981031 0.42447153 -0.5857715 -1.0411177 -0.090256795 -0.34406808 -0.5200277 -0.018887669 -0.06314166 0.2760608 0.9074883 0.8343501 -0.86789256 -1.1291865 -0.118399695 -0.52819574 0.87702066 0.5152345 -0.11786653 0.19266993
('태숙','Noun') 0.8337911 -0.34217137 -0.91876554 0.70391464 -0.25563428 0.96085304 -0.59028363 -0.15673827 -0.4313556 -0.8869932 0.42517775 0.4662599 -0.017781492 0.78459275 0.46915227 -0.8871493 -0.21301359 -0.7969791 -0.33602512 0.92312175 -1.1392065 -0.813581 -0.64848286 -0.39226472 -0.85814965 1.1958144 -0.20388858 0.94466656 -0.45426458 0.5223633 0.5543954 -0.062450446 0.23706634 0.59871536 0.25026405 0.8657234 0.028872972 0.045859065 -0.4057676 -1.1052223 0.06245656 0.09401231 0.40984586 -0.33242673 -0.40268832 -0.8015785 -0.77852726 -0.6978783 1.312794 -0.9188268
('크','Verb') 0.6464893 0.27064568 0.38938507 -0.70353127 0.4158185 0.10725907 -0.18305345 0.044480525 0.07359577 0.69824606 -0.26572987 0.8230227 0.5993001 -0.5738601 0.019757086 0.4058736 0.29874018 -0.21258754 -0.11493113 -0.13959932 0.5268508 0.048707087 -0.675921 -0.3262575 -0.41184324 0.0848227 -0.7025678 0.52462584 -0.1443646 0.8033396 1.2226622 0.52519447 0.6529204 1.0559676 -0.3152286 -0.90434164 -0.037494477 -0.4116635 0.7302793 -0.6290285 -0.112764195 0.043186586 0.78498787 0.9296462 1.0376184 -1.050484 0.16117537 0.120564185 -0.24733429 0.035718087
('대','Modifier') -0.20963523 -0.024724556 0.03535122 -0.30193207 -0.16424261 1.1410909 -0.9109818 0.2861953 -0.43618706 0.7214457 0.6168917 0.8140054 0.8728412 0.81371 0.74697655 -0.5035024 0.6826276 -0.7787379 -0.5658131 -0.24826622 0.5527488 -0.7230951 0.02942775 -0.10328424 -0.34875378 1.0501122 -0.5233221 -0.18386519 0.64754933 1.008824 0.08592888 -0.21984912 0.5535026 -0.34066564 -0.9420731 0.6511191 -0.11333669 0.44275802 -0.73173904 -1.0616312 0.95374894 -0.29049337 0.5046785 -0.6105906 1.2137835 -0.8797961 -0.30678254 0.17250311 -0.19720398 -0.0089066755
('효율','Noun') 0.1976208 1.269859 -0.26112324 -0.7826351 -1.2701375 -0.1919068 0.3105752 -0.16729715 -0.9545404 0.6535813 -0.63743365 -0.7289459 -0.06032482 0.7057314 -0.68265575 -1.1211426 0.77624995 0.3728615 0.9217051 -0.2644523 -0.65936583 0.6155704 -0.83753115 0.1857744 0.69190025 0.6232942 0.30464625 0.614192 0.030951051 0.09330677 0.7006509 -0.33875662 -0.2797931 0.6502579 -0.5305183 0.501192 -0.772405 0.020444533 -0.9121214 -0.57629097 0.8751652 -0.40268788 0.7716919 0.51782584 0.8710886 0.07048637 0.6642129 0.43642798 1.3208858 0.66124743
('텍스트','Noun') -0.31026754 1.0096046 0.5141139 0.38293985 -1.1725209 -0.29091945 0.9704476 -0.59061295 -0.92592037 -1.0265985 -0.6068533 1.0337675 0.93498427 -0.32296202 0.5457768 -0.54911697 0.10970271 -0.64092296 -0.7775224 0.6580095 -0.26119894 -0.39219984 0.26552692 -0.5634629 -0.6576311 0.6540911 0.51785904 0.23419377 0.25923964 -0.75861716 -0.18202125 0.21551321 0.108966544 0.4404117 -0.77307194 0.4402417 0.40244594 -0.26433712 -0.90204626 -0.59801126 -0.0332347 0.5981453 0.9214031 0.79835355 0.023332361 -0.5019514 0.17793599 -0.87893665 0.27609444 0.3982571
('문','Modifier') -0.6891061 0.28032127 0.422137 0.76369905 -0.5057932 0.77082515 -0.5115502 -1.2274314 0.08573107 0.6499441 -1.1143419 -0.24695908 0.8745714 0.56579596 -0.42280975 -0.34572315 -0.28168786 -0.07723745 -0.18179071 -0.002992027 0.62036884 0.019198393 -0.6050116 0.45659888 -0.640212 -0.44329065 -0.8672097 1.2248721 -0.26636758 -0.4880153 0.4341611 0.5073174 -0.26425475 0.32780793 -1.0767765 0.14106219 -0.62956667 -0.2262422 0.18043497 -0.32920632 -0.6930264 0.18209834 0.29287377 -0.055478666 0.7068565 0.5010338 -0.39927715 -0.7990648 1.3558336 0.6375818
