4298 50
('적','Suffix') 0.06962223 -0.09820204 0.34900436 -0.0111223 0.060812663 0.044190176 -0.05749607 -0.39890847 0.20440365 -0.07557349 0.13002889 -0.10613965 -0.29990986 0.16609916 -0.1913326 -0.07054685 0.10280251 -0.01748193 0.2947148 0.28642452 -0.13645625 0.08379659 0.22281063 0.14711004 -0.09867337 -0.16464154 0.057342514 0.16630125 -0.14407103 0.13595232 0.02321759 -0.026736245 -0.07167436 0.147808 -0.024905192 -0.18330534 0.42206872 -0.08749927 -0.06808336 -0.43231478 -0.16086507 0.19670509 -0.2969113 0.19098446 -0.14804971 0.101215266 0.27797583 0.20728704 0.07711852 -0.045941725
('점','Noun') 0.356856 0.11253613 -0.2650937 -0.020694446 -1.5363736 -0.013384034 -1.2136445 -0.8507394 0.71899754 -0.024789285 -0.012786055 -0.33848345 -0.14078763 0.21147613 0.23133998 1.3363746 -0.12357778 -0.40030718 -0.0903542 -0.6560204 -0.34891784 -0.6909872 0.46364987 0.117116325 0.8160092 -0.6700294 -0.42098272 0.13229878 -0.050450966 -0.5037313 -1.424208 -1.0204506 0.073868655 -0.32991442 0.44004136 0.411474 -0.14794463 -1.1145061 -0.5222298 0.95254594 -0.10989249 0.41784266 0.23829216 0.9474844 0.16657895 -1.5199653 -0.46798033 0.56340116 0.759351 0.72984743
('문제','Noun') 0.6399594 -0.654813 0.16905288 0.23599486 -0.6902838 0.42360622 -0.9658004 -0.8872173 0.17004232 -0.05620471 0.3711171 -0.16028236 0.37815046 -0.10072999 -0.23425187 0.32223117 1.3911057 -0.27840886 -0.24602841 -0.584631 -0.16521029 0.51588005 -0.3440147 -0.8676062 -0.55185413 0.037398048 -0.10577583 -0.04408972 0.59315294 0.17111543 -1.636827 -0.6669442 -0.10432866 -0.8492289 -0.5938608 -0.24621502 0.35057083 -0.16215494 0.15773793 0.4566824 0.5984692 0.24587725 -0.033477105 0.41686317 0.5310271 0.086398944 -0.11314885 0.7098406 -0.39950645 0.7272734
('수업','Noun') 0.2519046 0.45335212 0.116755836 -0.035157178 -0.610528 -0.021591341 -0.07764016 -0.64132565 0.02248172 -0.494026 0.3082189 0.3204487 -0.14553382 0.2298556 -0.26571387 -0.068525486 0.83379996 -0.20953616 -0.13985337 -0.5828048 0.060126506 0.31432733 -0.45197737 -0.47076172 -0.046898663 0.19336367 -0.76643807 -0.14812796 0.5520331 -0.32131213 -0.7486594 -0.36896628 0.0035090423 -0.55987203 -0.34416494 0.02122711 0.6569668 -0.19149318 0.51401055 0.061972834 0.024627835 0.99356216 -0.13697568 0.6701761 0.2118237 0.16968298 0.29590374 0.23084618 -0.24109328 0.39107028
('1','Number') 0.095990285 -0.2736024 0.32546142 0.3447375 -0.94154346 -0.4476901 -0.3833715 -0.010821065 0.19055995 0.24098137 -0.1591405 -0.20673087 0.26287833 -0.040347036 -0.38318488 0.13497536 0.5191546 0.29296598 0.28997824 -0.5818329 0.008731233 0.46447074 -0.25831434 -0.7946315 0.044810884 0.11096886 -0.48704445 -0.101331994 0.39212698 -0.11650217 -0.95227283 -0.4244204 -0.16844116 -0.7627976 0.17836124 0.03830055 0.31331182 -0.45382407 -0.046423055 0.52165437 0.12651218 1.1471765 0.25796935 0.18653288 0.5594512 -0.32013944 -0.43717694 0.009017897 -0.17764437 0.6209856
('2','Number') -0.094314985 -0.4606963 0.57263416 0.4069104 -0.56934 0.46019796 -0.2475444 -0.37870657 0.46499372 -0.18887214 0.20657194 -0.25160834 0.105355754 0.3105695 -0.75628495 0.48137468 0.52271867 0.050245605 0.80590534 -0.4221655 0.16140129 0.5860583 -0.22316131 -0.44277784 0.21860795 0.11934036 -0.4000188 0.0507083 0.49606887 0.0998084 -1.0357206 -0.6424307 -0.07640953 -0.34739307 -0.30195647 -0.20337416 -0.01736965 -0.17143425 -0.37431273 0.05545837 0.25855184 0.6475857 0.120639525 0.67714363 -0.008707637 -0.4482228 0.034048345 0.48491612 0.10469634 1.1662731
('과','Josa') -0.31974068 0.022027822 -0.02754922 0.0625019 -0.14761859 -0.7588163 -0.032291412 0.93527347 0.36894545 0.57171977 -0.036071524 -0.35506552 -0.3837349 -0.6564296 0.17502703 -0.31330952 0.12617864 -0.07833928 -0.4409168 0.08648343 0.45914394 -0.28750303 -0.642654 0.34992406 0.24160635 0.11563418 0.34426856 0.3294657 -0.05217882 -0.016372545 -0.36832854 0.5779053 0.12802756 -0.118553884 0.6023059 -1.0021361 0.18755259 -0.12293347 0.41796723 -0.33236325 -0.06005271 0.51103467 0.5454467 -0.14015128 0.07487095 -0.08771801 0.39414337 -0.32493633 -0.767366 0.5839418
('시험','Noun') 0.18311268 -0.40273914 0.31983665 -0.30829608 -0.87874395 -0.026088227 -0.30440864 -0.7347242 0.04312781 0.30778715 0.80282676 -0.0023611882 -0.22270918 -0.0080082165 0.043424472 0.074784 1.131605 -0.00130054 -0.33715436 -0.4615162 0.21285678 0.66046923 -0.38792858 -0.058201496 -0.07700061 0.032429773 -0.31854564 -0.35854092 0.31898838 -0.2783192 -0.8311429 -0.29732254 -0.15004243 -0.7441417 -0.9124169 0.06396261 0.09624558 -0.26160306 0.14368694 0.38518333 0.081876 0.76026845 0.15263742 0.2669497 0.29237708 -0.019802235 0.22646932 0.6184375 0.28811222 0.68193024
('번','Noun') 0.3347981 -0.0502909 0.30087334 0.05077162 -0.90535194 -0.15206803 -0.012789227 -0.34946933 0.23023924 -0.2545213 0.2074954 0.21632674 0.23120132 0.06556668 -0.41266933 0.12449701 0.049918134 0.2147416 0.17311843 -0.70856863 -0.02672409 -0.010307853 -0.026365763 -0.7022493 -0.098657705 0.13223182 -0.14261366 0.009179678 0.28359333 -0.2268721 -0.9961859 -0.32317093 0.3104216 -0.15278254 -0.91867536 0.0765694 -0.13357183 -0.037985522 -0.06728807 0.4656339 0.59346086 0.7343194 -0.16800094 0.3001716 -0.46760255 -0.28807554 0.07365344 0.14833176 -0.23004933 0.7718194
('3','Number') 0.09595791 -0.13098547 0.21641341 0.3249313 -1.0723429 0.06802104 0.18632361 -0.15285406 0.14900427 -0.11134042 -0.062011715 0.3049183 0.5503782 0.5772619 -0.018318933 -0.007925666 0.9317254 0.3595931 0.24765782 -0.5707123 0.1346556 0.08744059 -0.33540288 -0.30909964 0.053561088 0.36090517 -0.35228702 0.20510657 0.7542698 -0.375074 -0.8084119 -0.2878564 0.53541124 -0.80586195 -0.5613656 -0.030085392 -0.31786874 -0.07245891 -0.025026862 0.38784447 0.6206875 0.98529446 0.22185992 0.43172362 -0.08738995 -0.48967594 0.0994882 -0.048760764 -0.33516923 0.66251206
('도','Josa') 0.22210468 -0.07189428 0.8273416 -0.32936016 0.07394201 -0.18211132 -0.02718554 0.24015804 -0.6642146 0.01716319 -0.24414307 0.55986184 0.9377263 -0.18551546 -0.24424724 0.3596321 -0.1501652 -0.37277716 -0.34113523 0.13168028 0.4709553 -0.42832175 -0.4284461 0.02895652 -0.3997635 0.26481143 -0.43482375 0.06782767 0.031911984 0.44880387 0.06458499 0.4944165 0.103984155 0.10751962 0.0019848326 -0.03164767 -0.46559262 0.45217466 0.73618823 -0.3038509 -0.57348615 0.3682631 -0.60328597 0.52262723 -0.07563641 -0.21589915 -0.630874 -0.014952342 0.33598116 0.6056455
('과목','Noun') -0.6528977 0.5907541 0.038355254 0.28408846 -0.6979067 0.08708118 0.12334225 -0.18184704 0.12658145 -0.17925291 -0.2910506 -0.40168703 0.46787807 0.52987444 -0.02990343 -0.16205426 -0.10312889 -0.03197189 0.8356185 -0.37741023 0.17527427 -0.23978308 0.008805243 -0.023235632 0.13432282 0.16509368 -0.3198717 0.56569237 0.344316 -0.52636117 -0.81597114 -0.00841373 -0.1744 -0.2759052 -0.47297165 -0.66555834 0.32028213 -0.34753042 0.5742302 0.17861524 0.609222 1.7494864 0.5708115 0.5444489 0.11249513 0.18864356 0.73866695 0.2144028 -0.3121637 0.6642237
('정도','Noun') -0.33408234 0.04498937 -0.004543874 -0.23151848 -0.5511777 -0.22644089 -0.35602856 -0.37719446 0.25353763 0.18487008 -0.15480784 0.46744916 0.12262132 0.16652744 -0.19629963 0.28388166 0.6059899 -0.04769407 0.1639493 -0.20148565 -0.02212633 -0.06777273 -0.55571127 0.09314888 0.29848626 -0.2514404 -0.67942905 -0.16328153 0.119519845 0.028678032 -0.5374716 -0.47059855 -0.023262458 -0.87723655 -0.86421835 -0.23543963 0.21106252 -0.28448433 0.5906365 0.22927117 -0.41059425 1.2905539 -0.16240916 1.037624 0.43866462 -0.36467966 -0.024496634 0.80612594 -0.49768627 0.67200595
('개','Noun') 0.2646217 0.0068445303 0.32647857 -0.52295214 -0.8366326 0.31101292 -0.7609186 -0.8939737 0.3361633 0.009124879 -0.14480683 0.913196 0.2776755 -0.5215441 -0.023082599 0.379013 0.31843603 0.21983622 0.014689691 -0.6376708 0.24145807 -0.0007221622 0.18718983 -0.8644845 0.19986881 0.34127003 0.2552172 -0.033924133 0.40292832 0.086005256 -1.1415797 0.04997127 -0.3082126 -0.58187604 -0.8590605 -0.35636097 -0.18454233 -0.43297046 -0.014128015 0.9649831 0.24552709 0.9572371 0.25429013 0.44385955 -0.46496665 0.054070055 -0.03386983 0.7422249 -0.43957523 0.22992319
('명','Noun') -0.030296423 0.15023239 0.5667455 0.033941306 -0.90487736 -0.29941052 0.2041722 -0.85607284 0.7734671 -0.33460176 0.37943175 0.21957062 0.22244503 0.29655716 0.53715396 -0.27650392 -0.49362558 0.24756801 0.4575644 -0.50026786 0.10907339 -0.48731756 -1.0546372 0.16297069 -0.13536078 0.52333164 -0.7712303 0.3908086 0.6662785 0.5927944 0.19712694 -0.8836124 0.38051194 -0.8676352 -0.46388116 0.25781626 0.42243204 -0.2628926 -0.70268893 1.3947166 0.3864542 0.95466053 0.68011814 0.8252791 -0.1040743 -0.39814654 0.33603317 0.6893801 0.69660366 -0.28596526
('기','Modifier') -0.31871054 0.23267682 -0.20029962 0.31006703 -0.14457569 0.26941612 -1.0417562 -0.28882143 -0.062368892 -0.039896883 -0.19230305 0.4462196 -0.42092815 0.15706491 0.6085967 -0.49400848 0.47990465 0.25157717 -0.12885322 -0.8808475 0.3195253 -0.1934903 -0.5702725 -0.09900818 0.27508646 -0.15566553 0.062187534 -0.76607627 -0.19637063 -0.17358765 -0.34336138 -0.42751268 -0.41421446 -0.3661193 -0.28200385 0.42471427 -0.27009708 0.18279576 -0.32195985 0.12587233 0.053525977 -0.995148 0.49553835 -0.040190067 -0.2775636 -0.52570695 -0.03366038 -0.54923 -0.24051115 -0.53660315
('강의','Noun') -0.7665934 -0.48315832 -0.14980261 0.04900373 -0.826326 -0.12613057 -0.17588885 -0.45704076 0.19491833 -0.2871579 0.38137493 0.30653498 -0.3070591 -0.23351344 -0.3048595 -0.04247196 0.66074187 -0.41780537 0.6848462 -0.25886038 -0.33281454 0.6095379 -0.5892631 -0.40205538 0.63543224 0.4063877 -0.7858529 -0.21095227 0.2930643 0.14017308 -0.44901934 0.4888175 -0.4640076 -0.16214852 -0.53266037 -0.3602972 0.8496008 0.020394977 0.26251763 0.03568015 -0.14031774 0.7956105 0.09963064 0.8393156 -0.009429857 -0.17086373 -0.22503313 0.5279148 -0.09419569 0.43757993
('중간','Noun') 0.028196702 0.05848825 0.44479543 -0.30953395 -1.0869229 -0.25551176 -0.19453558 -0.8147095 0.40159187 0.28905538 0.11625138 0.69168556 0.4148177 -0.13203204 -0.33429843 0.0022073698 1.1958237 -0.15081827 0.23387864 -0.4076531 -0.10113933 0.019021755 -0.2511986 -0.41529155 0.39033845 -0.47121152 -0.49668002 -0.013281405 0.2130434 -0.38058916 -0.66557616 -0.19703633 0.16652416 -0.5761487 -0.40497375 0.02633343 0.36360553 -0.44252163 0.47168913 -0.12361967 -0.039674863 0.9391003 0.271664 0.4114898 0.19387867 -0.14150788 0.088749416 0.281846 0.40787032 0.66138566
('때','Noun') -0.42356244 0.12056866 0.7574282 0.112676315 -0.6150201 -0.19123797 0.11646249 -0.37778538 -0.2599601 -0.29382727 0.32265192 -0.14878246 -0.2373322 -0.17166625 0.06969997 0.34055775 1.3619268 -0.015306692 0.11976923 -0.4448826 0.06522867 0.5040906 -0.09457689 -0.5956019 0.27677792 -0.31818512 -0.4719966 -0.28035656 0.41408262 0.060755383 -0.87991434 -0.13351245 0.47444215 -0.75982195 -0.25256613 -0.056400485 0.09658774 0.13799432 0.31130257 0.1001776 0.18328786 0.65487033 0.04176421 1.0999906 0.4157395 -0.3670114 0.5058714 0.3860832 -0.080039255 0.45932418
('학기','Noun') -0.86764675 -0.42735043 0.31250075 0.24904951 -0.45727953 0.7649983 0.4494216 0.03114506 0.11488203 -0.25189614 0.082606524 0.30245093 -0.24016444 -0.17147626 -0.14549385 0.050390393 0.40754882 0.18742985 0.53431326 -0.17558412 0.46023965 0.016299104 -0.55938846 -0.49284425 -0.11309367 -0.025821906 -0.35967696 0.19601731 0.7502121 0.12113073 -0.44677138 -0.3963368 -0.06735922 -0.4561886 -0.061861277 -0.22545889 0.27529487 -0.16652107 0.5852631 0.49246177 0.1670678 1.3201505 0.6490541 0.7896325 0.055312496 -0.038896643 0.1411579 0.09265141 0.2984002 0.69735503
('교수','Noun') -0.11892225 -0.06207289 0.52473205 -0.14182644 -0.8074031 -0.12810495 0.5982395 -0.7694629 0.19278604 0.22688375 0.07330539 0.34295636 -0.19182007 0.43052676 0.44605497 0.5865642 0.2962298 -0.12481777 0.13027868 -0.11440252 0.03983489 0.56843954 -0.30499348 0.104050376 0.5547657 -0.6047236 0.085825264 0.40330777 0.66961753 -0.61619896 -1.0510223 -0.078462906 -0.27461526 -0.62058026 -0.363169 0.41530186 0.55801356 0.17369425 0.65741956 0.46137866 0.26838258 0.39769533 0.27724674 0.08682895 -0.6001158 0.34550416 0.34098023 -0.5909957 -0.57939625 0.13204949
('시간','Noun') -0.24210674 -0.34934053 0.18362203 -0.17571798 -0.33303866 0.42364338 -0.25633708 -0.63148886 0.4140732 -0.01684388 0.19364272 -0.0065614437 -0.18831669 0.3943507 0.023840105 -0.12451729 0.76684725 0.26059237 0.6685228 -0.9131632 -0.25422147 0.53286415 -0.6083981 -0.6150747 0.34438702 0.074782014 -0.3602822 -0.22337948 0.36290509 0.22976458 -0.53743804 -0.69440526 -0.34654 -0.36294657 -0.25126553 0.27099946 -0.07877796 -0.106887005 0.55983174 0.49859914 -0.1279369 1.1426879 0.029963702 0.5508464 0.30221087 -0.0783553 -0.17213346 0.13160771 0.087646306 -0.09641956
('5','Number') -0.592603 0.12704147 0.5387826 0.167807 -0.88109416 0.79954785 -0.45848754 -0.11312082 0.49611264 0.4075051 -0.15290903 -0.051236674 0.12338335 0.04918538 -0.21895714 0.2645499 0.6540924 -0.035973318 -0.1332262 -0.23934485 0.14547287 0.46169657 0.042209804 -0.23595023 0.137861 0.038431372 -0.5981312 -0.064181015 0.51152617 -0.21852688 -0.96111727 -0.49296233 -0.0846047 -0.37707192 -0.35903797 -0.2354657 -0.5148163 -0.6767089 0.25999776 0.22536339 0.2973794 0.9592143 0.2362943 0.41091487 -0.16671987 -0.10138308 -0.06218616 0.79351467 -0.37459555 0.115511164
('님','Suffix') -0.57358843 -0.5095667 0.0969 -0.10788686 0.14501558 0.27766073 -0.6926999 0.4958185 0.103706166 -0.39099082 -0.0010987825 -0.011434632 0.35522783 0.1221039 -0.41361964 -0.3409341 -0.05983839 0.38265622 0.6105419 -0.066773534 -0.010811585 0.34303373 0.014036874 0.32942975 -0.57375586 0.6737819 -0.2627355 -0.54574597 0.5299928 0.20520158 -0.6447198 0.38545543 0.03900503 -0.20165986 -0.5443177 -0.15242228 0.62509274 0.37813568 0.5819075 -0.27352467 0.18970877 0.9762915 -0.12284161 0.81956965 0.55045605 0.33686167 0.029642351 0.70713544 0.2222796 -0.07450918
('말','Noun') -0.3867498 -0.41299248 0.52781445 -0.40676555 -0.4330766 -0.21211833 0.3822316 0.06870258 0.3330745 -0.046334464 0.022887692 -0.20910937 0.28544077 0.2989303 -0.73559713 1.1364087 0.9512128 -0.30964115 0.022413883 0.27047357 -0.45159864 0.3719039 0.5239207 -0.63208 0.25376186 0.37970936 -0.21273714 0.67761236 0.54759866 -0.4190302 -0.45040876 0.23614377 -0.07577745 -0.4695703 0.07851613 0.121905215 0.45896813 -0.19101974 0.359062 0.47634572 0.25055718 1.3504535 -0.061680324 0.02196556 0.5919694 -0.30135205 0.3095986 0.7839157 0.43372354 0.88533956
('점수','Noun') 0.45202425 -0.11494789 -0.7247288 -0.5205252 -0.5135425 0.58075017 -0.3948639 -0.24431181 0.48467287 -0.2538385 0.07942719 -0.40495706 0.13586614 0.55063415 -0.22808543 0.44429055 0.58849865 -0.050701357 -0.28867653 -0.79460037 -0.24246936 -0.13402238 0.25121313 -0.926058 0.31320408 0.25832364 -0.5768789 -0.11717312 -0.07821656 -0.18986128 -0.7243345 -0.3520545 0.3448153 -0.5805126 -0.360057 -0.080828995 0.716912 -0.22901034 -0.049600266 0.8327493 0.54301184 0.36232027 0.21161903 0.15709515 0.72223854 0.15998265 0.0693253 0.48033598 -0.19165629 0.34243917
('발표','Noun') -0.52643067 -0.08424304 0.76830477 -0.011255545 -0.8225494 0.011939737 -0.23203716 0.46562704 0.008978211 0.087866396 0.1531466 0.40908036 0.081676625 0.21014664 -0.7486696 0.96987855 0.26203725 -0.14402069 0.2815209 -0.17370893 0.013295718 -0.21560903 -0.85118854 -0.966029 -0.063336596 -0.40430927 0.29777417 -0.48475832 -0.28789306 -0.2368245 -0.48844245 -0.027087552 0.07123164 -1.3809482 -0.44533485 -0.1352554 -0.14836927 0.3847476 0.8187435 0.51563984 0.6069376 1.1854782 -0.26067746 0.9541268 -0.5336066 0.033332184 -0.3664339 0.4704433 0.41245022 -0.0900749
('과제','Noun') -0.4485422 0.6461799 0.38234887 -0.008386988 -0.82792366 0.2683684 0.29894975 -0.6375908 0.28836262 0.15277548 -0.058617175 -0.03980199 -0.22607377 0.29319862 -0.04705827 -0.27556753 1.1473446 -0.44163916 0.24801072 -0.54795814 0.3655431 -0.082817726 -0.08031853 -0.6824198 0.18906571 0.4392669 -0.57905126 -0.16658843 0.5850985 0.11821806 -0.58792675 0.21955766 0.022738872 -0.946416 -0.40418205 0.3061409 0.38320395 -0.27076063 0.057905383 -0.02118153 0.10874433 1.0067099 -0.18280917 1.2324135 0.48865074 0.1300322 0.384178 0.43237156 -0.34680122 0.44169012
('10','Number') -0.33477998 0.38158202 0.73383826 -0.529812 -1.2685568 0.07275506 -0.34169492 -0.988871 0.3283353 -0.19229479 0.75176066 0.11256823 0.6010119 0.3769881 0.17345639 -0.030347014 0.37467492 -0.15182191 -0.06839392 -0.2536931 0.42602825 -0.52594215 -0.25126532 -0.21699086 0.5084898 0.47606012 -0.18476935 -0.2933029 0.083089076 0.18685763 -1.2174988 -0.7081557 -0.27386543 -0.50813854 -0.29160964 0.1742351 -0.1856989 -0.09131012 0.09900756 0.6996499 -0.40710804 1.1951171 0.56946343 0.13949072 -0.0015980902 -0.6145128 -0.676793 0.8922731 -0.5986519 0.20580083
('학점','Noun') 0.09373084 -0.33006892 0.3329399 -0.029798975 -0.34518373 0.13023044 0.54454064 -0.4165268 0.20537783 0.44448066 0.47157735 0.6705462 0.27711925 0.47077626 -0.09441581 0.77965784 0.37798822 -0.075186126 0.20688283 -0.2025017 0.05476653 -0.51975054 -0.30764076 -0.58794737 0.3996552 -0.27066755 -0.76676923 -0.2942689 -0.020963982 -0.9737491 -1.03339 -0.11911582 -0.00018624368 -0.07499711 -0.309751 -0.5506869 0.31143552 -0.80655843 0.8367229 0.97812796 0.35513437 0.966351 0.24696305 0.80730104 0.5342847 -0.28336912 -0.36414817 -0.039905187 -0.26554888 0.7344978
('4','Number') 0.3018654 -0.30173507 0.41255856 -0.50230277 -0.88232666 -0.36267564 -0.13074303 -0.72398573 0.5533375 0.14019127 -0.43032587 -0.26014733 -0.067616425 -0.047342807 -0.3312942 0.31095126 0.8667632 0.032368526 -0.15457666 0.10390988 0.39859727 -0.08531341 -0.2250714 -0.45607078 0.19841295 -0.46348476 -0.5916855 0.63804305 0.9381086 0.24868825 -0.7704666 -0.4596468 -0.22760724 -0.5661825 -0.14799353 0.0424288 -0.120847106 0.16031478 0.31247023 1.1068476 0.6260602 0.5911115 -0.096312605 0.55309594 0.23291458 -0.43862122 0.526609 -0.04750305 0.16240458 0.8689574
('단원','Noun') 0.083664574 -0.4912581 0.5885965 0.0486026 -0.6521455 1.2320461 -0.18155997 -0.776547 -0.4481599 -0.67041516 -0.27615833 0.33130947 0.96085757 0.12271121 0.5139092 0.693105 0.4682433 -0.6912089 0.27666298 0.26664674 -0.30427742 0.13406543 -0.95358783 -0.07487911 -0.18642557 -0.45632398 0.18920794 0.7735765 0.25410622 -0.26185676 -1.2366933 0.40242696 -0.1636119 0.30328882 -1.0533911 0.522284 0.6385261 -0.05390792 -0.003107123 0.00026723786 -0.29851222 1.4651759 0.8732335 0.38649285 0.4693491 -0.92662275 0.6082444 0.9905496 0.020690907 0.6658611
('의','Josa') -0.38633695 -0.15680665 0.020532453 0.15587687 -0.17208026 -0.7978341 -0.17458029 0.5122203 -0.07273261 -0.44130912 0.07115739 0.28868422 -0.6354791 0.78209805 -0.69968706 -0.09969996 -0.41239676 0.33488384 -0.19485247 0.28986153 0.18250918 -0.59655154 0.035620984 0.6686407 -0.17207046 -0.45271832 0.35824785 0.70760506 0.48212263 0.4397603 -0.7944732 -0.60256535 0.04144582 -0.16464342 0.42848617 0.42130178 -0.4647314 -0.3669766 0.8142797 -0.5900952 -0.43454722 -0.42997473 0.3268202 0.5984103 -0.266775 -0.22596835 0.38960555 -0.16329318 0.0065144114 0.51643014
('가','Josa') -0.49578652 -0.30553022 -0.6440877 0.6505972 -0.41254354 -0.122257486 0.4293563 -0.3905598 -0.13095441 0.38132563 -0.33383116 -0.1945718 -0.6388236 0.5658436 0.2955116 0.48316798 0.661362 0.60460997 0.2823839 0.6082022 0.09725296 -0.38347164 -0.51773864 0.109960884 -0.44467005 -0.2698926 -0.11859252 0.4854562 -0.01745209 -0.541162 0.05893836 0.14070228 0.23148654 -0.44728625 -0.24656937 -0.47540534 -0.36231494 -0.52173716 -0.06627844 -0.033720978 -0.54226065 -0.2598808 -0.35828716 -0.70332015 0.6098616 -0.56881714 0.24413134 -0.6790148 0.16416593 0.45623037
('생','Noun') 0.06466238 -0.45256808 -0.2829945 -0.6470115 -0.0754926 0.20866255 0.54051614 -0.106093444 0.10404843 0.3194827 0.5229141 -0.16704911 -0.28322104 1.0138168 -0.69264054 -0.5480731 0.47787312 -0.62871057 0.49906138 -0.18701677 0.4630393 0.11328216 -1.3589939 0.20000945 -0.16528848 0.2924143 -0.2882865 0.5111338 0.5892234 -1.1113197 -0.6232856 -0.20761654 -0.5104582 -0.9602038 -0.7306933 -0.2317594 0.40211445 0.7501217 0.46098852 -0.14218673 -0.2302014 0.86065006 0.34088495 0.37587783 0.2638851 -0.67585695 0.31173065 0.6376449 0.23689398 1.5581686
('중','Suffix') -0.0075705256 -0.6657277 0.8232665 0.29723984 0.09475712 0.46438473 0.41571748 0.30548826 0.20891827 -0.72663903 0.5943363 0.06126343 0.59282315 -0.038202118 0.12959269 0.6119535 0.1620137 0.16653872 0.63446087 -0.45004517 -0.45485213 -0.020176254 -0.03403912 0.3414996 0.4107482 -0.17095882 0.49279785 -0.5039581 0.24805377 -0.8160681 0.7711313 -0.34311533 -0.17894633 -0.14789332 -0.016954437 0.019845722 -0.55485994 0.26720625 0.6029133 0.15975209 -0.215925 0.4008939 0.35186493 -0.41910213 -0.2233752 -0.8050186 -0.49144632 0.77213323 -0.029861037 0.19080092
('실험','Noun') -0.6494014 -0.5989429 -0.39064872 -0.53987944 -0.6824571 -0.2155336 -0.09061426 -0.1319518 0.6357811 -0.5568041 -0.020248238 -0.095184214 -0.08228161 0.73292965 -0.36539143 0.8024547 1.0257274 -0.44699967 0.13467921 -0.8450969 0.33408588 0.49206805 -0.35824615 -0.4153298 0.3440239 -0.21596391 0.036711037 0.20827766 1.2366182 -0.6677857 -0.49613997 0.4902485 -0.6700565 0.44871396 -0.94834805 -0.9795167 0.8249531 0.31480432 0.05073399 -0.20003492 -0.38504001 1.8447746 -0.26748964 0.0182759 0.40591192 0.14375578 0.6079189 0.9748827 0.62975216 0.2217111
('대','Suffix') -0.16193719 -0.30282652 0.43888757 0.49590233 -0.07656233 1.095718 -0.62087333 0.61401784 0.63688666 -0.0748847 -0.54798895 -0.7167019 0.4341295 0.058368295 0.60376984 -0.52176774 0.10747353 0.05220695 0.97328454 -0.2927536 0.6620777 -0.32374096 -0.7184282 0.6718761 -0.7994621 -0.5761162 0.65394396 0.32867628 -0.40482363 0.78099257 0.512386 0.37836838 0.51470894 0.035833437 0.14299068 -0.73092735 -0.12486614 -0.104822814 0.41013333 0.30789667 0.6175087 0.27939728 0.06661778 -0.54618263 -0.68094254 -1.1154157 -0.16939025 -0.4810154 0.46554992 -0.184283
('퀴즈','Noun') 0.41932374 0.34519762 0.39131492 -0.16938114 -1.1085342 0.06031543 -0.6657046 0.06778482 -0.4475128 0.25417206 0.71209186 0.75994456 0.31933275 0.13547076 0.2400934 0.5135111 0.24263474 0.16970493 -0.057741433 -1.0145495 -0.7750553 0.3309991 -0.104620054 0.23207827 1.1208342 -0.94322765 -0.092844896 -0.23582934 1.1037712 -0.060824007 -1.2982411 -0.7643726 0.07756667 -1.2701235 -0.27779928 0.38708112 0.5946131 0.15270343 0.08387046 -0.11596015 -0.07866452 0.9007224 0.2769017 1.0990402 -0.35813895 0.32366294 -0.33952764 0.35101283 -0.04300171 0.9035911
('이','Determiner') 0.7019531 -0.6373657 -0.30558932 -0.492649 0.031924434 0.25221494 0.10585551 -0.443706 -0.4442606 -0.3850039 0.40582913 -0.3662574 -0.37812114 0.27285862 -0.304697 -0.4772164 0.1609381 0.13773319 0.25230083 0.24866045 0.03555465 0.8288955 -0.4994695 0.16224095 -0.08086482 0.054428358 0.2670366 0.045347404 0.2303149 0.409808 0.012804941 0.23540352 -0.4332588 0.030182576 0.06678579 -0.024000755 0.66064936 -0.043285307 0.3041974 -0.19396308 0.027686821 0.029861487 -0.060040712 0.17318867 -0.47511843 0.14539556 -0.6290199 -0.28248554 -0.5699412 -0.62479705
('장','Noun') -0.23928884 -0.309753 -0.3120232 -0.7913556 -0.30100843 -0.007456264 0.42291805 0.13060191 0.12860097 0.31289673 0.3657071 0.07022301 -0.027401945 0.35039917 -0.46048853 1.0232327 0.34155235 -0.1996699 0.15543868 -1.1924702 -0.27610415 0.77221215 0.19010824 -0.9045468 -0.35426873 0.11705055 -0.975491 0.8091471 1.1101316 -0.54174197 0.031378422 -0.33196563 -0.30962554 -0.53506845 -1.1877706 0.18852806 -0.21712896 -1.2110374 0.42120835 0.3954684 0.37432754 1.2771567 0.5083473 0.84876543 0.47216812 0.029661726 -0.779593 0.47329852 -0.11477505 0.98875433
('내용','Noun') 0.13068077 -0.1664815 0.34913638 -0.27271742 -0.6642496 0.053295888 0.16555038 -0.552496 0.07308243 -0.08394102 0.7039936 -0.13913515 0.48473012 0.12625024 0.081021816 -0.19115631 0.90621823 -0.48588058 0.58254075 -0.4693591 0.31239337 0.36392534 -0.43716994 0.24488553 0.39594293 0.059519354 -0.9246791 0.09383341 0.04337392 -0.51603806 -1.1406827 -0.15547995 -0.24436344 -0.2732673 -0.71414673 -0.2762648 0.6948787 0.26697993 0.22995892 0.16461357 -0.22664821 1.3069861 0.3156672 0.42526487 0.01246963 -0.27405053 -0.04071459 0.4070597 0.21629143 0.059967734
('6','Number') 0.71203494 0.16347682 0.63594484 -0.14880535 -1.0982182 0.033928365 -0.85356337 -0.43027848 0.037954703 0.12906882 -0.21224901 0.17862338 -0.3635486 -0.37364772 -0.28533638 0.45899594 1.2425615 -0.20317109 0.5622771 -0.3243702 -0.13345091 0.43226308 -0.8675953 -0.21755625 -0.192184 -0.2729667 0.24036191 -0.13834853 -0.22249812 0.16604571 -0.617405 0.107061364 0.30160564 -0.60645366 -0.8800973 0.23375686 0.36742207 -0.068914995 0.12503797 0.5747217 0.30995283 1.1600268 0.10266805 0.6517587 -0.26616395 -0.5159597 0.2188142 1.0029539 -0.2709967 0.27919915
('물리','Noun') -0.96622986 -0.015601938 -0.36412358 0.45764396 -1.2005496 0.8238044 0.49887973 0.1136782 0.334179 -0.42101365 0.058588695 -0.39270282 -0.4544665 -0.33378184 0.25283834 0.42829594 1.2666006 -0.17071944 1.1071851 0.17548664 0.5840611 0.61784756 -0.26676732 -0.21738732 0.44126174 0.0106140375 -0.39159778 0.89907885 -0.48653606 0.2540131 -1.2826246 0.61763924 0.41439718 -0.56831455 -0.21205299 0.14852951 -0.09095107 -0.010718753 0.34919903 0.6836142 -0.22176524 1.1529884 0.52450407 0.19070172 -0.5439566 -0.3047195 0.79748726 0.78692716 0.14291352 -0.19192165
('0','Number') -0.5499485 -0.027385129 -0.038588934 -0.023108527 -0.09625706 0.19811791 -0.65673786 0.2480794 0.5147011 0.59193 -0.07051414 -0.6766683 -0.38575172 -0.06304925 -0.14534791 0.72892326 0.89455503 -0.488438 0.7945314 -0.37963143 0.14320399 -0.5321172 -0.6933816 0.3222838 0.47324446 -0.29289532 -0.52920336 0.025331855 0.9543593 -1.120815 0.18840878 0.45805144 0.15676804 -0.8936875 -0.030618329 0.24011835 -0.3977173 -0.65623164 -0.019361276 0.3204014 -0.11585781 1.4034578 -0.11564657 0.8351049 -0.082943186 -0.5475315 0.47984466 0.6779531 -0.5212464 0.79136693
('평균','Noun') -0.5315908 0.5415379 -0.34496987 -0.59844935 0.05249148 0.58534116 -0.76164716 0.037395585 -0.051979233 -0.04887618 0.7406287 0.39010596 -0.6903413 0.12313466 -0.1702448 0.13730048 0.4030413 0.48880526 0.4851367 -0.44811302 0.11635541 -0.39682218 -0.30604562 -0.055452637 -0.040631503 -0.5442531 -0.5224955 0.5652229 0.0797994 -0.72269267 -1.7204773 0.1414275 0.5249131 -0.5488037 -0.4171456 0.6172607 0.51476973 -0.3408008 0.2599617 0.86956024 0.6298477 0.6657338 0.23365538 1.1688876 -0.2915296 -1.0355788 -0.78659266 0.5299083 -0.34549943 0.52699846
('쪽','Noun') -0.5459815 -0.17526615 0.522421 0.31035805 -0.7111893 -0.31303164 -0.49872458 -0.64228714 0.4524025 0.17646389 1.0534518 0.46649513 0.12438973 0.34191364 0.44666705 0.343262 0.9221541 0.5271803 -0.47283787 -0.7546517 0.12097659 -0.10101691 0.26088265 -0.5016318 0.36271468 -0.70392656 0.054614495 -0.081978574 0.99672604 0.26407063 -0.51780635 -0.33130205 0.5614548 -0.5650431 0.3717348 -0.63687694 -0.20513865 0.5372755 0.09645882 0.5311308 0.40469542 1.3512223 -0.24055244 0.83554065 0.68432224 0.72375536 -0.21185796 0.15498053 0.51879793 1.1425816
('부분','Noun') 0.15957493 0.47032654 -0.034685034 -0.16747524 -0.31547466 0.40298212 -0.14625795 -0.55369014 0.74384815 -0.4350984 0.042793617 0.5632761 0.1958835 0.6324341 -0.06020313 -0.108710304 1.2494683 0.3619313 0.09673177 -0.44424874 0.0018751894 -0.03697487 -0.17903525 -0.44337702 0.17098914 0.31898823 -0.7823226 0.30946574 -0.027432393 -0.37218818 -0.9818111 -0.05979432 0.20789924 -0.81180084 -0.026284004 0.22247781 0.6413323 0.3013704 0.61419904 0.25749105 0.27925563 1.2793645 0.49724776 0.6383615 0.31470537 -0.27452925 0.10563773 0.016881732 -0.40005213 0.40593714
('주','Noun') -0.17661044 -0.4846009 -0.07584019 -0.5616364 -1.0802076 -0.047701776 0.13890794 -1.2207506 -0.15676214 -0.061033644 0.4655151 0.40281633 0.29299986 0.2290283 0.23920013 -0.29266226 0.8917262 -0.3678353 0.7800227 0.11077647 -0.10583125 0.45321193 0.14457403 -0.7440667 -0.45630124 0.43087456 -0.28102022 -0.32735276 0.020865323 -0.52220047 -1.0673755 0.30910176 -0.10777815 -0.6154659 -1.1559703 0.15291719 0.35909796 0.08318106 0.46412104 -0.2748857 0.20034303 0.8499598 0.830827 -0.098964244 0.03171194 -0.53582454 -0.39457965 0.21452793 0.31246614 0.5576728
('반','Noun') -0.18898259 -0.55768186 -0.3615497 -0.5009213 -1.1504563 -0.45864996 -0.529107 -0.27951992 0.5020066 0.47664744 0.6979026 -0.35519156 0.5148685 0.67304605 0.5861264 -0.33890277 0.20116875 0.65169644 -0.17419222 0.5215179 -0.48958263 -0.35572964 0.05256664 -0.22649829 0.22957881 -0.21966399 -1.0887424 0.22830218 0.85232943 -0.8590471 -0.7909392 -0.46071643 0.370278 0.0632982 -0.8757748 0.49089286 0.48161995 0.44690585 0.46283725 -0.119134374 0.28414556 1.3291667 0.3619741 0.8378174 0.26294816 -0.43539652 -0.1317514 0.37041613 -0.44159144 0.49936014
('전공','Noun') -0.48164067 0.5697973 0.24554141 0.26623967 -0.5161132 0.64526343 -0.40650907 -0.98289335 -0.4069492 0.042801943 -0.22024916 -0.22472313 -0.7626778 -0.28132963 0.09870512 0.593422 0.51297873 -0.46421492 0.7656673 -0.027545072 0.1300307 0.1729517 -0.44524935 -0.31024793 -0.3428302 -0.7030172 0.06610488 0.5815069 1.2568734 -0.7273952 -0.31753138 0.5108432 0.42961556 -1.3197964 0.44615573 -0.65674525 0.9343583 0.33632785 0.51888037 0.58921134 0.13671596 1.0284452 0.465335 0.8287763 0.6823786 -0.06744227 0.047125548 -0.21139346 0.4506335 0.87294364
('동안','Noun') -0.7358261 0.22492641 0.2419625 -0.26589674 -0.9291844 0.44830394 0.09363621 -0.95174015 -0.25905982 0.26633677 0.70409834 0.12695801 0.6491405 0.72120523 0.6147068 -0.33721027 0.4528266 -0.33233595 0.3751609 -0.8848161 0.059723593 0.15889998 0.2643971 -0.7917323 -0.3640696 -0.36455798 0.454026 0.0024009566 -0.19908549 -0.044735827 -0.53423667 0.43855265 0.48769552 -0.64794314 -0.5999771 0.6530835 0.06310195 -0.65832984 1.0841155 0.55039114 -0.53579754 1.1443264 0.9280918 0.47566047 -0.4416446 0.5274584 -0.1161458 0.12225185 0.2958854 0.27954665
('15','Number') 0.7470387 -0.52808106 0.15868616 0.18450427 -1.1692855 -0.5058577 -0.7780075 0.2608285 0.49209702 -0.38062456 0.5980168 -0.58914715 -0.42322603 0.8750493 0.12777641 -0.122219 0.63982 -0.051832177 -0.32305056 -1.0239863 0.5105699 0.48135704 0.16018184 -0.6003602 0.80586565 0.6311941 0.35988954 -0.16984296 0.17061032 -0.77422875 -1.339114 0.38620242 -0.7683589 -0.6070637 0.27388015 0.47075325 -0.38209888 0.48401648 0.6413847 1.0322919 0.16174628 1.6653035 0.54741985 0.7174056 -0.35899043 0.37215698 -0.7429559 -0.27290976 0.5004551 -0.5318868
('학년','Noun') -0.84731704 0.24246244 0.4776144 -0.17254241 -1.2005999 0.5113833 -0.3558879 0.7183447 1.0447252 0.010632107 0.2871438 0.172034 -0.67570347 0.086489215 -0.9679204 -0.45613116 0.8473666 -0.73716885 0.3554527 -0.22489458 0.41060758 0.19374149 -0.56723917 -0.807157 -0.23094532 -0.22216584 -0.71655554 -0.2179894 0.18156229 0.055347726 -0.7175848 -0.5500116 0.014915236 0.51417935 0.071415074 -1.0215881 1.098381 0.18810378 0.9079133 0.19017527 0.26252896 1.6547766 0.8956453 0.10184439 -0.29753834 -0.5713883 0.07338483 -0.36186662 -0.7309187 -0.30018088
('인','Josa') 0.07654888 -0.0007558055 -0.3837682 -0.76833403 -0.07637278 0.71785057 0.44107863 -0.13697892 -0.32409886 0.5120636 -0.32916704 -0.6026458 0.11967653 -0.15391149 -0.37333974 0.29253212 0.29469195 -0.6767611 -0.29811683 0.74066156 -0.42592588 -0.15475601 0.4917535 -0.93200976 -0.3441157 0.40963224 0.18417194 -0.12221617 -0.34880748 0.4992025 -0.3667944 0.36007166 0.23705177 -0.6660826 0.12903048 0.40381053 0.08744046 -0.8484187 -0.40397552 -0.60054076 0.46162656 0.24955873 0.13916112 0.15359917 0.062884465 -0.11610473 0.45534483 -0.2823936 -0.50509554 -0.34107774
('페이지','Noun') -0.9103236 -0.07087778 -0.16688639 -0.017134186 0.036346152 0.11880218 -0.7670816 -0.3392905 0.5119173 -0.44431737 1.140648 -0.39043278 -0.0089363465 -0.25211787 -0.18946385 0.8314107 0.6920988 0.11874311 0.23289177 -0.25037786 0.30242127 -0.24313869 -0.33753428 -0.75584275 0.44229543 0.5308579 0.33855498 -0.79343474 1.0439008 -0.485775 -1.0122446 0.40086916 0.0681156 -1.0832391 -0.8652187 0.8515175 0.13412301 0.20305994 0.6009127 -0.16419393 0.66132194 0.65762967 -0.40301284 0.13626802 0.31576237 0.06505264 -0.3821672 0.56728894 -0.02711594 1.1469343
('전','Modifier') -0.018741122 0.06449081 -0.7720184 -0.39870375 -0.690175 0.49693242 0.4203038 0.6526824 -0.15490979 -0.4647117 0.28861624 -0.6461676 -0.4609611 0.833045 0.440216 -0.40198356 -0.5928056 -0.492695 -0.1474774 0.21378173 0.7455959 -0.5492398 0.37623858 0.3299746 0.7966656 -0.6020416 -0.47098884 -0.55396736 0.46843484 -0.79867333 0.01496505 -0.71208644 -0.56632435 0.48631114 0.21229093 0.19712618 -0.38608184 0.4595833 0.7825782 -0.45735678 -0.4239177 0.23396903 0.33488312 -0.06385997 -0.4410163 -0.54837924 -0.15713534 -0.51832086 -0.7792469 0.7093281
('정도','Foreign') 0.75131565 0.1656749 -0.37345773 0.7653958 -0.6973063 -0.19283101 -0.7427304 0.2339069 0.8366168 -0.3622365 0.27462742 -0.72720367 0.3033848 0.88670313 0.096508585 -0.94979733 0.101590976 -0.35797125 -0.6567544 -0.55393887 -0.62076664 0.09914608 0.7684734 -0.16468823 0.08491884 0.61843425 -0.69397426 -0.15851828 0.8657362 0.5417102 0.6276591 0.423214 -0.5870435 0.2832845 0.592354 0.10307752 -0.3361946 0.11510727 0.7021124 -0.039910857 0.8922066 -0.61174357 -0.11446583 0.95132804 0.5068832 0.6530203 -0.79537356 0.68694484 0.3858829 -0.691359
('공부','Noun') -0.23939885 -0.23990914 0.45663753 -0.66287893 -0.9720429 0.69845647 0.22593156 -0.55571216 -0.13938755 -0.45117468 0.57139975 -0.032992028 -0.56966865 0.66579866 0.41232234 -0.23484798 1.1766317 -0.70679647 0.14591034 -0.31197873 0.15869915 0.44347417 -0.24711743 -0.20698978 -0.21568206 -0.49104607 -0.73638046 -0.1000862 0.06435823 -0.036748756 -0.69132096 -0.04260568 0.16219895 -0.18065308 -0.16630396 0.06655324 -0.007885689 -0.4980128 0.052321926 0.7101541 0.25912464 1.2600682 -0.12869757 0.4045657 -0.3663601 -0.008567388 0.13979168 0.79027486 -0.5821141 0.8233416
('책','Noun') -0.9220846 -0.4032768 -0.20236559 -0.05311761 -0.6810436 0.1738477 -0.015663806 -0.9883363 -0.15433933 -0.62670916 1.0418545 0.013515548 0.6553333 -0.13274458 0.073685706 0.7019333 0.8033938 0.08844577 -0.1671497 -0.67362976 -0.2397756 0.2452084 -0.16029197 -0.58038497 0.49055493 -0.17592135 -0.21866462 -0.2832383 0.17840596 0.15474808 -0.99852896 0.46208644 -0.43015742 -0.51415956 -0.023710068 -0.12613612 0.31054717 -0.07677409 0.9502892 0.970798 0.02883605 0.76089996 -0.22109994 0.2995873 0.27457058 -0.14387323 -0.27915958 0.5393535 -0.27721325 0.62249696
('영어','Noun') 0.43847194 -0.8383677 0.25806537 -0.7191632 -1.1990147 -0.392343 0.24654026 -0.05416044 -0.53900373 -0.11957053 0.813061 0.7086613 0.34359348 -0.0050860345 -0.38114858 0.24515726 0.73716164 0.37574062 1.0563917 -0.20239398 0.12091844 0.5612358 -0.24746373 -0.92232984 0.557904 -0.7685395 -1.0228932 0.37022886 0.2844133 -0.3083409 0.013967509 -0.476557 0.352155 -0.8226736 0.06211601 0.15831733 0.21626705 -0.92895633 0.2983559 0.7568165 0.040018488 1.7640357 0.05089348 0.1380631 0.011913947 0.4440633 0.8442223 -0.23151502 0.26052955 0.09806052
('개념','Noun') 0.0665013 -0.6555965 0.5599825 -0.22338234 -0.3379598 0.18946582 -0.6043397 -0.7213098 0.08009764 -0.3689145 -0.20701908 0.69832176 -0.1780579 0.5151115 0.4574389 -0.23093195 1.6302061 -0.93606216 -0.17433596 0.4365742 0.004990924 0.28930444 -0.5402663 -0.56037647 -0.08917878 0.3638 -0.6472992 -0.007366864 0.6689604 -0.50715506 -0.3568755 0.048175506 -0.27702534 -1.0085717 0.0060746954 0.23652028 -0.05409549 -0.40471473 0.45579672 -0.25054255 0.2973785 1.1565566 1.201849 0.7835965 -0.1011988 -0.0645566 0.75103307 0.8878222 0.59039885 0.14323884
('것','Noun') -0.5023519 0.931257 -0.18785208 0.28881443 -0.21280485 -0.2724657 -0.19983786 0.26997527 0.65446955 0.5578161 -0.3256111 -0.37855834 0.16060713 0.4505169 -0.33244863 0.46212807 0.8301566 0.2689144 0.41174522 -0.75229394 0.1260045 -0.7412713 0.2282305 -0.5472281 -0.043322563 -0.03958059 0.027458658 -0.22225091 0.29674318 -0.15842107 -0.26853585 0.0036708312 0.7150763 -1.3193414 -0.0894001 -0.37164536 0.093991734 -0.33939144 0.66975516 0.5639327 -0.028542157 1.3704553 0.80815077 1.1115941 0.3172384 -0.27949125 0.7722543 0.4625743 -0.15864736 0.3677742
('노트','Noun') 0.7712538 -0.19759105 0.43990004 -0.3567388 -1.4603717 0.4893617 -0.49413064 -0.4276093 -0.50831133 -0.27105853 -0.4468952 0.56343883 -0.42362887 0.045819994 -0.8788112 -0.6261821 0.5547874 -0.3886672 0.2996982 -0.5040237 -0.33262566 -0.07589665 -1.2439848 -0.79685277 0.18285722 0.7783828 -0.9185713 0.54439974 0.5085958 0.34451872 -0.14395049 0.6837811 0.092874266 -0.9633857 -0.59112275 -0.16253763 -0.03647865 0.057166398 0.28974995 0.42210892 0.057216458 0.48955885 -0.50704575 1.324537 -0.43006015 -0.24155389 0.53284794 -0.060043637 0.53387934 -0.077039905
('20','Number') -0.36884797 -0.3060463 -0.2394015 0.42007527 -0.7044863 0.070053734 -0.18604314 -0.13281417 0.5735169 -0.021299403 0.77041054 0.8097296 0.08152263 -0.09694315 0.5064746 -0.20394498 -0.038496096 0.23119687 0.8245313 0.21704502 -0.49972522 -0.30880618 -0.4051691 0.11167504 -0.05193835 0.46049705 -0.74070483 -0.26743189 1.0570737 -1.0301087 -0.61338586 0.35937846 0.35588366 -0.6368895 -1.0166099 0.23592345 -0.38179213 0.36494407 0.80565715 0.3208343 1.0121046 0.9193168 -0.085258916 1.1904669 0.32788897 -0.6904066 -0.38576484 0.9778451 -0.42512366 -0.1267735
('라','Josa') -0.68057185 -0.031238316 0.7337238 -0.7433693 -0.848911 0.69130814 0.51260364 0.020729342 0.6456605 0.1407633 0.09812779 0.08718966 0.49207947 0.8415365 -0.04479459 -0.3305594 0.3292184 0.17436413 0.11853943 -0.2912736 0.08141672 0.6992437 -0.64268476 -0.42463225 1.094466 0.6516607 0.41854015 -0.3372037 0.93239504 0.45361882 -1.4934913 0.47102782 -0.5026503 -0.8149651 -0.15139249 -0.09071783 -0.40378907 -0.5662081 0.012038623 0.6920181 0.2072392 1.0902175 -0.14624265 0.31560445 0.15798901 -0.16475454 -0.07453533 -0.022076167 0.31662297 -0.09863302
('8','Number') -0.19271152 -0.48787373 -0.7248835 -0.79056674 -0.24043047 0.19255404 -0.9096618 -0.31550926 -0.06234792 -1.111989 -0.27908397 -0.07761439 0.7154401 0.23621424 0.17783332 0.8142633 0.48930645 -0.1145362 0.9074023 -0.17709018 -0.3346763 0.62200034 -0.9531512 -0.6418248 0.8562288 0.06486453 -0.6957139 0.4900656 0.44794154 -0.546157 -0.9673367 0.2543909 0.5566185 0.0011682326 -0.45475897 0.2449813 -0.3887819 0.033855844 -0.19042605 1.0478137 0.6037872 0.9259807 -0.67376757 0.4981419 0.21329015 -0.5208084 0.4120198 -0.24661048 -0.47294074 0.3218809
('40','Number') -0.20514035 0.102838166 0.58022773 -0.36673298 -0.8917616 -0.44625887 -0.7905071 -0.16002113 0.29441324 -0.62144005 0.63220716 -0.20846534 -0.08168086 0.19276007 0.47015575 0.37828273 0.7576437 -0.9965497 0.86800724 0.25514165 0.197866 0.3736405 0.09177333 -0.4197828 0.37669414 -0.41272178 -1.0148556 0.38116804 -0.039816868 0.2670845 -0.9716033 0.3462987 0.41355133 -0.4612724 -0.87655663 -0.44944334 0.64287674 -0.13863397 0.57058775 -0.0414847 -0.43530226 0.61767 0.2204477 0.9818811 0.24237289 -0.22671424 -0.12309302 0.060761303 -0.1368484 0.36360052
('9','Number') -0.039505776 -0.62716717 -0.08573262 -0.5522683 -0.015608931 -0.6676288 -0.8217494 -1.2111801 0.24736588 0.41866526 0.98296475 -0.2886873 0.24910986 0.7213435 0.3126848 -0.4366435 -0.17954597 -0.19982015 -0.33411208 -0.27214134 -0.49789646 -0.3542856 -0.46389285 -1.1034206 0.4849937 0.5731352 -0.9660065 0.028746188 0.8703079 -0.086912274 -0.84436476 0.097850636 0.40943107 -0.61908287 -0.38920462 -0.157232 -0.5056593 -0.85165524 -0.072917946 0.06135475 0.6866148 1.6113625 0.6478935 0.19339551 -0.4306236 -0.45513543 0.08087684 0.95049584 -0.19942124 0.50253004
('공학','Noun') -0.13369189 -0.7571999 0.092688404 0.38430333 -1.0946277 0.824909 -0.74982655 -0.12646192 0.54700905 -0.07273006 -0.07787063 0.27286428 0.49645355 0.7457604 0.6748033 -0.465827 1.3145896 -0.47662422 0.2552331 0.48592108 0.7970496 0.40698627 0.15193589 -0.81135434 0.41193873 -0.13891535 -0.08237875 -0.32004768 -0.06756799 0.4096243 -1.4392444 0.84803927 -0.1383234 -0.45143244 0.1843971 -0.7129517 -0.24960884 -0.26069418 0.09002385 0.20823045 -0.13714835 1.1766716 0.07434505 0.3475943 0.12862787 -0.48313263 0.3200202 0.97127193 0.07759078 0.3791878
('인','Noun') -0.25185263 -0.30069265 0.28080994 -0.80479366 0.18569085 -0.17494032 0.5328189 -0.9598839 0.5642701 0.26895258 0.40906063 -0.3477433 -0.056711044 0.5898178 -0.5602575 -0.58235127 1.0620494 -0.9856657 0.82521826 -0.92184114 -0.6171269 0.3892959 -0.4826025 -0.49526054 0.8730799 -0.45570797 -0.32213745 0.29710644 0.34531033 -0.4046857 -0.93537456 0.56370765 0.48679113 0.24111523 -0.29864752 -0.38192213 0.2422461 -0.33703083 -0.2642645 -0.10647876 0.85358906 0.8112112 -0.3292014 0.7446132 0.9100182 -0.021220071 0.7320037 -0.048732653 1.1152148 0.18463282
('12','Number') -0.4452436 -0.46654773 0.35584092 -0.04728667 -0.58448136 -0.22898984 -0.8519043 -0.9291325 -0.06854552 0.33782348 0.81359196 -0.12595592 -0.5982423 0.35837385 0.6753902 0.0524822 0.6143357 -0.6831007 0.79839706 -1.1245279 0.071016565 -0.73965394 0.37748468 -0.63792264 0.89521563 0.54724526 -0.10794105 0.038959365 0.22131686 0.6473384 -1.0320882 0.18871215 -0.2073322 0.16034047 -0.28138003 -0.1590362 0.5444412 -0.40040797 -0.05875367 0.07512123 0.40608126 0.6023245 0.49795207 0.97869056 -0.40535852 -0.5597511 -0.782254 1.5810838 -0.711795 0.5101278
('물','Noun') -0.2242337 -0.08905099 0.6535567 -0.38067725 -1.6660398 -0.2613862 0.21103586 -0.34709212 -0.3183082 -0.4501945 0.107803576 -0.5736997 -0.22773756 -0.29263726 -0.41883364 -0.024682725 0.67600524 0.3699838 0.78245914 -0.40553045 -0.08802639 0.28944516 -0.40661085 0.2111958 -0.2814938 0.21502267 -0.096255265 0.4625207 -0.30233476 -0.17284268 -0.28615123 -0.5362017 0.38391006 -0.4672296 0.26515555 0.2549495 0.9428055 0.023491783 0.88981634 1.2236028 -0.09972963 1.6720545 0.61343974 0.40963396 0.8800089 -0.40703526 -0.018428512 -0.2217813 0.4242351 -0.07096342
('분','Suffix') -0.9587401 -0.11169792 -0.59203506 -0.3873153 0.69155973 -0.20747638 -0.18458283 0.49608743 -0.43468758 -0.19255248 0.22492398 0.66984606 -0.1461192 0.25552362 -0.33161876 0.9148166 -0.3813004 0.44971183 0.80534554 -0.7370485 -0.2296894 0.6676891 -0.5853317 -0.16245735 0.25558412 -0.5094729 0.63459414 -0.55916023 -0.45232502 0.270468 -0.06088703 -0.12286626 0.49114347 0.08357559 0.030334426 -0.5637152 -0.20169544 -0.32944447 -0.6688113 0.7861375 -0.4891737 0.35494778 -0.08437741 0.2362745 -0.41817573 0.31635076 -0.7869932 -0.0061502056 0.85349333 0.063005306
('부','Noun') -0.7167017 -0.34447643 -0.54141474 0.4825884 0.1385348 -0.3625167 0.12941778 -0.70335317 0.50947654 -0.7704001 0.97318286 0.11657413 0.14914973 0.8858418 -0.08453069 -0.25155112 0.8161762 0.2319829 0.8031777 -1.2459375 -0.31011003 -0.08751765 -0.14567171 -0.8633228 -0.2995391 -0.6733584 -0.5912354 -0.43416005 -0.37803596 0.29824165 -0.8543333 -0.47733325 -0.64822173 -0.51853853 -1.005115 0.0018945796 0.0755565 -0.09766885 0.8027839 -0.106019974 0.38967994 0.7327173 0.112185046 1.09906 0.3063602 0.2799485 0.4661694 0.6719238 -0.05294464 1.0929786
('주','Modifier') 0.5951958 -0.55838 -0.75399715 0.5079861 -0.4346026 -0.090609945 -0.18494445 0.39534622 -0.6590801 0.77143157 -0.78639 0.27983826 -0.7640829 0.14746064 0.7311811 -0.1667758 0.8183467 -0.55310977 0.7117777 0.23206057 -0.11564693 -0.11211118 0.37221718 -0.5947189 0.035101216 0.62748104 -0.23445058 0.38203874 0.58715254 -0.1409399 0.7087253 -0.09404481 -0.48691082 -0.2344169 1.0381505 -0.1229703 -0.06633124 0.038573667 -0.0025912165 0.7418356 0.056210626 -0.035946447 0.41502973 0.34083304 0.018296767 -0.29801628 -0.61324733 -0.47375378 -0.8476354 0.014592435
('에','Josa') -0.65679926 -0.3087583 0.18248282 -0.21532093 -0.82828426 0.9359221 -0.2253065 -0.042420898 0.29139808 0.6224613 -0.3294351 -0.45580238 0.68092686 -0.06869555 -0.9666523 0.27028662 0.08565455 0.20899807 0.07624861 0.24696538 -0.37723055 -0.67939055 0.12069846 0.82003355 0.36056364 -0.7553931 -0.7630313 -0.3084408 0.65006626 -0.46930385 0.24938208 -0.32206053 0.15648478 0.0012646215 -0.1247385 -0.026367923 0.4806173 -0.79837275 0.07183429 -0.49338683 -0.37906864 0.3141323 0.39411744 0.5719183 0.7152355 0.8138749 -0.42947847 1.0433831 -0.7976969 -0.33011535
('지','Josa') 0.559888 0.7697435 -0.016264237 -0.4229404 0.13053772 -0.91480875 -0.2837837 -0.3368712 0.002694712 0.8255736 0.17315711 -0.86639714 -0.75123906 -0.22580008 -0.37093157 0.10098829 0.4791226 0.09991501 0.6079527 -0.18187755 0.53961045 0.58056134 -0.75287616 -0.5101629 -0.67600733 0.74760264 -0.53801847 0.6393173 0.6084845 -0.6245027 -0.17180374 -0.66953784 -0.3675364 -0.5898656 -0.06254615 -0.5941552 -0.61769384 0.8181783 0.08515615 0.10285227 0.3607222 -0.2021078 -0.85146326 -0.29819813 0.2579523 0.24523456 0.6023072 -0.2404035 -0.7687299 0.3572326
('오','Modifier') -0.88119566 0.6394777 0.9533197 0.31957573 -0.7773519 0.12311601 0.5773822 -0.4040954 1.04158 -0.110296346 -0.65898776 0.6830302 -0.39864254 -0.5944353 0.06679316 0.9835201 -0.24414667 -0.6087203 0.26687893 0.7501319 0.033180308 0.9423123 0.031106029 0.37491778 0.37327668 -0.34539878 -0.7815022 -0.70893997 -0.84994686 -0.07213591 0.48410764 0.052353203 0.30215076 -0.77916396 -0.9466536 0.522949 0.8223876 0.5863487 -0.53465176 -0.07105442 -0.77869666 0.6694261 -0.7694271 0.4282181 -0.6647587 -0.5151807 -0.061296444 -0.769837 -0.18137808 -0.2511607
('거','Noun') -0.2572961 0.5877974 -0.0067182463 0.26742256 -0.65662044 0.35529566 -0.55306566 -0.69714093 -0.112189576 -0.14658755 0.23338531 0.43422505 0.26428235 0.12416054 -0.02394511 -0.14699882 0.19534113 0.1189872 0.4997671 -0.74736273 0.2832577 -0.24556634 -0.79017615 -0.7437291 0.56503934 -0.47021145 -0.5747981 -0.100003965 0.3304553 -0.74588025 -0.54678255 -0.058378447 -0.35351986 -0.889947 0.34123555 -0.37110117 -0.2262827 -0.057455607 0.38840765 0.9244333 -0.16600402 1.2199088 0.38746262 0.78284866 0.049553312 0.08607276 0.60478747 0.33186114 0.6568361 -0.016799962
('전','Noun') -0.17676571 0.37716696 -0.012143572 -0.53825563 -0.5026299 -0.01660173 0.18526936 0.14078653 -0.68893826 -0.21955347 -0.3807552 0.23031092 0.2905816 0.6465295 0.1439209 0.27885348 0.59581906 0.15117422 -0.21197563 -0.48140043 -0.46380466 0.110169604 -1.0517122 -0.089791894 0.60775864 -0.59089637 -0.4564846 -0.34303746 0.9157669 -0.4189331 -0.9488023 -0.60648036 0.32979703 -0.65072906 -0.5842882 -0.44131675 -0.24759278 -0.25603503 1.0385388 -0.08699767 -0.39469355 1.4545984 0.20665556 0.25897506 -0.019871017 -0.5658267 -0.4488314 0.46644628 0.32342213 0.57854337
('이상','Noun') 0.045489542 -0.16368957 0.32678923 -0.30334333 -0.34912103 0.02444555 0.3453257 -0.07886923 -0.025100803 0.44561842 0.7617079 -0.4779489 -0.15855792 0.049883097 0.4170513 0.19044194 1.1227673 0.62629783 0.56143814 -1.1150554 0.46540493 -0.5044701 -0.03152736 0.21747628 0.6100207 0.1431701 -0.64895546 -0.07077298 0.07369597 -0.26145247 -0.44502392 0.22523127 0.6053709 -0.57044256 -0.48810393 -0.25886488 -0.1395089 0.26861784 0.5542296 0.6306222 -0.54301447 1.3409573 0.42931378 0.77669764 -0.23592287 -0.48381573 -0.17022057 0.44759497 0.6269687 0.5471896
('범위','Noun') 0.47289655 -0.19606896 0.48312062 -0.7275508 -0.8269597 1.0451645 -0.7116936 -0.86851376 -0.46388566 -0.16058214 1.0536491 0.37032273 0.44040248 -0.28718582 -0.02057802 0.0019235183 1.3626759 0.22405842 0.24527419 -0.5478441 -0.23574187 0.0056458795 -0.3791169 -0.47955704 0.7065884 -0.58175033 -0.51299036 0.22989191 0.8909398 -0.607203 -1.0174453 -0.4055059 -0.5705549 -0.52902395 -0.6736943 -0.35695636 -0.45639658 0.39759743 1.1341031 -0.14913772 0.29937258 0.4526442 -0.5879346 -0.20369406 0.08173011 0.20367599 0.10120763 0.5796195 0.36361596 0.7643509
('30','Number') -0.3896751 0.23470134 0.45753038 0.6865426 -0.8247371 -0.64642215 0.38795498 -0.6376971 0.48500857 -0.15561357 0.6467231 0.1804723 0.021156386 -0.3796729 -0.14411211 0.7591039 1.1172427 -0.60047215 1.0979724 -0.6019753 0.47787446 -0.12698227 -0.4932737 -0.9202686 0.4593745 -0.5043827 0.315878 0.3941947 -0.27791885 -0.65048677 -0.6985524 0.29950088 0.28044993 -0.75827533 -0.7521829 0.08593288 -0.3348615 -0.9229086 0.48705882 0.55587816 -0.1312516 1.0969131 0.68921816 0.08574106 -0.3273654 -0.1461718 -0.12584224 0.24180242 0.65778816 1.057372
('교양','Noun') 0.552636 -0.6892433 0.1766095 -0.11280587 -1.0010895 0.86678964 0.17550837 0.11904134 0.17112377 -0.28756267 0.18592295 0.62513363 -0.6777992 -0.25233576 -0.7764092 -0.041642327 0.23972575 0.21785204 0.4947257 0.38895598 0.014725138 0.20088899 -0.07724369 -0.15190208 -0.06589529 0.5665511 -0.23855999 0.31057236 0.65295786 0.42631066 -0.42066374 0.6217534 0.49667805 -0.026709622 -0.32173756 -0.1481972 0.8289459 -0.64068407 1.0571014 0.32150924 -0.45855972 1.6845752 0.13433714 1.3252054 -0.069186516 -0.26477858 0.0028945163 0.22594653 -0.31032446 0.6275124
('7','Number') 0.053152885 -0.006475798 -0.32457218 -0.26413846 -1.1174757 0.716489 -0.67112947 -0.9685238 -0.11106724 -0.18012147 0.20550768 0.53098047 0.2716076 -0.10480786 -0.3529449 -0.16043088 1.2382785 -0.18490118 -0.054539192 -0.20580286 -0.26982614 -0.5945435 -0.611503 0.22549774 0.45675138 -0.57683873 -0.4995747 0.6697699 -0.07695164 -0.85956204 -0.5327527 -0.5032318 -0.42534503 0.041637007 0.37843224 0.38497517 -0.2779192 0.08157835 0.22817667 0.19515507 0.831606 0.9062016 0.28937674 1.0371106 0.16886091 0.23971811 -0.7973363 0.15326516 -0.69186366 0.3120111
('보고서','Noun') -0.56392455 -0.68177706 0.08944664 -0.26764005 -0.19790597 -0.21379629 0.2939995 -0.59015346 0.0022742166 -0.053547233 0.16101459 0.31569257 -0.16146457 1.0080973 -0.2682361 -0.49496922 0.4051509 -0.71088594 0.34692088 -0.03608614 0.30145937 -0.40154776 0.28045383 -0.2638909 0.9371496 -0.91673297 0.017873684 0.11705377 0.8294312 -0.9644323 -0.6433063 0.24651685 0.1505178 -1.0687187 -1.227093 -1.1244955 -0.2362845 -1.1289991 0.30741233 1.1976216 0.5127648 0.90292305 0.25031456 0.850598 -0.40763098 -0.19805019 -0.6527124 0.21544647 0.72309923 -0.15303977
('기초','Noun') 0.3059295 -0.6514975 0.69359475 -0.6609093 0.1385841 1.0323781 -0.3530383 0.2891135 -0.643105 0.291682 0.55727285 -0.106309436 0.20029718 0.8559817 -0.87464297 0.7642585 1.1577349 -0.20491914 1.0855561 -0.22318333 0.5100346 0.026629977 -0.14986537 0.040311504 0.72907156 -0.54845494 -0.10840631 0.7783292 0.7046911 -0.25093102 -0.7487313 -0.39282283 -0.15198949 -0.71130866 -0.7075464 -0.1742372 0.45167837 0.38510385 0.49909657 0.12606056 0.6267393 1.0876442 -0.014807927 0.16542266 0.41640985 0.15529539 0.43852887 0.012439202 0.20759073 0.97552276
('50','Number') -0.5818059 -0.38194042 0.7068083 0.3674019 -1.0852968 0.7779772 -0.55675 0.23983051 0.51230466 -0.7253219 0.880972 0.34426597 0.5119222 0.30171522 0.2088857 0.9473416 0.2020409 -0.46660212 0.8530068 0.53554106 0.45670882 -0.59782463 -0.60746884 -0.39314225 0.35777065 0.2120339 -0.7399527 -0.5861649 0.07341158 -0.7668485 -1.2705721 -0.5430444 -0.63246644 -0.19333026 -0.839552 0.51616955 -0.5434278 -0.8493215 -0.25769335 0.24590737 0.7212596 1.297103 -0.13557729 0.84041804 0.39910275 -0.8925497 0.27939057 -0.38373977 -0.058720443 0.091357335
('임','Noun') -0.22454767 0.43096948 -0.025953155 -0.56128633 -0.8851673 0.25523782 0.060850862 -0.7901207 -0.44646904 -0.65136415 1.1823287 0.7168313 -0.42389685 0.30254802 -0.1469856 0.10756251 0.25988063 0.14523096 -0.0068858815 -0.84411 -0.7951704 -0.52740407 -1.185236 0.4166998 0.26005596 -0.099094674 -1.1053677 -0.4676645 0.7518473 -0.87005174 -1.0386698 0.6838456 0.29370174 0.13295911 0.29536483 -0.48917723 0.5627521 0.3890667 0.64599067 -0.22151871 0.30282798 0.87150085 0.06142005 -0.044411674 0.77091575 0.30733377 0.7776678 -0.1612873 0.18716721 0.8195004
('감','Noun') -0.4410943 0.6529886 0.7174945 0.16726562 0.18472542 -0.53627616 -0.8563529 -0.7559134 0.28071383 0.41166306 -0.2982109 0.7926817 0.30124742 0.61118746 -0.06304869 -0.46121985 1.2946253 -0.45694768 0.295316 0.49191353 -0.11876213 -0.51244 -1.0559236 0.090752654 0.567962 -0.6207954 -0.63996637 0.3484573 0.84271353 0.055468507 -0.49202168 0.74440026 -0.54131866 -0.7249621 0.3399323 0.56926805 -0.09835398 0.40015605 0.35511315 0.24104694 0.8462825 0.51987064 0.7037452 1.2752672 -0.33676225 -0.6536502 -0.8870767 0.5125844 -0.23268762 -0.10615857
('식','Suffix') -0.4395893 -0.3936131 0.6422449 0.8724288 -0.09427035 0.7477333 -0.365674 0.13287306 -0.38531446 0.53776926 -0.25239795 0.34382153 0.20618477 -0.37541482 0.04538595 -0.30202234 0.47695017 0.27096763 -0.017271291 -0.49696934 -0.10055964 0.56440485 -0.13517477 0.2674254 -0.13995098 0.24051589 -0.25626776 -0.10061708 -0.42157695 0.7569329 -0.7544587 0.07636265 -0.5913757 -0.75998795 0.40332243 0.5885118 -0.20324762 0.40385818 -0.59192204 0.6072359 0.08371608 -0.14140221 -0.13830788 0.20191626 0.3192934 -0.36636242 0.053758416 -0.40163264 -0.86033624 -0.017779205
('로','Josa') 0.7401626 0.6486876 0.45709458 0.7399443 0.15587829 -0.4784347 0.4977033 -0.688594 -0.03780641 -0.28382906 0.43912205 0.6635239 -0.7978848 0.8030946 0.6626848 0.39039797 -0.7817195 -0.20786855 0.84388155 -0.33693123 -0.23549584 -0.047459062 -0.5357486 -0.43322292 0.6373503 -0.9456019 -0.79282606 0.7895962 0.88682824 -0.8130456 0.36869448 -0.24626602 0.34536326 -0.56499755 -0.5809449 0.22635083 -0.46499577 -0.19674486 -0.5491776 0.06438471 0.850266 0.20422964 0.65851766 -1.0121735 0.034155518 0.39242008 -0.6828455 -0.25661123 0.51518977 -0.637435
('이','Josa') -1.0630344 0.23506252 -0.64621186 -0.32920146 -0.014772191 0.5466802 -0.35716888 0.8895627 -0.5936895 0.26209944 -0.038977478 -0.5543124 -0.08517893 0.37582895 -0.9167067 -0.3319845 0.08180729 0.28158018 0.18420675 -0.40551606 -0.23098856 0.74535286 0.5402576 0.07609761 -0.44874826 -0.5754037 -0.32850292 -0.0036955792 -0.18815544 0.23948497 -0.6615846 1.1622146 0.1603882 0.36127046 -0.61806655 0.054617446 -0.45543924 -0.5812551 -0.11787158 -0.29328132 -0.3570338 -0.06437296 0.0291959 -0.0073243384 0.3532265 0.52834684 -0.09396028 0.7278411 -0.76201904 0.9443301
('생화','Noun') -0.45903608 -0.110310026 -1.030833 0.19024956 -1.4496831 0.6359029 0.17324477 -0.22311324 -0.19129933 -0.648183 -0.30204195 -0.09597304 0.009394772 1.2030259 -0.707337 0.11016108 0.026204076 -0.31179637 1.418123 0.4088482 0.99515086 -0.21498264 -0.38432288 -0.15068702 -0.17045897 -0.6085652 0.38861647 0.23986024 0.32031167 -1.1567369 -0.20283997 -0.5289315 -0.6042778 0.3012019 0.5802925 -0.63553333 1.1080538 0.1319943 1.1367447 0.38620916 0.71300757 0.66913784 1.1328274 0.68099874 0.63484067 -0.44516015 -0.49437624 0.41133952 0.2663002 -0.34911597
('고','Josa') -0.1315928 0.03925273 -0.60316724 0.15551348 0.78222704 0.26684415 0.72526574 0.49426612 -0.7745711 -0.7036565 -0.6683359 0.7481412 0.2591716 0.6392968 -0.2415979 -0.047171477 0.68539286 0.42568573 -0.056486133 -0.65398204 0.73656386 0.11143264 -0.43538374 -0.7407934 -0.18861517 0.1259104 0.16057262 0.7463187 -0.5196436 0.44836608 0.7255303 -0.7916329 -0.22709157 -0.62338185 0.1407632 -0.17502843 -0.7545091 0.05932216 0.6668994 0.49329907 -0.7089274 0.5028176 0.2379466 -0.22042519 0.3713682 0.7120497 0.20463635 -0.741448 0.70049065 0.19797318
('일','Modifier') 0.37331116 -0.9405705 -0.59390146 0.08496665 0.113505386 -0.13946465 -0.5767832 0.87819386 -0.6858664 0.5654281 0.6250464 0.5055647 -0.72967124 0.103434056 0.10806767 -0.98601586 0.36676517 -0.7818381 0.8474678 -0.68309605 0.7824292 0.5143385 -0.1358267 -0.83192974 0.45027435 -0.8039729 -0.34466046 0.694969 0.40472466 -0.49927264 0.6132378 0.64928603 0.1330633 0.852914 0.65708804 -0.20729657 -0.44538802 -0.5313701 0.35691762 -0.17259844 0.6105224 -0.43690816 0.21547815 0.2632672 -0.8985074 0.7804049 -0.6010991 0.5450005 0.030273017 -0.49185053
('분','Noun') 0.2123191 -0.40196612 0.60574263 0.62480277 -0.6096126 0.37861934 0.09718492 -0.87549114 0.0054128496 0.38148957 0.91961205 0.63135564 -0.26702198 -0.030219587 0.20937844 0.011004828 0.9286762 0.0015002916 0.3997031 -0.42881823 0.105197884 -0.2858673 -0.9174339 -0.17450769 0.8083855 -0.40415666 -0.18134008 0.15773739 0.123831406 -0.4797944 -0.7268059 0.39573148 0.39417392 0.046493076 -0.015020249 -0.3922127 0.40549597 -0.41882163 0.91121984 0.3493355 0.34822145 0.98459136 -0.090823896 1.07083 0.20556109 0.20002462 -0.21908028 0.566012 -0.13891236 -0.27935404
('학생','Noun') -0.07738966 0.20985915 0.8050885 -0.5079321 -1.0030254 -0.017497674 0.17957483 -0.5446293 -0.45382464 -0.59031266 0.3655152 0.51227766 -0.08587499 0.82008773 -0.4527503 0.24582626 1.0108594 0.007949376 -0.47734323 -0.5176142 0.27345467 0.109618485 -0.40612158 -0.2767164 0.39641955 -0.05385264 -0.62923574 0.6890901 -0.0612934 0.09707309 -0.7483368 0.3753216 0.21627554 0.23566078 -0.5241068 0.23655376 -0.23676404 -0.09801887 1.0015751 0.8560875 0.5888421 0.4913657 -0.28552166 1.2323663 -0.44976452 0.6669116 -0.08318492 0.12583767 -0.08573025 0.57743496
('숙제','Noun') 0.15054783 0.23667678 0.18840562 -0.1706488 -0.931022 0.86296934 -0.4935441 -1.0114151 0.76481646 -0.44424248 0.059096057 0.20889068 0.695489 0.3433795 0.121963345 0.11583125 0.62965757 0.5333092 -0.030617744 -0.6247787 -0.50928 0.5406368 -0.8395647 -0.37439248 0.59348816 0.12127062 -0.6428425 0.2939792 -0.08126397 0.25808033 -0.2760324 -0.3387537 0.39274603 -0.5234173 0.22007927 0.20174494 0.8500563 0.1635899 1.3735042 0.5059806 -0.51566935 0.7210646 -0.28131902 0.41023123 0.10045078 -0.07137433 -0.086464904 -0.2597537 0.009584457 1.0432627
('중','Noun') -0.55544287 0.073902056 0.8242178 -0.25204682 -0.91790867 0.44822463 -0.6374947 -0.5004164 -0.2511339 0.4484105 0.23289514 -0.22774494 0.058283355 0.670531 -0.35640225 0.066264145 0.2714688 -0.6654099 0.9502403 -0.50070935 -0.542125 -0.4642208 0.15706284 -0.5727468 0.0006583741 -0.4846273 -0.35979825 0.6163018 0.9386828 -1.0807933 -0.22513197 -0.70420897 -0.3020098 0.063298106 0.0007746603 -0.07650513 -0.24904071 -0.17146222 0.99408937 0.8867687 0.10447104 1.429088 0.87615645 0.37680224 -0.042927057 0.26670375 0.5331719 0.22298631 0.5158011 0.49320477
('하나','Noun') -0.18121491 -0.2813039 -0.523068 0.47605795 -0.47192878 -0.13571168 0.06883008 -0.6442412 0.41541478 -0.41647294 0.121943295 -0.15786777 -0.15157707 0.17707805 -0.40340433 0.7560769 0.91792715 -0.8837564 0.73996866 0.19325297 0.16422735 0.3588585 -0.19015478 -0.66773015 0.3733745 -0.6470332 -0.6838886 -0.20854987 0.31325662 -0.14882489 -1.0349635 0.23426113 -0.39134368 -0.13919054 -0.29311314 -0.6454723 0.3184808 0.06980085 0.6608503 0.33565134 0.30856717 0.92943627 -0.61600953 0.4412419 -0.46468243 -0.4225025 -0.18594274 0.52234554 0.17753994 0.95362765
('출석','Noun') 0.38125795 -0.12841997 -0.09229323 -0.8818447 -0.76151484 -0.21193871 -0.5755733 0.15473996 0.3550559 0.107606515 0.59646446 0.2079119 -0.39778015 0.17616372 0.09928317 0.73743224 1.0306091 -0.22614945 0.7488507 -0.30177733 -0.23302928 -0.3265615 -0.44450998 -0.06371566 0.52419937 -0.36180463 -0.8151424 -0.452455 -0.1224445 -0.88866234 -0.60883915 -0.1572882 0.37984356 -0.84652954 -0.47104645 -0.1593324 -0.40413678 -0.28315607 0.83646977 0.065164365 0.8166741 0.64149475 -0.44830835 1.1834553 -0.092238404 0.28359872 -0.6452893 -0.3243049 -0.6893257 0.76075774
('연습','Noun') -0.1497216 -0.65406835 0.43548226 0.33863693 -0.6241601 -0.09785483 -0.5027228 -0.539275 0.28533962 -0.2460315 -0.07209036 -0.15531054 0.12531501 0.61642456 0.34043187 0.2938308 0.8639801 -0.38061038 -0.09561103 -0.15170087 0.17436272 -0.37048474 -0.90872437 -0.43541235 -0.35873002 -0.38351864 -0.1416247 0.6593289 0.21389903 0.07151389 -0.7514056 -0.60642403 -0.03994135 -0.17819075 -1.074977 -0.3702643 0.7544236 -0.17274265 0.17477573 0.039487645 0.07031028 1.0217186 0.54549706 0.11056962 -0.38281536 0.17091554 0.5765842 1.3246543 0.17734186 1.1997905
('자료','Noun') 0.019815896 -0.79638827 0.5319322 -0.08201102 -0.39907992 -0.4084677 -0.7355854 -1.1287142 0.62302107 -0.24025208 0.025684519 0.82645583 -0.25612658 0.61276644 -0.032461256 0.81918454 0.70211256 0.43228438 1.0873694 -0.24673523 0.5105901 0.61308974 -0.22763479 0.2839986 0.04408944 0.6121783 -0.1944062 -0.401256 0.40977484 -0.11097431 0.11630452 -0.23076765 0.11457547 -0.94922197 -0.5218269 -0.7849592 0.62203515 -0.73062843 1.0095121 -0.20465861 0.6542231 0.08955149 -0.43501765 1.2717869 0.15955031 0.613565 -0.42423213 0.43881062 0.36503333 0.9033037
('100','Number') 0.39895192 0.3720055 0.6430199 -0.16241522 -1.3789895 0.64096594 -0.10008413 -0.67408824 0.8570302 0.20554459 -0.1668794 -0.6471142 -0.47486928 0.081927374 -0.059915807 0.43386206 1.1608201 0.2907327 -0.082051344 -0.024923883 -0.6171121 -0.29858574 -0.2674022 -0.37118268 0.3736529 -0.90270334 -0.15929039 0.055554613 -0.20264362 -0.05887945 -0.7238832 -0.31684518 0.27173424 -0.89687806 -0.10971882 -0.5043882 0.103524506 -0.04041212 -0.71675813 1.0010694 0.01045456 0.88953865 0.98186433 0.51080024 -0.27922636 -0.6452705 -0.5564985 0.17901434 0.019510448 0.35824436
('계산','Noun') 0.03144841 0.112053186 0.24396792 -0.6209576 -0.78506655 0.1530145 -0.578371 -0.1499944 0.043927655 -0.9634431 0.64071393 0.28565827 -0.4943968 0.6082865 -0.16290647 -0.5091293 1.6569283 -0.7147839 0.667196 0.20819744 0.05756308 0.021374462 0.11977145 -0.50872684 0.2074268 0.08807595 -0.44486853 0.09859078 -0.5355279 -0.8038054 -1.38381 -0.15096527 0.59464353 -0.31183818 -0.69916666 -0.83577114 0.40155864 -0.6479435 -0.33157367 -0.31121793 -0.20429407 0.95768076 -0.35622537 -0.19334236 0.8908787 0.039825097 0.46238986 1.0200346 -0.37110165 0.11108305
('지식','Noun') -0.5104218 -0.31418964 1.0430075 0.76395416 0.23510198 0.094566666 0.51066595 -0.35006934 0.13716175 -0.89324933 -0.42037547 -0.8442287 0.6525329 0.20927328 -0.29757816 -0.46208283 0.35102507 0.35281837 1.1059539 -0.5593491 -0.21195209 0.5272047 -0.7111631 -0.3310405 0.5013947 0.23323332 -1.1763794 0.73899007 0.23267618 0.49431205 -1.405172 0.58025295 0.5139627 -0.27200237 -0.15820338 -0.12057405 0.75717586 -0.603845 0.9869608 0.13769679 -0.64973676 0.9308227 0.25149107 0.9087511 0.038395897 -0.46997052 0.9989977 0.7250892 -0.3584528 0.11156983
('학','Noun') 0.030267976 -0.2122555 -0.70005953 0.79694164 -0.4001308 1.1592928 -0.50301695 0.31910968 -0.031836405 -0.19291545 0.4635332 0.22231114 0.36436605 0.63337594 -0.9125181 -0.35049203 0.60701925 -0.45998016 -0.08944034 -0.2445737 0.7628542 -0.7371364 -0.25224346 -0.80330735 0.34109643 -0.23878992 -0.90243316 0.5823228 0.8749035 0.5103105 -0.72650635 0.7960417 -0.8285415 0.53671664 -0.20894006 0.3993562 -0.09142998 0.28564444 0.23967502 0.10192354 -0.6488966 1.6887805 0.14413954 1.2298495 -0.19934174 0.25275052 0.030969495 0.7677268 -0.78653336 0.82135093
('참여','Noun') -0.7221909 -0.35425514 0.6475309 -1.0820951 -0.73470914 0.37791523 -0.6124989 -0.49821842 0.07515249 -0.06497914 0.009560388 -0.62230027 -0.610181 0.9422264 -0.47676116 0.65051824 1.173883 0.11079941 0.7100359 0.15797895 -0.8634533 0.104241565 -0.55221957 -0.94135934 0.92725337 0.20753819 -0.11535746 -0.71687853 0.14422941 -0.5535483 0.12954615 -0.09016663 -0.27328873 -0.28645107 -0.21800324 0.43339154 -0.4016928 0.028722247 0.5886858 0.9391458 0.12626384 1.1675669 -0.38519284 0.6634288 0.3734223 -0.38364226 0.17960523 -0.18070741 0.6807502 -0.11729217
('과정','Noun') -0.66181296 0.24388939 -0.2817649 -0.0040035867 -0.23231016 0.7312786 0.09796566 -0.33407485 -0.34223607 0.59279096 0.6868636 -0.44387475 -0.18738371 0.33116287 0.057894792 -0.23858371 0.50433874 0.6601444 0.28902102 -0.7572805 -0.011065909 0.10984768 -0.060901966 -0.5005578 0.5445217 0.20769376 -1.2081419 0.58026224 0.54891753 -0.896084 -1.130566 0.77538186 -0.34083778 -0.13077083 0.163559 -0.34737375 0.53032833 0.6047044 0.061629158 -0.17835583 0.3187824 0.91440076 0.27391782 1.4663435 0.9372002 -0.31907257 0.17082994 0.2653927 0.37205863 0.61269426
('하루','Noun') -1.0631193 -0.63815933 -0.47409153 0.5020812 -0.65921545 -0.22149709 0.080264315 -0.97427166 -0.6008173 0.7566009 -0.010643034 0.12945893 0.113101155 1.1767899 -0.047565214 0.6787704 1.2778178 -0.18646504 -0.117843606 -1.091475 -0.8588896 -0.6434306 -0.8918003 -1.053528 -0.18536656 0.28490373 0.33639005 0.6262371 -0.33001822 -0.9086241 0.27593634 -0.5299126 -0.80919266 -0.9875449 0.030335875 0.1884723 -0.57821125 -0.9320874 0.521869 0.77635 -0.5031233 0.81394285 -0.52863824 0.7514434 0.6492283 0.034712162 0.33675253 1.0860358 0.52074957 0.18999502
('구조','Noun') -0.31244215 0.7564424 -0.30896202 0.5421994 0.42835712 0.31970793 0.24961373 -0.7515137 0.05823176 0.43524256 -0.4086664 -0.30099592 -0.17223153 0.7270527 0.5494109 -0.59824413 0.7914993 -0.5443981 0.3400475 -0.74557906 -0.3215511 -0.26272324 -0.67033976 0.44819608 0.2374523 0.4695929 -1.0660107 1.0441136 0.8536009 -0.5952343 -1.1857759 -0.5606778 0.2587752 -0.5032686 0.1327377 0.5008782 0.18320835 -0.5598769 1.089244 0.3809445 0.08938176 0.1823701 0.19910558 1.2639935 -0.22100589 0.65685695 0.30161998 0.7268472 0.11988211 0.6070598
('날','Noun') -0.95248973 -0.29152948 0.0099129835 -0.10963821 -0.78903115 -0.4474884 0.40030622 -0.5625023 0.17228861 0.2224896 0.020294515 0.026536977 0.8558144 -0.42137673 0.06719851 -0.23487307 1.0023106 0.29661238 0.58936524 -0.65833807 -0.4228625 0.35513428 -1.0291471 0.4065242 0.89210755 0.3219586 -1.1871164 -0.2669522 0.37161556 -0.94197726 -1.0220759 0.30284584 -0.5042986 -0.77095896 -0.7170577 -0.14864208 -0.3465113 -0.32973287 0.899328 0.4098299 0.17135356 0.8094826 -0.10620135 0.039033394 0.4312334 0.6593672 0.25835812 -0.062967606 0.54835993 -0.12940519
('가을','Noun') 0.23703343 -0.040903036 0.12866786 -0.6463739 -0.12077817 -0.46773258 0.5655889 -0.79998684 1.0212297 0.22081119 -0.3460681 -0.66649246 0.06644486 0.927002 -1.0265568 -0.17235567 1.1958656 0.58407027 -0.60376424 -0.49930173 -0.68968356 -0.67273146 -0.17289974 -0.8269889 -0.21815614 0.84606165 -0.024364928 0.2775899 0.18625769 0.48586348 -1.0501912 -0.20522575 -0.037972864 0.3160829 -0.63692427 -0.7263487 0.3489451 0.64846045 0.7375059 0.57341117 0.67485756 1.3435785 0.5919747 0.5119658 0.782849 -0.004895511 -0.3130189 0.41410622 1.0445476 0.9499958
('필수','Noun') -0.08028176 0.17618571 0.26788086 0.060003307 -0.2797604 0.47817975 0.69382757 -0.43786332 -0.28763917 0.671898 0.45203438 0.43450254 -0.3228559 0.9453117 -0.20402439 -0.3798666 0.93864614 0.33131123 -0.02688481 -0.43727195 0.3842095 -0.058662817 0.13233662 -0.22946474 0.5170973 0.5066388 -0.62094194 -0.0409384 0.91039425 0.205797 -1.3528666 0.32535404 0.34600535 -0.8499915 -0.7932191 0.27527645 0.56922615 0.18209155 1.3935273 0.41253543 0.9327608 0.6422331 0.7163863 0.45808235 0.20196766 -0.41766152 0.69256014 -0.16197002 0.3233131 0.064113915
('통계','Noun') 0.34683233 -0.8466879 -0.55320346 0.1639781 0.22814989 -0.11063735 -0.8101743 -0.41271412 -0.7065171 -0.13797744 0.89789605 0.19271487 0.8074805 -0.54997975 -1.0328242 0.27684027 1.3426646 0.81619006 0.8419814 -0.55243075 -0.54170805 0.75178957 -0.6272209 -0.9074961 0.3538571 -0.009086445 0.5089808 0.57417065 0.16823582 0.4902974 -0.26908067 0.41035348 -0.8434142 -0.9241289 0.7170848 0.17336245 -0.08776327 -0.72056556 -0.40539157 0.27309707 -0.537062 2.0407917 0.3979357 1.3079729 -0.14868309 -0.8902152 0.3537332 0.14608738 0.60969913 0.80222625
('60','Number') -0.59938806 -0.33398125 -0.030915994 0.48264185 -0.87015635 0.09762151 -0.5002306 -1.136325 -0.058397833 -0.29272106 -0.0026477631 -0.39787805 -0.39626417 0.1933615 0.48062953 -0.33758557 0.4619157 -0.70349354 0.24881648 -0.91542983 0.19718035 -0.028760966 -0.5161158 -0.09543967 -0.14573438 0.11050359 -0.584896 -0.61501014 0.79978436 -0.51993454 -1.3805684 0.6697468 0.18898872 -0.9890296 0.38517305 -0.72363347 0.87592375 -0.8009631 1.0510085 0.6005897 0.24719773 0.33560267 0.45176348 0.29982415 0.18802665 -1.0130522 -0.46807384 0.28008062 0.11875132 0.27193588
('차','Noun') 0.65932345 0.93973833 0.12187611 -0.6027763 -0.8632334 0.8788725 0.042387553 0.07125719 -0.11078608 -0.3352615 -0.12855732 -0.55977505 0.09707907 0.44533226 -0.6846098 0.6639603 1.016443 -0.43981388 0.5977242 0.37726882 0.32878718 0.48420197 -0.6046263 -0.09032064 0.08066405 0.17264007 -0.9770933 -0.581145 -0.015438443 -1.2789576 -0.33963904 0.3243798 -0.2832974 -0.37188658 -0.59136766 0.48970178 0.48036107 -0.70504725 -0.20348902 0.14164412 0.120623745 1.2071818 0.5606695 1.2186925 0.18231225 0.1737805 -0.49873847 -0.1780398 0.8892172 0.93140465
('박','Noun') 0.7383109 0.5137951 0.23444015 -0.043665376 -0.7552743 -0.28964978 0.9252466 -0.05419415 -0.5967758 0.4926843 0.74356574 -0.7672318 -0.7961228 -0.58048815 0.62821954 0.72600186 0.4548451 -0.09737765 0.77220744 -0.41282576 0.4468914 -0.3019418 -0.414627 -0.85578877 0.36247963 0.40245318 0.12888761 0.8618386 0.009985934 0.40413046 -1.1788687 0.4278048 0.20903084 -0.6745717 -0.9554464 -0.92209685 0.57590497 -0.03632148 1.0505037 0.6195772 0.5080946 1.3054672 0.6296592 0.81436217 -0.08174281 0.49603048 -0.053475827 0.9451343 -0.77963006 -0.11601468
('11','Number') -0.067615576 -1.0279851 0.20253064 -0.08317936 -0.6981091 0.77497894 0.52509135 -0.48958912 -0.5006963 0.5955014 0.72391397 0.39203998 0.63001055 -0.30278447 -0.1170372 0.5878791 1.3370638 -0.24776667 0.29752702 0.51116896 -0.723971 0.68472636 -1.3279724 -0.11153732 0.40169373 -0.8163637 -0.79597336 0.57433546 -0.44868565 -0.56169224 -0.8494289 0.60636616 -0.84688526 0.036924466 -0.6333305 0.5474522 0.18917407 0.020345833 0.28460425 -0.33803394 -0.38275516 0.54582727 -0.45941433 1.092537 -0.66112095 -0.9009788 -0.122586474 1.3312292 -0.31411743 0.77758807
('타','Noun') -1.1089861 -0.14896959 -0.118848674 -0.29577902 -0.09885737 -0.25930062 0.48664874 -0.3344236 0.34638482 0.21618013 1.0292053 -0.3206438 -0.76699406 0.9389829 0.4561583 -0.24504586 0.60594064 0.42297566 1.077266 -0.6324462 0.04999496 0.99457234 -1.3389097 -0.038435444 -0.5431751 0.2723235 -0.98249847 0.31909946 0.32776058 -0.6686708 -1.3826789 0.21505663 -0.70192933 -1.3314716 0.26047924 -0.022914115 -0.053560697 0.48688015 0.5219334 0.7761123 0.32784334 0.5721787 1.0079175 0.05172615 0.3937979 0.30056745 0.1343793 0.04621615 -0.10455345 0.29039598
('플','Exclamation') 0.4712579 0.7566705 -0.57989377 -0.9497841 -0.287426 0.734812 -0.08578378 0.561013 0.014082455 -0.86167324 0.99101216 -0.60176694 0.5353167 0.2639276 -0.83837414 0.9479885 0.65590143 -0.59905934 0.5692588 0.3446606 0.4920791 -0.097341225 0.30809644 -0.431979 0.8618751 0.24472162 -1.1644355 -0.36451793 0.85049284 -0.28659928 -0.7107399 -0.2540402 0.34660453 -1.0640804 -0.7392087 0.58298725 0.1837141 -0.13895303 0.40281847 0.31914577 -0.3971727 0.011737 0.36440605 1.5284492 -0.453636 -0.25610837 -0.7479638 0.82687527 0.45152694 0.958311
('배','Noun') -0.10530802 -0.42244422 0.87312007 0.029507032 -1.2829944 -0.20598198 -0.10590913 -0.44213262 0.023853196 -0.09544009 0.2180717 0.3122148 -0.64597315 -0.2001174 -0.029268438 -0.54427904 1.0966271 -0.18860844 0.9295198 -0.60205084 -0.511426 -0.7378095 -0.49883112 0.6001207 -0.48059958 -0.49531925 -1.183836 -0.51538205 0.7084768 0.18031298 -0.377055 -0.531125 0.39469555 -0.8572315 0.49061203 -0.79817456 -0.14847218 0.4766418 0.6989592 0.27075255 0.4586074 1.0541141 -0.034072958 0.42152238 -0.1309591 -0.66016555 -0.087996855 1.166164 -0.4881702 0.21857321
('퍼센트','Noun') 0.24601434 0.4238027 -0.706079 0.8203504 -0.30706912 0.3606989 -0.7814044 -0.40447578 0.5453109 -0.2170519 0.82181925 0.4138046 -0.65631706 1.0353035 0.65913594 -0.36461225 0.09089343 -0.6180864 -0.08943837 0.21395786 0.51425225 -0.10908557 -0.9099694 0.35743192 0.41370755 -0.7965362 -0.51533026 0.587349 0.21602263 0.42684308 -1.2416308 -0.5336177 -0.89398426 0.17333154 0.61220956 -0.77970076 0.919533 -0.22854096 0.18668622 0.45801932 -0.071410604 1.4914678 -0.8311835 1.1021868 -0.83051974 -0.1100687 0.7426885 0.5740811 -0.15062849 0.8949301
('당','Suffix') -0.42047513 -0.60680753 0.016465895 -0.7141888 -0.1376557 0.86177725 0.43299285 0.49141103 0.622794 -0.695249 0.4932482 -0.7943747 0.06634259 -0.11425264 0.40583956 0.85161054 -0.25770795 0.71688336 -0.30829614 -0.31783256 -0.31785136 -0.4570282 -0.73112375 0.028892213 0.81714386 0.21994653 -0.2360883 0.7201406 0.4106393 -0.71964633 -0.02204539 -0.19178571 0.114755645 -0.62950087 0.0716845 0.14895333 0.2844375 -0.06546849 -0.12844913 -0.22160304 -0.72016656 -0.31513074 0.67390895 0.2506712 0.7695374 -0.8843165 -0.3073025 0.57854104 0.2788372 -0.41378704
('성','Suffix') 0.32127896 -0.46736965 0.13834831 0.6977722 -0.6319751 0.061522294 0.21600495 -1.0140508 -0.5989465 0.8273399 1.0858015 -0.78388965 0.5106198 0.14840825 -0.2896163 0.66828436 0.0753495 0.7140037 0.15884037 -0.45051762 0.82350546 0.37645623 0.2538667 -0.10399081 -0.1672059 -0.22004457 0.29558182 0.097969644 -0.206384 0.14311898 -0.3056113 -0.067104846 -0.8291217 0.6018394 -0.42985776 -0.43653437 0.57077456 0.26305935 -0.4877992 0.6164034 0.2532562 -0.16385828 0.6147723 0.53381336 -0.24956037 0.083833076 0.12662978 -0.42592856 0.46433705 -0.2666225
('개정','Noun') 0.4746672 0.5978151 0.84342027 -0.74449027 -0.9964796 0.51689446 -0.65147996 0.08716094 -0.1920398 -0.35136747 0.5124137 -0.24218535 -0.61870944 -0.30399835 0.16171189 -0.13373224 0.79292387 -0.70431036 1.2340667 -0.15865543 0.022672608 0.12696081 -0.65027964 -0.3786735 -0.5100875 -0.13043009 -0.91925204 -0.21723479 0.8682483 -0.26474 -1.1071937 0.13652532 0.3418241 0.3868951 0.38721955 -0.50184 1.0375663 -0.104555264 -0.38202125 1.1372085 0.25407642 0.25919256 -0.019153254 0.2568291 -0.2978715 0.12310843 0.22147928 -0.39404526 -0.9249063 0.57479054
('반','Modifier') 0.64046353 0.10701916 0.4277821 0.40207422 -0.19531173 1.0441703 0.43761718 -0.47478417 0.24727544 -0.31273857 -0.70335394 -0.48830512 -0.45705277 0.2667705 0.15095256 -0.5256732 0.3140569 0.5130372 -0.52909034 0.6519556 -0.7212164 0.60816973 0.64627635 -0.20066294 0.4352299 -0.3409859 -0.46224144 -0.73075145 -0.8274132 -1.039887 -0.046998464 -0.322284 -0.76331425 -0.59772056 -0.10577762 -0.46041787 0.2986337 0.37556437 -0.62626976 0.032028824 0.8281679 0.44037753 -0.09527605 -0.20089962 0.63960993 -0.908777 0.46786362 -0.1286067 -0.2826708 0.84390223
('성적','Noun') 0.4682379 -0.325143 0.043403905 -0.16601412 -0.4926629 0.16039325 -0.16940853 -0.628859 -0.3627156 0.1805278 0.29204878 0.20321785 -0.33869427 0.5972339 -0.4743425 -0.18428457 0.98897624 -0.22387299 1.0216686 0.044826705 -0.7730205 0.37472725 -0.6601469 0.33806428 0.5590021 0.3103454 -0.0798313 -0.20226322 0.5466419 0.22743839 -0.70394886 -0.26672783 -0.48092252 -0.4225671 0.2698851 -0.15451565 0.18344061 -0.58712995 0.84728146 0.13753277 0.23405963 1.1915145 -0.3249196 1.1035 0.61183566 0.013097169 -0.20730461 0.35824892 -0.30674744 0.41162378
('설명','Noun') -0.45744267 0.16398032 0.86184806 -0.1929753 0.08255298 -0.059842292 0.16430768 -0.64391494 0.69391793 0.33176273 0.35223523 0.12816356 -0.47835818 0.7090777 0.40924534 0.15166812 1.2179153 -0.4431332 -0.15948461 -0.64512324 0.004975176 -0.2118135 -0.35090694 -0.70479006 0.5078061 0.13375211 -0.0029590954 0.30726385 0.3354788 0.18696286 -1.381342 0.22168219 0.089624256 -0.5432296 -0.1536781 0.032725114 0.20873515 -0.11358743 0.49917218 -0.25075614 0.16192749 0.8133898 0.4086567 1.0048288 0.05923316 -0.35330278 0.6002165 0.8343282 0.16218868 0.8480977
('안','Noun') 0.009179615 -0.41123644 -0.21531443 -0.43718895 -0.90878916 0.68067336 -0.027550671 0.07314909 0.016485596 -0.70647866 -0.08382 -0.05658009 0.1697207 0.88710576 -0.8040595 0.3429965 1.3236773 0.3448574 -0.07235822 -0.14614041 0.2788152 0.34543452 -0.3838226 -0.1752663 0.94559485 0.17947288 0.18335311 0.7549471 0.3792825 -0.2143185 -0.88756984 0.20275253 0.15310042 -0.51973814 0.33491173 0.33489242 0.5742738 0.018553026 0.28203487 0.27399787 0.896398 1.1874461 0.07160698 0.8811586 0.3176611 -0.7066472 -0.6823827 -0.22074074 0.3329372 0.11025839
('평가','Noun') -0.31804082 0.56121653 -0.098503605 -0.1356602 -1.0592071 -0.6285277 0.36250463 -0.4602281 0.006846357 -0.027689807 0.10562411 0.3263638 -0.37009147 0.13764991 -0.47494733 -0.094498284 0.556958 -0.013435903 0.39262214 -0.8609668 0.35833645 -0.78054 0.11445824 0.31192434 0.24933931 -0.57053727 -0.7085313 0.3612713 0.29590487 0.0442578 -0.74206084 -0.22495145 0.43349758 -0.051799208 -0.46457005 0.3927304 0.6879586 0.13276805 0.66261727 0.8179647 -0.65948147 1.1675088 0.3106132 1.0369327 -0.5749613 -0.33528858 -0.5933529 1.0228454 -0.3843153 0.45301527
('준비','Noun') -0.71140635 0.39791918 0.600849 0.49387807 0.027246855 -0.44885972 0.099534295 -0.5050571 0.43442115 -0.1914982 0.3320604 0.37781316 -0.030548047 0.9591144 -0.3001023 0.35908434 0.24036048 -0.8317574 -0.22220199 -0.86940354 0.09633942 -0.3160254 0.24849677 -0.66022474 -0.32271928 0.1750077 -0.709164 -0.03987746 0.89886445 0.3880511 -0.39073917 0.061906446 -0.06356801 -0.86321545 -0.34467524 0.2572879 -0.08144397 -0.63149285 0.5339378 1.066404 -0.74796057 1.4214768 0.45596537 1.324679 0.41565222 0.47512844 0.121596694 0.6274546 -0.4999802 0.66753066
('개인','Noun') -0.501728 0.11872192 0.20893672 -0.033212356 -0.78757954 -0.058134034 0.43250927 -0.4985264 0.6828574 -0.29213032 -0.09130301 -0.22003396 0.46189094 0.09201125 0.47333625 -0.21761484 0.6257169 -0.21310861 0.08798968 -0.6673501 0.019684363 -0.020841278 -1.0141119 -0.21683644 0.5743458 0.21115382 0.036520086 -0.12009203 0.5783331 -0.2793685 -0.7474001 0.18455896 0.44118407 -0.40126336 0.13668549 0.1837559 -0.5617556 -0.7125834 1.0167705 0.76961505 -0.15861385 1.5307194 0.27023065 0.35660154 0.12125855 0.54681396 -0.026476687 0.47831526 0.22527614 0.570659
('난이도','Noun') 0.014703907 0.3485912 -0.36326087 -0.3827475 -0.3920303 -0.0076597747 -0.89273375 -0.18567584 0.666904 0.13899381 0.57661355 -0.3587406 -0.27405927 0.18087482 0.5320587 0.64092356 0.68639916 -0.2771599 0.42538166 -0.5185573 0.39109942 0.31933698 -0.64285654 -0.020159367 -0.39760226 0.15466611 -0.33266246 0.18001655 0.45836538 -0.22801472 -0.061403695 0.5664257 -0.79749405 -0.4145188 -0.9173604 0.4572538 0.7088659 -0.8388904 0.69833034 0.5913852 -0.3332521 1.6897914 0.28398028 0.67357177 -0.10678232 -0.018248042 0.55917186 -0.14801957 0.2634209 1.5122709
('한번','Noun') -0.57487917 0.11460467 0.17493932 -0.4971123 -1.1187414 0.12154616 -0.5144381 -0.053377006 0.35110393 0.32853466 -0.12880252 -0.30763683 0.25480258 0.37274548 0.6713285 -0.20304818 0.67186666 -0.22420044 0.092555985 0.15854794 0.028637344 0.54705954 -1.1184425 -0.6706094 0.10447156 0.31871256 0.034719113 -0.5318469 0.7446818 -0.6237254 -1.0711982 -0.18057604 -0.645963 -1.1390991 0.2964359 -0.30995387 0.5630958 0.5338964 0.106144056 0.66372 -0.60793686 1.0273874 -0.12732372 1.1959243 0.68303293 0.048175346 -0.09948529 0.29015416 -0.52135503 0.5115501
('꿀','Noun') -0.73268455 -0.41796803 0.3985997 -0.9325848 -0.21108812 -0.3651154 -0.7092633 -0.24525002 0.7144802 -0.18782578 0.040980216 0.08197416 0.56616986 -0.055903014 -0.61682 0.5303479 0.38212693 0.6056743 0.16903214 -0.7483937 0.2253479 0.18000047 -1.002009 -0.2855795 -0.38079417 0.41131666 0.25285086 -0.2300102 0.5967185 -0.7867126 -0.32726017 0.36868113 -0.058667973 -0.065428846 -0.050216414 0.07790103 0.77027863 0.1765495 0.27232686 1.1318082 0.15676254 1.5252649 -0.4835994 1.0910618 0.60198694 0.2983052 -0.61913663 -0.054191448 -0.20081228 0.81008226
('집중','Noun') -0.79197925 -0.051882263 0.54461133 -0.39860114 -0.02642173 0.6048465 0.46122512 -0.16384944 0.21247944 -0.20605925 0.62821096 0.13649812 0.24151641 -0.14695835 -0.429473 -0.23701411 0.5453322 0.31175566 0.39034873 -0.52798027 -0.5388738 0.6195959 -0.7917044 -0.5949061 0.4039203 -0.55556333 -0.088836074 0.2354419 0.11537204 -0.21348444 -1.199849 0.20158994 -0.22376637 -0.4143609 -0.3504085 0.604809 0.09107862 0.17193641 0.72225016 -0.46248698 -0.13305148 1.4335563 0.6885053 0.55674005 0.2889429 -0.32513866 -0.39449733 0.39522603 -0.62168074 0.2966656
('교재','Noun') -0.766019 -0.74662817 0.6502979 -0.33991355 -0.99389344 0.6757316 -0.72970974 -1.0358452 0.66124123 -0.92328423 0.6524251 -0.1313149 0.7338553 -0.39561665 0.3197606 0.20651959 1.2312543 -0.38756835 1.3747008 -0.33024058 0.55711454 0.66978276 -0.7514842 -0.5671832 0.27830645 -0.11590394 -0.07264286 0.89819384 0.77309513 0.3154189 -0.6259905 -0.29946136 0.15723377 -0.056909677 -0.29584345 -0.3845351 0.46571317 0.06366599 0.7061062 0.7916024 0.362215 0.569534 -0.46208596 0.43274748 0.2276361 0.4996582 0.4944529 -0.02947595 0.4149416 -0.15380761
('기간','Noun') -0.3960304 0.2895541 -0.4035365 -0.061124444 -0.42511067 0.1688305 -0.03573158 -0.79357743 0.11165405 0.049406204 0.5314864 0.5033083 0.45043173 0.80094284 0.2785387 0.07265476 1.1352733 -0.067518406 -0.018738361 -0.6010513 0.47015157 -0.5300811 -0.4732651 -0.6472737 -0.39216676 0.6410262 -0.21216886 0.80509114 0.81493926 0.26061118 0.064437725 -0.29787737 -0.34585094 -1.1420746 -0.5682631 0.08657125 0.16130947 -0.8343425 0.4289612 -0.2098585 0.7934203 1.3351611 -0.38850653 -0.38075265 -0.52123165 0.21599236 0.752657 0.95284694 0.083655134 0.8749455
('다음','Noun') -0.54700303 0.6784984 0.1544848 -0.3322263 -0.6675707 0.37760848 0.78058916 -0.53570294 -0.5787169 -0.429574 0.62411284 0.07219071 -0.35541067 0.76580167 -0.4057783 0.27424267 0.46768495 -0.5654951 -0.18108599 0.24304447 0.29439285 -0.41088387 -0.6305182 -0.1535926 0.33023313 -0.17484269 -0.9736407 0.29175133 0.9973001 -0.2467916 -1.003618 -0.6604064 0.6467889 -0.29582873 -0.024656309 -0.28038183 -0.021309493 -0.70110476 0.455003 0.69143945 0.44943526 1.0769587 0.18319617 0.20610376 0.27520007 0.285534 0.2461962 0.32110387 0.8425019 0.042326346
('기준','Noun') 0.38932174 0.31682065 0.7141233 -0.2518851 -1.0173208 0.59050673 -0.012602923 -0.37378597 -0.005374204 -0.25973457 0.6848345 0.24825454 -0.74943984 -0.42197955 -0.07629396 -0.5241509 1.074039 0.71913755 1.1553661 -0.72083735 -0.61144316 0.039406892 -0.86558574 -0.6829897 -0.44730544 -0.1643266 -0.2017795 -0.55697596 0.98206043 0.4213734 -1.1405753 0.33586764 0.4203645 0.18707924 -0.5292995 -0.07523022 -0.18471101 -0.7061996 0.84132123 0.22208495 -0.26949117 0.17269982 0.9320885 1.1502128 0.82729554 0.5442754 0.14629795 0.14666682 0.35227337 0.24307458
('가지','Noun') -0.46711844 -0.57252586 -0.45034683 0.25390074 0.28852493 0.66775095 -0.27428573 -0.86754864 0.93608725 0.56375664 0.3746514 0.59022415 0.5270152 0.23189104 -0.7659228 0.7029062 1.2018787 0.23273525 0.7051577 0.28136116 0.5368263 0.32365724 -0.5618255 -0.8173031 0.38272214 0.30046195 -0.16882093 -0.04370698 -0.55801344 -0.7789176 -0.7766164 -0.94941825 -0.3130193 -0.6095705 0.27846697 -0.8052228 -0.6303125 -0.59342 0.08627087 0.9796004 0.43032882 1.368851 -0.48780078 0.98723227 -0.64118683 0.12757224 -0.55428064 0.038670626 -0.14566378 0.29916194
('요약','Noun') -0.728049 -0.26478797 -0.43383625 0.3267224 -1.1478062 0.63937664 -0.20868571 0.22082095 -0.39371094 0.15226777 -0.16800696 0.4939972 -0.5152425 0.47440076 -0.23452036 0.6768064 1.3681271 0.43281427 -0.09444524 0.09039829 -0.88433564 0.24638847 -0.45908982 0.14235754 0.7881856 -0.59199333 -0.10476412 -0.051364042 1.185961 -0.59408647 0.2212248 -0.49157757 -0.48546934 -1.1561235 0.04577596 -0.46838093 -0.29401225 0.49850842 -0.30131754 0.15340854 0.093659796 1.5976887 -0.5669513 0.8250181 0.23305084 -0.38699797 0.48792726 0.92823154 -0.44414222 0.38840058
('한글','Noun') -0.7872531 0.40784636 0.6705871 0.69232315 -0.22906177 0.16694517 0.5181151 -0.6950195 -0.2911337 -0.13052464 0.24609362 0.19415507 0.76463455 0.20626019 -0.3612171 0.6385559 0.8918191 -0.15962254 0.8993917 -0.8671826 0.21654634 -0.16532885 0.23221336 -0.5572158 0.7216254 -0.2884554 -0.4145926 -0.7376927 0.7351961 -0.26987287 -0.21234977 0.058023065 -0.9406922 -0.006428363 -0.1263897 0.20352063 0.11384952 -0.6178282 -0.010915937 0.9370049 0.1887877 1.4402097 -0.058567055 0.3925714 -0.26411062 0.820573 0.48471892 0.8969771 -0.39040118 0.29797536
('레포트','Noun') -0.4035449 -0.64360946 0.7027364 0.48098585 -1.0078855 0.46745858 0.0049849404 0.13383052 0.8290835 0.06801768 0.97001445 -0.09687798 1.0070181 0.814085 -0.1846045 0.48621854 -0.07411659 0.44592756 0.8838105 -0.30260056 0.20675205 0.20372805 0.49944547 -0.39328054 0.236863 0.11062819 -1.0359827 0.69271886 0.30505812 -0.48284638 -0.6205445 0.17937133 0.19205646 -0.9826372 0.25462312 -0.5367271 0.765618 -0.5639312 1.1618247 0.6292837 -0.27372932 0.5035946 0.39961016 0.6894879 0.4781862 -0.033780243 0.7092583 0.012353236 -0.4465839 0.6594431
('코딩','Noun') -1.0045277 -0.6883417 -0.58157605 0.32336745 -0.6752913 0.3085358 -0.37586698 -0.14473325 0.04354868 -0.6487405 0.08518623 -0.3783613 0.23586027 0.6989058 -0.35478753 0.6877404 0.11198324 0.6140643 0.6559252 -0.9152661 -0.09550224 0.23075795 -1.0867817 0.15772001 -0.5631099 -0.49500018 -0.9570333 -0.5879049 -0.053663876 0.5517055 -0.32750687 -0.20671417 -0.38857606 -0.8303464 0.13869739 0.0491999 -0.1298824 -0.9132043 0.98316246 0.027567007 -0.42684478 1.1124457 -0.07071029 1.2397027 -0.5756943 -0.11845673 1.0330281 0.8049918 -0.97016174 0.8710239
('북','Noun') -0.04271286 0.18890695 -0.08491722 -0.030053379 -0.5727298 0.034544997 -0.8626158 -0.20117456 -0.09941231 0.30863026 0.27939305 -0.12672846 -0.15031256 0.18416776 -0.07137942 0.24028237 0.8083332 -0.62057686 0.29652458 -0.4713286 -0.05102042 -0.39372885 -0.47682956 -0.58818704 0.9758262 1.1053203 -0.15595883 -0.74168086 1.2436057 -0.24415295 -0.61278236 0.90626925 0.069876134 -0.14282036 -0.6656548 -0.57781047 -0.4033419 -0.70780444 0.14925353 -0.3223281 -0.15785241 1.6082354 0.30760035 0.38792098 -0.18946029 0.5450229 0.79409033 -0.17994393 0.9224892 0.7066821
('학부','Noun') -0.8989516 0.48811543 0.43813217 -0.27253494 -0.3741066 -0.6062347 0.040680416 0.517275 -0.34808195 0.37790555 -0.23477975 -0.59045154 -0.46211404 0.13014387 -0.5843287 -0.273687 0.12235933 0.14446965 1.3066993 -0.4422996 -0.16371757 0.14199479 -0.028341409 0.21100996 0.7964594 -0.09650393 0.13573445 -0.6743547 0.4676904 -0.63959026 -0.9114576 0.30345166 0.887091 -0.90338784 -0.19449045 0.59724694 0.1832623 0.26296842 0.031503547 0.4174286 -0.20736405 1.6606336 0.3350741 1.4949763 0.78873706 -0.7351566 -0.35901436 0.40295303 -0.26641756 -0.08234628
('추가','Noun') -0.32956496 -0.23814565 0.778664 -0.25647822 -0.8288646 -0.514537 -0.19699895 -0.67848873 0.68753034 0.5256319 0.0040617394 0.40211326 -0.4537595 -0.029956691 -0.20154536 0.7489656 0.76600486 -0.09063755 0.91721326 0.1721586 -0.14969124 -0.41388842 0.19860163 -0.75501245 -0.16811389 -0.20499454 -0.7132355 -0.19951278 0.661122 -0.5925219 -0.39073345 0.7592915 -0.076374546 -1.1974043 0.3966071 -0.64161295 0.15513594 0.30564705 0.80570614 0.6104888 -0.5310146 1.507841 -0.19378357 -0.1927479 -0.31169686 0.13667001 -0.44398177 0.13561514 -0.184362 0.34010884
('팀','Noun') 0.50557303 0.12519881 0.75518847 0.14238504 -0.6323584 0.6666798 0.32848105 -1.0146759 0.04269788 -0.6659304 -0.14479467 -0.47975272 0.7087962 -0.20831174 0.33603075 -0.17126514 1.007143 0.5200711 1.1935743 -0.65193266 -0.37414902 -0.4089164 -0.9870259 -0.579601 0.35457307 -0.53344357 0.29348657 -0.5969663 0.080230355 -0.44862226 -1.0192497 0.82259 -0.055851743 -1.1769376 -0.5515045 0.49099076 0.262842 0.59333223 -0.22937708 0.048749097 0.88564897 0.9635813 0.10222919 0.47359058 -0.21406874 -0.60866886 -0.4009483 0.22624952 0.055624973 0.30379885
('개론','Noun') 0.9854429 0.43557352 -0.7683601 -0.65312105 -0.46981385 0.7690098 0.3205424 -0.9626704 0.04660106 0.354444 -0.45942637 -0.65223706 -0.07373864 0.34751436 0.47925764 -0.5160336 0.50493383 -0.53180397 0.08329694 -0.48638895 -0.3394122 0.36519736 -0.09828431 0.2875225 1.0093142 -0.5720105 -0.90789396 -0.2123708 -0.7036767 0.17929578 -1.1712729 -0.086307414 0.48582578 0.2482371 -0.925121 -0.90186244 0.61162555 -0.47533828 1.2026007 -0.10864224 0.075047195 1.7750881 0.2240487 0.589692 -0.06893929 -0.67905396 0.81828403 0.95060295 0.07940008 0.749056
('법','Noun') 0.26658422 -0.5264739 0.6182892 -0.1493035 -0.79614484 -0.6226156 -0.59662837 0.025112063 0.32536644 -0.5843367 0.94414777 -0.28035882 0.32634443 -0.36864346 -0.09774501 -0.5522919 0.6131305 -0.88339114 -0.33271024 0.13781607 -0.05837908 -0.2546578 -0.8843382 0.46369165 0.68799025 0.35321957 -1.0080488 -0.47667456 0.92109334 0.4739875 -1.1458781 0.01930112 -0.058317803 -0.5687054 0.19408879 0.0932858 0.78608364 -0.51187444 -0.45901754 0.6049539 0.44102255 1.2880659 0.4202762 1.1052285 0.43268853 0.15196276 0.47615084 0.7239108 -0.0662145 -0.022892352
('80','Number') -0.43157074 0.5735658 0.70217836 -0.64663243 -0.07360893 0.5849917 0.37526113 0.33740294 0.58721936 -0.0075974027 0.7169581 0.37763408 0.5318803 0.84766716 0.04196723 1.2308971 1.0936548 0.4920617 0.9277437 0.5678946 -0.5433081 -0.5007901 -0.30867946 -0.62315685 0.20788021 0.40888938 -0.001237263 -0.6000859 0.691768 -0.48646507 -1.0692211 -0.17449762 -0.051762935 -1.1754644 -0.42580387 -0.2791408 0.42617306 -0.5475682 -0.34547782 1.089741 -0.31686875 0.8066858 -0.63060427 0.3064764 0.9624196 -0.56592786 0.79437995 -0.25822625 -0.22504053 0.20630544
('심','Noun') 0.3985957 0.7411775 -0.88504356 0.4665117 -1.175919 0.15816428 0.7577456 -0.5288941 0.2436753 -0.53320956 -0.25046575 0.34839213 -0.351713 0.8254829 -0.78162867 -0.5990092 -0.18236065 -0.7405824 0.5348569 -0.6983372 -0.489351 0.021881303 -0.36708575 -0.11034329 0.94595814 -0.95422345 -0.96819675 1.0030122 -0.42186913 -0.22046183 -1.0242573 -0.190132 -0.10678074 -1.0234718 -0.073038556 0.8926742 0.93836665 0.15070862 1.2089232 0.79139954 0.86550033 0.25713786 -0.2546341 0.5640561 -0.45762026 0.527409 0.4666757 -0.55948156 -0.27189237 1.0963157
('실','Noun') -0.4351481 0.14890593 0.09813106 0.8726225 -0.54152656 0.8862742 0.5185767 -0.8740839 0.45712304 -0.5864116 1.0282027 0.7831165 0.61921936 1.2239681 -0.9151716 0.13173972 -0.020391107 -0.83689713 1.0812119 -0.6744702 -0.27738702 -0.69377357 0.11606881 -0.4839227 1.0853336 0.37032965 0.64944404 0.3740067 0.35237285 0.15923768 -1.0208244 0.48027056 0.14355564 0.46722162 -0.25962773 -0.9534118 0.4927006 0.10913712 1.0917199 1.0448489 -0.6343017 1.1731194 -0.2586745 0.24916789 0.9085965 -0.36275387 1.0584579 -0.17343195 -0.6968348 -0.50851154
('200','Number') 0.84169 -0.5988077 -0.1894419 -0.03222508 -1.1365346 0.13144825 -0.940593 0.28574273 -0.5335609 -0.34442437 0.73625636 -0.76653445 -0.59662265 0.071480475 -0.44645473 0.5873343 0.7050358 -0.41082358 0.12541448 -0.041452285 0.25396007 0.26147664 -0.36086717 0.3447795 -0.14185113 -0.6185531 -0.45903522 -0.0062936847 -0.36760938 -0.048641037 -0.93495286 -0.5146909 -0.7570106 0.12384477 -0.16513345 -0.47218436 0.9721976 -0.7719416 0.2168364 0.8427749 -0.45861968 1.2813375 0.8923695 1.428456 0.011080859 -1.0556005 0.5688612 -0.12600626 0.9033873 -0.111862235
('권','Noun') -0.6878175 0.09439157 0.5531479 0.45274356 -0.283579 0.84019774 -0.7614536 -0.11434323 -0.046473246 0.5831598 0.52654624 -0.7374037 -0.27636683 1.248719 -0.29536143 0.021454414 0.609683 -0.24941717 0.9317259 0.4299593 0.32777122 0.59471965 0.55974656 0.0037662117 -0.1871654 -0.17872806 -0.88546634 0.41959074 0.6732131 0.435058 -0.6429671 0.76548475 -1.085564 -0.24814612 -0.4858253 -0.016452987 0.28708065 0.19976076 0.10766297 -0.14662763 0.3791853 1.5851272 -0.07769043 0.98369586 0.37751716 -0.39957246 -0.8371348 -0.536523 0.954415 1.137348
('비','Noun') -0.50598794 -0.867582 0.38465518 0.015344793 -0.29085237 0.13187851 -0.23477034 0.19998083 -0.18473814 -0.8273149 0.5442826 -0.7398577 -0.2560441 0.23102456 0.3523924 0.23256174 0.78947973 -0.45124432 0.5218409 -0.90316427 -0.9812998 -0.097828895 0.3625022 0.016377043 0.03150084 -0.8204852 -0.5407525 0.9832626 0.2755252 -0.6928469 0.07868026 -0.6911262 -0.825042 -0.96101534 -0.9636506 -0.42129907 -0.31706214 -0.9044485 0.24372414 0.76997995 -0.21325724 0.97013927 -0.31472832 0.26529878 -0.10392995 -0.38070214 0.62868357 1.0294192 0.57091725 0.5148759
('해석학','Noun') -0.4727686 0.5560867 -0.7515192 -0.034316245 0.02758155 -0.0054009785 -0.08659439 -0.24240763 0.2494301 -0.5877717 0.9126705 -0.34054723 -0.11282698 -0.3680265 -0.56409293 -0.45583594 0.016982172 0.6811252 0.68018126 -0.69867754 -0.26432693 0.21781495 -0.17720287 -0.35037008 0.94215536 -0.4167877 -0.63443893 0.2814826 0.95714396 -0.93497956 -1.4461262 -0.7548687 0.77394193 -1.0361513 -0.55047685 0.6244219 -0.3022708 0.35093755 0.6853802 -0.7219087 0.63609546 1.3446746 0.3864815 0.23110549 0.61053884 0.86687464 0.9031642 0.50885665 0.025097372 0.80419564
('영','Noun') -0.95453316 -0.061170064 0.72746396 0.56823444 -0.055529304 0.25429654 0.4597921 0.44413695 0.39417553 -0.7840419 -0.35895446 -0.31243014 0.36879113 0.48693317 -0.3637205 -0.4443124 1.4738879 0.6265104 0.5597176 -1.0528487 0.48429593 0.69664 -1.0966077 -0.61458355 0.69238156 -0.122902416 -0.82008374 0.37173554 -0.031653263 -0.26867536 0.44909096 0.308281 -0.51957995 0.34327063 -0.53393596 -0.70649946 -0.2865386 -1.0620116 0.27767277 0.017723076 0.05749839 1.5225251 1.1488 1.2915288 1.0612097 -0.03070035 0.22983985 -0.09173712 -0.30990517 0.4642522
('프로','Noun') -0.098658904 0.5866104 -0.4649889 -0.98362684 -0.33492005 0.9544836 0.43785667 -0.5700807 0.4995663 -0.42926854 1.1083778 0.037721798 -0.06908443 -0.4280478 -0.33070424 0.05501305 0.03365387 -0.05108356 -0.4277515 0.5905137 0.73375547 -0.10062105 -1.2057695 -1.0304205 0.40743828 0.28504956 -0.21203652 -0.16951889 -0.23043634 -1.1082044 -0.08192519 -0.29424575 -0.33347064 0.15283161 0.17685655 0.21038651 1.0652814 -0.9065662 0.94286644 1.0973731 0.34648958 1.0995477 0.4210257 1.4630405 0.93087804 -0.54552215 -0.2155648 0.95282614 -0.2738609 0.8023045
('표','Noun') 0.34904352 -0.12521414 0.60216033 -0.7987494 -1.0382943 -0.33509544 -0.8777794 -0.74582624 0.9633489 0.028285893 0.83817244 0.6713856 -0.5023953 -0.16400038 -0.01829021 0.3174337 0.96772295 -0.9945153 0.48160258 -0.8939344 0.63762337 -0.5611233 -0.88405156 -0.5467939 0.18882434 0.47866118 -0.7854836 -0.2912524 0.08954243 -0.5619519 -0.3047284 -0.6514016 -0.18000221 0.42410082 -0.1467949 0.6977894 0.16615592 0.6240403 1.3484491 0.35283682 0.73542625 1.4505113 0.25875735 0.18490012 -0.5982051 0.0022675379 0.2998775 -0.63257957 -0.39696467 -0.14481644
('저','Determiner') -0.008061826 -0.1512221 0.12640439 -0.022437813 -0.1277556 0.48044342 0.55174613 0.11706959 -0.6364714 0.44146878 0.19130372 0.11031931 -0.4114881 -0.1864849 0.48472995 -0.01616756 0.2529953 -0.5890585 -0.4934407 -0.5221795 0.35906938 -0.8721682 0.92735475 0.9621299 -0.5768818 0.9602688 0.5125626 0.11965909 0.22578585 -0.3327632 -0.12332672 0.23293366 -0.31147578 -0.08604373 -0.4560904 -0.6130993 0.88529843 -0.64280516 -0.6489847 0.63975465 0.18127498 0.24475683 -0.67453414 -0.5439061 -0.45017505 0.029080462 0.2836549 -0.122436196 0.38386506 -0.54302603
('권','Suffix') -0.7769132 -0.14822955 0.060942203 0.062879026 0.17805786 -0.21424124 -0.12565094 0.42505452 -0.48352644 -0.13570647 -0.5871407 -0.8311146 -0.73647183 0.7681203 -0.04158913 -0.67053294 -0.09311496 0.44593886 0.5728445 -0.5928931 -0.11475118 -0.76483876 0.83391684 -0.21280627 -0.080585144 -0.20594203 -0.7332587 0.86008614 0.5584213 -0.26491594 0.4749055 -0.32627103 0.76613575 0.39798793 -0.24066503 0.4381032 0.20611283 0.16406803 -0.5655908 -0.29043493 0.70069695 -0.15800524 -0.760664 0.8915109 -0.39839226 -0.3743612 0.5193921 0.54084927 0.6982473 -0.041825548
('문','Modifier') 0.3714116 -0.52617854 0.7600782 -0.65480584 -0.46975735 0.4263142 -0.711263 -0.5043484 -0.55923617 0.66932845 0.43000674 0.29073817 0.6246803 0.3149375 0.15494305 0.49018312 1.0395348 0.4292473 -0.4829753 0.15895106 0.11785902 0.34496328 -0.09923221 -0.11244197 0.001016366 -0.5600307 -1.1523997 -0.3038385 0.3725824 0.81634206 -0.2713933 -0.8374942 -0.3925211 -0.43263724 -0.7936449 -1.0007254 0.64360386 -0.887673 0.72593033 0.3251221 0.14473441 0.24812742 0.49549675 0.44373193 0.3592841 0.45942062 0.9978856 -0.5930676 -0.356283 0.21823135
('워','Noun') 0.34918416 0.7122861 0.68508434 -0.7019191 -1.3999832 0.3641533 -0.33061138 0.29151326 -0.8225675 -0.17799997 1.2250168 1.0562236 -0.094368406 0.45115784 -0.00045269012 1.0236301 1.1426494 0.09177119 0.42457095 -0.14007305 0.5602867 -0.13175502 0.272893 0.46668598 1.2986648 -0.88663024 0.32729483 -0.7691156 0.36224917 0.48040557 -0.1217614 -0.29858264 0.83044654 -0.080656335 0.040383097 -0.0032860362 0.31499636 0.019796109 0.56183654 -0.43695328 -0.5690713 1.6216733 0.14294069 0.60733837 0.9085169 -0.941447 0.13414453 1.1580153 -0.50840825 0.34676814
('트','Noun') -0.35803398 0.5957882 0.23967315 0.17920853 0.46248627 -0.6430384 -0.6874507 -0.9503281 0.86318296 -0.49784538 0.6506065 0.7803796 0.55615133 0.60697424 0.7464999 -0.8949597 0.8949228 0.14208558 0.73755056 0.2364319 -0.45788154 0.90106654 -0.004836436 0.14116824 0.4027645 -0.74561507 -0.9081908 -0.45801562 -0.293575 0.263212 0.5509391 0.97203416 -0.15755726 -1.0101779 0.35309142 -0.33276367 0.674524 -0.829679 0.20266588 0.25376347 -0.79028434 -0.076702155 0.07745231 0.5617826 -0.82551587 0.14647998 -0.4074997 -0.025683338 -0.13247825 -0.21974477
('동안','Foreign') -0.124864265 -0.5750336 -0.14188573 -0.082242414 0.23992775 0.99923986 -0.23505647 -0.18622582 0.7755766 -0.54286 0.6979966 0.38019475 0.10661192 -0.9758305 -0.26705024 -0.15198135 -0.45884174 0.53005373 0.40093985 -0.22146955 -0.41524088 0.034301583 -0.72251886 0.27774945 -0.048444174 0.48997235 -0.7460792 -0.50017947 -0.8433957 0.65267944 -0.3841252 -0.21964362 -0.3152155 -0.78150594 -0.18876371 0.11258652 0.002789735 0.70427024 0.32728565 0.52589875 0.5758982 -0.37559524 -0.83407146 0.23777053 -0.07143471 0.8189083 -0.32169896 -0.19667117 -0.2872187 -0.9679762
('수','Noun') -0.6402621 -0.028330885 0.14269237 -0.4960539 -1.08649 -0.32525125 -0.44461033 -0.67559963 0.09977392 -0.36472353 0.6287406 -0.10546221 0.86026675 0.032168668 -0.19041558 0.25205535 0.49762794 -0.08627756 0.22683485 -0.2643462 -0.2892196 -0.16510181 -0.51591283 0.0050118063 0.12863593 -0.5216157 -0.44221634 0.2698231 -0.042734582 -0.32006636 -0.81172246 0.49518165 -0.33484682 -0.016558424 -0.11734185 0.031670533 0.38428885 0.0052895094 0.06471383 0.6127015 0.40051833 1.3774614 0.1169476 0.6539516 0.44292277 0.35937682 0.2596226 0.27709725 0.10556732 0.36503118
('로드','Noun') -0.82380027 0.10978517 0.005082219 -0.721843 -0.14401783 -0.24261461 0.42079654 -0.07210628 0.7459333 -0.6327708 -0.07179753 -0.56714034 -0.018526534 0.8130478 0.0214183 0.83029956 1.2082808 -0.7122721 0.3324063 -0.86687684 0.3171301 0.3520736 -0.4800251 0.12824991 0.51319605 0.46061453 -0.6978825 0.6979018 1.2269717 -0.223906 -0.46119705 0.12692705 -0.10614086 -0.22367595 -0.4972133 0.041245505 0.045312155 0.10283084 1.1655995 0.8871477 -0.3257017 0.7204134 0.8056486 1.0082744 -0.056258872 0.046731908 -0.37516373 -0.10036337 -0.68777245 -0.18557923
('중간고사','Noun') 0.13279307 -0.70419407 0.3525816 0.48066443 -0.20090441 0.7871973 -0.054078676 -0.24342696 -0.44774857 -0.27439153 -0.16216326 0.25369188 -0.054164287 1.1735876 -0.023589721 0.07122102 0.91726506 -0.53246987 1.135733 -0.35335675 -0.040636588 0.6469545 -0.78345877 -0.7006988 0.6163988 -0.64021516 -0.6053505 0.27938482 -0.08562401 -0.16198106 -0.18735172 -0.42452323 -0.3280269 -0.5212363 -0.59237343 0.04059974 -0.13401781 -0.5656107 0.6583291 -0.16406085 -0.01102074 1.0663543 0.048747886 0.96398807 -0.14652511 -0.33399162 0.42346287 0.6181304 -0.27376184 0.4203016
('추천','Noun') -0.7484039 -0.40710834 -0.2532471 -0.36782947 -0.40724105 0.39065382 -0.6496479 0.2379293 0.5793691 -0.33412898 0.65427375 0.019597737 0.27289796 0.38970518 -0.39167383 0.7186983 1.1242524 -0.3680809 0.4300375 -0.16287464 -0.20044479 0.22126016 0.13128915 0.31560293 0.7945736 -0.6704821 0.1422884 -0.018488482 0.5042723 -1.0042859 -0.17360294 -0.36444217 -0.044857584 -0.98787516 -0.156066 0.044826873 0.2912547 0.18301205 0.53872854 -0.030511292 0.7085607 1.0202177 0.36301702 0.48619044 0.3139491 0.28837436 0.4681794 0.86651284 -0.15969777 0.29194596
