1150 50
('적','Suffix') 0.09407088 -0.00045208365 0.7167646 0.065946236 0.465151 -0.5159653 0.5373511 0.8063909 -0.1919191 0.121637754 -0.23176496 -0.75278753 0.012322327 0.40711367 0.38213316 0.59491986 0.2223865 -0.58691335 0.31347144 -0.06592761 -0.111047074 0.42807078 0.39217418 0.38606364 -0.19564152 -0.225476 -0.28688288 -0.74662274 0.0513094 -0.23866504 -0.123078085 0.72576594 0.029206093 0.3560763 0.8358768 -0.42231268 0.52668095 0.5515222 0.55701053 -0.8747624 -0.32075456 -0.5097184 -0.35797372 -0.26706174 -0.15086722 0.66658115 -0.87336487 -0.30666116 -0.21617894 -0.10564654
('번','Noun') -0.6920293 0.7437838 0.0050925985 0.53396183 0.7422546 -0.77399606 0.26974452 -1.0837742 -0.77924246 -0.159447 -0.7018357 -0.5118831 0.42697635 0.077957205 -1.0080363 -0.7925598 0.47898626 -0.7430588 -1.0784911 0.7253244 -0.64804214 -0.17224848 -0.7176318 0.68396527 -0.1533397 -1.2761191 0.21505572 0.13416834 0.1398202 0.28909153 0.3425476 0.76869124 0.29319552 -0.36405542 -0.289634 -0.036065105 -0.19789258 0.70218444 -0.2190855 0.45607394 0.36630166 0.056542624 -0.42642057 -0.29679793 0.7975078 0.4303588 -0.45850605 0.10807049 0.70112556 -0.15293534
('개','Noun') 0.0077557815 -0.75513226 -0.871866 0.07648837 0.32304794 0.51087195 -0.21704774 -0.6226604 0.49814484 -0.20075698 -0.49710456 0.65789443 0.72194195 0.39880347 -0.18109515 0.68222123 0.640139 -0.6739185 -0.81541 -0.33188334 -0.6476487 -0.050802104 -0.041034076 -0.72148275 -0.81747055 -0.84103566 -0.12525183 0.38948658 0.34069338 -0.50022405 -0.6452516 0.98939925 0.28346202 0.3745795 -0.4108358 -0.58686996 -0.45949972 -0.3649351 -0.20990086 -0.4972886 -0.5004623 -0.7647775 -0.37341616 -0.88916886 -0.5326106 0.29933503 0.32777935 -0.09383769 0.1725792 0.6871734
('수업','Noun') 0.08938999 -0.6858168 0.87472546 -0.7246388 -0.41063112 -1.095935 -0.062031195 -0.5700254 0.41875285 0.7479188 -0.77096367 0.5414501 0.41350698 0.08252811 0.42263094 -1.045763 0.58761925 -0.1274706 -0.8831498 0.54730463 -0.085517816 0.71728015 -0.87689126 -0.15327093 -0.3762157 -0.540423 -0.04394384 -0.10263075 -0.4396333 -0.7641843 -0.081812285 0.81010723 -1.295046 -0.632779 -0.18489462 -0.22688703 0.35511976 -0.20271364 -0.19084653 0.57388276 -0.60205853 -0.7398643 -0.12334591 -1.0523516 -0.058485303 0.03433223 -0.58338684 0.067779884 -0.70890844 0.06943625
('점','Noun') 0.32381424 -0.32210013 0.49177307 -0.14093012 -0.05956168 0.063636675 0.096335754 0.40766373 -0.14388537 -0.35801524 0.39605382 0.61997527 0.6872169 1.0710119 0.24400301 -0.91345155 -0.46203282 0.43887052 0.4302581 0.5122783 -0.25449264 1.4711854 -0.49241295 -0.40339825 -0.45265022 -0.31183955 -0.3330192 -0.08008736 0.46276328 0.79837495 0.52841574 0.23846924 -0.46357864 0.36569718 -0.5801878 -0.5618679 0.6225928 -0.7238544 -0.11935564 0.3365511 -0.05842835 -0.48571324 -0.056209892 -0.3678217 0.8168427 -0.560516 0.17309669 -0.97415763 -0.36618066 -0.8049875
('2','Number') 0.7556027 0.5583218 0.75947726 -0.22736311 0.65301603 0.18864018 0.35811207 -0.8774613 0.81458145 0.7653868 -0.59184366 0.7464459 1.1532762 0.21434237 0.34595335 0.14544624 -0.24522354 -0.59205127 0.30173793 0.62033844 0.41345754 0.0015840271 -0.07371888 -0.23339638 0.2987509 -1.7578145 0.0016750302 0.27359414 0.16528817 -0.5538346 -0.9309604 -0.37796307 -0.28753102 0.6590499 0.8671616 0.38032123 0.35126895 -0.6719347 -0.2972899 0.80770516 -0.28227746 0.16383752 0.4554024 -1.1389916 0.15653473 0.05870157 0.087917484 -0.6766607 0.68131 -0.54641455
('교수','Noun') 0.22396639 -0.5542047 0.65508544 0.6122138 0.20457393 -0.6877708 0.241519 -0.2328275 0.90856665 0.45250812 -0.49185702 -0.20012349 0.25990748 0.087362714 -0.9971084 -0.40241838 0.58818 -0.38483584 -0.791974 0.87112015 -0.1648407 -0.43640077 -0.84938526 0.5423837 -0.7831743 -0.30788124 -0.7856147 -0.64363164 0.10473977 0.06588016 -0.008868009 -0.024565384 -0.8036608 0.55886286 -0.4241016 -0.9297046 -0.004280676 0.88524544 -0.2389246 -0.3968602 -1.1033622 0.031099929 -0.22873653 -0.8632236 -0.021515384 0.10587905 -0.5245654 -0.55296737 -0.5541121 0.577097
('시험','Noun') -0.7811742 -0.2649893 -0.058513783 0.08843707 0.9312791 -0.47632802 0.30695546 0.333598 -0.1509761 -0.3541857 -0.48271695 -0.06605304 -0.26076198 0.9701101 0.27149203 -0.990575 0.23654363 0.27334967 0.3705588 -0.45934284 -0.301588 1.3095573 -0.6903222 -0.4712691 -1.3767569 -0.2065806 -0.7687364 0.37980434 0.3630778 -0.42643717 -0.97451556 0.17130186 -0.66897696 -0.0971536 -0.60592616 -0.49630737 -0.41898295 0.11621812 -0.7970325 -0.4368985 -0.8655499 -0.7679443 0.7542615 -0.58106625 -0.46023062 -0.37027308 0.7205257 -1.4355439 0.60204136 -0.5307198
('강의','Noun') -0.63258016 -0.49459973 0.18517524 0.8132951 0.28864318 -0.57282585 0.20840289 -1.0876585 -0.45568022 0.03118398 -0.33608356 0.109897465 0.035754375 0.71353275 -0.51200664 -0.32671407 -0.6883848 0.7073492 -0.16881615 0.25968927 -1.0481186 1.1077918 -0.6730301 -0.53344756 -0.9114467 -0.66511047 -0.8784316 -0.6073838 0.5893843 -0.74079126 0.5621639 -0.3979707 0.37330267 -0.068311855 0.45485225 -0.9272369 -0.14217316 -0.2920731 0.12287247 -0.17949568 0.7840531 0.63572556 0.5056665 -1.1152006 -0.6202108 -0.900772 0.26788995 -0.59317166 -0.40173382 0.27928472
('문제','Noun') 0.3919436 0.9339366 1.2570839 0.04346863 0.21255676 -0.021173399 -0.17243966 -0.60321224 -0.8142028 0.70456487 0.41568547 0.98067087 -0.2746539 -0.28166816 -0.6531929 0.030310629 -0.54991066 -0.4659354 -0.77758384 -0.029939355 0.27023286 0.7606129 0.16750973 0.0025131004 0.08105803 -0.9658387 0.090192914 -0.32497787 -0.37963837 -0.1516446 0.22060193 0.37137347 -1.0309159 -0.14409092 -0.22751015 -0.15515454 -0.7194871 -0.37647998 0.75791293 -0.78420573 -0.48235005 -0.8633386 -0.38393027 -1.2636293 0.6074717 0.4644403 0.05007421 -0.8573134 -0.2223354 -0.3053261
('1','Number') -0.9511075 -0.8438432 -0.5654725 -0.46336904 0.83724624 0.68424845 0.44494212 0.067559734 -0.8093765 0.3334328 -0.42799148 0.20241205 0.779606 0.027867265 -0.2488659 0.3441181 -0.8736327 0.31377855 -0.105009265 0.32613423 0.6525297 0.28381371 -0.6962234 0.24711823 -0.5329233 -0.9906075 -0.94687593 -0.25166538 0.14395614 -0.76817274 -1.0153742 0.7306487 -0.57921815 0.85141087 -0.114888996 -0.8149129 -0.6646573 0.40904495 -0.0676028 -0.17992571 -0.3622852 -0.05017507 -0.35058153 -1.3086402 0.1735363 0.08764072 0.0038481208 -0.22238283 0.12823232 -0.4887232
('3','Number') 0.6265414 -0.23244165 -0.20078091 -0.3362753 0.84331447 -0.4662993 -0.4530817 -0.36435634 -0.56859374 0.45845437 0.7784375 0.5326765 0.8270632 0.13998443 -0.46646032 -0.26108515 0.8200385 0.23429778 -0.3067685 -0.53639376 -0.24046043 0.3961493 0.6623657 0.1912315 -1.1864266 -0.44797575 0.70814747 0.37230915 0.6128529 -0.27929646 -0.2646663 0.98785233 0.2973335 -0.28081694 0.7933395 -1.0167035 0.1885332 -0.19718753 0.79472774 0.40729663 0.04163485 -0.7458509 0.3568873 -0.10711074 -0.3391713 0.5556606 -0.6753266 -1.2977476 -0.65230817 -0.98685867
('이','Determiner') 0.53128517 0.9807465 -0.4193257 -0.80993795 -0.60914373 -0.18409012 0.15350103 -0.6642576 0.37655562 -0.7009485 -0.2469338 0.61147827 -0.21154547 -0.17730917 -0.023082735 0.006587613 0.89198077 0.6663727 -0.72249264 0.48035282 -0.2045142 -0.23875451 0.51502246 -0.06129576 -0.1230015 -0.19257495 -1.047029 -0.14761975 -0.0052646557 0.79237187 -0.029065734 0.010679634 -1.1398538 -0.29206833 0.06837623 -0.27125043 0.15023848 1.0048304 -0.8558845 -0.44233048 -0.28284955 -0.99590814 0.22654164 -0.84258205 0.6300435 0.4910429 0.41097596 -0.51439106 0.7249775 -0.23905687
('님','Suffix') 1.0014505 -0.3091724 0.14875376 -0.23690888 -0.16397503 -0.79077834 0.35078457 0.6652005 -0.44902143 0.54311347 -0.35823965 0.157685 0.19836655 -1.0129881 0.0049208603 0.4227087 0.09093996 0.40437883 -0.6440912 -0.4558596 0.42366007 0.44879776 -0.90872294 0.12490272 0.62866247 -0.005085804 0.30671066 0.4750673 0.80628324 -0.45638436 0.75042415 0.80639577 -0.5284253 0.3588764 -0.25402755 -0.4893201 0.2292782 -0.41034517 0.14174882 0.046055067 0.43848202 0.16264935 0.60416824 -0.389248 -0.34611067 -0.54790115 0.40669098 -0.20388225 -0.5761405 0.011504813
('과목','Noun') 0.5351366 -0.091151714 -0.21960105 -0.5863662 0.2910676 -0.63504684 -0.122292794 -1.0109222 -0.45004562 -0.14002085 -0.37597975 0.80296415 1.00104 -0.71075 0.5946735 0.7256342 0.6565221 0.08377353 -0.9492631 1.1073306 -0.63229513 0.66610426 -0.7362055 0.19861363 0.08446446 -1.2538837 -0.5764634 -1.0316378 -0.40318546 -0.833313 -0.79550654 0.8637791 -0.11484999 -0.30550778 -0.69433236 -0.6194222 0.2680953 -0.7181107 0.20769605 0.5484037 0.50770366 -0.83550537 0.7154226 -0.27158916 -0.7692169 0.6692472 -0.5342391 0.102777146 -0.44995221 -0.6800203
('시간','Noun') -0.52057236 0.84294283 0.015616262 1.0050797 0.58332455 -0.5844512 0.74983007 -0.6337209 -0.56888324 0.6312066 -0.31074953 0.023012854 0.8729682 0.20116106 -0.5676569 0.2574477 -0.04672926 0.47300905 -0.31635544 0.34590182 -0.5509396 0.77430224 -1.0452826 0.6436634 -0.9043247 -0.9839414 0.5789847 -0.10571149 0.20022392 -0.7574231 -0.59899837 0.07488301 -0.7935736 1.0332311 0.50646865 -0.70880884 0.43343976 0.23363586 0.09236785 0.013825193 0.35222208 -0.06837377 -0.104421906 -0.17252694 0.24017754 -0.29972127 -0.3848267 0.08860237 -0.21913671 0.5212932
('중간','Noun') -0.44047964 -0.15125763 -0.5143137 0.8666506 -0.66412884 0.58592033 0.43680173 -0.34560493 -0.2955066 -0.49998197 -0.2563261 -0.21871486 0.055671714 0.78919756 -1.1090107 0.09242606 1.1194118 -0.74768275 -0.23651172 -0.5742697 -0.72004724 -0.26877174 -0.94267446 0.417848 -1.1326839 -0.92138183 -0.3714417 -0.42068678 0.024494143 -0.30970445 -0.20789216 1.2077721 -1.0545907 -0.2660048 -0.29559264 -0.95741284 0.61133224 0.41766748 -0.4996377 0.8948639 0.10795824 -0.05198997 -0.16865556 -0.39332932 -0.5749563 -0.20534618 0.320611 -0.9713401 0.024859268 -0.65255404
('학기','Noun') 0.5341599 0.97441167 0.85018986 -0.48858055 -0.37096536 -0.28973788 -0.17204756 -0.29133782 0.8624522 0.08243927 0.6329239 0.5526134 0.05127338 0.46874285 -0.5869068 0.10580233 0.38923338 -0.48161986 -0.81404513 -0.13544315 0.13520257 0.9817119 0.014547098 0.47529107 0.1375628 -1.2504646 0.10896836 -0.64612556 -0.55448955 0.461988 -0.3163922 -0.3008323 0.57486457 0.3409546 0.33112335 0.215992 -0.9222283 0.25799817 -0.103307635 0.16008915 0.15875517 0.2853148 0.18951485 -1.480201 -0.4144403 -0.21145277 -0.65609175 -1.1430889 0.31080562 -0.08610341
('4','Number') -0.29933625 0.57108206 0.0067583877 -0.074773796 -0.55248857 -0.71346337 -0.87795705 -0.6122858 -0.98478556 -0.43350732 -0.48673582 0.4579893 0.84558094 -0.030870827 -0.055097308 -0.96476036 -0.13667813 0.6097765 -0.95505494 -0.25243688 0.71486527 0.18131086 0.824804 0.27104992 -0.8313385 -0.3903079 -0.6395772 -0.9216053 0.8854513 -0.33455 0.33597842 0.88025814 0.5851938 -0.23471299 -0.6176432 -1.143851 0.8023017 0.5738656 0.548889 -0.33601758 -1.0133694 0.17361556 0.517736 -0.92550695 0.29705927 -0.5134243 -0.28225905 -0.018329931 0.5015547 -0.7106802
('명','Noun') 0.6641035 -0.5924058 0.373902 -0.07891927 1.0642455 0.24568254 -0.66843724 -1.1452851 0.5022307 -0.1568735 0.24928258 -0.3579166 0.5719027 -0.24536327 0.5150815 -0.951054 0.7606875 -0.8953474 -0.7745947 0.37010312 -0.92465013 1.0297687 -0.7906878 -0.6711928 -0.5941318 -0.67781866 -0.12233903 -0.24666725 0.041528124 -0.2225872 0.22493148 0.9729835 -0.9309042 -0.3132555 -0.0026577436 -0.121026106 0.3989003 0.05162283 0.94167084 -0.8824927 0.06722125 0.2828245 0.81245446 -0.15398611 -0.3146588 -0.2892718 -0.6924979 -0.87713784 0.9079929 -0.8983656
('것','Noun') 0.23092523 -0.65147454 0.5203478 -0.0865823 -0.7870586 -1.202088 -0.6345751 0.42230177 -0.6141898 -0.7897863 0.5240961 0.7659861 0.18227398 0.84471154 -0.14877394 -0.64771074 1.0537724 0.335495 -0.21317528 0.7618972 0.6539157 -0.4076076 -0.14122164 1.0257448 -0.751176 -0.01793221 0.17811759 0.5123414 -0.36987934 -0.30882668 0.4689112 -0.49101612 -0.85353184 -0.57854205 -0.047731142 0.23008563 0.5112804 -0.4158258 0.9820504 0.18774611 -0.007280302 -0.15118873 -0.2890304 -1.1086793 0.76973176 -0.3186064 -0.40970305 -1.1108152 -0.043855414 -0.75256556
('과','Josa') 0.53937876 -0.671267 0.13650598 0.5560502 -0.36558786 0.19459406 -0.29266337 0.8333907 0.71845996 -0.9113742 0.27295354 0.072979085 0.054313276 -0.28941932 -0.28537512 0.80594146 0.076907985 0.043314777 -0.311168 -0.61515725 0.65110177 -0.18761766 0.09961547 0.65421367 -0.7126773 -0.85368854 0.6161754 -0.30969915 -0.81851315 -0.43735284 0.08647765 0.8609798 0.30966094 0.9457258 0.18076868 -0.4358987 -0.015233067 0.71459055 -0.3019982 0.055673916 0.25625598 0.1970149 0.5871967 -0.64999723 -0.06127455 0.11594816 0.84778243 0.86137885 0.54788613 0.30694002
('학점','Noun') 0.11429462 -0.53890014 -0.024289036 -0.4601196 0.14437844 -0.025780287 -0.34718108 0.3332676 -0.19207495 -0.16790505 0.46579486 0.78410715 0.090521276 -0.5049687 0.050301842 0.44404 -0.41145626 -0.03750759 -1.2102455 1.0451417 -0.044153832 1.2060795 0.58074933 -0.30243468 -0.30857232 -1.3500865 -0.10368893 0.038866594 -0.25863662 -1.151509 0.054669652 0.0014072696 -0.0718459 0.15976553 -0.86956215 -0.75871557 0.7093297 -0.21481632 0.43715638 -0.53540844 -0.9783898 0.6375601 -0.36640015 -0.76703376 -0.8298557 0.2944508 -0.04426876 -1.2714895 0.5016682 0.1833272
('전산','Noun') 0.23342296 -0.8267727 -0.38535154 0.8482688 0.35918504 0.36143175 0.9562384 0.12512805 0.3473731 -0.6619931 0.33155218 -0.18642776 -0.031391997 -0.37511694 -0.335706 0.2148566 0.49791253 0.19640595 -1.2606567 -0.4122374 -0.72402114 0.20591581 -0.59277683 -0.81534624 -0.47404155 -0.48587385 0.49337617 -0.8612652 -0.3348715 -1.0438429 -0.92080003 0.012376272 -0.75950754 1.0863401 -0.7230059 -0.91565406 -0.8016244 -0.25985494 0.5669805 0.35796148 -0.9044119 0.13491212 0.46051008 -1.3095336 -1.0038464 -0.39128944 -0.5293663 -0.14190036 0.49234164 0.5707753
('코딩','Noun') 0.26110408 0.76275116 0.88227504 -0.27768695 -0.848194 -1.092093 -0.44181806 -0.9198737 0.44694096 -0.4772078 0.4308697 1.0503132 -0.008906233 0.41596192 -1.0017338 -0.43770182 0.75461674 0.68819726 -0.39146155 1.0840284 0.7845297 -0.8260551 0.31915873 0.8368636 -0.49927917 -0.62120616 -0.5156398 -0.6023676 0.095285565 0.71461564 0.51104534 1.179987 -0.4780776 0.62873316 -0.5958271 -1.0637633 -0.81769013 0.847566 0.3514657 0.0027729466 -0.3612915 0.6118329 0.5545171 -1.2822695 0.62995833 -0.0479644 -0.040307354 0.30081046 -0.63444245 -0.12383029
('구조','Noun') -0.50642663 -0.6578802 0.6903362 1.0370164 0.43006727 -0.94728035 0.6516226 0.11819242 -0.63769567 0.31693396 0.0355992 -0.13509272 0.5550836 0.31345606 -0.55260044 -0.5884945 -0.8222797 0.5808702 -0.796772 0.35490763 -0.6174552 0.5582646 -0.8565794 0.07374834 -0.36158186 0.12629576 -0.54224867 -0.2964506 0.62192875 -0.10593531 -0.15390916 0.6807398 0.18227024 0.06483127 0.22770718 -1.3535657 -0.14666086 -0.07980914 -0.5696959 0.7652893 -0.0679193 -0.25079995 -0.055292904 -0.06549038 -0.67850214 -0.41760504 -0.7519763 -1.06747 0.24533126 -0.07299992
('10','Number') -0.14620033 -0.48095083 0.94184643 0.8612705 -0.38867888 -0.8605162 0.34873685 -0.06527694 -0.18175986 0.15179229 -0.5813408 0.10844252 0.71635693 -0.32894218 0.08551373 -0.64671403 1.1440005 -0.40535823 0.4348783 -0.4607371 -0.60345227 0.13701528 -0.75923 -0.3983453 -0.6565793 -0.7879513 -0.6884488 -0.2904165 0.8008484 0.51046705 -0.8873918 -0.58808553 -0.38657868 -0.15446952 -0.5439111 -0.09279177 -0.8323481 -0.23929973 -0.6049114 0.1630093 0.7111861 0.17586467 0.7093543 -0.858557 -0.9970595 -0.39002326 -0.086311385 -1.308541 -0.6322947 -0.05274137
('생','Noun') -0.028328365 0.40592188 -0.42557946 -0.1040735 0.32032117 0.44291702 0.9772463 -0.91494 -0.3775134 -0.15440479 -0.60320365 0.06498841 1.1128772 -0.36538196 -0.41151333 -0.36839366 0.6516346 -0.90683454 -0.84151626 0.094296664 0.33725798 -0.13793457 0.24919638 0.59338766 -0.5403431 0.3396133 -0.6700374 -0.8508828 0.17328334 -0.35455614 0.6420404 1.0226287 -0.41819736 -0.64723325 -0.56034863 -0.7638984 -0.28365237 0.24494931 -0.654634 -0.46573272 -0.5691904 -0.87238735 -0.63606215 -0.8190489 -0.44460636 -0.7973046 -0.5790419 -1.2177088 -0.37609702 0.21636806
('오','Modifier') -0.20654027 -0.503265 -0.3028923 0.8452301 -0.38713703 -0.43177557 0.71304893 0.013215071 0.5023915 -0.16803433 0.8173726 0.26688096 -0.57743275 -0.15745142 0.63823515 0.18922618 1.0514252 -0.36134833 0.211955 -0.46764773 -0.61514777 0.722263 0.56058365 -0.26058054 -0.7369422 -0.429041 -0.142575 -0.73592055 0.96692395 -0.55209744 -0.73323125 -0.5702452 -0.33056894 0.605687 -0.85311484 -0.050210916 -0.25937164 0.95778054 0.67131764 0.74811405 0.7801564 0.6506844 -0.44824958 -1.1226609 0.54217225 0.18119551 -0.87997115 -0.0022510835 0.5571182 0.8868124
('기','Modifier') 0.277839 -0.3490499 0.12450855 0.680828 0.7344162 0.35037532 0.61765885 -0.39704397 -0.010678395 -0.3995791 0.79248214 0.81496626 0.29951197 0.22483237 -0.08634769 0.6352984 -0.46006334 -0.09755272 0.5758942 -0.3547901 0.4907383 -0.16447318 -0.038178682 -0.12926191 -0.4053187 0.5668126 -0.030045811 -0.15520167 0.41970345 -0.6141375 0.17778556 -0.65246695 -0.07654441 -0.2528143 0.4905963 0.12849016 0.82202613 -0.34532928 -0.07856558 0.287874 0.83060366 -0.5268576 0.5748522 -0.5754531 -0.15511598 -0.23456006 -0.8421215 0.14144072 0.45305604 0.87781686
('말','Noun') -0.106503956 0.5334245 0.6203013 0.5903984 0.77157766 -0.27621245 -0.45158747 -1.2166116 0.20989923 -0.19860592 0.24660143 0.2682927 -0.32318497 0.638799 -0.04756642 -0.73357713 0.3861684 -0.7737279 -0.032945707 0.7870602 0.46246135 0.16141957 0.50418884 -0.0074372953 -1.0528231 -0.012457943 -0.21369162 -0.20297773 -0.3535135 -0.21588403 -0.87757254 0.13757782 0.35662702 0.037614185 -0.53440684 -1.2649963 0.7432222 0.44616878 -0.30865246 -0.16831794 -0.5770302 -0.205149 0.46909353 -0.69826233 0.40552387 0.9143803 -0.9523572 -1.1581831 -0.3792317 -0.30791664
('숙제','Noun') -0.71558684 0.7373171 0.58477116 1.0058235 0.52812046 0.18645945 0.8563793 -1.2089901 -0.053387467 -0.4931618 0.427771 -0.1351388 0.10294322 0.058216043 0.410871 -0.4158109 -0.6797276 0.88857245 -0.92985564 0.69105035 -0.41279823 0.36337647 0.34824833 0.49813253 -1.2306652 -1.4818743 0.34038574 -0.24177079 -0.26245192 -0.35542336 0.6016582 -0.44371548 -0.95875275 -0.62721795 -0.7353678 -0.70805925 -0.7936136 0.5249005 0.3171943 0.018123947 -0.09897755 -0.8230054 -0.766155 -0.34995484 0.48123273 0.4120763 -0.72239643 -0.31323883 -0.29606605 -0.08381139
('공부','Noun') 0.37583306 0.37025717 0.72635263 0.74868053 -0.005493945 -0.78920054 0.4607269 -0.15501657 0.95131934 0.09083804 0.5556081 -0.17192686 0.87555104 -0.68645954 -0.56906945 0.5633199 0.27131203 -0.52025735 0.051676527 0.18400313 -0.7006847 0.83220005 -0.436094 0.21031174 -0.5889322 -0.742368 -0.14494902 -0.51796347 0.36435112 0.06566736 -0.3008409 1.0638369 -0.54643214 0.6307471 0.46932146 0.24389753 1.0673354 -0.5208595 0.4581141 -0.8468542 0.6478601 0.2950855 -0.030516464 -1.2940727 -0.63771784 0.68866867 0.83217925 -0.7459497 -0.30248702 0.718359
('영어','Noun') -0.9004547 -0.45457733 0.12629928 -0.32155007 -0.532346 -0.9532668 -0.35811406 -0.57329684 -0.5545889 -0.07393371 0.08399868 0.2180342 -0.35751477 -0.26389164 -0.77938646 -0.4986856 0.4590094 -0.19147384 -0.47374347 0.76368237 -0.8890498 1.0549111 -0.05619592 -0.56789726 -1.1862288 -1.4529825 -0.11229802 0.3189616 0.5390185 0.16847965 -0.6997135 0.7705741 0.1651569 -0.5006758 -0.33266085 0.056346405 -0.107880875 -0.010808913 -0.68644273 -0.5782101 0.33893532 -0.015774406 -0.3656293 -0.8958415 0.5185862 0.7390759 -0.2522127 -1.0492165 0.22251844 0.516791
('하나','Noun') 0.6042133 -0.048660245 0.045309864 0.5014978 0.9370255 0.3472952 -0.585091 -0.36626762 -0.09780095 0.24405035 -0.51536155 -0.6384602 0.092177145 0.92262286 0.44850466 -0.35809475 0.0381095 0.38873258 -0.3677439 -0.046208814 -0.17973183 0.22979891 0.75868225 -0.16298212 -0.021005185 -1.3013744 -1.0109178 -0.089339204 0.71609885 -0.11267236 -0.91403055 0.57752746 -0.32929498 -0.29853067 -0.0247912 0.091593966 -0.53469396 0.24648552 -0.51490307 0.8265941 -0.2877789 -0.29703447 0.27823037 -1.3615465 -0.344117 -0.51848465 0.46759477 -1.3580648 0.46515566 -0.59498096
('점수','Noun') -0.43917558 -0.13155209 -0.6351672 -0.6645005 -0.12863418 -0.72300714 0.6310867 -1.157359 0.21912533 -0.70167756 0.87276065 0.69922465 0.7536537 -0.2087671 -1.0470117 -1.0251923 -0.6015647 0.81913066 -0.27444947 0.7459799 -0.7116756 0.015736213 -0.5814245 0.109237835 -1.029163 -0.2644904 0.6837358 0.5743325 0.37729406 0.11421519 -0.08201312 0.39584213 -1.1228606 -0.47868714 0.058744334 0.3472103 0.6474658 -0.2881123 0.3313216 0.44574776 0.65402937 -1.1799748 0.3875201 -1.9052048 0.05288018 0.90888816 0.5676074 -0.50100756 0.4103108 -0.22773385
('출석','Noun') -0.31236866 0.22853197 0.80403197 0.8458867 -0.13584065 -0.35474545 -0.7397037 -0.46127123 0.38065904 0.23920925 0.17989197 -0.48748365 0.79340047 -0.42987722 -0.70488244 -1.2183323 1.1995388 -0.82281584 -0.10031831 0.87677217 0.5452609 0.9413487 -0.20877317 0.8202384 -0.2484362 -0.5925582 -0.26423576 -0.6135358 0.33374622 0.43435997 0.39984658 -0.6604771 -0.24826743 0.43816414 0.7294311 -0.067162834 -0.8541587 0.29955164 0.25705904 0.7391407 0.63095623 0.09250531 -0.5079737 -0.99614644 -0.5498307 -0.59538406 0.48734307 -1.0469233 0.49301338 -0.03271255
('5','Number') 0.6623172 -0.34832639 0.4301853 0.13368186 0.5713266 0.28179482 0.5802043 -1.1640291 0.26140535 0.2547972 -0.24157153 -0.012999576 1.0003613 0.12870066 0.43990546 0.34054068 -0.16906908 0.3274872 -0.93188626 0.7102704 -0.5535816 0.9172364 -0.779995 -0.5167986 -0.7638871 -0.13998014 0.28394684 0.22804408 -0.3790453 0.30641517 -0.31668156 0.61712563 0.2678298 -0.5862045 0.50117576 -0.21290818 0.16263962 -0.6329165 -0.5076781 0.19059496 -0.33375186 0.43957046 -0.584424 -1.0972481 0.0335594 0.26353723 0.26941508 -1.3159344 0.77528906 -1.0018492
('개인','Noun') -0.16923732 -0.3670105 -0.21172474 -0.29774597 0.6602658 -0.086937904 0.58976054 -0.8116149 -0.052142143 0.5063676 -0.6297363 0.19653364 0.2632302 0.57646054 0.04447058 0.44923472 0.42276245 0.5581769 -0.61137563 0.9035987 0.5456152 0.8633539 0.03659998 -0.4287845 -0.8402507 -0.73927015 0.48277032 0.7211141 0.061777107 -0.9231921 -0.6981196 -0.7422143 0.49199483 0.32670704 -0.40260524 -1.1839542 -0.94339126 -0.3454705 0.42475894 0.7344463 -0.80861217 -1.0271702 0.71830267 -0.8996597 -0.93029946 0.5929298 -0.06561987 0.25541756 0.49029794 -0.03454442
('6','Number') -0.16791078 0.13478555 0.1381678 -0.17081754 0.91975254 0.44111958 -0.3890733 -0.20653187 0.70753217 0.21374887 -0.36492229 0.5571675 0.26720223 0.64530915 0.6767337 0.73927814 0.75759673 0.44412875 0.269215 -0.35440212 -0.3530025 -0.27809602 -0.35298514 0.8132908 -0.96142125 -1.4893372 -0.2779281 0.65698236 -0.29770875 0.66555244 -0.86577153 -0.615284 -0.58078545 1.1165652 0.55034745 -0.2841396 -0.7280448 -0.091820866 -0.30928725 0.9786902 -1.01869 -0.6065925 -0.4224121 -1.1718996 0.081495 -0.055599142 0.34001568 -1.2812752 0.16845861 -0.91895604
('시','Noun') 0.7186899 0.5107088 -0.19638635 0.16011344 0.4063098 -0.43570706 -0.25551814 -0.59375286 0.77613807 -0.6135758 -0.22308512 0.25281528 0.71650946 -0.32604602 -1.072337 -0.18616688 0.6319302 -0.981525 -0.64892215 0.06738799 0.08871885 0.8528989 0.080365196 1.0676756 -0.90169257 -1.1003481 -0.87800366 -0.9357639 -0.83190364 -0.07189671 0.6448639 -0.65991586 -0.9155536 -0.47859555 0.5342154 -0.43066353 0.49234423 0.55436575 0.27695367 0.5006025 -0.49315143 0.2745778 0.15603349 -1.1098436 -0.021479493 0.89606977 -0.19484681 -0.18407242 0.25585982 -0.41920134
('연습','Noun') -0.7851555 0.46151724 0.06177831 0.68072987 1.2538071 -0.11276 -0.21430072 0.36020494 0.61780125 -0.6924174 0.20216542 0.024017021 1.5257496 0.11566043 -1.0826404 0.39180723 -0.12999044 -0.5767265 -0.68414885 0.72361565 -0.29851913 1.1099207 0.5380044 -0.49565753 0.03815418 -1.4389548 0.12062936 0.6615153 0.043799836 0.35808712 0.026591988 0.6055885 0.24523178 0.7493717 -0.48822683 0.22967952 0.79184294 0.8983509 0.77710027 0.548331 -0.5144192 -0.0373732 0.78206944 -0.57153064 0.2575534 -0.3199252 0.21043101 -0.82179385 -0.20494498 0.5873673
('100','Number') 0.53698146 0.42481092 0.84338325 1.0285203 -0.6134903 -0.7929015 0.23284712 -0.35606134 -0.82643676 -0.24955481 -0.5059523 0.31766114 0.21486807 0.90397346 -0.71573716 0.6246905 0.90073353 -0.28741914 0.42371264 0.57329977 0.122881755 0.9194307 -0.8576262 0.008038267 -0.7883313 -0.80510384 0.9167404 0.16422102 0.15928052 -0.45982653 -0.54126793 -0.62432337 0.37571487 -0.0104214 -0.7936539 -1.0866293 -0.862679 -0.20981263 -0.926065 0.6514846 -0.8352961 -0.6909669 -0.7479722 -0.31594494 0.37803817 0.57417136 -0.064464584 -0.29876143 -0.60383236 0.2701671
('학부','Noun') 0.1120095 0.5982363 0.1923596 0.38239464 -0.82862175 0.2284699 -0.46264622 -0.54016644 -0.51284844 0.5772082 -0.70133644 -0.34663925 -0.10735652 0.24537662 -0.845979 -0.30424923 -0.16335349 0.6968843 -0.5012788 0.7264669 -0.35630664 0.49865484 -0.30693418 0.53514355 -0.1547851 -1.2698281 -0.55543035 -0.38270417 -0.017056879 0.24791925 0.30199197 0.82855636 0.36330646 -0.38733786 0.36209992 -0.043102298 -0.07909251 0.1455636 -0.41257635 0.3418355 -0.98536134 -1.0164566 -0.06489577 -0.95500296 0.15353218 -0.5201402 -0.40137333 -1.0762298 0.4389555 0.01884303
('기초','Noun') -0.6821531 -0.7127959 0.039879028 1.0172251 0.23233774 -0.46867648 0.62832034 -0.44814512 0.19091794 -0.9267049 0.601325 0.31978256 0.9473202 0.2866507 0.4146519 -0.68956476 -0.28241423 -0.11516724 0.5387964 0.33550397 -0.12844473 0.2534238 0.43026856 0.8219198 -0.3881936 -0.2256204 -0.01740493 -0.51717126 0.913453 0.2317425 0.65034145 -0.29867113 -0.09436557 0.09479916 -0.7646294 0.35041735 -0.7731027 -0.7634579 0.5656026 1.0511297 -0.81970006 -0.8554126 0.8669587 -1.7514467 -0.786255 -0.29280314 0.6028146 -0.40622675 0.58317673 -0.19357339
('팀','Noun') -0.33217046 -0.66156024 -0.5122483 -0.4390515 0.8966834 -1.0700834 -0.40002945 -0.066843465 -0.58080953 -0.65089047 0.33739215 0.68629366 0.6798511 -0.1274645 0.27112892 -0.20427804 1.0960449 0.49064812 -0.4998157 0.8659289 0.07285387 0.63663775 0.933336 -0.50654787 -0.63323724 -1.0149696 -0.6517879 0.5520452 -0.31305733 -0.691702 0.0338815 0.4697241 -0.037548903 0.8322343 0.20823123 0.07225249 -0.6373822 0.4295346 -0.61498356 -0.5263096 -0.70966715 -0.42067328 0.6612539 -0.689838 0.16293435 -0.7690067 0.10347715 -0.97305834 0.9672839 0.3660639
('8','Number') 0.17124802 -0.2073223 0.9600182 0.23362987 -0.023167882 -1.0237918 -0.25957385 0.0041062506 0.3203544 0.50722414 0.5468837 0.5731638 0.4534402 0.75212604 0.25965247 -0.9769008 -0.7155856 0.72953016 -0.44416553 0.7725349 0.7690308 0.9214947 -1.0442452 0.20617433 -0.69000226 -1.3604646 0.2836933 0.73694766 -0.011728234 -0.14589442 -0.18382469 -0.47588128 -0.03642794 0.81798965 -0.082246594 -0.6277848 -0.6769315 0.40417898 -0.38172662 -0.56493384 0.3841766 -0.9383472 -0.26232824 -1.0702459 0.22364245 0.6008353 0.8050686 -0.5790382 -0.21030311 0.52050805
('타','Noun') -0.7921879 -0.016197108 -0.5611212 -0.63000137 -0.37211668 -0.93947625 0.726724 -1.0864111 0.40792 -0.74827546 -0.40638664 -0.05454471 0.10323842 -0.4354217 -0.71911806 -0.17292863 -0.4933265 0.018703165 -1.0299934 -0.36196107 0.47211504 0.56741977 0.80534637 0.7222929 0.24757405 -1.0316039 -0.13331424 0.4206426 -0.13854879 -0.98114216 -0.6767753 1.1262194 -0.6992339 -0.31860954 0.1904143 -1.0912135 0.5795397 -0.113862395 0.14947662 -0.48309833 -0.30037248 0.34288698 0.6993639 -1.7430162 0.14198075 0.35581106 -0.5916947 -0.069978565 0.12559688 0.062490724
('류','Noun') -0.38983777 0.5276026 1.2506566 0.15376097 0.3417538 -0.28123337 0.2544233 0.34856036 0.46597323 -0.46961716 0.8897849 -0.2300832 0.005091699 0.5387207 -0.8301903 -0.32744077 -0.78799856 0.07177493 -0.98623234 0.9569064 0.63686883 0.29971725 -0.74319375 -0.8923018 -0.94831747 -1.2828133 -0.6826656 0.7710106 -0.52786297 0.6003526 -0.35347062 0.19710214 -0.5933703 0.96686953 0.09670396 -0.09938461 -0.47638208 0.94818616 -0.3031316 0.78849095 -0.84356874 0.07238183 -0.86927044 -1.406737 -0.29321593 -0.3060463 0.24592583 -0.0052969297 0.8233893 -0.60535413
('심','Noun') -0.6098203 -0.48716474 -0.5275661 0.14970106 0.28415385 -0.3800043 0.6373193 -0.83008707 -0.25604516 -0.74820924 0.37860423 0.8874575 0.8720096 0.91402924 -0.38522527 -1.127579 0.605079 0.3636775 0.25397876 1.1194043 -0.3330151 -0.31316012 -0.1328028 -0.05537857 -0.58323205 -0.40389895 0.4365921 0.32682633 0.36543068 -0.80751854 -0.95852685 -0.04653296 -0.9207959 -0.75945085 0.60367656 0.35564828 -0.58244306 -0.6429785 0.082522504 -0.0846907 -0.030930543 0.11732115 0.6933128 -0.7217612 0.03767167 -0.21805106 0.21901645 -0.19272532 -0.57771814 -0.7045325
('기본','Noun') 0.2341909 0.56110907 0.63614833 -0.26904556 0.15231635 -0.47979847 0.690384 0.31072992 0.21848011 0.62128156 -0.574104 0.5904592 0.60607487 0.73016346 -0.009775124 0.0047648437 -0.06467807 0.08482873 -0.9400751 -0.4128153 0.90615714 0.4127906 0.0834204 0.86709034 -0.5064837 -1.1328962 0.15626541 -0.59210896 -0.5925125 0.5957176 0.35248992 -0.062339038 -0.97798973 -0.18661551 0.5817771 -0.5602064 -0.39760867 0.09002989 -0.680555 -0.3892101 0.04647236 -0.3636887 -0.389292 -1.676061 -0.41416386 -0.025651602 -0.69846946 -0.6239791 -0.32039523 0.33487245
('학년','Noun') -0.6107842 0.5456227 1.0226078 1.0830327 -0.061538476 -0.97882736 -0.59823513 0.052616186 -0.6572715 0.062231597 0.5034112 0.8523563 -0.2618943 0.9788595 -0.44954708 0.69960225 -0.8287956 -0.48672998 0.77010727 0.22828731 0.79638076 0.33307323 -0.8023409 -0.085729025 -0.29086226 -1.1952728 0.073150165 0.3978604 0.80627376 -0.43407604 -0.7226298 0.15322237 -0.27029064 0.35513726 0.29834357 -1.0316039 -0.14117736 -0.90435916 -0.10667124 0.81549126 0.32325178 -0.2444064 -0.22542103 -0.35025787 -0.7815421 0.8646884 -0.7752703 -0.54554886 0.8087507 0.61887455
('9','Number') -0.4324506 0.91567683 0.43897396 0.6172859 -0.3587664 0.23883435 0.38846517 -1.2159479 0.5096772 -0.6157367 0.053952817 0.7681196 0.6956207 0.010011894 0.6596147 0.75762457 0.17437434 0.35487178 -1.1503904 0.039155606 -0.8982483 0.61550677 0.4784623 0.02412448 0.14708509 -1.0767405 0.46714032 -0.019426264 0.23678635 -0.083477356 -0.76552504 -0.10028373 -0.35786697 -0.47614178 0.60568297 0.11962715 -0.6209408 0.36407715 0.4492127 0.8195831 -0.6624086 -0.9336492 0.4706154 -1.1916919 -0.4359742 -0.5544162 0.33433583 -0.7423485 -0.48443994 -0.02446736
('북','Noun') -0.80276424 -0.87601155 0.2736764 -0.313144 0.15142652 0.220262 0.74682915 -0.6072063 0.69495946 0.7829374 -0.26509047 -0.6202962 -0.21768697 1.1601936 -0.4539659 -0.7866588 -0.08830804 0.73060286 -0.49249843 1.2866715 0.080681466 -0.012727674 -0.8717177 -0.12347557 -0.13290127 -0.18490937 -1.2915035 -0.39804533 0.7734914 0.71381474 -1.133191 -0.51024956 -0.42608884 0.7376249 0.6302497 -0.03216417 0.99334186 -0.6955294 1.1812611 -0.12299085 0.45761758 -0.34073976 1.0194181 -1.3732303 -1.0055324 0.13097619 0.6635676 -1.0608764 0.3751205 -0.37610504
('인','Noun') -0.091687545 0.62678355 -0.00027229823 -0.17665695 -0.5238269 0.24670684 0.13852662 -0.31159988 0.31048742 -0.90561 -0.40591025 0.49286184 1.0894 -0.4299794 -0.9836533 0.021244368 0.8825725 -0.8815491 0.5098392 -0.59633327 0.6420353 0.24736366 -0.8506301 -0.40319884 0.4340754 -0.5171503 0.83251923 -0.62891 0.04692172 -0.09535764 -1.0351412 0.7479408 -0.43493155 0.77278626 0.728367 -0.6088726 -0.68771374 0.60006076 -0.32136634 0.86368066 -0.9472045 0.53586125 0.49730918 -1.5983531 -0.62122315 -0.33923173 0.2851652 -1.4572644 0.44189435 0.6814782
('권','Suffix') 0.07737268 0.3720879 -0.44949162 1.111204 -0.09139858 -0.92089283 -0.034674283 -0.71783316 -1.1262339 0.52933884 -0.6447546 -0.4270351 0.749565 -0.51733696 -0.8166704 0.13128471 0.43872517 -0.89820856 0.7888388 0.6699039 0.34116584 0.7141677 -0.6072233 0.24620137 0.13375637 -0.8855053 -0.9111474 0.83554995 0.7863772 -0.11303822 -1.0723743 0.80856705 -0.5101482 -0.060564548 -0.77180296 -0.5231714 -0.7606334 -0.18227547 -0.5643003 -0.30928507 0.4342946 -0.8935959 -0.19379672 0.14900792 0.23599097 0.40311384 -0.13517177 -0.27374068 0.8432146 0.61421615
('러닝','Noun') 0.035775017 0.65013856 0.37669638 0.03404343 1.0504975 -0.13317887 -0.16662338 -0.11560474 -0.35924086 -0.9306815 -0.37489888 0.023846367 0.019140353 -0.09026366 0.6666996 -0.8490297 0.2419265 0.1516508 0.16131432 -0.42008972 -0.5150977 0.7949815 -0.18479696 0.5246489 0.31008655 -1.3577981 0.23159496 -0.7272149 -0.43657646 -0.01723517 0.83873165 0.2983177 -0.7860276 0.8070087 0.0064217 0.054226246 -0.25077885 -0.45254576 0.06919738 0.17453219 0.08186539 -0.107470416 0.46441457 -1.4114909 0.095041946 -0.7487799 -0.31177783 0.20687103 0.6626409 0.6302071
('플','Exclamation') 0.012782615 -0.37030116 -0.6550297 -0.2869504 0.7190952 -0.1429385 0.807825 0.18507499 -0.8206773 -0.5348209 0.59606373 -0.19782187 0.18759097 0.8333983 -0.19316429 -0.25605065 0.05112156 0.39285624 0.5357573 0.17437525 0.460743 1.3860034 0.6825028 0.068710364 -0.22119513 0.011196313 -0.9883604 -0.22975709 0.58835065 0.39413354 -0.43529302 1.0135548 -0.44203135 0.2992063 -0.89628416 0.12853587 -0.7417627 0.079529375 0.9033056 -0.059491478 -0.74357426 -0.3763643 -0.10090539 -1.1184027 -0.54822356 -0.4272831 -0.7620582 -1.3008047 0.8379282 -0.92114747
('워','Noun') 0.3161637 -0.80519325 1.0143765 0.1742755 0.051930543 0.02255616 0.52162534 -0.5800133 -0.47135475 -0.5152567 -0.2311196 0.08783412 -0.058193658 0.5446932 -0.6557285 -0.9127555 0.8557823 -6.624777e-05 -0.39028415 0.57657856 0.5900363 0.2740102 0.14302735 -0.012059817 -0.07019676 -0.5759179 0.45783922 -0.5926279 0.832738 -0.75801384 -0.78487927 -0.26313078 -1.0346582 0.37518808 -0.87776685 -1.1632688 -0.0040279627 -0.6646349 0.039622493 0.95566386 -0.6186333 -0.046020303 -0.483289 -0.14181603 0.39377266 0.3334695 0.51384497 -0.11188133 -0.8610598 -0.8741868
('이','Josa') 0.7547364 -0.123270966 -0.83897775 0.87521505 -0.8335939 -0.52428645 1.0119326 -0.045647934 0.019768575 -0.7851995 -0.8030126 -0.89695656 0.22520302 -0.63055706 -0.8458909 -0.7097189 -0.044839904 0.44208372 -1.0052145 0.3688375 0.7312312 0.41327724 0.20701365 0.108173236 0.3519632 -0.1324247 -0.6803379 0.34169245 -0.37096488 -0.9308583 0.18230076 -0.4371972 -0.685971 -0.5914176 0.3809152 -0.77547544 0.08768344 0.39065063 -1.0687774 0.8108649 0.49668524 -0.3499088 -0.49862725 0.03936588 0.4884627 0.5817294 0.13034266 -0.9312997 -0.6045713 -0.6803646
('영','Noun') -0.20627293 0.13714519 1.1671977 1.0840777 -0.41707134 -0.8910218 0.68966883 0.12029585 -0.42709318 -0.62103647 0.20610122 0.17904836 1.375345 -0.26759315 0.023874067 -0.82402515 -0.67650956 -0.27285123 -0.6125784 0.49178535 -0.73252183 -0.20170829 0.5127074 -0.10387387 -0.1346774 -0.5415668 -0.55476964 -0.16312133 0.426198 -0.28935516 -0.8221665 1.1130439 -0.42603314 0.9808266 -0.2035001 0.49713877 0.75031656 -0.32357863 0.9727561 0.9748569 -0.8258796 0.27754548 0.5738529 -0.5960485 0.3885233 -0.36392656 -0.20280962 -0.4771313 -0.2565226 0.6652526
('두','Determiner') 0.09605309 -0.39255553 -0.66500384 0.6572846 -0.53448254 -0.79076993 -0.6917478 0.7073184 0.08151697 0.29191014 -0.07120481 -0.33178648 0.87933385 0.36357063 -0.45935726 0.32092074 0.46957886 -0.40829045 -0.42850223 -0.25408566 0.797554 0.69897044 0.5743118 0.07213798 0.03573887 -0.4066417 -0.21297999 0.08092595 -0.24182202 -0.004828112 -0.4349494 -0.69248474 -1.1378336 0.83435225 0.7267339 -0.77392966 -0.30025634 -0.43548137 -0.40352145 -0.22785993 0.90131426 -0.8639264 -0.7985084 -0.43641073 -0.18301515 0.847721 0.67540276 -0.6654692 0.3041257 -0.40632018
('계획','Noun') -0.5409324 -0.3365675 0.07305966 -0.5938734 0.8823184 0.10680979 -0.8804921 -1.0406077 -0.31267846 -0.78220123 -0.6650057 0.24401556 -0.43337715 0.82381046 -1.1945895 0.6412653 -0.047715638 0.28095007 0.04690014 0.47075388 0.3975572 0.3443269 0.055723004 -0.6810049 -1.407847 -1.0157561 0.6130349 -0.88491684 0.18945232 0.19294712 0.22418623 0.03797568 -1.2127402 -0.6092555 0.37564602 -0.20400557 0.9301823 0.5246803 -0.08379979 -0.5836396 -0.16537389 -0.2953891 0.77291256 -0.7740234 -0.59474945 -0.5685715 0.17380525 -1.4206026 0.9175636 -1.0989854
('내용','Noun') -0.5764152 0.8058608 -0.45889008 -0.1650433 0.44932705 -0.8825735 -0.6691801 -0.37877354 0.1580888 -0.027919881 0.35468084 0.14752841 0.4973116 -0.57732356 -0.66126686 0.6101892 0.8566456 -0.22045846 -0.61531925 -0.0609382 -0.028523173 0.85601175 -0.9071535 0.4192644 -0.38397187 -1.3918247 0.34531453 0.503177 -0.0376242 -0.084550425 -0.31467617 0.8769551 -0.33700132 0.46752492 0.17011799 -0.39843506 0.6128217 -0.051738933 0.2931905 0.5549256 0.03507301 -0.37487742 0.9287566 -0.874261 0.16269399 0.74908656 -0.32747188 -0.63044834 -0.5773118 -0.8978294
('과제','Noun') -0.0587849 0.58384407 1.1380029 -0.36498246 0.5701898 -1.0919085 -0.71253663 -0.9200699 -0.13499758 0.025523296 -0.27784392 0.3651207 0.6846411 0.91407585 -0.029930903 0.01371456 -0.553148 0.6357349 0.4905 0.73179156 0.46572635 -0.070127614 -0.93884635 0.2153473 -0.19052395 -1.5332241 0.80237436 0.153057 -0.080369525 -0.95947427 -0.8801614 0.7784812 0.6354077 0.7362296 -0.4675953 0.44763577 0.29355395 -0.3230054 0.9527973 0.7010682 0.68346334 -0.78756195 -0.31495848 -0.614225 -0.4436994 -0.29866982 0.73886836 -0.7883884 -0.7909999 -0.48910633
('때','Noun') 0.4541325 0.6303118 0.43813705 -0.55077785 -0.05854928 0.07118718 -0.2437083 -0.9126437 -0.9791025 0.28834346 0.16850847 0.2610777 0.7017769 -0.48472658 0.44215506 0.22008254 0.38165668 0.73855513 0.41905147 0.19091411 0.5379972 -0.4228715 0.43568414 -0.3902379 -0.79832953 -1.3034282 -0.10872949 -0.4214528 0.7417076 -0.94108063 -0.42992282 0.4582465 -0.865689 1.0950456 -0.19858597 -1.4101088 0.85675424 0.3325156 -0.80456537 0.45681524 -0.42949614 0.5612312 0.3036651 -0.31202197 0.3685918 0.57909167 0.24746133 -1.4820032 -0.32123622 -0.2085252
('정도','Noun') -0.9009268 0.9396662 0.3595726 1.0752425 0.58168226 -0.5457405 -0.27366352 -0.35727358 -0.5214586 -0.84235924 0.9992474 -0.27171874 0.23380086 1.0716144 0.7112581 -0.33546934 1.1260911 0.46269757 -0.3267669 0.5050235 0.49787658 -0.6404513 -0.5233054 -0.57863396 -0.90531796 -0.3320333 -0.3491664 0.827556 0.6755969 -0.6467019 0.3948642 0.17558382 0.43170512 0.19284679 0.42838296 -0.4932901 -1.027213 0.3772204 -0.60082275 -0.6904913 -0.016679723 -0.37963092 0.5040879 -1.7008548 -0.07684871 0.46016487 -0.8635216 -1.4731184 0.8966516 0.69524556
('거','Noun') 0.5180931 -0.26320186 0.8365122 -0.19465294 0.70228016 0.328465 0.88143903 -0.823274 0.060879245 -0.33257902 0.86835617 0.7420338 0.12419679 0.46870798 0.3496532 0.15407957 -0.6541986 -0.25151977 0.54656774 0.85680807 -0.5622541 0.9269007 0.01652253 0.29693732 0.23193395 -0.9447518 -0.77118593 0.64726025 -0.06994415 0.56359774 -0.6359843 -0.15347493 -0.27283108 1.0825561 -0.7018069 -0.9432115 -0.3511478 0.9028703 -0.56221956 0.5586568 0.018826777 -0.21793282 0.06379358 -1.3480868 -0.47390583 0.2302191 -0.5579292 -0.6729628 -0.10662685 0.5914984
('분','Noun') 0.82197964 0.29618698 1.196966 0.6100422 0.034155723 -0.86042553 0.5578484 -0.8061087 -0.9930937 -0.41543627 0.5564234 -0.76147854 0.71203816 0.4848023 0.54716206 0.030144593 0.36922425 -0.25448585 0.22886671 0.46909213 -0.3452933 0.059246227 -0.91884774 -0.30454034 -1.3499017 -0.98335403 0.14259642 -0.29489496 0.84367484 -0.9682333 0.5020519 -0.099418305 0.13762186 0.2133728 0.2503078 -0.14541999 0.864875 0.33751944 0.26531997 0.03852998 -0.5647324 0.0670606 0.86410016 -1.5132114 -0.23086321 0.68073624 0.38846508 0.28459463 0.5887854 -0.8463637
('프로젝트','Noun') -0.5628181 0.36263973 -0.5059285 -0.2580855 -0.3863529 0.105646044 -0.63935465 -0.85321224 -0.93951964 -0.2712689 0.8479018 -0.76416785 0.24835457 0.06898599 0.14404942 -0.7931596 0.699877 0.5829287 0.17804489 0.6814645 -0.6178484 1.15718 0.47430876 0.9635261 0.15514402 -1.2415788 -0.4079191 -1.2013181 0.034894302 -0.92523134 -1.1202695 -0.443228 -1.2596966 0.43633226 -0.35335124 0.24898031 -0.85389215 0.69346046 0.36277446 0.8067558 -0.7741848 0.44036725 0.5673539 -0.94747126 0.6047632 0.043941848 -0.27999476 -0.38099855 -0.28591862 -0.9366917
('설명','Noun') 0.18524198 -0.42043552 0.6553536 -0.6129259 -0.6376746 -0.9001654 0.52626395 -0.032667536 0.6075911 0.14495908 0.41584495 -0.70951974 1.3506877 0.16302833 0.5746491 -0.4721897 -0.29732913 0.06372344 0.36818215 0.42748642 0.25298706 -0.14517301 -0.00866898 -0.0050512175 -0.42450058 -1.4341646 0.08707114 -0.25911355 0.23025388 -0.87895805 -0.44416752 1.0111732 0.64043635 1.1140977 -0.006372202 0.25627062 -0.53544605 -0.75148046 -0.37784317 0.03311009 -0.22664037 0.07798494 -0.93020535 -1.6387534 -0.77497727 0.719114 -0.54816455 -0.9868881 0.50357115 -0.18299039
('조교','Noun') 0.1463352 -0.4388241 0.45435584 1.0492287 -0.45326763 -0.9121681 -0.8037482 -1.0233066 0.28215507 -0.12006889 0.81898 0.28226247 0.5489099 0.20374748 -0.26031908 -1.021054 0.4226728 0.38645 -0.5459327 0.31106776 -0.36309966 0.6534186 0.23705469 0.4980295 -0.25106472 0.0015625004 -0.5553643 0.5264265 0.1927209 -1.2158962 -0.3911785 -0.036958583 0.11999135 -0.47802928 0.052892696 -0.16933838 0.46535578 -1.083714 0.022674028 0.18897797 -0.11478836 -0.74296296 0.06927701 -1.0247331 -0.9157228 -0.6482239 -0.58775204 -1.670126 -0.53712034 -0.9785471
('널','Noun') -0.77706754 -0.1617882 -0.20240816 0.55074906 -0.31042665 -1.1596148 0.5977185 0.12915902 -0.27612197 0.7921769 0.5001429 0.657716 0.47588718 0.781858 -0.8061138 0.42800072 0.8504295 -0.33479172 -0.65091217 0.7079973 -1.0445917 1.1223067 0.4019735 0.33527458 -0.70281 -0.37178054 -0.6005214 -0.8346675 -0.027724084 -0.6554547 -0.5318234 0.88473755 0.38975444 0.64142656 0.081744835 0.12580788 0.19475055 -0.89327085 0.89519227 -0.7194578 0.6452663 -0.077447325 -0.7242673 -0.14539024 -0.42015308 0.4700214 0.5633031 -0.65395993 0.9460027 -0.31539935
('평가','Noun') -0.6590507 0.09025855 -0.05045203 0.56765133 -0.11991227 -0.41733342 0.65372676 -1.2513806 0.40117684 0.366777 0.2863273 -0.05032378 0.86911803 -0.021992764 -0.7594935 0.45174506 -0.106252685 0.5143105 0.24843134 0.092079006 0.7350176 -0.09849393 -0.7681842 -0.32866 -0.72305876 -1.0763165 0.2352843 -1.0942844 0.92267066 -1.0782949 -0.54257053 1.087708 0.37520134 0.557996 0.40198997 -0.73446304 -0.39717448 -0.421958 -0.29855824 -0.4092364 -0.61640567 0.3534157 0.122790925 -1.0567214 0.790655 -0.13473709 0.6970248 -0.9142326 -0.9321537 0.33809498
('부분','Noun') 0.52177685 0.39597806 0.70754814 0.4344404 1.2546719 -0.49331337 -0.54503274 -1.0566219 -0.7056295 -0.40884542 0.8817402 -0.6404696 -0.36644423 0.75415826 -0.22013274 0.7233271 0.3620763 0.50264555 0.080486536 -0.36512658 -0.2096157 0.95734406 0.29081932 -0.5052514 -0.019171642 -0.6514437 0.58497614 0.4049849 -0.22940907 0.029472925 -0.4220769 0.81583905 -0.91503066 0.6895837 0.4717804 -0.2622332 0.39268896 0.44084823 -0.33536413 -0.6638814 -0.7391039 -0.7123536 -0.37395528 -1.2958546 -0.70986724 -0.34606978 -0.57229793 -1.1118715 -0.040220767 -0.36805004
('이','Noun') 0.5031877 0.5211517 0.72971636 -0.3363171 0.5260883 0.10000427 0.46759865 -0.9003618 0.4851494 0.5711223 -0.8103117 -0.61170816 0.073544055 0.58206135 -0.85139346 -1.0139403 -0.70356804 0.23414813 0.09953962 -0.05475197 -0.5797277 0.8433532 -1.1361994 0.44305813 -1.2337482 -0.92539054 -0.93534565 -0.40810445 0.3506351 0.44406918 -0.6917277 0.28055555 -0.68369895 0.08934108 -0.65068024 -0.035111465 0.08961982 -0.40231708 0.2390639 0.040144946 -0.15244573 -1.0167733 -0.3581437 -0.11866846 -0.39894894 -0.7075764 -0.8425501 -0.91999453 -0.11529637 0.8507986
('주','Noun') -0.8940201 0.5416529 0.0029899483 0.6529929 0.3576704 -0.8556252 0.59138834 -0.04271079 0.7319883 -0.122718886 0.2541771 0.23597367 0.9615116 0.9984659 -0.3777656 0.070687234 0.027988344 0.14416148 -0.21270274 0.35193834 0.42574248 0.21702097 0.3156328 -0.54447836 -0.21763302 -0.23887229 -0.086874336 0.55505615 -0.52241796 0.18340032 -0.12733088 -0.6793937 -1.2472454 0.56417876 -0.08903231 -0.8764039 -0.46757683 0.7237843 0.45180315 -0.5165999 0.3623439 -0.63595223 0.22502933 -1.0581166 0.4722306 0.119383365 -0.27200675 -0.96264374 0.4350882 -0.44887304
('평균','Noun') 0.62763435 0.5519688 0.9303683 0.15908164 -0.27933255 -0.14143206 0.018358415 0.25220674 -0.5287462 0.03751763 0.44533342 -0.2847403 1.0396812 0.73370445 -0.66187173 -0.42357734 0.039115958 -0.47739375 -0.98200136 0.93126696 0.6000501 0.50862443 -0.84251714 -0.74778575 -0.39050272 -0.08058045 0.67931247 0.353657 0.19417322 0.42128414 0.270111 0.6506349 -0.5975344 0.39232937 -0.04019807 -0.23364507 0.4188847 0.45135397 -0.23326866 -0.66771215 0.2127099 -0.708306 -0.01966763 -1.8993622 0.6328537 0.4295766 -0.42793146 -0.98381543 0.7741246 0.45750445
('0','Number') -0.54718924 0.19493884 0.9833485 0.7126756 0.4334926 -1.1538879 -0.9207142 -0.2891654 0.11950713 -0.2398839 -0.24769917 -0.36566022 -0.20546345 1.0111651 0.22919315 -0.34958553 -0.6691947 -0.18142667 -0.5051597 0.0734866 0.6854221 0.65600765 -0.84909374 0.081350036 -0.088084035 -0.82820916 -0.4945883 -0.19555928 0.36496595 -0.57090783 -0.30124083 1.0666151 -0.39077082 0.14486255 -0.2257624 -1.015627 -0.3869065 -0.649928 1.0092335 -0.45571372 0.32536644 0.5674613 -0.3421057 -0.93183684 -0.0029996792 -0.51484966 -0.57704353 -0.9454738 -0.062186148 0.5938128
('개념','Noun') -0.24824278 0.027624622 0.081848174 0.12067207 -0.105484776 -0.9234628 -0.24462175 -0.72182673 0.039979868 0.2380356 0.33325103 -0.57668495 0.51949453 0.46635622 0.50582385 0.16983105 0.87585515 0.19308093 -1.3210535 0.30014095 0.15577616 0.058101118 -0.91273195 -0.3050173 0.153483 -0.68384 -0.85252917 -0.06575703 -0.28901282 -0.27774146 -0.17485958 0.037593618 -0.2791463 1.0111722 0.9527332 -1.3202268 -0.06829255 0.22690684 -0.5166225 -0.27302048 0.7459151 -0.8296407 -0.14541386 -0.71447515 -0.037463117 0.73085093 0.23252171 -1.6097039 -0.17462282 0.308019
('랩','Noun') -0.70216876 0.42671332 -0.15474157 0.037716262 -0.25732622 -1.0262676 0.0014397274 0.16700366 -0.69476444 0.5854742 0.65813625 0.2509298 0.49090904 -0.053894196 -0.51311046 -0.19643265 0.56835365 0.40208387 -0.6554996 0.78109354 0.0371686 -0.23303854 0.6715914 -0.67083746 -0.5616496 -1.0726527 -0.8080777 -0.86199725 0.88623226 -0.4928475 -0.12973113 0.29678425 -0.02464318 0.9559587 -0.86539936 -0.46816427 -0.11709259 0.061252344 0.48432085 0.91211146 0.102076605 0.7965272 -0.90583146 -1.0338374 0.3830189 -0.6181857 0.3093878 -1.0305945 -0.15833585 -0.82871073
('이번','Noun') 0.15330604 0.53774816 0.014782338 1.1737161 -0.7895038 -0.26146495 -0.14861155 -0.74138415 0.69142956 0.13097486 0.6630863 -0.07375831 0.30841798 0.30617952 -1.2217175 -0.7773817 -0.019698538 -0.6679192 0.4464265 -0.6035064 0.466837 0.93539095 -0.66859055 0.61981577 -0.917726 -0.7624983 -0.5363685 -0.6840358 0.06315849 -0.1084686 -0.6883151 -0.13574591 -0.05052486 0.12397936 0.6170004 -0.13014618 -0.5247421 -0.14478062 1.0313481 0.07408092 0.6898384 0.43970624 0.071269885 -1.1988666 -0.30658466 -0.67228484 0.7316229 -0.997948 0.41981393 0.15369819
('사용','Noun') -0.9640446 0.65414304 0.50886726 -0.3193256 0.4331362 0.22211665 -0.22926895 -0.12069589 -0.58103436 0.38326567 0.7760596 0.399439 1.0556006 0.69999224 -0.31268975 -0.25713497 -0.36765596 0.36155707 -0.020190753 0.7122993 0.6201467 0.15649919 0.05867943 0.95417506 -1.2794023 -0.5023532 -0.47263306 0.4775132 0.7465284 -0.012999348 0.24232484 0.74549603 -0.11176268 0.32448664 -0.13945933 0.16502996 0.39698896 -0.7331329 -0.57754254 -0.7223846 -0.94244456 -0.7107621 -0.13404302 -0.9392368 -0.62802553 0.1873533 -0.018653806 -0.89087903 0.6572054 0.10563856
('자료','Noun') 0.19904038 0.08365967 -0.26324877 0.027126826 -0.86036843 -0.16985172 -0.48326704 0.24287753 0.67013294 0.74057597 -0.46686125 -0.1093155 0.80735576 1.0022779 -0.97670186 -0.010070894 1.0186614 -0.6018265 -0.7802284 0.8327531 -0.22910738 1.0414361 -1.0096383 0.9286924 -1.0899881 -1.0149065 -0.16883062 0.11184749 -0.2432154 0.54245263 -0.84883356 0.77035916 0.598531 -0.8654777 -0.6934293 -0.51794976 -0.583881 -0.08848031 0.5021974 0.575918 0.3615724 0.4880418 0.12991068 -0.38520503 0.33146286 0.15282953 -0.75238854 -1.3093117 0.9886163 0.18571666
('진행','Noun') 0.36173597 -0.7368077 -0.5027599 0.971249 -0.08696685 -0.5112052 -0.7016722 -0.50425726 -0.536474 0.19468454 -0.16869049 0.9740089 -0.25314984 0.10314775 -0.56159806 -1.1062921 0.017516214 0.12762123 -1.1661121 -0.35053125 0.033488285 0.17078166 0.13517152 0.74755055 0.4781213 -0.25451803 0.31033435 -0.5484519 -0.21948531 -0.10384094 0.63039464 0.7914486 -0.35393834 -0.30188876 -0.49314183 -1.231347 0.80738074 0.7878875 -0.698765 0.6599137 -0.23061773 -0.25406626 -0.1475295 -1.984923 -0.7840404 0.5009051 0.35332286 -1.4083421 -0.010017464 -0.76822275
('준비','Noun') -0.6013213 0.75432456 -0.45530948 0.28211364 -0.05991964 0.10141697 0.39110118 -0.6857459 0.22457193 -0.8319626 0.15521072 0.28298417 -0.42090428 0.46799058 -0.6074883 -0.6309623 0.3918436 0.81153023 -0.29428002 -0.44752693 -0.14970084 -0.40706193 0.12872387 -0.007956469 -0.17993751 -1.3920356 0.65298676 -0.32024586 -0.043046188 -0.14019929 0.067263715 0.9594869 -0.554006 0.59114516 0.45171973 0.3352571 -0.24759552 0.44692573 0.72366846 -0.7384486 -1.06561 -0.09919957 -0.46756193 -1.666701 -0.3654619 -0.7334881 -0.6836488 -1.4821969 -0.15502994 -0.38447368
('채점','Noun') 0.66217893 0.052409522 -0.19642238 0.5182473 0.6827463 -0.41488943 0.28336105 0.09763438 0.40916434 0.24049665 0.5265815 -0.14207911 0.56489944 0.5122362 0.27630332 -0.55265605 0.18837614 -0.32992253 0.4777325 0.48469007 0.22343478 0.36002943 -0.181444 0.31648934 -0.63510156 -0.11392968 0.62357235 -1.0660506 0.52132267 -1.0396825 0.08976853 0.01145162 -0.22497934 0.6168783 0.62848055 0.123902984 0.78958356 -0.2753641 0.7680047 0.09675945 0.54829055 -1.0450928 -0.8182403 -1.3963318 0.089255795 -0.7269046 -0.33005872 -1.8694503 0.39881736 -0.905194
('하다','Verb') -0.3919546 0.08851983 0.45299843 -0.2024679 -0.2307217 0.45178685 0.15735605 -0.8447847 -0.49489003 0.36560804 0.9840905 0.3639403 0.8970244 -0.27093863 -0.3869203 -0.6994521 -0.34589085 0.9839734 0.20772584 0.5975153 -0.3865313 -0.011413407 0.589088 0.95663637 -1.473286 -1.170784 0.61720014 -0.3453195 0.60779583 0.47142145 -1.0598178 1.1025046 0.037883587 1.0573158 0.0770425 -1.1792576 -0.73310333 -0.37142032 -0.51927453 -0.6623547 0.51985246 0.34945932 0.052374076 -0.4091475 -0.21005306 -0.82211924 -0.95274276 -0.89887905 -0.73335886 0.83944154
('수학','Noun') 0.48777243 -0.15288019 -0.47271857 -0.71863794 -0.1798454 0.024976913 -0.119589865 -0.5255257 0.70128506 0.10823055 0.55073625 -0.54633486 -0.019559896 0.96687335 -0.33567035 0.33326793 -0.12552063 -0.5722326 -0.6482868 0.05062251 -0.114401534 0.8196284 -0.97878194 -0.07701896 -0.4305737 -0.7011722 0.7383935 -0.4319857 -0.6343329 0.49921364 -0.281764 -0.21660943 -0.50672424 -0.21702924 -0.7107059 -0.92134035 -0.761686 0.38391963 0.7225633 -0.9107081 -0.99106044 -0.07637239 -0.47669253 -1.5990618 -0.84001213 0.15083064 0.43196812 0.24686728 0.40165287 -0.49787855
('반','Noun') -0.19128244 0.6705322 0.5654486 0.9269425 -0.6202565 -0.9204137 0.16738585 -0.8902409 0.69988924 0.4892051 0.18400717 -0.028591879 -0.24464577 -0.37398702 0.09961453 -0.5604674 -0.47449163 -0.09043928 -0.6139983 0.44576538 -0.83499455 0.55332255 0.25557756 0.86724174 0.041101854 -1.2159327 -0.7195023 -0.18555085 0.11456723 0.26247466 -0.36527735 0.6555704 -0.6033631 -0.12577301 0.7877723 -1.4131945 -0.1695779 -0.47985607 -0.6215552 -0.30874124 0.53308594 -1.0092931 0.5098685 -0.64618194 -1.0073937 0.0974527 0.57470447 -0.5475613 1.0049328 -0.606023
('이산','Noun') 0.5656768 -0.09857996 0.33552548 0.9019617 0.92540145 -0.89264375 0.5259192 -0.5083744 0.109866984 0.22889166 0.6633253 -0.6538428 -0.59969527 -0.54794645 -0.70802116 -0.15189537 0.854942 0.9294825 0.34180075 -0.33809814 0.2959569 0.47292888 -0.050342523 -0.71453166 -1.294643 -0.9900835 0.77616894 0.42109072 -0.056800816 0.6648413 -0.43329835 -0.14402303 -0.8086945 0.16111334 -0.1668763 -0.34530503 -0.6888713 -0.18156463 0.2555311 -0.4534346 -0.1320843 0.04380913 -0.42286035 -1.0863873 0.6182939 0.72569627 0.39485985 -1.2179754 0.33098954 0.29139745
('제','Noun') -0.09888154 -0.004479109 0.08477878 -0.12105302 -0.7385155 -0.7773086 0.1633784 -0.4418934 0.2944518 0.52710354 -0.10569097 -0.35463378 -0.16352282 -0.52520555 -0.7307855 -0.5196669 -0.09020937 -0.000747671 -1.0827003 0.24693154 0.7932796 0.30662 0.5310477 0.37171948 -0.27798545 -0.4813995 0.49411294 0.6565409 0.777253 -0.28115135 -0.6731222 0.68566245 0.31611326 -0.76003045 -0.89661753 -1.0488813 0.16733275 -1.0579554 0.034038983 0.63922584 -1.1057848 0.69967973 1.0008385 -1.4795377 -0.6125702 -0.31131265 -0.5511658 -0.8172414 0.6655142 0.09298848
('가','Josa') 0.49287176 -0.028468242 0.47136298 0.48344064 -0.54099405 -0.5594366 -0.20841269 0.72276026 -0.5621143 0.54543984 0.18160494 -0.76649326 1.0954062 0.48752776 0.06681558 0.4807417 0.6068144 0.19383459 -0.16493954 0.6421302 0.557818 0.5960765 -0.88728434 -0.51202065 -0.029975671 0.21803007 0.93546885 0.69411844 -0.10351248 -1.0024269 0.17577472 0.9431128 0.78264725 -0.62862504 -0.17138284 0.1869078 0.8260693 -0.40891713 -0.20862332 0.15087958 -0.9660088 -0.5089034 -0.18106966 -0.79345924 -0.036042064 -0.6687408 -0.16074091 0.009157076 0.65055215 0.12241689
('방식','Noun') -0.57244277 0.52655685 -0.35670406 1.191517 0.07432478 -0.044126015 0.44523916 -0.6269886 -0.25061873 -0.8439816 -0.53354603 0.001978012 -0.4036739 0.03782758 0.1714532 -0.77368945 -0.13042608 -0.38393942 0.33792517 0.48750758 -0.5775218 -0.11374682 0.27306145 0.5040227 -0.4902248 -1.7289319 -0.0266858 -0.8865679 -0.1087848 -0.4967188 0.53615236 1.0676963 -0.88292533 0.03324396 -0.37840468 -0.20630251 -0.6372965 0.1403039 0.82636744 -0.33536917 -0.41542512 0.51272535 0.84883916 -0.63640136 -0.65902776 0.055634927 -0.2393917 -1.738538 0.654887 -0.5603644
('7','Number') -0.12887451 0.49409148 -0.5609673 0.5432263 0.72552645 -0.7646782 -0.13650478 -0.8006815 0.5799018 -0.08637056 1.0034777 0.29674298 -0.21326381 -0.046527497 -0.99044544 0.2779395 -0.36327994 -0.22363392 -1.2320083 0.4675078 0.008323469 1.0108207 -0.5670801 -0.83385223 -0.32400602 -1.3522451 -0.48702335 -0.8966629 0.82718873 0.004056257 0.5419715 0.11449821 -0.9336951 0.94696254 -0.22352149 -1.184833 -0.34340394 -0.5151968 -0.6505176 -0.82362205 0.21168402 -0.8832568 1.0017673 -1.1162318 0.57460445 0.8906597 -0.34551913 0.0063912156 -0.49398333 0.81108516
('한글','Noun') -0.8367317 0.4132866 -0.16347572 0.27531785 0.333876 -1.2050625 -0.22229807 0.0610094 0.49040914 -0.5334537 0.2305677 0.6558658 0.5360928 1.1954564 -0.30272403 0.17047037 -0.35763168 -0.25941423 0.15241247 0.18348724 0.2623961 0.14949109 0.048626725 0.7723284 -0.38621843 -1.4912827 -0.3274666 0.53386295 0.19259746 0.24885714 -0.40755358 0.38622418 0.23421952 0.7097927 0.18875107 -1.0413944 -0.7982966 0.742135 0.16370772 0.19521333 -0.59618324 -0.25412646 -0.45051587 -0.6225652 -0.09036453 -0.7404932 0.4692118 -1.2583405 -0.5029036 -0.64184415
('기간','Noun') -0.39812 0.07467208 -0.13854991 -0.068182014 -0.22408733 -0.89410555 0.3396644 0.050879624 -0.73180187 0.40271693 0.06584459 -0.3946065 0.39925084 -0.65775794 -1.0301574 0.04061754 1.0457073 0.62270665 -0.66695815 1.0985311 0.15934622 0.80741805 -0.5392209 0.94595873 -0.2324196 -0.22959976 0.5735877 -0.8441448 -0.5258523 0.7605044 0.38204265 0.66853243 0.5279478 -0.0584559 -0.35688955 -0.21271631 0.7700738 -0.224637 1.1959468 0.44965518 -0.5638388 -0.9467272 0.5684847 -1.445179 -0.61766535 -0.6994095 -0.10063444 -0.7146649 -0.7388806 0.29953507
('한번','Noun') -0.79804236 0.5083463 0.29277378 0.16153458 -0.27488017 -1.1909965 0.5848598 -1.1169721 0.5617253 0.02027193 0.22469194 0.87196016 -0.41470823 1.2288951 -0.5162121 0.34361127 -0.29552764 0.19508298 0.27063376 -0.64413697 -0.5314063 0.11103702 0.81378543 0.15583964 -1.2785023 -0.61191934 0.3779781 -0.8929289 0.15481526 0.45914245 0.67404765 0.6405536 -1.3264202 0.713547 0.6076824 -0.510188 -0.7746998 0.6631995 0.4229013 0.84287125 0.5859721 -0.06818402 0.44352672 -1.9328213 -1.1624995 0.77460426 0.4013752 -0.039927844 -0.24183583 0.5277388
('허','Verb') 0.5092408 0.87357044 1.1272067 0.26557186 -0.5044998 -0.11438297 0.53250694 -0.6270812 0.70087343 0.026294025 0.17210238 0.0005328641 0.648321 1.2434711 -1.2028577 -1.1300466 -0.3703618 -0.13716295 -0.14624846 -0.0865123 -0.35471836 1.2677113 0.7825844 0.6382899 -0.8438437 -0.04152289 0.5521345 -1.2112939 0.651676 0.42278367 -0.97911286 -0.1486188 -1.1921684 -0.53783584 -0.5952848 -0.45705226 -0.58346224 -1.0385568 0.19981343 0.44803664 0.19381212 -0.95159054 -0.61038244 -0.49633533 -0.23457187 -0.53487784 -0.60422826 0.18741968 0.0400853 0.14872995
('동안','Noun') -0.20433274 0.84409845 1.3471446 0.023667106 0.42782095 0.13605583 0.3015298 -0.6208122 -0.7807776 0.19729841 0.6022511 0.9207401 1.4369321 -0.5920595 0.09995021 -0.49691805 -0.13426839 0.29714653 0.20504625 0.6790831 0.03207881 -0.16815169 -0.3978405 0.59782386 -0.784325 -1.1990628 0.68733746 0.52886474 -0.62906253 -0.61238813 -0.9019937 0.712121 -0.07657347 0.44769597 0.80218726 -0.55593204 -0.41602048 0.75513864 -0.3894632 -0.39065966 0.656269 0.07159608 -0.13140965 -0.5291411 0.29529467 0.74930835 0.77147377 -0.8716012 1.2041217 -0.81321543
('손','Noun') 0.74900585 0.62786317 0.9575635 1.0567911 -0.51366407 0.14098288 -0.16106293 -0.3148538 -0.698362 0.29099935 0.1814746 0.035997156 1.0464619 -0.64470404 0.29449925 0.7253717 -0.70961475 0.31579953 -0.7645281 0.35364562 -0.5261089 -0.6249233 0.30441934 0.6067451 -0.8363814 -0.77934176 0.20791264 0.6200335 0.45283145 0.16495661 -0.3490142 -0.511909 -0.8245458 0.734448 0.73798776 -0.7663854 -0.8897642 -0.876026 -0.58532727 0.2801542 -0.5615699 0.2589008 0.44529125 -1.3436913 -1.0312384 0.22720808 0.30529583 -1.3862576 0.7186335 -0.28502625
('체크','Noun') -0.8465297 0.7041222 0.17545593 0.8285559 0.10541547 -0.53189373 0.5926786 -0.15053341 -0.5350217 0.6924172 0.78021044 0.04235135 -0.6576109 1.0138986 0.40583897 -0.77722245 1.0091977 0.46102408 -0.9980273 0.37332857 -0.12725535 -0.05341474 -0.41043025 0.86448973 -0.5441659 -1.0410528 0.52896863 -0.33297578 -0.4612289 -0.6335605 -0.23329552 -0.3696157 0.49027884 0.61776435 0.22432771 -0.5372977 -1.0269915 -0.6043588 -0.12563941 0.8535164 -0.20837748 -0.0822656 0.22646865 -0.30223864 -0.5836271 0.39985922 -0.3401 -1.4420208 0.20530896 0.30424988
('다음','Noun') -0.43655127 1.0176815 0.014693888 1.043921 -0.15742554 0.25148663 -0.61183256 -1.0225253 0.82367957 -0.24611348 -0.29021677 0.39821452 0.33394888 -0.68230796 0.6399952 -0.55939394 -0.2416414 -0.14196229 0.23553933 0.987045 -0.16352274 0.5223617 0.8632754 0.10623558 0.35317686 -1.3141915 0.5234411 -0.7202156 -0.57863766 -0.84244055 -0.76970416 0.9413506 -0.9054766 -0.6585065 -0.17742734 -1.176169 -0.15035003 -0.2630485 0.3578988 0.6822993 -0.17628229 -0.032375574 0.9273542 -0.98215604 -1.0661987 -0.0976088 -0.59643674 -0.46711478 -0.38648045 0.10630713
('하루','Noun') -0.24869607 -0.62070125 0.11152485 -0.091787405 0.5531605 0.72595847 -0.24156193 -0.008498762 -0.020854602 -0.62341094 0.8867574 -0.09198878 0.10994132 -0.039886374 0.7868371 0.34530026 0.8403566 -0.84746003 -0.15000322 0.8693461 -0.46333757 1.0066131 0.5044365 0.38941103 0.46612838 -1.3526202 -0.2770316 -0.44258243 0.5344762 -0.24920225 -0.55927753 0.92318213 -0.9574131 -0.6004514 -0.46760088 -0.88182795 0.25043574 -0.14943866 0.6455415 0.60871166 0.81038517 -0.18843511 0.2313413 -1.0168164 -0.39863613 0.044203024 -0.3572106 -0.9592735 0.803401 0.29970825
('노트','Noun') -0.82874256 0.63940436 -0.002766708 0.58360475 0.43038952 0.58748156 0.25155932 0.3053729 0.3364876 -0.44194946 0.41607246 0.83180135 1.074709 0.9597932 0.7397551 -0.40746227 -0.5581294 0.79502475 0.074491866 1.0169171 0.07598928 0.19582297 0.37637943 -0.44048825 -0.34869057 -1.2400739 -0.49210405 0.5148072 0.8611603 -0.31314522 -1.1808182 0.51575375 -0.43098006 0.9521083 -0.6386208 -1.3511809 0.87857956 -0.48514614 -0.50808084 0.22639716 -0.7041346 -0.26137742 -0.07115272 -0.49492306 0.1507533 -0.9525468 0.6187811 -0.57243985 -0.5959774 -0.46140546
('교','Noun') -0.73246235 0.3784893 -0.52266127 0.4577809 -0.30234638 0.018791378 0.07762064 -1.3751522 -0.26137343 -0.7051346 -0.1286668 0.4353952 0.84545517 0.5573389 -0.71248955 0.03404944 0.34050652 -0.38407734 -0.5936723 0.07565513 -0.26424116 0.6871146 0.04301473 0.065690026 -1.3130568 -1.7531857 -0.12345394 -0.13625443 0.5245158 0.23290807 -0.69077533 -0.70662093 -0.21670116 0.24302039 0.78107053 -1.3742328 -0.12827584 0.45945728 0.60693246 -0.60458195 -0.62048185 0.5386519 0.9658136 -0.46983778 0.47902477 -0.61767966 0.63015246 0.13108209 -0.16304146 -0.6391137
('토스','Noun') 0.518146 -0.20403372 0.87844634 0.86974776 0.23722018 0.2675135 0.5855293 -0.14601201 0.81955665 -0.8352481 -0.05080278 -0.2574551 -0.5622863 0.6932147 0.3024365 -0.66284615 0.5993999 -1.030905 -1.177816 0.929723 0.5738757 0.48224127 0.80764014 0.41707325 -0.81590295 -1.6588815 0.19155028 0.2918522 0.6198617 0.44265074 0.4221926 -0.4482339 -0.75148493 -0.24887647 0.3725031 -0.474714 -0.34648043 -0.8338703 0.016787205 -0.08898866 -0.8953424 -0.23448516 -0.10350832 -0.9334607 -0.26117438 -0.77029353 -0.44871628 -0.040356077 -0.70931065 -0.19733265
('20','Number') 0.4416055 -0.27736935 -0.3863249 -0.6861424 1.0856228 0.23498066 0.15584007 -0.7683905 -1.0457067 -0.10046636 0.15163921 0.6520858 0.13468619 1.1066593 0.4916914 -0.44145373 -0.73849946 0.040712066 0.46535382 0.958712 -0.18791299 -0.089354426 -1.1860785 0.87040323 -0.86042947 -0.074911624 0.21080454 0.11288763 1.0994484 -0.06704355 0.07437766 0.8000341 0.06032195 0.05719562 -0.6951868 -0.7036642 0.3153079 -0.9330582 0.45297015 -0.16926591 -0.1009148 0.36522606 -0.7701905 -1.639181 -0.53860533 0.28352737 -0.40944862 -0.9867513 -0.3599078 -0.6069126
('실습','Noun') -0.47921392 -0.51300883 1.1172855 0.4485021 -0.6195668 -0.29093367 -0.75283456 -1.1323253 -0.12163007 -0.18408717 0.783616 0.8278127 0.35617697 -0.63125294 -0.3693102 -1.2727264 0.16513368 -0.8833461 -0.6544169 0.037958395 -0.69276404 0.2796039 -0.92630136 -0.32943827 0.28158855 -0.777002 0.043489654 -1.1312149 0.60945946 0.15080582 0.59528655 0.032429796 0.11328168 -0.26534623 0.13437556 -1.3107457 -0.5183607 -0.98674715 0.05799512 -0.44779256 0.067697436 0.20404679 0.7629303 -0.6823415 -0.98390174 -0.7939837 -0.12042286 -0.73342043 0.15280338 -0.15321884
('핀','Noun') 0.57890326 0.41099882 -0.25178996 -0.56474274 1.0362912 0.08039117 0.8075768 -0.23766688 0.38466293 0.788692 0.917975 0.5563646 0.060065337 -0.76315933 -0.36633247 -0.37079453 0.10240469 -0.628077 -1.0117718 0.12222529 0.79819995 -0.22941169 -0.3802722 -0.03295256 -0.5911112 -0.98861706 0.43143806 0.46802428 -0.22478296 0.40310243 -1.1470661 -0.52219445 -0.51025987 0.7325192 0.78619444 -0.66157997 0.49418792 -0.12878507 0.5041771 1.0268615 -0.29078376 -0.6909491 -0.40806365 -1.2704661 0.5845394 0.28531247 -1.0164857 -1.1224325 -0.2203674 0.65518856
('가능','Noun') -0.08371914 0.05845974 -0.4151424 0.47214612 0.6619752 -1.0604818 -0.31989092 -0.6754682 0.11912261 -1.0462431 -0.5074922 0.9255792 -0.23218372 -0.22641492 -0.9964018 -0.3586612 0.05869637 -0.26463377 -0.26062638 -0.44854614 -0.4241657 0.441609 -1.0150478 0.30147454 -0.8278256 -0.5216646 -0.6763927 -0.8121963 -0.11997169 0.3595877 -1.077432 1.0254147 -0.7448817 0.83887684 -0.29299852 0.31339982 0.5287466 -0.5956776 0.10449343 0.5661315 0.66457665 -0.15088452 0.43960273 -1.6615887 -0.74256134 0.22508022 0.8165496 -0.09414564 -0.5765679 0.043610126
('기준','Noun') -0.22517262 0.45263997 1.22491 0.95380723 0.8962413 -0.61125237 0.1369484 -0.004959531 -0.44862476 -0.7028273 -0.10399819 -0.053577922 -0.02223757 0.34660846 0.12146152 -0.36045805 0.019739391 -0.113817826 -0.89589715 0.4824841 0.31194356 -0.13756151 -0.9040973 0.4299563 -0.037069526 -0.86615074 0.32848543 0.20076741 -0.13543716 0.37593982 -1.0124695 0.89025223 -1.159296 0.66901296 0.6906131 -0.9261117 0.030237714 0.3525406 0.99893796 0.35952532 -0.33490387 0.07691807 0.07857883 -0.8327384 0.25139502 0.56714094 -1.0074301 -0.44471046 0.71971846 0.23540792
('터','Noun') 0.42991084 0.97701186 0.93673414 0.43762353 0.3217701 -0.6541256 -0.3129403 -0.06141808 0.07491739 -0.7349866 -0.53869104 0.6669796 -0.54694706 -0.6297288 -0.7801037 0.13589521 0.71779406 -0.80019295 -0.44642442 0.66140425 -0.49972242 -0.09200809 0.7031185 0.03655713 0.37125102 -0.28132793 0.8191172 -0.496744 0.27714017 -0.534236 -1.1568706 0.54721045 -0.19351107 1.1297932 -0.44453079 -1.5091449 0.36680308 -0.6910921 0.2512078 0.10986565 0.7570844 -0.3744034 -0.44480535 -1.3385822 -0.8452938 -0.81187344 -0.8233454 -0.7789098 -0.79138786 0.57183677
('필기','Noun') -0.5750875 -0.075948685 -0.3621902 0.99744314 -0.02695918 0.50586325 -0.006499093 -0.76961124 0.7812311 0.093806736 0.56718004 0.27290663 0.7581377 0.72018886 0.45373854 -0.9205034 -0.3182119 0.075164445 0.17621487 -0.57399654 -0.21146174 0.011419165 -0.22080632 -0.51352596 0.030300612 -1.7826874 0.18363415 -0.80090237 1.1450493 0.70978045 -0.8749526 1.0701747 -1.0401194 0.24872656 -0.5461197 -0.31221563 0.6103073 -0.20097084 -0.51488227 0.88399255 -0.26300207 -1.2459351 -0.037150245 -0.6217345 -0.81967294 -0.08025068 0.16367987 -0.7426527 -0.4586134 0.59572333
('참여','Noun') -0.42986605 -0.6762887 0.27295858 -0.7027448 0.18890786 -0.9637839 0.90020806 -0.5127761 0.7494799 -0.79869974 -0.16718788 0.46806195 0.5411079 1.2741127 -0.2658453 -0.21716201 0.7571989 -0.3266299 0.060717206 0.7810551 0.34957454 1.1202912 -0.41737306 0.2664083 -0.76984954 -1.0634742 -0.13635597 0.6820742 0.59925723 0.09489372 0.32455546 0.00907979 -1.3084694 0.36680707 -0.25712013 -0.05290862 0.23569395 0.47812983 -0.3529987 -0.75379646 -0.014800645 -0.6017253 0.5966064 -0.8329458 0.6886764 -0.55500865 0.44388986 -0.34160534 0.30723917 -0.07475869
('봄','Noun') 0.9051021 -0.50409955 -0.61988384 -0.6316629 -0.25252232 -1.1097081 -0.1541479 -0.13299628 -0.44327867 0.9560084 -0.72991157 0.4221272 1.2304031 0.2954636 -1.1521894 -0.8623323 1.2634345 -0.22479476 -0.18623394 1.2153447 0.052479878 0.24152568 -0.20084833 -0.2877446 -0.53918296 -0.44161096 -0.90259147 -0.86474115 0.88240725 -0.028057877 -0.996278 -0.6421802 -0.21000847 0.17590027 0.66703624 -0.60477656 0.9560003 -0.37621698 -0.4895193 0.68115747 -0.82218856 -0.0046136375 -0.52410275 -0.64949644 0.22682008 -0.74120635 -0.44003814 -1.0658998 -0.14822227 0.8470034
('후기','Noun') -0.15193196 0.3166028 -0.31128487 0.7413425 -0.34623367 0.19136636 0.9784124 -0.44774362 0.29143625 -0.12863651 -0.82966805 0.5189185 0.655804 0.34501424 -0.7189966 -0.9167733 0.93633044 0.9625718 -0.5344511 0.89233506 -0.75968134 1.1073592 0.2753876 1.0019784 -0.32141665 -0.6859436 -0.30971247 -0.57071745 0.2663394 0.3564627 -1.0094384 0.48996255 -0.8518663 -0.48024112 -0.80134505 -0.1196388 -0.19093357 -0.95597667 0.31724322 -0.8404558 -0.3881361 0.71699315 -0.7662891 -1.0708933 -0.70019317 -0.53859 0.105856836 -0.15717968 -0.8413169 -0.8947306
('기출','Noun') -0.22294728 0.30925944 -0.12875539 0.47627828 0.2580014 0.053474557 0.28633544 -0.32217386 0.024004648 0.78999984 0.20074397 -0.0962 0.64132345 0.40781227 -1.0200248 -0.6553599 1.001347 0.0065953024 -0.8363111 0.84602326 -1.0645387 -0.4570808 -0.71899855 0.71543306 -0.7722841 -1.128095 -0.8087686 -0.41711482 0.5921148 -0.98373204 0.4105311 0.40339404 -0.29283547 0.8402627 0.2935343 0.14755438 0.4145892 -0.94599134 -0.8824604 0.25837383 -0.70369196 -0.8034764 -0.012123252 -0.17260109 -0.7029562 0.79170555 -0.19886483 -0.29004446 -0.22291319 -0.4428237
('티','Noun') 0.8058489 0.121216 -0.077932954 0.99205047 0.30628368 0.33155707 -0.09080141 0.17281917 -0.9274831 -0.019219998 -0.82912314 0.9104169 -0.60421574 -0.56005096 0.29843047 -0.58986944 0.8844199 -0.32100037 -0.39633352 1.060193 0.24363407 0.540293 -0.13854013 1.0271703 -1.0603399 -0.72731054 -0.24313709 0.35299224 1.0708674 0.03637337 -0.86282027 0.6831733 0.26628917 -0.40378514 0.56130075 -1.0557145 -0.07287646 0.8268521 -0.49230736 0.92870605 -0.18658814 -0.42073354 -0.29231104 -1.6529319 -0.3956742 -0.92105526 -0.13700071 0.3545676 1.0121037 0.14620237
('필','Noun') -0.110635966 -0.09026599 -0.69785285 0.24308816 0.5806119 -0.08784468 0.49665785 -0.8451172 0.2179944 0.25164336 0.4061572 -0.6039766 -0.27167276 0.68730897 -1.2752025 0.47600913 0.5037908 0.8266991 -1.0691094 -0.4017612 -0.45526388 0.75813854 -0.42642242 -0.83869445 -0.58895636 -0.18181807 -0.2559251 -0.24901891 0.7099 0.53811544 -1.2128755 0.8974278 -1.0809417 0.8320604 0.41102466 0.33676624 -0.102531515 0.37084764 0.31619376 0.60786015 -0.17140087 0.1193274 -0.7420507 -1.4976753 -0.21844703 -0.049556036 -0.40191674 -0.978723 0.8730515 -0.8705497
('필수','Noun') 0.5714779 -0.9491429 0.31623772 -0.59588003 -0.4829018 0.5276246 -0.019667335 -0.39023927 -0.23998643 -0.3004214 -0.24657647 0.8473519 0.24997295 -0.11363383 0.63432974 -0.55837184 0.3071129 0.8364308 0.11449299 1.0852581 -0.92060286 -0.038306277 0.38776237 -0.67786777 -1.0904108 -0.11413151 -0.7619673 -0.9793707 -0.41890806 -0.84636664 -0.21447194 0.52240944 -0.45957687 0.2956606 0.20880406 -1.1655866 -0.29924753 -0.80132794 0.8134576 0.5969829 -0.32745954 -0.9378381 0.53178793 -1.4765633 0.23692834 0.04418967 -0.8289558 -0.46553534 0.021954585 0.15610276
('개론','Noun') 0.14299686 0.47644427 0.40911114 0.27888355 0.1341241 0.16754426 0.09138435 -0.7169772 -0.97379035 0.4640051 0.8481102 0.15915641 1.0660801 -0.786428 -0.26811966 0.66106427 -0.25038815 0.36190087 -1.1657645 -0.38350224 -0.29136494 0.98574215 -0.034930877 -0.0044474574 -0.16663158 -0.49456778 -0.71674746 0.21447223 0.45092064 -0.75309306 -0.12564646 -0.14414062 0.28326902 0.22639707 0.093291424 -0.29286805 -0.031343687 -0.62876016 0.738693 -0.041221086 -0.3762865 -0.32219774 -0.5767613 -1.3207325 0.6851172 -0.53149015 -0.5936698 -1.23124 -0.59380585 -0.74414736
('하','Exclamation') -0.2850759 -0.40635508 0.48040825 0.84529483 -0.062434357 -0.40546566 0.37545112 -0.08308096 -1.1041805 -0.65888506 0.17901398 0.60253674 0.26586145 -0.32562762 -0.45518804 -0.57043993 -0.44987515 0.39220184 -0.049483545 0.21557823 0.28488073 1.1556102 0.29528424 0.2843886 -0.08893944 -0.3162729 0.54107094 -0.18725611 -0.6848811 -0.05926016 -0.77057195 0.99735683 -1.1024048 0.7209748 -0.90852296 -0.57636386 -0.61386406 -0.72162396 0.7093348 0.18345928 0.22047004 0.496056 0.6002714 -1.2235345 0.61605835 -0.75844234 -0.51157457 -0.45560437 0.15939179 0.3493512
('데이터','Noun') 0.08717179 -0.58718896 1.1156399 0.01565734 -0.6001425 -1.1357166 -0.2057835 0.22253014 0.115669616 -0.5231232 0.18331917 -0.25398555 0.04510334 -0.1764718 -0.58406025 0.13293363 -0.11914595 0.38468665 -1.0199049 0.94265234 0.32493857 0.08348077 0.42850536 -0.056260575 -0.43713793 -0.91723716 -0.34321028 -0.5028496 -0.6869739 -0.4652834 -0.48288918 -0.07722556 -0.7719123 -0.15785931 -0.48679614 0.0381422 -0.35770723 0.47528857 -0.6415394 0.74956906 0.7098662 0.2279752 -0.3752257 -1.1418787 -1.2366068 -0.47264352 -0.3134983 -0.9149409 0.5713993 -0.052284833
('날','Noun') 0.7618098 1.0239176 -0.5548499 -0.27725515 -0.3519794 -0.9013443 0.2951714 -0.18330377 -0.65091026 0.8803636 0.27368793 0.73916817 1.311925 0.82950985 0.14052057 0.29440525 0.042330753 0.23001349 -0.67329764 1.2957404 -0.9389982 1.2543234 -0.48334634 -0.69318503 -1.1857439 -0.7509039 0.7005289 0.2079524 -0.08527849 0.32784685 0.00031533718 1.1108162 0.42461184 -0.018242206 -0.43541977 -1.3109967 0.64419854 -0.6173499 0.32742655 0.80588675 -0.74495184 0.72343624 0.3231849 -0.04524234 -0.7215247 -0.5749746 -0.77407485 0.15770294 -0.6254903 0.497882
('전산학','Noun') -0.42948288 0.6376439 -0.5849128 0.2550752 0.35030398 -0.18387592 0.68035924 -0.9831895 -0.48058712 -0.41411355 -0.025739921 0.12990804 0.8663421 1.1697497 -0.8424727 0.3423294 1.255452 -0.75207466 0.06932684 0.51735145 -0.05690248 -0.06818499 -0.29368126 0.58659667 -0.8103647 0.07264464 0.63121474 0.4774748 0.7514852 -0.37109452 -0.71993923 0.60923254 0.5922014 -0.049908772 0.4937854 -0.9840272 0.004766478 -0.50343907 -0.00013416132 0.034447752 -0.1124706 0.45495626 -0.221881 -1.1556661 -0.2354698 -0.4702231 -0.49532017 -1.0969596 0.15485166 0.26601726
('80','Number') -0.076691344 0.17906049 -0.5732872 -0.27188542 0.9804275 -0.28565145 0.06340997 -0.19285204 0.81134915 0.948866 0.39030918 -0.72218174 0.90612274 0.30140752 -0.8379372 -0.2688607 -0.2164519 -0.51530105 0.6508287 0.5810693 -0.9240512 1.2487537 -0.6773103 -0.28222653 -1.1581576 -1.430389 0.77619576 0.038741905 -0.045121245 -0.4470082 0.73455185 0.78807217 0.04453106 -0.26053992 -0.559897 0.0005275216 0.6761047 -0.28593388 0.5290543 0.14511935 -0.093216136 -0.2194609 0.17907657 -0.5107338 -1.0674534 -0.77256435 -1.0588801 0.21295962 -0.8351497 0.5291553
('임','Noun') -0.7744656 0.66921526 0.31826386 0.39439127 1.0286821 0.041906208 0.6416864 -1.1142526 0.20669243 -0.0041294964 -0.5784572 -0.694129 1.2443243 0.49554923 -0.86006165 0.2988745 0.39636242 1.0413779 0.34246695 0.027893208 0.21844292 0.7226896 -0.6372196 1.0266895 -0.26147476 -0.22431123 -0.29700407 0.76709235 -0.6849223 0.21251713 0.2493783 -0.72685534 0.5498115 0.87134516 0.24757798 -1.1441145 -0.51530355 -0.5620081 -0.75169384 0.59648794 0.5669805 -0.692475 0.8932348 -1.3828388 0.3543466 -0.2779986 -0.71781206 -1.2042059 0.56978637 0.17300884
('위','Noun') 0.74366224 0.92298037 0.720445 0.64004004 0.83777016 0.29165933 -0.5644716 -0.51017493 0.6314801 -0.6733933 0.96234685 0.5734256 0.3805174 -0.5215485 0.06359298 -1.180255 0.49325708 0.029633835 -0.30516773 -0.6090757 -0.77068824 0.35166112 0.4405204 0.9437539 -0.8973456 -1.7244176 0.19589175 -0.01461639 0.05454276 -0.54762965 -0.28710738 0.71390796 0.30720454 1.0590953 0.17588541 -0.77622414 0.03076026 0.42439473 -0.3683245 -0.57973486 0.251544 0.5243888 0.7456116 -0.29449347 -0.91687196 0.081275575 0.25669217 -0.46262082 -0.42815608 0.43887
('차','Noun') -0.553555 -0.17276399 -0.32384083 1.1549786 -0.56915426 0.55119044 -0.6483262 0.35923845 -0.65781033 0.67918086 0.3017538 -0.72645676 0.7710496 0.8469558 0.2665 -0.4897263 -0.54278284 -0.6354238 0.2011048 0.5743423 0.56195325 0.8776406 -0.16967957 0.5323982 0.25696504 -1.2614524 0.5818601 0.43918267 0.6015723 -0.6817381 -1.0124829 -0.5937774 -0.34037364 0.44894496 0.967286 -0.37396136 -0.6736484 -0.20291057 1.020735 -0.056665234 0.48985437 -0.6645762 0.6179198 -1.601916 -0.7407438 -0.4042291 0.34183434 -0.5389219 0.47689563 -0.19468927
('장','Noun') 0.7440727 -0.46172446 1.096899 -0.30050427 1.0175759 -0.93303174 0.30736542 -0.10177273 -0.47662058 0.2663647 -0.60421395 0.1659694 -0.32899362 1.0941373 -0.8346685 0.49246162 -0.40479064 0.40420294 -0.5945904 0.45256227 -0.79572845 0.07816792 0.2327718 0.7504393 -1.3288063 -0.50480896 -0.356806 -0.35136876 0.54516405 -0.16242173 -0.8182092 0.6596454 0.20423144 0.80827147 0.7554652 -0.57924026 0.21673018 0.2997768 0.19660036 0.55233204 0.6028481 -1.1799911 -0.4919495 -0.10016961 -0.32078847 0.28728387 0.16235553 -0.84484094 -0.85942596 0.4802276
('90','Number') 0.49683365 0.6165436 -0.13519856 0.5161723 1.0068072 -0.59493136 1.0869168 -0.08006751 -0.78034 0.23260927 -0.5370482 1.126353 0.6905504 0.25104082 0.045557175 0.69034266 0.6348674 -0.063087374 -1.0136058 0.91315967 -0.9673889 1.0079019 -1.0931505 -0.46626768 -0.2325302 -1.6173462 0.8127889 0.30786708 0.1097263 -0.0778261 -0.6063997 0.330869 -0.6113506 0.006990988 0.052825425 -1.1732717 -0.5698991 -0.08667164 -0.119991034 0.3397499 -0.4050989 0.24417683 0.9754002 -0.3704717 0.79189026 -0.33927462 0.42688674 0.020484606 -0.19539641 -0.06505793
('전체','Noun') 0.33027047 -0.4784958 -0.374469 0.34115598 -0.38674185 0.18605028 -0.27025664 -1.0355844 -0.59616965 -0.713721 1.0616903 0.772048 0.6328659 -0.61263734 0.33125138 0.07118592 1.0994157 0.716966 0.34124434 -0.33534876 -1.0619862 0.7185616 -0.46626055 -0.52817804 -0.67840433 -1.2934562 -0.41302702 -1.1196445 0.90964013 -0.59936404 0.38166395 0.83540505 0.4430508 0.20162411 0.063813135 -0.08374799 0.2162492 -0.46338797 0.340129 -0.5980039 -0.7542632 -0.4693226 0.14535859 -1.0143776 0.4083078 0.35109022 0.6863945 -1.3077469 1.0060916 0.026721327
('머신','Noun') 0.4595682 -0.32074925 0.3961761 0.83205 0.58798474 -0.7615191 -0.11027763 -1.4188766 -0.4466974 -0.72122735 1.013917 0.09796935 0.73186666 0.9120224 -0.81227046 -0.7011519 0.7725345 -0.7882248 -0.45242065 -0.050167467 0.6130729 0.680169 0.41259614 -0.23886561 -0.311606 -0.2726506 -0.9725916 -0.91535294 -0.17444438 0.6705254 -0.40589553 0.6128195 -1.2299877 0.39193624 -0.57310915 0.3950833 0.6387654 0.8434721 1.0167505 -0.44115832 0.79658663 0.09433688 -0.57479787 -0.82541764 0.19200514 -0.49599937 -0.6767617 -0.12189566 1.0379866 -0.75683254
('로','Josa') 0.45783406 -0.05417223 1.0759196 1.0192578 -0.6668835 -0.52943325 0.7803585 -0.01403967 -0.43538713 0.06928977 -0.4121005 0.8401588 -0.62822694 0.7563421 -0.69242305 0.33390644 0.36929 0.8356014 0.70842594 1.2582191 -0.36905226 1.271069 -0.054259878 -0.27153298 0.6699891 -0.9003913 -0.9060132 0.73345494 0.39344332 -0.7709681 -0.815244 -0.13780093 0.7762446 -0.4191513 0.42927992 -0.8901864 0.5130567 0.06540864 0.3774342 0.48137861 -0.42883217 0.5377576 -0.91825324 0.07132028 0.6616202 -0.5627915 0.7927983 -0.44454324 0.4052017 -0.9353748
('평','Noun') 1.0020661 0.4191705 0.7727035 -0.5456586 1.0264218 -0.6742613 0.35462835 -0.7704498 -0.56191874 0.09314343 -0.18455292 0.85922164 0.09143064 0.8623225 -0.7497731 -0.4016222 -0.2464994 0.16538641 -0.8850667 -0.04750374 0.08895012 0.14099726 -0.976657 -0.17305578 -0.78262943 -0.9370985 -0.5516786 0.51575404 0.34579724 -1.0354733 -0.24295126 -0.19170272 0.14197415 -0.5460704 -0.5922043 -0.5672425 0.029525345 -0.303925 0.2504457 0.959897 -1.0123076 -0.8016703 -0.013436581 0.035942648 0.13067293 0.7868757 0.8163962 -0.8133237 -0.72424054 -0.05366205
('쪽','Noun') 0.33615652 0.8982262 -0.6041792 0.33168986 -0.4771613 -0.62595844 -0.49658963 -0.8082077 -0.1561034 -0.8365065 -0.079926625 -0.74567854 0.1952122 0.69783574 0.07256544 -0.9419637 0.87761384 -0.3161242 -0.49953008 0.31055102 0.33391643 0.8440544 0.6097316 0.4880485 -0.64773595 -1.0152781 0.3487966 0.04649847 0.8301105 0.6302065 0.5484836 0.8686891 -0.5052437 -0.27263582 0.19542848 -0.03174509 0.7537828 -1.0680377 -0.81398404 0.91106355 -1.2579881 -1.0263772 0.5526167 -0.56761354 -1.1242568 0.18744183 0.4496702 -1.1297549 -0.68962187 0.54693764
('열정','Noun') -0.68221223 -0.11983802 -0.22023574 -0.3428294 0.14644025 0.0042023836 0.3637939 -1.0949117 -1.0962449 0.018143883 0.56519073 -0.7952588 0.5465163 1.0774347 -0.51261187 0.56361777 1.0544986 0.74600255 -0.15351085 0.8559559 0.26213464 -0.16639206 -0.8715083 0.28990647 0.1822583 -1.1053705 0.38840693 0.20976633 0.55292994 0.06578109 0.40160388 0.18979 -0.4929907 -0.1930346 -0.11952769 -0.16120602 -0.0089849755 -0.1369355 0.6549737 0.6905914 0.3909159 -1.0808487 -0.45981205 -0.5355227 0.6291093 -0.20379129 -0.2931369 -1.2711897 0.5966432 0.30998728
('석영','Noun') 0.8394258 0.99855375 1.0951943 0.56124413 0.8015674 -0.123057716 0.03709231 0.24981602 0.21742038 0.4709914 0.1563588 0.7543933 0.87227744 -0.6177999 0.5380544 -0.16816443 -0.12136651 0.95384765 -0.3284647 0.55793005 0.5024431 0.20532903 -1.1102867 0.082638845 0.18079664 -0.7206068 -0.33584997 -0.92361385 -0.10750639 0.55609304 0.07123585 0.48289654 0.2840355 0.034398757 -0.25840378 -1.0384055 -0.6179007 -0.65390444 -0.6539308 0.24643275 0.7273851 -1.3520763 -0.10128409 -1.962996 -0.29057142 -0.1728828 0.5289755 -0.0010021916 0.30793035 0.3929702
('중','Suffix') 0.6148197 -0.66381586 0.012601084 0.12046721 -0.037734255 0.7368695 -0.68681836 0.11108023 -0.08482726 -0.881579 0.2027027 0.37913105 0.6433198 -0.26680976 -0.7672433 -0.70174867 0.311772 0.3754388 -0.7760057 0.11150349 -0.17466626 0.34458235 -0.9049044 0.7781606 -0.43221635 0.16182229 0.15415898 -0.12688908 -0.23474298 0.021533195 -0.8850142 0.8681008 -0.090665005 0.39850825 0.82484126 -0.027651057 0.61275554 0.67921716 -0.049464684 0.050582655 0.17791292 -0.93791324 -0.8722869 -0.6185698 0.024778137 -0.13112365 -0.42906386 -0.6682511 -0.59367484 0.15368672
('오픈','Noun') 0.59793144 -0.65934855 -0.20570025 0.7352356 0.2902999 -0.32314387 -0.095900215 -0.23806082 -0.7078415 0.002697527 -0.26956216 -0.36718792 -0.53290075 0.6065562 0.61050564 0.62698436 0.7919558 -0.46831584 -0.24658795 -0.55115384 -0.23496853 0.9106667 -0.7562744 0.444091 -0.4182991 0.18089245 -0.5462157 -0.15474012 0.52893585 -0.8606438 -0.59083426 1.0759737 -0.49961457 0.6544258 -0.037916727 -0.82978845 0.26429704 0.3355491 0.31141165 -0.1472983 -0.21659088 0.66404754 -0.640632 -1.7410868 0.7078483 0.69149643 -1.027906 -1.4839526 -0.82800186 0.10664797
('량','Noun') -0.5426096 0.8276518 0.9864357 0.2546284 0.44651708 -0.15787387 -0.42671508 0.39446527 -0.43064502 -1.024976 -0.5662758 0.36988637 1.001078 0.6866307 -0.87390375 -0.88959163 -0.41157997 -0.3388348 -0.9136852 0.26710445 0.4665521 0.7738929 0.06342798 -0.28748164 -0.60127854 -0.82056123 -0.8554746 0.2721688 0.42657894 -1.0866684 -0.2619475 0.34279314 -0.14752872 -0.1594338 -0.10527667 0.27603433 -0.35610533 0.33410993 -0.14073646 -0.004085896 -0.7267803 -0.22461738 -0.0352746 -0.22382344 -0.047172584 0.17020677 -0.7116824 -0.6579099 0.6313671 0.76978534
('상위','Noun') -1.0363632 0.10254673 0.99803215 1.0456195 0.10311918 0.5228519 -0.49694398 -0.13499968 0.5260407 -0.07752631 1.0361875 -0.8042483 0.10585104 1.0072362 0.3822285 0.29705125 -0.14608203 -0.84561247 0.26061308 0.4107675 -0.26103428 0.3488548 0.77786875 -0.3152156 -0.78878605 -0.49830586 0.37250993 0.528264 -0.61486125 -0.8339063 0.4797731 -0.030141888 0.35159534 1.2120907 -0.9275387 -0.6646401 0.9234019 -1.0329436 -0.7468049 -0.61698747 -1.0398706 0.17973505 -0.7280105 -1.6413014 -0.20773005 0.28175873 -0.91486263 -0.5085377 0.7851977 -0.78063923
('적극','Noun') -0.8855221 -0.87621653 1.0777956 -0.37001365 1.0132741 0.065756135 0.88649327 -0.99593216 0.66020757 0.31080863 0.07106172 -0.077896714 0.9079225 0.35144693 0.10006295 -0.6048428 0.5404945 -0.585245 -0.26751465 0.052973118 0.4307672 -0.24510749 -0.43954906 0.98822033 -0.6215088 -1.2635165 -0.9887596 0.52364206 -0.32037464 -0.29299575 -0.60826004 0.8022433 -0.45773235 -0.4108721 -0.7487892 0.3682168 0.3922462 -0.032260362 0.14356115 0.72681844 -0.9952885 0.13502318 0.19623058 -0.8910326 0.041349575 -0.62081856 0.1442337 0.25053126 -0.31400895 0.50599724
('버스','Noun') 0.030609518 -0.71608686 -0.63209325 0.43549237 0.47142556 -0.5202143 -0.61521816 -0.7502801 0.43075997 0.05856086 1.0290852 0.61673874 0.36945122 0.09114755 -0.92222446 -0.39298445 0.80595136 0.11952428 0.00074217666 0.5165334 -0.1750405 1.0684031 -0.59564394 0.9568563 0.54274404 0.14033438 -0.18996075 0.038087804 -0.5300963 -0.59155864 -0.86367345 -0.70699316 0.2827311 0.48695448 -0.72722936 -0.02486939 0.5858171 -0.9798376 -0.85367674 -0.5386612 0.4725451 0.43778914 0.18430512 -1.4410862 -0.6668558 -0.51394194 0.66889066 -1.3546258 0.7729704 -0.7726545
('내','Noun') -0.03528029 0.8577238 -0.6379899 -0.19908878 -0.054158896 -0.5099852 0.23113255 0.32000342 0.50524646 -0.86092216 -0.49085915 -0.78932726 1.0785168 0.35883266 -0.70002115 0.38207066 0.48831537 0.4020744 -0.62113506 0.29901856 -0.39954376 0.6771543 -0.49416786 -0.46795267 -1.6540941 -0.8044942 0.4925463 0.6294373 -0.079244606 -0.45268366 0.066116534 0.8472453 0.14053698 -0.6964764 0.55019665 -0.49981925 0.204563 0.014908517 -0.30260384 0.681178 0.07449405 0.049196675 0.2820285 -0.84324443 -1.0191696 -0.34992367 0.75269693 -1.4313251 -0.6126127 0.71520597
('테','Noun') -0.5328443 0.7782173 0.78917384 -0.28396124 0.44905174 0.6307634 -0.05204451 -0.67962873 0.27169263 -0.13917626 -0.81810904 -0.21819104 0.51606673 -0.4870209 -0.85059845 -0.75863546 -0.52636 -0.17037086 -0.52659667 -0.13519113 -0.54504323 0.9526236 0.44075495 0.27321288 -0.2835476 -0.7329836 -0.53843045 -0.58172905 0.6920816 0.1625362 0.5230815 1.1045387 0.8723771 0.6004342 -0.8053277 -0.11004123 0.75672793 0.27292737 0.05359899 -0.27199075 0.65111405 -0.7851297 0.09634227 -0.7583515 -1.001907 -0.4101937 -0.4258506 -1.0122768 -0.000858987 -0.25977698
('감','Noun') 0.86381054 -0.100736424 0.46873334 0.6119868 0.74015415 0.4559854 0.13661805 -0.8858241 0.33239076 -0.44529673 -0.04986266 -0.6808641 0.59001195 -0.015314373 0.590117 -1.0330406 1.2387605 0.7178341 0.15436636 -0.313538 -0.98039937 0.2374788 0.311332 0.224452 -0.035100944 -1.0730968 0.09012099 0.6737742 -0.630852 0.3847963 -0.56749004 1.1599708 -0.090670116 -0.5866501 0.6716107 -0.837618 -0.688939 0.54979503 0.80911326 0.09958347 0.53683746 -0.016212875 0.10566594 -1.9858314 -1.1969672 -0.19842643 -0.62059736 -0.16301718 -0.22846994 0.3901359
('3시간','Number') -0.54666346 0.6320369 -0.6554271 0.41965842 -0.28988752 0.15711464 -0.58104724 -0.9009065 -0.06831889 0.1921964 0.9386205 0.63470674 0.601626 0.08084643 -0.80105734 0.28104427 0.98474425 0.50514007 0.3247901 0.7724411 -0.56624824 -0.19482031 -0.3178514 0.9838603 -1.0353681 -0.7226064 0.18639825 -0.8350563 -0.48399922 -0.45472747 -0.68987274 0.47268087 -1.1902863 -0.24302457 0.79195035 -0.7290091 -0.36916888 0.056975603 0.92899686 0.67820215 0.120079935 0.14726275 0.9550318 -0.44758373 0.22606131 -0.8100139 0.5660773 -1.9573475 -0.019612428 -0.8753391
('그마','Foreign') -0.87145275 0.8098818 -0.17690733 0.66178083 -0.2589695 -0.8862587 0.031143306 0.57761663 -0.43110144 -0.69326943 0.021973232 0.5334793 -0.08766446 0.2126222 0.10819994 0.6413184 0.11604748 -0.36488253 0.5877679 0.8737448 -0.3277405 0.7281287 0.5685741 0.1223972 -1.3951256 -1.4526858 0.38368434 0.18808615 -0.75891846 -0.426288 -0.7799795 0.8757804 0.24967599 0.95499057 -0.9226712 -1.28036 0.5431432 0.6274467 -0.65381265 0.017085357 0.052076343 0.34221426 -0.10948815 -1.4849892 -0.7782758 -0.87979436 0.98779786 0.23130992 0.73739994 -0.022335099
('시기','Noun') -0.2868992 0.2080943 0.591661 0.958131 0.873639 0.17180128 0.4660926 -0.5748344 0.5765178 -0.69033444 -0.3766261 0.311275 0.5951335 0.5936855 -0.35046867 0.5363232 -0.4129089 0.36252514 -1.0966012 1.231805 -0.2017403 0.72973907 0.41460449 -0.4125476 -0.88618356 -0.16212405 -0.021261495 -0.24785478 1.0816197 0.32916817 0.54610074 0.9611504 -1.1149179 0.5769055 -0.1875414 0.08741917 -0.7563408 -0.37943122 -0.6678663 -0.22962312 0.18791409 0.47341728 0.32216752 -1.9711856 0.19484302 -0.39415246 -0.958454 -0.074825294 0.30896193 0.6958615
('메','Noun') -0.4920664 1.0589423 -0.29099154 -0.35771084 -0.16378783 0.72715026 -0.74857235 0.4864358 -0.94981945 0.2991303 -0.72031486 -0.07288198 0.0026226607 0.5626718 -0.78133696 -0.8895772 0.24735439 -0.48713893 0.34559998 -0.70524293 -0.80498976 1.2056503 -0.87997794 0.025111772 -0.33211458 -1.1790093 -0.736207 -0.28834152 0.39198288 0.8903199 -0.9623221 -0.29010078 -0.34119734 -0.84894437 0.6599737 0.13537349 1.1025014 0.15191154 0.24005602 0.5069165 0.19975644 -0.97356135 0.9368122 -1.4563104 0.34988007 0.32195947 -0.032125194 0.045700934 -0.48065856 -0.8910527
('무','Noun') 0.8996298 0.033370808 1.0628953 0.46361414 1.1553197 -0.2872305 -0.31046957 -0.38792807 -0.021820366 -0.5320362 -0.0005937843 -0.4598888 -0.0571416 -0.12481833 -0.24325489 -0.9966799 -0.011962078 0.77583325 -0.3081857 0.9170759 0.5741981 1.181573 -0.5604933 0.4608627 -1.413759 -0.08456692 0.05890394 0.6447899 1.073242 0.48872083 -1.196001 0.6413678 -0.61005616 -0.6198397 -0.6863625 -0.558481 0.060486045 0.26371783 0.5349653 0.94061136 0.37551832 -1.0017432 -0.51645494 -0.22998987 -0.7826477 -0.2438719 0.85752654 -0.14358036 0.3276468 -0.5844846
('300','Number') -0.708453 0.8681539 -0.23702899 0.9239938 0.6756438 0.23115776 0.3739187 -0.26296422 -0.4692226 -0.280484 0.2772166 -0.78641427 0.041020654 -0.80748314 -1.0712811 -0.12682092 -0.5726548 0.02029586 0.41157693 1.2570617 -0.59553385 -0.12466577 -0.2669643 0.17338297 0.17896162 -1.1327248 -0.11650548 0.25750887 0.8247887 -0.79054326 0.537462 0.9188416 -1.2975852 0.06342491 -0.48180997 -0.6361248 0.28768194 -0.811503 0.65445024 -0.2386329 0.48814327 -0.8881496 -0.62456524 -0.68970823 -0.8888945 0.52803874 -0.8521207 -1.131723 0.9349549 -0.51186603
('이론','Noun') -0.8952809 0.91617554 -0.4371189 0.09626982 1.2039106 0.3095177 0.43139073 -1.1956555 0.59429026 -0.5109684 -0.44006285 -0.114912875 0.15536186 -0.33142364 0.20401154 -0.80670077 0.8253694 0.6980731 -0.88779676 0.87907 0.20823853 1.129844 0.31329504 -0.28325832 -1.1103041 -0.45159498 0.31692964 0.65542287 0.17799444 0.38027298 -0.8655907 -0.44870633 -1.180053 1.0122837 0.914703 -0.584283 -0.3527731 -0.11349737 -0.59475315 -0.6224839 -0.8657647 -1.1286922 0.26271182 -0.23790365 0.7035236 0.43710035 0.1647853 -0.17254408 0.7096545 0.5742214
('산','Noun') -0.5975381 -0.18301927 1.1576241 0.5021955 0.5192463 -1.0861433 -0.29017636 0.647381 0.5929436 -0.8491565 -0.6463603 0.79594594 -0.22320831 -0.44669947 -0.8619042 0.53138226 -0.17093568 0.49184254 0.6316417 0.68804127 -0.12850732 1.1845236 0.12723188 0.5170665 -0.10612651 -1.5038738 0.101792775 -0.011533049 0.7242149 0.63946104 -0.8776157 0.52931887 -0.31518936 -0.5793813 -0.46166968 -0.62746984 -0.5009451 -0.9498392 0.16491462 -0.2555707 0.17681755 0.5677452 0.1907584 -1.6617589 -0.1950014 -0.16856381 0.6601584 -0.9417218 -0.6690997 0.44793132
('후반','Noun') 0.6839009 -0.8058862 -0.0988853 0.34942418 0.5530252 -0.91722655 -0.5370898 -0.78849363 -0.05249577 -0.65713966 -0.32794335 -0.4683935 1.0117787 0.29438928 0.84061986 0.5400633 0.6141269 0.8240538 -1.0476081 -0.6072629 0.44209576 -0.5657891 -0.30443195 0.7948668 -0.84344006 -0.9805521 0.28237087 -0.4630734 -0.104159795 0.4924101 0.33994147 0.015963241 -0.763408 0.50923455 0.8041456 0.5618646 -0.97219783 -0.48925233 0.42200223 0.4616535 -0.50046337 -0.9788732 0.17147131 -1.3480463 -0.43646753 -0.797761 -0.04438215 -0.62807715 0.9326961 0.64864624
('부','Noun') -0.024194553 -0.16203736 1.1304665 0.1700299 0.23414174 0.45595548 -0.6168895 -0.3278125 0.46550483 0.27253628 0.6873963 -0.13050422 0.5857453 -0.26947442 -0.85563517 -0.6853115 -0.4702838 0.61673605 0.15417783 0.18812871 0.106142595 -0.44476983 -0.60480124 -0.68460304 -1.0604726 -0.6001411 0.5234375 -0.15165663 0.5849305 -0.3684873 -0.87316024 0.9126312 -0.26931477 0.22039104 0.41380847 -0.7479933 -0.78866625 -0.8884848 0.35420075 -0.79275316 0.24526131 -0.41385078 -0.46698374 -1.0855871 0.4674137 -0.19796886 -0.4832553 -0.7836052 0.8097434 0.14919394
('기필','Noun') 0.31358898 0.82492596 -0.36174104 -0.61720085 -0.07729179 -0.822356 1.1394628 -1.0116289 -0.6894853 -0.04692108 0.22101526 0.008114573 -0.3628424 -0.603011 -0.06009904 -0.9821282 0.56972134 0.26567835 -1.4683402 0.22932884 -0.73740244 0.02522263 0.20615695 -0.46992883 -1.478126 -0.8409544 0.8021189 0.33572108 -0.7037703 -0.078139156 -1.2714477 0.83175445 0.15871318 0.8960686 -0.899383 0.26592526 -0.034437586 -0.07112322 -0.14920865 0.69586635 -0.19217643 0.4389454 0.2356772 -0.75242484 -0.5549791 -0.3054943 0.11946094 -0.98592424 0.6005455 -0.25135702
('이틀','Noun') -0.7131819 0.018152583 -0.1491524 0.76619714 1.0407809 -0.41139564 0.14052042 -1.1779307 0.84102625 -0.0668394 -0.60768145 0.13786988 0.6324362 -0.66811186 -0.86398107 0.7923515 -0.5962015 0.34122208 0.4648244 -0.56711924 0.4473915 0.95459104 0.13334516 0.12938526 -0.53010255 -1.1868078 -0.13022721 -0.33415517 0.07281952 -0.59497666 -0.3267515 0.49363637 -0.7527144 -0.6302946 -0.8959104 0.5557833 -0.47783646 -0.49524665 -0.61250114 0.15135202 0.7781194 -0.7899918 -0.61818373 -1.3963616 -0.9763768 0.1842854 0.9017043 -0.71449906 0.8710946 -0.6363895
('실라','Noun') 0.4458846 -0.63980937 -0.05952919 1.0188886 0.61861247 0.553962 0.13023487 0.22907452 0.23120373 0.6634569 0.8754156 0.6800336 -0.30324367 0.913523 -0.18644407 -0.8705251 -0.29437265 0.033891313 -0.9717854 -0.06306817 -0.28996548 0.2313008 -0.84606284 -0.32624233 -1.0051703 0.13229375 -0.86721545 -0.56546605 -0.29362026 -0.5753709 -0.92833304 0.10603352 -0.9864692 1.1730789 -0.39827955 -0.3814746 -0.35234666 -0.19338557 0.56954885 -0.5028488 0.7495404 -0.5313967 0.2734739 -1.4110748 -0.04809147 -0.30905423 0.006345312 0.04855135 0.90582347 -0.0635152
('적','Noun') -0.61489916 0.47744152 -0.14694855 -0.72894955 1.0132314 -0.7352687 -0.65614474 -0.018700205 -0.9723012 -0.23770341 0.74521726 0.89612865 1.2169293 -0.20766877 -0.51954883 -0.78984636 0.019247927 -0.37645546 0.03353856 0.3277427 0.57592875 0.17993635 -0.8966659 -0.7235252 -1.1287428 -1.3553172 0.789151 0.72979826 -0.7781866 0.0668531 -0.92798865 -0.43396345 -0.9231121 -0.63054943 -0.70214313 0.20631315 -0.89973485 -0.83708096 -0.13119718 0.5135268 0.28960803 -0.31629908 0.76277804 -1.3197316 -0.22034137 -0.5753656 -0.94992846 -0.38452846 -0.6371836 0.82323384
('인','Josa') -0.0859395 0.053472135 -0.286234 -0.8711404 0.9079804 -0.8437335 -0.41437477 -0.09517778 0.6073276 0.61755 -0.709299 -0.7336395 -0.35808042 0.33068004 0.114191614 -0.67884123 -0.7599361 -0.9447715 0.87236065 0.6176451 0.22620307 0.67778987 -1.1124346 -0.5300312 0.27905977 -0.14629921 0.78217757 0.6032042 -0.7928503 0.36600527 0.7756605 0.3187543 -0.010022452 0.5620676 0.42161745 -0.8071036 0.5296605 0.12848122 -0.3886184 -0.68036205 -0.20708434 0.5247828 0.47759 0.5603021 -0.9359645 -0.9179281 -0.48312658 -0.6382701 0.6420274 -0.057856727
('응','Noun') -0.59542906 0.113589086 0.15923569 -0.35327783 -0.3012926 0.46460274 0.57455605 -1.2090814 -0.8289119 0.7577424 0.6959484 0.72580034 1.1034514 1.1399323 0.0013056578 -0.27153465 0.4138528 0.4108357 0.15464509 1.0389881 -0.54866964 0.38759884 -0.7791276 -0.55898696 -1.398379 -0.92652684 0.41145304 -0.90258515 -0.10367021 -0.72464013 -0.99335134 0.9148934 0.23327601 -0.7166356 -0.6906468 0.19246235 0.3375402 -0.14618884 -0.69780296 0.5737899 0.2172992 -0.06959324 0.14064059 -0.8230925 -0.40232882 -0.5120016 -0.31050274 -0.2575547 -0.5450026 0.2784948
('양','Noun') 0.16286735 -0.024793565 -0.04570428 0.53129524 0.98222595 -0.8016331 0.40006587 -0.62395227 0.15947987 0.21052916 -0.668438 -0.44839665 -0.4255483 0.8636445 -0.48318905 0.47028285 -0.16841502 -0.8966462 -0.19298215 0.7661528 -0.9119553 0.84862256 -0.8939809 -0.16717003 0.15687078 -0.7784391 0.64722216 0.6662917 0.19755341 0.038439166 0.42845997 -0.35204688 -0.5846574 0.9041373 -0.9599008 0.30825517 -0.46412176 -0.28240445 -0.21776843 1.0140548 -1.1264008 0.3820939 0.6951272 -1.8815601 -0.7196612 -0.2611629 0.29639342 -0.45636666 1.0140918 0.24028179
('도','Josa') -0.061664358 -0.8194149 -0.56233156 1.0092698 0.29042694 0.5081093 -0.07191001 -0.63303477 -0.28283697 -0.5644638 -0.8131727 -0.13855763 -0.2540648 -0.7768007 -0.66177565 0.73251086 0.6187436 0.7515857 0.36533952 -0.7637372 0.42862836 0.89680916 -0.20453966 0.90875244 -0.25861716 -0.30851004 0.020884445 0.60280347 0.054431904 -0.41970366 -0.49465114 0.60004973 0.28787994 0.6654448 0.7795102 -0.35154375 -0.4643296 -0.055819187 -0.6384031 -0.6658509 0.3278935 0.6511597 -0.9173725 0.0643895 -0.1172442 -0.6298087 -0.78483653 -0.72111845 0.7841093 -0.17684783
('데이타','Noun') -0.38584587 0.885266 0.3468357 -0.2778898 0.22375032 0.68516755 0.7043018 -0.69940645 -0.44864157 -0.10261729 0.65407056 -0.2922731 0.06160937 0.1787723 -0.35917723 0.06194458 0.7187205 -0.4474538 -0.4619087 -0.2821128 0.1871145 -0.32672688 -0.99420166 0.7064518 -0.20675386 -1.1454959 -0.2895128 -0.79336804 0.75103545 0.533726 -0.13123733 -0.696807 -0.2367544 0.31634265 0.85851115 -1.3410752 -0.16902019 -0.6862553 0.7687885 0.26377755 0.24199538 -0.8838313 -0.81332165 -0.84357506 0.21812256 -0.19740483 -0.1862445 -1.3985337 -0.3897296 0.5266323
('최종','Noun') 0.24594638 -0.5290507 -0.28242186 -0.1991533 1.2077229 -0.8706226 0.7342099 0.010645042 0.6758581 0.18658471 0.80030805 -0.25043166 0.32090667 0.7349949 -0.7006041 0.1452314 0.5368473 -0.6105357 0.10960404 0.49945572 0.04622519 0.016836543 0.08013512 -0.7383622 0.48622754 -1.0972272 0.7607851 -0.40100583 -0.6655014 0.54214436 -0.93178886 0.8519334 0.19698758 1.2123113 0.5768603 -1.1528561 0.4032802 -0.3095377 0.3319787 0.72535694 -0.10563038 0.5060421 0.90712535 -1.172221 -0.33959565 -0.6274957 -0.47131264 -0.19576114 -0.12440498 0.68033123
('분','Suffix') -0.5136762 -0.77297723 0.29129222 -0.6406186 0.13824886 0.5969361 -0.85930926 -0.40523806 0.7935927 0.07169259 -0.13482568 0.61632586 -0.3524075 -0.32106027 -0.77474606 -0.49763176 -0.14147927 -0.3974986 -0.72043735 -0.855952 -0.047796827 0.6719488 -0.28859043 0.8772315 0.17580694 -0.07610574 0.5632488 -0.14722341 -0.6982217 -0.71152943 0.121336214 -0.11654933 -0.03448366 0.49363887 0.4922785 0.5740066 0.093968704 -0.32736516 -0.50334126 0.27875856 -0.778629 -0.32569686 -0.42386994 -0.30966845 0.18809667 0.5331443 0.34467956 0.22426866 -0.6779012 -0.99377614
('태숙','Noun') -0.6004355 0.13500744 0.8979294 -0.2190396 0.55606955 -0.6488587 -0.19269037 -1.0512251 -0.047881156 -0.3531916 0.04093617 -0.4869846 0.97131115 -0.18966645 -0.74926794 0.13220678 -0.29942507 0.20131077 0.36885223 -0.3880408 -0.12662794 0.9605476 0.839789 -0.066173315 -1.0200367 -0.5381637 -0.51120263 0.3547332 -0.5387989 0.39509866 -0.9736928 0.7401687 -0.7553607 0.4539139 0.01442466 0.49617177 0.77577144 -0.04940849 -0.6176506 0.9937618 0.4510646 -0.42182556 -0.97365475 -1.1621723 -0.23911668 0.48523998 0.22230205 -0.5537859 0.27127728 -0.29093757
('크','Verb') -0.27839404 0.4217442 0.9484036 -0.24177217 0.46908846 -0.5213366 -0.3954985 0.57377255 -0.8017926 -0.9771251 -0.1651731 -0.49109256 0.09878436 -0.69870013 -0.18025722 0.29194605 0.7944926 0.6889516 -0.74080575 0.057338484 0.9161269 -0.4130185 -0.1747146 0.1548755 0.36461818 -0.8725647 -0.64425945 -0.01573777 0.8816427 -0.57273 0.3712413 0.1471272 -0.474915 0.13255072 -0.22742999 -0.65623283 0.08241014 -0.50414467 -0.113410205 0.717055 -0.0640944 -1.0170645 0.5188335 -0.52315974 -0.86286783 -0.027055955 0.77750313 -0.65939265 -0.5854664 0.17301768
('대','Modifier') 0.90366024 -0.81877244 1.0921793 -0.13460295 -0.3183356 -0.13444924 0.56952965 -0.26976946 -1.0305927 0.8551456 0.048146434 0.3965872 0.8304978 -0.0098369885 0.7248717 -0.31187844 -0.614989 -0.049129475 0.34024146 -0.08599781 0.77880704 -0.52999663 0.09006869 -0.21523315 -1.1586186 -1.3030301 -0.43191466 -0.32895836 0.41125607 -0.9501098 0.099318236 0.112807386 0.2902902 -0.6193258 -0.5843369 -0.1638254 0.7040663 0.29860196 0.5349266 -0.72732335 0.82823956 -0.15660955 0.7078426 -1.2730845 0.4113459 0.19715996 0.08310673 0.14618692 -0.5422677 0.050096728
('효율','Noun') -0.6945064 -0.3690074 1.0559049 -0.3825545 -0.3596594 0.5226734 -0.72310674 -1.0637408 -0.3852685 -0.044098098 -0.6586966 0.7727301 0.5597395 0.65847266 -0.7523552 0.336292 1.0654004 -0.86556953 0.29160228 -0.21960169 0.783741 0.32954076 0.25538984 0.8853844 0.23313288 -1.4450516 -0.5592276 0.38356948 0.07646447 0.28422695 0.37414753 -0.22082056 -0.99181426 0.59640723 -0.51924 -0.77696913 0.39167348 0.4388314 -0.16860226 -0.49213088 -0.018099353 0.4268407 0.77871656 -0.8742507 0.80377114 0.6272825 -0.33525902 -1.5375825 0.13325031 0.47922277
('텍스트','Noun') -0.69764197 0.8794787 0.66167206 -0.3272939 0.9985318 0.53470254 0.9693047 -0.21695757 -0.030073026 -0.7217916 -0.35445818 0.73066074 0.5949094 1.0218276 0.10520759 -0.5837632 -0.6559904 -0.36573634 -0.31130427 1.1457679 0.06372201 0.119626634 0.54523337 0.10735493 0.1271309 -0.78957146 -1.0376413 -0.68506783 -0.26685998 0.33554062 -0.6272822 -0.34205806 -0.39410496 -0.6331694 -0.22847034 -1.454844 -0.7790321 -0.56021047 1.1437516 0.22684337 -1.0178742 -0.56541383 0.14969584 -0.8330443 0.098881416 0.659103 -0.16585569 -0.066380784 0.53378177 -0.8875254
('문','Modifier') -0.81021076 -0.70320815 -0.64698404 -0.21586677 0.29284725 -0.38272607 0.18919662 -0.5333644 0.481145 -0.78727967 -0.5434584 0.46706468 0.037945896 -0.23198506 0.3687455 -0.26391512 0.22416055 -0.73173374 0.055155262 0.84023535 -0.4881348 0.8163975 -0.52597255 -0.3044744 0.20279105 -0.08190823 -1.0928446 -0.26968178 0.58504105 -0.1896735 -0.42664889 -0.25969997 0.48883447 0.40388706 0.5805837 -0.9265902 0.3377697 -0.11443521 -0.65351886 0.648277 -0.65566045 -0.15686657 -0.46525678 -0.423785 -0.72522855 -0.21070668 0.6578369 -1.1356552 -0.2983065 0.27036032
