1894 50
('에','Josa') 0.18986225 0.17716867 0.2722045 -0.0896165 -0.10661483 0.0416308 -0.11106549 -0.013530361 -0.009612765 0.12752153 0.012453373 0.061891828 0.11627139 -0.12633312 0.19783016 0.3752189 0.19320102 0.38045138 -0.17917308 -0.36937007 -0.2342871 -0.1644375 0.1377985 0.14601924 -0.4265259 0.15549886 -0.27014565 0.081097424 0.0031820014 -0.068555295 0.059720278 -0.19366036 0.39408576 -0.20223399 0.05565309 0.03716927 0.26920187 0.044084843 -0.040813956 -0.4013689 0.26327416 -0.13191782 0.17260444 0.3428728 -0.17478573 0.016204787 -0.20646563 0.015312082 0.37175748 0.13955817
('을','Josa') -0.53598136 0.09932913 0.37606692 -0.07766251 -0.020329468 0.017981585 -0.15642688 0.13217275 -0.34924152 0.1993025 -0.22526194 -0.4201034 -0.03641199 0.038922153 0.11449046 -0.21113604 0.1250322 -0.0826851 -0.05123438 -0.24516211 -0.17662273 -0.13039201 0.12605853 -0.27645132 -0.8964434 -0.005472356 -0.3940199 0.038837608 0.104758434 0.1883662 0.24804533 -0.058685582 0.04001479 -0.3351888 -0.021396616 0.069547586 -0.2622365 0.22936295 -0.024326252 -0.18524784 0.22693078 0.07552929 -0.115752384 0.08657264 -0.06470163 0.069300316 0.10739449 0.09984269 0.51481664 -0.03713004
('이','Josa') -0.37411526 -0.2517392 0.050312076 -0.18560459 0.09375233 0.07827547 0.13398574 0.19068244 -0.06580372 0.002406362 0.30895644 0.108587205 0.03984956 0.100723445 0.08265403 -0.32208452 -0.17707822 0.10901221 0.20864438 0.014269532 0.06472347 -0.10389915 0.44045967 0.49599466 -0.26356784 -0.069036886 0.06669664 -0.011793051 0.1385487 0.26342854 -0.0217068 -0.14421226 -0.2817474 0.043115262 0.26906145 -0.62718016 -0.20762026 0.04659512 -0.020681063 -0.31578207 0.073639505 0.055031303 -0.10491351 -0.013104668 0.037349064 0.37279013 -0.17017806 0.12708619 0.1058034 0.12776658
('가','Josa') 0.3765375 -0.20686144 -0.2737184 -0.044908877 0.2507699 0.2939155 0.094044335 -0.29422203 0.54347765 -0.3032631 0.00015420269 -0.20825425 -0.34011874 -0.045327388 0.23124923 0.022213921 0.0050822147 0.017098133 -0.049423795 -0.5961817 -0.3660682 -0.010025812 0.31434435 -0.19097686 -0.29633245 -0.19424815 -0.29367787 -0.07165683 0.13825618 -0.0006951689 -0.02560916 0.012676529 0.17340349 -0.41082796 -0.042559452 -0.47201437 0.24255452 -0.08058386 -0.059289873 0.0802443 -0.20197122 -0.052159857 -0.2256035 -0.6146387 0.04579197 0.009484181 0.17133674 0.27234536 0.2066873 0.08877363
('를','Josa') -0.2086657 0.22939584 0.4516796 -0.30608436 0.25715947 0.2057355 0.07474302 0.58065194 -0.011193811 -0.43487644 0.0085644545 -0.4491877 0.45422217 0.273277 0.3560132 0.23769237 0.11486544 0.19374935 0.25521493 0.24322122 -0.3063227 0.16251156 0.116071016 0.21569736 0.25540993 0.04554427 0.24046221 -0.2190882 -0.18907331 0.17633829 0.4322422 -0.16005257 -0.37173992 0.17582761 -0.11359257 -0.045321487 -0.36801353 0.24604237 -0.14970258 -0.38324812 -0.06479001 -0.14502065 0.18218748 -0.3979396 -0.5610664 0.10267142 0.15047379 0.29973367 0.19086333 0.03167732
('도','Josa') -0.05069622 0.53317046 -0.06395282 -0.40319526 0.08755422 0.054022163 -0.2501895 -0.04295446 0.16076162 -0.004397643 -0.3271785 0.008728346 -0.09247286 -0.19061549 -0.12639013 -0.033530187 0.3748216 -0.15839007 0.35751334 -0.20521149 -0.17388758 0.28329745 0.5056178 -0.22859846 0.12409671 -0.17075433 -0.44398987 -0.14420143 -0.25577646 -0.21312793 -0.34759557 0.49630222 -0.4378636 0.07297436 -0.11205677 0.0363723 0.19102071 0.3718189 0.038662493 -0.29131278 -0.07838622 0.20703705 -0.09399453 -0.062404905 0.15429091 -0.3223923 -0.5357376 0.31776828 0.025261778 0.12969975
('은','Josa') 0.08124379 0.31546846 -0.18223849 -0.024757205 -0.02373363 0.022229962 -0.026031403 -0.050232667 -0.19665454 -0.018969676 0.015588973 -0.048714988 0.053427495 0.19837444 0.3267724 0.06928351 0.048219867 -0.67538434 -0.041467384 -0.4269052 -0.1854699 -0.041564625 0.35104868 0.24905361 -0.22643916 -0.25714445 0.24541087 0.14296818 0.41098905 -0.53066164 0.16320764 0.18347003 0.017088268 -0.024015773 -0.056280278 -0.2539215 0.16943504 0.30055833 -0.33942392 0.32375512 0.13328655 -0.11719873 -0.47956422 0.23981464 0.050086133 -0.6281646 -0.14466496 0.15588775 -0.06540481 0.005729859
('는','Josa') -0.16725257 -0.08876896 0.19646047 -0.036390662 -0.25113645 0.16848078 -0.2157721 -0.11346187 -0.2319355 0.2648214 0.030716527 -0.16131413 0.19418044 -0.03079721 0.0774875 -0.005473288 -0.022799727 0.18375559 0.038926926 -0.08063462 0.054473147 -0.0008852609 -0.06028472 -0.30505157 -0.39790043 -0.29399848 -0.5074991 -0.21580495 0.036694843 -0.016917838 -0.08008786 -0.29398692 0.15927692 -0.19854605 0.54130435 0.06896163 -0.41212052 -0.097243346 -0.04562723 0.2439039 0.31100014 0.34142417 0.14964026 0.03776805 0.32903612 -0.21178141 -0.478787 0.10800525 -0.061064612 0.2606709
('으로','Josa') -0.8422784 -0.33354455 0.0018083262 0.073062785 0.049722444 0.35979316 0.16515774 -0.046159443 -0.5245398 0.053060338 -0.26804274 0.59311897 -0.75569636 0.46082434 0.28239006 0.07706192 -0.21685769 0.45368984 0.26023075 -0.2740029 -0.63236195 -0.1762085 0.5829355 -0.13077095 -0.6021073 0.2506856 0.30724862 -0.019843385 -0.4024443 0.0957622 0.39840883 -0.761888 0.09615843 -0.065205924 -0.12993437 -0.032901328 0.07553253 0.04141544 -0.45867553 0.43689683 0.27481773 -0.39361745 -0.52630645 0.20820093 -0.093223006 0.23950484 0.003405249 1.0239222 -0.65140194 0.43680364
('의','Josa') 0.3522384 -0.35115454 0.22817226 0.30856407 0.08869802 -0.07581813 -0.10905959 -0.3635124 0.42371896 0.30304375 0.04734511 -0.15948534 0.72648644 -0.2869948 0.38198316 -0.04628871 -0.2213631 -0.19916582 0.28680095 -0.332081 0.095167674 0.3721848 0.46102574 -0.62360257 0.11910595 -0.57398826 -0.16445242 -0.08372607 -0.17462128 0.81401485 0.43605697 0.17771119 -0.43014994 -0.5705358 0.47537306 -0.020446869 0.01894204 0.45964924 -0.11917752 -0.8553615 0.061583254 0.7355945 0.12829806 0.28333157 0.48682582 0.20660628 0.48495653 0.27110815 -0.18428431 0.05565316
('들','Suffix') 0.33208266 0.044951245 0.6353441 0.31414562 0.45471442 0.6261592 -0.19095215 -0.29165018 0.13286269 -0.06756542 -0.18666834 0.30292505 -0.48282364 -0.0007012247 -0.096726075 -0.6072241 0.53832513 -0.0372731 0.20071031 0.7031309 0.20055658 0.40327787 -0.16716897 -0.23329648 -0.13810937 0.115334585 0.509383 -0.745517 -0.19271295 -0.46486956 0.48567575 0.11090131 -0.005372624 -0.2488064 0.28055695 0.21143845 0.3556047 -0.22122268 0.059713494 -0.0045662588 -0.24588767 -0.014085372 0.014501765 -0.1784947 -0.12862906 0.07880561 -0.23579063 -0.022333153 0.30774128 -0.19147536
('님','Suffix') -0.14631407 -0.28822586 0.7599653 -0.024485381 -0.38746482 -0.20203522 0.036895733 0.4437886 0.27247068 0.05276409 -0.45933163 0.42396015 -0.36288577 -0.28327847 0.16913742 0.52824193 0.27890855 -0.03990421 0.35989293 0.012815223 0.35076356 -0.40555707 -0.16121459 0.10310733 -0.3899033 0.15081184 0.897364 0.35260874 0.78971016 -0.31612343 -0.6080459 -0.14361414 -0.5343203 -0.10020274 0.36507615 -0.5435444 -0.67705214 0.66463906 0.76748514 0.20784864 0.10484542 -0.16214293 0.017090915 -0.50396144 -0.5132728 0.5639665 -0.41352102 -0.5999929 0.4240916 0.23841082
('로','Josa') 0.16424201 0.4470029 -0.12734021 -0.21203004 -0.32436943 0.36733216 -0.042073973 0.10039659 -0.9120215 0.58321774 0.59701747 0.35541177 0.099262364 -0.1435368 0.38615015 0.036696143 -0.039345734 0.278026 -0.1698348 0.23297746 0.03797934 -0.39680195 0.22787474 -0.44437572 -0.05405958 -0.31568512 0.034959782 -0.17435129 -0.17351925 0.31801727 -0.054844856 0.06748754 0.051286276 -0.06249907 0.31721622 0.086550206 0.4395495 0.113059424 0.012982249 -0.072302684 -0.111898534 0.588699 0.13716604 0.41503868 -0.6578174 -0.43857238 -0.35324472 -0.0688678 0.046377882 -0.35682735
('수업','Noun') -0.11225928 0.33547541 0.42850518 -0.3558668 -0.21358651 0.3336332 0.1717509 -0.1588845 -0.36740682 -0.33130142 0.58974326 -0.026892157 -0.4113208 0.049275912 0.38462952 -0.095326774 -0.066006854 0.22088324 0.21400665 -0.3145471 -0.34385222 0.59764636 0.2579631 0.4225965 -0.43671972 0.29890883 -0.09920448 -0.21062991 -0.1529594 0.676444 0.1861617 0.13267411 0.095150195 -0.3683754 0.1011382 0.56637377 0.36387685 0.25933638 0.27687296 -0.26668504 0.34621373 0.14408162 0.0026714215 0.23289117 -0.4716831 -0.8671713 0.039222285 0.38707468 0.70369345 0.47753868
('것','Noun') -0.61866385 0.54227 0.10071107 -0.4855738 -0.5886895 -0.31662115 0.29687423 -0.037388805 -0.38482067 -0.40646318 0.30485645 0.07662972 -0.06498794 0.20196912 0.08394432 -0.22658385 -0.11651272 0.25484225 -0.08437892 -0.5097004 -0.12945358 0.9792637 0.28077537 0.17626543 -0.86443293 0.2572702 0.44549504 0.16582882 -0.102417566 0.39177695 -0.3335329 -0.61916286 0.50843644 -0.3664205 0.31312183 0.4608988 0.2938628 0.7532279 -0.5813779 -0.13001631 0.20846856 -0.90753996 -0.34889168 0.3728689 -0.075727046 -0.45326906 -0.18528329 0.68429977 0.4860412 0.4321348
('하는','Verb') -0.83186674 0.89749753 0.7287038 -0.988853 -0.00037134672 0.3775056 -0.3265106 0.02949348 -0.62880445 -0.22522347 0.3829867 -0.53051835 0.2264121 0.1819779 0.48200807 0.27269128 -0.060789276 -0.6018036 -0.41814715 -0.32187676 -0.5643415 0.7319981 -0.53009003 0.6384811 -0.84795904 0.3479476 0.12040945 -0.13562697 0.3820076 0.5559961 0.9270769 0.18808037 -0.49498263 0.089724615 -0.18247463 0.5716662 0.20051193 0.8799764 -0.6285734 0.45661435 0.853346 0.30930144 0.25165084 0.68870836 0.12331951 -0.17927371 -0.10509752 0.77055657 -0.1206517 -0.057731133
('문제','Noun') -0.1379464 0.28427336 0.042142015 -0.8026781 -0.46955755 0.65936327 -0.5499826 -0.23912764 -0.8087493 -0.74916214 -0.31066394 0.48110077 -0.4568345 0.5503924 0.3636196 -0.034449544 -0.050343163 0.004829542 0.17096962 -0.8492778 -0.4271081 0.17955954 0.012880299 0.19723092 -0.49961054 -0.5403641 -0.12090111 -0.74261135 -0.5857966 0.13662778 -0.34485853 -0.26475823 -0.045797564 0.4262877 -0.3049598 0.87244296 -0.5315547 0.570537 0.2631116 -0.6681175 0.95748335 -0.59424835 -0.7763913 -0.043855716 -0.74345434 0.012307921 0.3401132 -0.07062241 0.7554736 0.1810033
('적','Suffix') 0.7217629 -0.22722282 -0.031387966 -0.13372819 0.5294634 0.43961027 0.10021584 -0.12975663 0.22954646 -0.6102497 0.71174735 0.12345716 0.6357968 -0.32558554 0.337135 0.051230524 0.028549293 0.96127135 0.35181233 -0.680558 0.22223292 0.33991295 0.36958063 -0.29748327 -0.32485488 -0.66838896 -0.17720805 0.5173917 0.3160821 -0.04769174 -0.55395097 -0.21148531 -0.31672075 -0.0021744058 -0.23839748 -0.15131323 0.13935192 -0.273428 -0.3321452 -0.18050139 -0.010093608 0.6981227 -0.24316719 -0.13529302 0.13594432 0.10809249 0.10594848 0.35455757 0.1689971 -0.4929999
('입니다','Adjective') -0.63633525 0.012889355 -0.27313784 -0.27191907 -0.8320765 -0.26741886 -0.21920748 -0.21064965 -0.27661029 -0.6269978 0.29739156 0.45181033 -0.9610035 0.8889121 -0.46460932 -0.47892436 0.1414639 0.1261082 -0.30195278 0.17358924 -0.41361657 -0.18809523 -0.21680953 0.0945208 0.11902335 0.77928996 -0.001719194 -0.24476315 -0.2517662 0.87758625 -0.6545372 0.065199964 -0.5472635 0.41264686 0.78068906 -0.5863753 0.11634842 -0.11929862 0.6789227 0.28026113 0.005193138 -0.5220717 -0.64785844 0.36053103 -0.2927598 -0.9989826 -0.3511326 0.3576452 -0.05997949 0.21887766
('에서','Josa') -0.25448537 0.014447704 0.9213532 -0.43058267 0.56642294 0.6926251 0.40875354 -0.65358734 0.333744 -0.673351 0.50892204 0.77706456 0.014468108 0.84861046 0.56167036 0.47721803 -0.34475428 -0.052038986 0.72443444 -0.26680622 -0.1898963 0.39464957 0.945368 0.17733346 -1.2014576 0.4649307 -0.026718233 -0.018838078 0.4919638 0.8443977 0.66636866 -0.18921769 0.37153354 -0.0035033352 0.27369967 0.826023 0.5308321 0.068995394 0.24021554 0.021801643 -0.38221884 -0.2175817 0.3178788 0.016484395 -0.12110628 -0.8870379 0.07822973 1.0054411 0.5940933 -0.18452156
('교수','Noun') -0.9952658 0.72905207 -0.48548436 0.03823139 -0.03534267 0.27995163 0.16683684 -0.53142947 -0.85501564 -0.3710032 0.27163434 -0.715259 -0.4292764 0.45108122 0.17613271 -0.18097843 -0.48622108 -0.38154057 -0.45760477 -0.54442346 -0.61781216 0.9856086 0.61920595 0.049935717 0.13518788 -0.15770042 -1.0497698 -0.44985652 -0.98547363 0.84628874 0.85149837 -0.0139738815 0.43411812 0.14468111 0.4282151 0.70273066 0.5884182 0.7787586 -0.4897198 -0.33329225 0.023399714 0.14109324 -0.17805739 0.62250847 0.17071162 -0.7716779 0.28032535 1.1458918 -0.12338497 -0.09711672
('생각','Noun') -0.14438847 0.27655077 -0.67405736 0.17464285 -0.0035476252 0.44604263 -0.45498052 -0.5980202 -0.12951152 0.37841618 0.526243 -0.27389932 -0.65096325 -0.35519597 0.34770954 -0.26918858 -0.096803315 0.47362456 -0.52091277 -0.5429945 -0.84835464 0.49622998 -0.09716446 -0.3808518 -0.23520511 -0.24266073 -0.60446715 -0.48616502 0.7512971 0.55307907 -0.25203076 -0.44694167 0.30927685 0.86128414 0.16459268 0.43685395 0.7767399 0.5694345 0.40920138 -0.70837283 -0.41460258 -0.13200402 -0.72199243 0.65757746 -0.8755233 0.062389944 -0.43776977 0.65045476 0.6454299 1.1747355
('강의','Noun') -0.8403128 0.70251346 -0.028340211 -0.9214303 -0.20624103 -0.047039684 0.42816153 -0.2832478 -1.2204924 -0.030654894 1.1307739 0.37915576 -0.32111531 0.584121 -0.49969482 0.32997483 -0.28010455 -0.9132995 0.11504116 -0.2142258 -0.9145007 0.17234495 -0.1446438 0.39892614 -0.30094674 0.36075854 -0.006975183 -0.41282827 -0.7812543 -0.4660511 0.7179511 -0.62776744 -0.58516276 -0.90893686 0.6182474 0.80894375 0.44701406 0.58744204 0.22645032 0.0042600133 0.5136128 -0.50442755 0.22523068 0.7771135 0.24865216 -0.57647145 0.16127762 0.5633504 0.16925232 0.34715664
('과제','Noun') -0.3140569 -0.3637316 0.48289117 -0.8232283 -0.280766 -0.020854035 -0.13467658 0.10551382 -0.44236347 0.10196283 0.42069876 -0.07733868 -1.0985067 0.77735776 0.27245012 -0.07816069 -0.36695406 -0.15988019 0.048150174 -0.8277124 0.26895308 -0.13503568 -0.13659641 0.740711 -0.28950092 -0.036603097 0.17674623 -0.54561204 -0.45445788 0.25274926 -0.48175243 -0.7664356 0.15768841 0.18181327 0.7075369 0.27862957 0.09113292 0.8872101 -0.07938665 0.16485396 0.25748453 -0.34785512 0.09970467 0.5932994 0.16128331 -1.1092911 0.2829183 0.2900014 0.12671189 0.12782519
('과목','Noun') -0.44541875 0.37712577 0.76875955 -0.8747514 0.08530662 0.3460662 -0.018945253 -0.5301452 -0.06800435 -0.23454897 1.0339988 -0.3131619 0.3297589 0.7368322 0.5572337 0.19472274 -0.90494496 -0.1380236 -0.20577368 -0.9715516 -0.98685527 1.0504704 0.55175596 0.06306115 -0.58917344 -0.48512995 -0.41966727 0.5315253 -0.37034523 0.35502163 0.032009836 -0.35307762 0.057049595 -0.13187084 -0.084594525 0.82223845 0.30675492 0.3205541 0.06804842 0.4209132 -0.05144594 -0.15941174 -0.010842913 0.15535465 0.1378554 0.2790262 0.43728858 0.8959144 -0.3607898 0.21643457
('학생','Noun') -0.15282859 -0.057627253 -0.29671535 -0.70864344 -0.965107 -0.30814523 -0.30335927 0.11135412 -0.5157656 -0.15864953 0.6362694 0.44373816 -0.9372574 0.7121779 -0.32065943 0.5354151 -0.9717335 -0.49473888 -0.15270248 -0.97093695 -0.39332452 -0.494675 -0.13407277 -0.15237352 -1.0079167 -0.061241847 0.093587264 0.4169756 0.29308096 0.826003 0.49662763 0.3261511 0.33050945 0.1890434 -0.052596226 -0.0047524422 -0.023369793 0.7732285 -0.5376044 -0.3217449 0.29655015 -0.22705841 0.42712584 0.29244086 -0.21427694 -0.53995055 -0.9818591 0.89982057 -0.026283436 0.38331622
('공부','Noun') -0.94466466 -0.52068055 1.0828366 0.3125491 -0.40106776 0.87872726 0.15988131 -0.019766685 -0.5609973 -0.5673267 0.15709347 0.6273437 -0.27196506 0.5908638 0.3286961 -0.13561082 0.46601903 0.72368455 -0.8414766 0.43788943 -0.4984229 -0.2666112 0.7583381 1.1092219 -0.7148972 0.319622 -0.060986385 -0.8747593 0.022872552 0.10280121 -0.0052488465 0.55369574 -0.23485328 -0.5752944 0.050745677 0.49144068 0.30762345 -0.29375917 -0.32975662 -0.0948713 0.3767002 -0.35665905 -0.48232755 0.8884954 -0.43997204 0.09913499 0.270788 1.008981 0.05289656 -0.48782152
('내용','Noun') -0.4276015 0.52564615 0.56950194 -0.606164 -0.048097074 -0.22514759 -0.52845746 -0.87661535 -0.8771861 -0.8913236 0.44837844 0.118986 -0.6604493 -0.2089759 0.80913615 -0.46297497 -0.1589793 0.29656845 0.13065238 0.1487718 -0.039094526 -0.41451058 -0.08317771 0.99253786 -0.8525867 0.58219093 -0.5723748 -0.48026538 -0.57125646 -0.025759075 0.15125959 0.08051511 -0.11817069 -0.47859663 0.71100545 -0.35232705 -0.3129657 0.16843277 -0.15068205 -0.84641445 0.7289983 -0.5843112 0.38656396 0.7311566 -0.022975381 0.22288291 -0.31558934 0.3539413 0.98910064 0.77822304
('한','Josa') -0.49702203 0.20921858 0.009458997 -0.9381837 0.6849591 -0.108301595 -0.26301438 -0.7507827 -0.6275999 0.5972102 -0.7575832 0.65030646 0.31099948 0.8517084 0.32394674 0.54741347 -0.494898 -0.093325965 0.6372063 -0.05476975 -0.24208619 0.42845494 0.3801263 0.55146176 -0.36041644 0.124771856 0.43614277 -0.10266005 -0.025156358 0.20615672 0.724911 -0.47661683 0.22909233 -0.21917215 0.32436576 0.049550883 -0.20116514 -0.26181582 -0.8380653 -0.49721187 -0.8398116 -0.7266442 -0.40375617 -0.17310584 0.68841577 -0.7219732 0.55044514 0.32457998 0.116273195 0.0456415
('시험','Noun') -0.21070434 0.55818474 -0.048471164 -0.062346444 -0.43307537 0.49540558 0.3630743 0.05259093 -0.97061753 -0.27768284 0.15322669 0.33059242 -0.010505256 0.8626483 1.2008454 -0.46060076 0.4631165 -0.55295974 0.38122478 -1.1151558 -0.42734617 0.65739214 0.07418337 -0.28543454 -0.36268634 -0.19372423 0.3615215 -0.024799885 -0.07234478 0.6639543 0.6333636 -0.7964955 -0.315395 0.34628782 0.63640946 -0.41094095 -0.081805296 0.060107697 0.39664653 -0.72301936 0.7645398 -0.27121502 0.06994178 -0.15783617 -0.49279073 -1.1766976 -0.72939885 0.09944396 0.50730187 0.2024462
('시간','Noun') -0.5909026 0.22809513 0.7370358 -0.36170527 -0.2736896 -0.022593316 0.12627521 -0.67710805 0.11680442 -0.44324058 0.43287364 0.67175996 0.0812428 0.13567036 -0.21673286 0.23994486 0.15550387 -0.6056753 -0.32831192 -0.71989983 -0.41443628 0.6265902 0.68613833 -0.20121159 -0.6155604 -0.70718956 -1.0339841 -0.046576172 0.21311423 0.6688901 0.43282583 -0.32065126 -0.30774924 -0.15415086 0.24913225 0.21692452 0.19081822 0.9216867 -0.33222875 0.2202861 -0.45736307 0.42749268 -0.41705337 -0.062814824 -0.61575 -0.57997346 0.4955582 0.6012394 0.6731807 0.63491863
('과','Josa') -0.19413969 -0.2751772 -0.34713405 -0.16646338 0.08006036 0.44051328 -0.44334796 0.6925195 -0.6862512 0.32628748 -0.27913833 -0.4434714 -0.14095145 0.3124819 -0.33862182 -0.68774414 0.5318702 0.52327675 0.39962268 -0.09198045 0.16770484 -0.46852586 0.2055823 0.53773767 -0.26549202 -0.42230394 0.7257316 -0.562429 0.07360864 -0.15317449 0.7043205 -0.5448222 -0.21193977 0.3959975 0.5967656 0.7288022 0.017281996 0.85964113 0.8248883 -0.4163584 -0.6353216 0.8128478 0.36936238 -0.4949368 0.63477874 -0.40043136 -0.8015137 -0.2610479 -0.1673097 -0.055682026
('조교','Noun') -1.0400524 0.4303652 -0.15159078 0.32489538 -0.12336224 0.5539868 -1.1147602 -0.93098694 -0.20528428 -0.79320717 1.0403545 -0.576722 0.1849389 0.5756159 0.7076572 0.36644286 -0.66169626 0.40954378 -0.2762483 0.21808347 -0.66746646 0.39106372 0.75221086 -0.055793755 -0.84400505 -0.62432855 -0.4478681 -0.86020523 -0.64521915 0.26674968 0.5590082 -0.47717816 -0.50072837 -0.6142148 -0.12821516 0.82200015 -0.14296354 0.5355944 -0.4877794 0.22818686 -0.094004825 0.46749273 -0.18736456 0.84374344 -0.31292614 -0.94380265 0.132242 0.17542101 0.47047842 0.8593406
('할','Verb') -0.089158125 0.052450024 -0.1618432 -0.47971186 -0.8527563 0.039230023 0.25367466 -0.22496815 -0.90023607 -0.5102598 0.9332224 0.50965583 -0.4487801 0.66690016 0.6608068 0.03520064 -0.91988564 0.49108294 0.49420348 0.23605376 -0.5105146 0.15161449 0.38151008 0.5736141 -0.9163563 -0.079692885 0.58392715 -0.5300972 -0.025503589 0.06389721 0.10440968 -0.31741837 0.58593583 -0.7194921 -0.53214085 0.369523 0.18951316 0.10993758 -0.6912331 -0.33414492 0.37110746 -0.09115258 -0.27455524 0.18275791 0.8181714 -0.71606076 0.4610733 0.38748914 0.28451174 0.16317114
('번','Noun') -0.40182054 0.5455645 0.9622784 0.15062056 -0.3256453 0.34967107 -0.23841907 0.42573142 -0.372572 0.21094991 -0.4423386 -0.75973797 -0.0085438 -0.070981845 0.44690195 -0.26448748 0.04392783 0.40747574 -0.13212453 -0.66407555 0.7561697 1.2027628 0.7571193 0.35870242 -0.8281796 0.5527316 -1.0435547 -0.66107494 -0.78978217 0.9367572 -1.1044313 -0.081571385 0.24609137 -0.67287856 0.5108675 0.42129675 -0.3744547 0.18773584 -0.46290955 0.99613124 0.031411916 -0.055286992 0.09119899 0.97682315 0.47923326 0.49572837 -0.23158608 -0.19701777 1.0099542 0.81177497
('하면','Verb') -0.8779507 0.22468358 0.6595706 -0.21621461 -0.2840919 0.07396668 -0.5684779 -0.63512963 -0.115296096 0.4382349 0.3458877 0.1831095 -0.4448483 0.6629326 0.17912926 0.43586457 0.18776374 -0.1954104 0.33420834 -0.56655544 -0.06334502 0.7248861 0.025288325 0.1617432 -0.436731 0.3026682 0.1730008 -0.59684217 0.036922105 -0.029613597 0.9254007 -0.1995935 0.48676115 0.21913686 -0.2551755 -0.13050109 0.2588475 1.1823195 -0.20613933 0.28328246 -0.28832078 0.3471804 -0.087520815 0.40846363 -0.54543287 -0.9854356 -0.65349203 0.5274701 0.24083108 0.7225299
('정도','Noun') -0.28566813 -0.26799756 0.7303034 -0.40772548 -0.80709124 -0.30674317 0.50147116 -0.17750834 0.024962518 -0.61731786 0.29636878 -0.0155658815 -0.6091072 0.6527877 -0.28663114 -0.4143921 -0.6611864 -0.11086919 0.51465327 -0.40626442 -0.7071977 1.125092 -0.07167302 0.23114815 -0.9222933 -0.20496683 -0.053145014 0.0735668 -0.5891487 -0.1250244 0.18911968 0.2001779 0.059612934 -0.16861117 0.92958456 -0.14422661 0.18011814 1.1480796 0.7643674 0.28389966 0.07565882 -0.4297053 -0.53591794 0.8632149 -0.4789811 0.37980416 -0.84712374 0.53342354 1.0922095 -0.1368042
('숙제','Noun') -0.3636331 0.88226277 1.1162219 -0.3397042 -0.04594292 -0.33540735 -0.36893496 0.11661254 0.6504711 0.17947303 0.16100211 -0.0078755915 0.2876583 0.670773 0.5647226 -0.7949052 -0.5789421 0.060550537 0.6450973 -0.95051163 0.07049416 0.20700616 -0.49911416 0.83070236 -0.57466376 -1.0099437 0.22565845 0.31263036 0.2856065 1.060251 -0.32771552 0.2106986 -0.11888591 0.56117797 -0.41497162 0.31301144 0.81441015 1.1138242 0.6412966 0.38543698 0.25417098 -0.31245512 -0.21559606 0.10834392 0.14626387 -0.91665226 -0.4209832 1.2006749 0.72115004 -0.044521894
('학기','Noun') 0.016970977 0.59445214 0.45293558 0.21201473 -0.00530601 0.7001064 0.071160376 -0.7359723 0.2588031 -0.08022603 1.0968866 -0.25957173 -0.11614808 0.6052774 -0.37817863 0.05190112 -0.62022406 0.49446553 0.1260092 -0.0016081815 0.23053107 1.1714214 -0.44566935 0.76448804 0.15215757 0.10174186 0.63396376 -0.7389256 0.42779523 0.45584154 -0.368446 0.5692236 -0.44216704 -0.6295365 0.21276627 0.26126567 0.7567621 1.279047 1.0252995 0.42233065 0.7096809 -0.23819555 -0.39393562 0.27946487 -0.32764387 -0.30220023 -0.44131947 0.8528394 1.2181752 0.4109217
('이해','Noun') -0.24986145 0.4524303 -0.075227395 -0.54030854 -0.6306744 -0.2043367 -0.2611532 -0.16319764 -0.39649877 -0.5872946 0.8802897 -0.43070862 -0.18253805 0.5323507 0.15163946 0.32384855 -0.76758987 0.05757706 -0.73930144 -0.6017152 -0.8545075 0.36067683 -0.21397443 0.28772303 -0.6225959 0.58728987 -0.6903671 0.43025866 -0.65161043 0.35785127 -0.46367195 -0.30760965 0.44666076 0.5532287 -0.5300418 0.22474809 0.87779325 0.8258811 0.3495726 0.0804794 0.6820755 -0.2507071 -0.018198976 -0.61034346 0.4585065 -0.25753632 0.11842517 0.72243935 0.8387841 0.1444792
('를','Noun') -0.06444149 0.78351 0.15876019 -0.13686696 -0.25158605 -0.59329796 0.108747534 0.20181283 -0.87600213 -0.8007221 0.89875746 0.3759818 -0.116254985 0.865302 1.1667818 -0.39899284 0.8307371 0.6282672 -0.4912449 -0.001637721 0.22876015 0.5014619 1.1484038 0.662602 -0.6898498 0.322059 -0.5509416 -0.5450069 0.088170655 0.8227303 -0.015644284 0.37011075 -0.19190602 0.34175408 0.06563893 0.6642828 0.6970016 0.0055339495 -0.2276965 -0.616964 0.89831185 0.7174368 0.79498273 -0.31525818 -0.93228495 -0.8434664 0.3795885 0.84220594 0.741152 0.012200513
('개','Noun') -0.81063324 -0.33049494 1.0945039 -0.16878048 -1.1942804 -0.50620866 -0.27943882 -0.49586552 -0.45922327 0.20990485 -0.80547196 -0.92795014 0.80399114 0.45485935 -0.11021632 -0.41273755 0.34803626 0.64733726 0.39221194 0.021937195 -0.8580162 -0.587748 -0.6966661 -0.07227431 -0.14435644 -0.30280828 0.31039378 0.3532375 -0.437123 -0.09909516 -0.63702816 0.10776003 0.7090858 0.2906326 0.08257459 0.7186902 -0.08224371 -0.37886614 -0.018529674 -0.22064888 -0.4319191 0.025708964 -0.3697527 -0.46284813 -0.9696763 -0.5845976 0.0686577 -0.085286275 0.91296893 1.0107177
('하고','Josa') 0.8147026 0.47363654 0.7196609 -0.15119618 0.40793243 -0.304158 0.63844734 -0.80190337 0.7569995 0.9537576 0.37531677 0.50675464 0.16217175 0.42843983 0.49104917 0.6335878 -0.80934167 -0.40249112 -0.6648318 0.306038 0.20504531 -0.14659795 0.5542209 -0.22573327 0.04397187 -0.18722698 -0.9074478 -0.40851924 0.40088224 0.007424844 -0.37529776 -0.63207513 -0.42258102 0.537076 0.75607467 0.11430843 0.47813022 0.5716447 0.32161188 -0.9498121 0.8221975 0.24004647 -0.44626796 0.50095916 0.29226476 -0.13267832 -0.073585324 0.58787084 0.51519144 -0.4025128
('말','Noun') -0.394064 -0.5138177 0.95085377 -0.3453989 -0.70951265 -0.1077272 -0.62303036 -0.71697617 -0.23513003 -0.41806036 -0.23657197 0.7033169 -0.54148835 1.3558452 0.94166785 0.4090319 0.27864495 0.20670076 0.21201494 -0.567089 -0.7182675 0.5058676 0.08504142 -0.016784264 -0.17754196 0.19295336 0.79087776 -0.5932077 -0.83519185 -0.2352661 -0.16692671 -0.7059118 0.1758231 0.15834895 0.040144667 0.9255483 0.35144866 0.024603171 -0.5052447 0.43718094 0.041567933 -0.71376026 0.32619262 -0.26620647 -0.67150104 -1.2453158 -0.37220713 0.55080616 0.7326358 0.06437394
('질문','Noun') -1.230241 -0.53528094 0.8752552 -0.7030078 -0.10902339 0.84905267 -0.50111043 -0.5230827 -0.80382174 0.39107051 0.18272945 -0.42564836 -0.96047986 0.6805568 0.04974469 -0.19084018 -1.0036297 -0.69110084 -0.27684954 0.40758976 -0.9448761 0.5618532 0.5025276 0.98637795 -0.95803636 -0.8195034 0.016360106 -0.98463005 -0.022375153 -0.25867835 -0.48500028 0.49351734 0.5543936 0.44325823 -0.21444643 0.5740319 0.94147307 0.65677047 -0.3264309 -0.2421775 -0.41536576 0.63614494 -0.8152018 0.8898169 0.7774365 0.51350474 -0.015553132 0.41384295 -0.07294655 0.70497525
('하나','Noun') 0.15488085 -0.29113698 1.1686298 -0.21917093 -0.41231605 0.62895817 -0.05710282 -0.15376446 0.16484706 -0.5906455 0.0915588 0.21693404 -0.116420284 -0.19699526 0.5798598 -0.5506449 -0.49237877 -0.85221595 0.4938822 0.2942176 -0.93801105 0.110240445 -0.04823751 -0.13292065 -1.1510592 -0.6973225 0.65037274 0.30532327 -0.18632887 0.1776473 -0.065055415 -0.68217057 0.6827225 0.4804724 0.9038531 -0.12779476 -0.31113666 1.101315 -0.053281616 -0.1325036 0.3595688 -0.08650625 0.06680552 0.3341845 -1.012849 -0.73339397 -0.31451797 0.6986138 0.93773234 0.2703185
('설명','Noun') 0.19447936 0.6503922 0.24598715 0.09792827 -0.5317667 0.8469864 0.6852797 -0.7236006 -0.067466065 -0.4357685 0.44937152 0.58319575 -0.4799972 0.01914206 -0.19065145 0.3334114 0.74411565 0.046237703 0.02061482 0.03478956 -0.87420106 0.5096775 0.12420342 0.06659659 -0.23996136 -0.7221566 0.008311929 -0.6556345 0.65531695 1.0793636 -0.05180516 -0.987223 0.8201261 0.056605056 0.58958906 -0.38512036 0.47886214 0.8702494 -0.110675134 -0.08113251 0.57736987 -0.23523185 -0.20909083 0.87585425 -0.13743229 -0.8718391 0.11749314 0.78224474 0.56132895 -0.221403
('에는','Josa') 0.4541585 -0.4906569 -0.59156257 -0.255297 -0.1192231 0.020885857 -0.29362196 0.7778163 0.39755723 -0.12380168 -0.32423103 0.68983525 0.032715734 -0.1413344 0.21871124 0.6128964 0.14072119 -0.5697252 0.33728883 -0.4178221 -0.05867622 -0.26344448 0.048713632 -0.26134795 -0.11343106 -0.77603096 0.64561963 -0.15486193 -0.21328819 1.175935 0.17104879 -0.3300439 -0.53158444 0.06303732 0.5581192 -0.7197158 -0.027775832 0.42845052 -0.701817 -0.28021485 -0.18927842 -0.9014595 0.55551434 -0.18726338 0.5156498 0.21848954 0.53330165 1.186967 -0.33346266 0.588154
('중간','Noun') 0.31303966 0.8538795 1.3862002 -0.8885967 -0.5338185 0.6157115 -0.280949 0.09606773 -0.85193884 0.097386576 -0.39191067 0.015082131 -0.96595186 0.55026877 0.7083526 0.5429825 0.23038125 -0.8084072 -0.41195983 0.09025307 -0.63500965 -0.2765729 0.104199484 0.43507272 -0.82405156 0.2791019 -0.47801402 -0.7150862 0.35083535 0.16122475 -0.40948752 0.26893175 0.83034635 -0.9370053 0.30094033 -0.5735644 0.83223647 1.4545981 0.36205637 0.09627671 1.1671361 -0.83535326 0.15340716 0.24459124 0.20720789 0.23625408 0.30503324 0.41918305 -0.08767193 1.2129889
('합니다','Verb') 0.3344917 -0.14740376 -0.2977479 0.43743566 -0.635276 -0.009967342 -0.6067503 0.528805 -0.1755565 -0.04136964 1.0120194 0.14255671 -1.0292791 0.5345656 0.4216725 0.663573 -0.4044029 -0.028849436 0.62067974 0.1873963 0.2255018 0.95737493 1.0506817 -0.237003 -0.6372388 -0.14033349 -0.4284319 -0.19765371 -0.33980593 1.1382277 0.8031681 0.060388938 -0.7392833 -0.092662565 0.8367054 0.9415641 0.14603604 1.2312754 -0.509916 0.20528188 -0.17013375 0.43719134 -0.4799826 0.52813995 0.6100273 0.30984965 -1.0779567 0.68906516 1.4142828 0.6582523
('2','Number') -0.6728754 -0.7708832 0.8545763 -0.6612743 -0.90124714 0.9339184 0.20571943 -0.3413061 -0.9393757 0.19256628 0.49141467 0.4229825 -0.92216426 0.92458457 0.15876563 -0.35292956 -0.045383427 -0.581524 0.31312755 0.040644303 -0.04557807 0.90698004 -0.4812201 -0.19153547 -0.21268162 -0.2110671 -0.3107989 -0.66110706 -0.22953427 0.14828187 0.20420623 -0.77569664 -0.22756171 0.5434752 0.0486631 0.26163834 0.055967156 0.5141645 -0.038971737 0.2828307 0.3186546 -0.48445794 -0.042571567 0.703629 0.8575631 0.4486852 0.47076052 0.82293266 0.8316971 0.8956082
('해서','Verb') -0.71334124 -0.46958247 -0.30300885 -0.8037332 -0.5334014 -0.18056594 -0.11478102 -0.82175535 0.2622325 0.39373982 -0.30252233 0.1786686 -0.9271103 0.18572557 0.78357357 0.48306492 -0.03180766 0.27049705 0.39739713 -0.9972352 0.2863803 0.030224865 -0.18023627 0.56625295 -0.6698152 0.045049224 -0.22972046 -0.3077022 0.45202807 0.7723637 -0.06970221 0.17688079 0.48636362 0.084191486 0.5855444 0.33537465 0.71667737 1.2759289 0.6568759 -0.11153788 -0.29225823 -1.0507436 -0.6403298 -0.05340139 -0.8676356 -0.4527686 -1.0301455 0.22243698 -0.13274643 0.00100858
('인','Josa') -0.18031932 0.43628052 0.21803072 -0.19196394 -0.47719815 -0.007417836 0.23830768 0.6111036 0.41441318 -0.41061455 -0.44709775 0.002167445 0.1726949 0.5923885 0.43987486 -0.7318199 0.07791836 -0.6619613 0.064620435 -0.6532878 0.11275218 -0.6923989 0.5025651 0.42745134 -0.44331944 0.22328499 -0.39392066 0.4590721 0.121454455 0.6873132 -0.27218825 -0.8660996 -0.54481584 -0.6006043 0.48322436 -0.3438023 -0.60111696 -0.08684773 -0.105791524 0.20167518 -0.31698737 -0.12736152 0.7374195 0.47282144 -0.8836827 -0.19179925 -1.0032301 0.11141007 -0.56403005 0.13577157
('때','Noun') 0.3069281 0.73368853 -0.16587915 -0.09115606 -0.28189188 1.0298165 -0.40778854 0.22857788 -1.0661285 0.13414916 -0.31689307 0.69919413 -0.20399842 0.7743386 0.022976916 0.17836387 -0.8071208 0.2668272 0.5309162 0.2867974 0.15049277 0.69262934 0.8451948 0.69243705 -1.2183353 -0.19856654 0.3746426 -0.55536723 -0.11182681 0.05317941 -0.26233882 -0.8773813 -0.3524533 0.03939275 0.111175485 0.6355182 0.5178343 0.59184396 0.3495459 -0.9676977 -0.12458323 -0.068949446 0.5613652 0.82084477 -0.032115564 -0.33971637 0.21702829 1.3684987 1.3193653 0.53408426
('기','Modifier') 0.5616023 0.55748683 0.42658144 -0.088226415 -0.2751519 -0.4060108 0.56221277 0.5308107 -0.6199652 0.033744972 0.7669998 -0.39641994 -0.4955115 0.16083649 -0.61731493 -0.9320344 -0.6796736 -0.6799645 -0.45389196 0.023060115 0.49799043 -0.32105327 0.43679047 0.5994535 -0.8413529 -0.23206772 0.32693356 0.64520276 -0.07763904 0.12759651 -0.5490732 0.03912724 0.16198695 -0.4145609 -0.56591016 0.17676589 -0.30321518 -0.06795038 -0.00844322 -0.07095909 -0.37426385 -0.33846846 0.7820379 0.85697174 0.25637487 0.07819696 0.5563461 -0.20350675 0.4847338 0.6241362
('잘','VerbPrefix') 0.3618858 1.2031096 -0.10308697 -0.032407917 -0.81675303 0.31136903 -0.17979805 -0.15229703 0.019288728 -0.45375082 0.13562225 -0.21126269 -0.18744357 -0.16461666 -0.08947033 0.17371409 -0.3014892 0.34108895 -0.088136874 0.31309897 -0.086624324 0.018131318 0.6913529 0.88106424 -0.0046825446 0.10851712 -0.6804078 -0.41190916 -0.7151519 0.9710906 -0.40072334 0.73317504 0.6697043 -0.64527607 -0.17444703 -0.28991064 -0.25292704 0.7759257 -0.7544731 0.23867527 1.1294035 0.59648097 -0.7670453 0.5798997 0.5330453 -0.26038793 -0.67099255 1.3372929 -0.11661697 0.6729562
('고','Josa') 0.20828311 0.55002713 -0.4604021 -0.2127695 -0.386602 -0.08576739 0.49540657 0.6571454 -0.416457 0.05630603 0.86887234 0.18780346 0.31783 0.73928326 -0.022717742 0.22077164 -0.04554243 0.7175294 0.23044941 0.29821151 -0.35232 -0.7417899 -0.30813184 -0.047624346 0.27705783 -0.24285623 0.85745555 -0.28703344 0.21571146 0.27769127 0.75156736 -0.7074393 -0.15575904 0.027946087 0.8234679 -0.4664942 0.64594495 0.19047765 -0.078985855 0.40573588 0.10072553 -0.849705 0.18274775 0.74604785 0.58660746 -0.9601288 -0.5721176 -0.47934133 0.22358122 0.064906165
('만','Josa') -0.3093047 -0.48217124 0.9109142 -0.80761397 0.277143 -0.44753465 0.32617685 -0.34779802 0.57134193 -0.425211 0.036359522 0.4455156 0.3264184 0.53584236 0.25621337 0.62901676 0.1843422 -0.4547279 -0.3569711 -0.00780285 -0.67945915 0.3699217 -0.4213374 0.06197689 0.28105488 -0.54231954 0.2524909 0.72101367 0.35097164 0.4744835 -0.38764396 0.71748817 0.24083667 -0.7623126 0.5130481 0.6184779 0.4000633 0.5341676 -0.6122616 0.093448505 -0.7218951 0.103837594 -0.07502215 0.44181022 0.6672578 0.5062907 0.29627702 -0.50068736 -0.3642499 0.6936636
('학점','Noun') -0.21783704 0.5138263 0.1694189 -0.8732082 0.23530892 0.45602185 -0.29913044 0.02262873 -0.052641965 -0.22967571 0.17039667 -0.22595009 0.049981352 0.21775939 0.29183757 0.2507845 0.6806345 0.03659017 -0.073985025 -0.36454636 0.12773268 0.45671594 -0.35701284 0.003661315 -0.9997585 0.023264248 -0.12795888 -0.5192012 -0.32053444 0.8703944 0.19069949 0.082974955 -0.31006274 -0.6683333 0.73100704 0.04930527 -0.23712558 1.075606 0.6906361 -0.27875927 -0.21730958 0.10238206 0.1328049 -0.044991437 -0.049721677 -0.5361589 0.1490932 0.382582 0.8714351 -0.0780928
('저','Noun') -0.7144979 0.45468888 -0.010531065 0.45506677 0.26163608 0.5814413 0.31203076 0.18548098 -0.48824814 -0.80999434 0.018522173 0.59175473 -0.12131392 0.051307347 0.23929419 -0.6928403 0.019433359 0.32324916 -0.28764537 -1.1685734 -0.849882 0.70282966 0.89854175 1.118545 -0.7890254 -0.38254276 0.7267945 -1.2328131 -0.9706765 0.43165824 0.39384413 0.6927182 0.29366034 -0.17168821 -0.4189163 0.6854399 0.18597847 0.039683715 -0.58056045 -0.53932375 0.6819025 -0.8932051 -0.8516025 0.26846668 0.009402335 -0.60840183 0.2115551 0.2532886 0.16543522 -0.41679814
('프로젝트','Noun') -0.17961717 -0.46020052 0.3757264 -0.753401 -0.26194304 -0.26655287 0.4282412 -0.26010728 -1.3170547 -0.447258 0.48436362 -0.19945902 -0.15849458 0.23000935 1.02133 -0.36880147 0.6849081 0.44041294 0.4681744 -1.0602366 0.23030558 0.16263719 -0.4276479 0.12998664 0.08282019 -0.41884917 -0.25281772 -0.5899216 -0.6717431 0.96514416 -0.21922092 0.59459573 0.581919 -0.5153506 0.8529979 -0.33249068 1.0384278 1.0720764 0.7801743 0.15904368 0.46648163 -0.63612264 -0.7768649 0.5649829 -0.3367092 -0.24002336 -0.38166478 1.0592381 -0.108142614 0.73492825
('로드','Noun') -0.91094965 -0.52561325 0.8059655 -0.69538707 -0.42885423 0.3852753 -0.53952 -0.773487 -0.6064086 -0.19882344 0.24159579 0.3038928 -0.29501858 0.5541362 0.21699463 0.17823625 0.23146701 0.40620518 -0.35493243 -0.8606528 -0.7996008 0.7189431 0.2476584 0.76510656 -0.65378535 -0.33756897 -0.41293854 -0.06052945 -0.7374398 -0.36566138 0.5256896 0.25158173 -0.18234669 -0.3840279 -0.05817017 -0.49972633 0.77566063 0.45046628 -0.5601617 -0.24071015 1.0663601 0.72612476 0.19626589 0.63338864 -0.17517172 0.14067966 -0.7785366 0.91860074 0.07565852 -0.45723438
('전산','Noun') -0.11167421 -0.3593674 1.1727147 -0.36392033 -0.21386476 -0.36460987 0.48043165 0.38087308 -0.57999206 -0.26077622 -0.31679675 -0.2873924 0.27785143 0.92260194 0.370528 -0.14150698 0.1335267 -0.22864182 -0.6421933 0.15005873 -0.74098444 0.7050164 -0.23194487 0.80307794 -1.1835234 -0.64107305 -0.47878885 -0.8046086 0.083253935 1.1712266 0.18339597 -0.29165915 0.10886951 0.44330814 -0.25128013 0.1571637 -0.44565794 0.7809907 -0.5717595 -0.6833284 0.34446633 -0.8906501 -0.20015107 0.8161708 -0.65602237 -0.2691066 0.18319252 1.3407601 0.05950582 0.14656854
('퀴즈','Noun') -0.7626302 1.0193881 -0.23151231 0.20541699 0.3668442 0.9999361 0.1739695 -0.7876782 -1.3686814 -0.39340383 1.2492573 -0.2752596 0.28208044 1.2130356 -0.47432265 -0.31120253 0.38714948 -0.2789933 0.56892806 -0.30681363 -0.74083954 0.7177796 -0.4797516 0.4610625 -0.5857246 -0.67865455 0.06437631 -0.30449694 -1.184701 0.13960752 0.66391027 -0.08282523 0.01448993 -0.61841035 0.19387627 -0.10069439 0.7065612 1.0092694 -0.3069034 -0.46548122 0.64431405 0.02039269 -0.023044413 0.6670002 -0.3253822 -0.044717092 -0.014164177 -0.07597899 0.57389784 0.49540186
('출석','Noun') -0.13742521 0.8854266 0.29834044 -0.11776128 -1.2041447 0.41963014 0.40820754 0.8259566 -1.2074965 -0.3893334 -0.20722972 0.009925816 -1.3652148 0.94177973 -0.09554954 0.7131552 -0.89832306 -0.6267586 0.2032237 -0.34629583 0.10104454 0.4235079 0.06672143 -0.7480814 -0.115865715 -0.87684715 -0.7723993 -1.112557 -0.89277774 0.6444784 0.850623 0.06678301 -0.3574576 -1.1198618 -0.6478942 -0.055100758 -0.54355705 0.38584676 0.48051435 0.6248482 0.899662 0.1055726 -0.26300338 -0.34157544 0.20987788 -0.62745893 -0.39883783 0.18183981 0.4221194 0.6137812
('추천','Noun') -0.6834472 0.7304785 -0.22684805 -0.16665235 -0.17071587 0.2710775 0.83690226 -0.025027271 0.24626881 0.2758159 -0.618006 -0.10861539 -0.9552024 0.22620013 0.5854163 -0.5958284 -0.32313856 0.6582549 0.86134803 -0.6023883 0.5026184 -0.62547123 -0.24242029 -0.20260474 -0.9081392 0.19542295 -0.7218567 -0.18897697 -0.5039177 0.5242001 0.86327916 0.66433483 -0.36657423 -0.97764266 0.028407602 0.99389356 -0.02610841 0.2859179 0.47905135 -0.24032764 -0.05139313 0.39992863 -0.6107366 0.71108854 -0.82464707 -0.68460363 -1.010796 0.7455529 -0.20138219 0.6421028
('족보','Noun') -0.6628525 1.131996 -0.11199311 -0.23798668 -0.8691856 -0.007656184 -0.14974199 0.17499535 -1.0489732 -0.07375048 0.031046845 -0.018870872 0.082162365 0.91367733 0.7003814 0.97176474 0.08384265 -0.22833481 -0.14133857 -0.7500758 -0.62394613 0.47072798 0.80817217 -0.30279568 0.18545766 -0.70318776 -0.671084 -1.0793935 -0.032277144 0.6706703 0.2328094 -0.31877285 0.022815768 -0.18029363 -0.22187726 -0.32732132 -0.6224132 0.24708344 -0.20377858 0.22089614 0.139429 -0.6516954 0.6010589 1.2962637 -0.9409976 -0.5713176 -0.71265244 0.20844573 0.87042314 0.4264117
('이','Determiner') 0.30026156 0.39923126 0.2270864 0.3599992 -0.47863984 0.74434394 -0.09899926 0.4860999 0.36809313 0.4482355 -0.22488104 -0.03107941 0.12570153 -0.025442967 0.027555402 0.34193528 -0.8168242 -0.39830837 -0.38565537 0.111224174 -0.0007533615 0.8979199 0.028661782 0.22951211 -0.6084045 -0.41070318 0.29662222 0.39746282 0.24292058 -0.009487368 -0.80032724 -0.24455592 0.06280118 0.59204084 0.44345763 0.26867884 -0.6180662 -1.0941471 0.57854885 -0.7382673 0.5880625 0.532222 0.8419005 0.4676941 -0.45614126 1.0315706 0.6974024 0.72115964 0.56343424 -0.5848784
('사람','Noun') -0.69534147 -0.18529391 0.76176316 -0.92890817 0.04876302 0.3896886 0.61489093 0.11578833 -0.637591 -0.9793935 -0.13902605 -0.6430106 -0.07608212 0.0795707 0.6919109 0.09349191 -0.24581973 0.061296284 0.8961146 0.04505153 -1.1447093 0.7098109 -0.15638681 0.4310209 -0.8233008 -0.9821085 -0.8389329 0.3138072 0.43068993 -0.18654428 0.07955176 0.08612943 0.09171507 -0.065971285 0.297237 -0.26628795 -0.52483404 1.4311606 -0.6905359 -0.2607222 0.6873593 -0.25386363 0.011982971 -0.39250228 0.46243027 -0.30396357 -0.43533018 -0.19716614 1.1264932 0.60651785
('와','Josa') -0.73907316 -0.67400163 -0.5845541 0.034972157 0.64395183 0.8812033 0.846563 -0.5869066 -0.013738027 0.110349804 -0.53484505 0.005238037 -0.3235806 0.14685805 -0.44744027 0.21985237 0.69912463 -0.61692554 0.20952335 -0.6449532 -0.8093037 -0.6617526 0.43391258 -0.26000986 -0.18110932 0.70903295 0.040229786 -0.21598515 -0.89670694 0.37154514 0.5790143 -0.04671433 0.300406 -0.13919258 -0.101661704 0.47975656 -0.7715588 0.6161062 0.67851555 0.22445804 -0.24426743 -0.091733426 -0.82151276 -0.07348578 0.140889 0.62378895 -0.17920816 -0.0878303 0.5000804 -0.5764664
('점','Noun') 0.64306194 -0.42507225 0.38917878 -0.46051818 -0.6818686 0.7382157 -0.26576197 0.76843387 -0.0930202 -0.017116403 0.5971803 -0.40591097 0.00651557 -0.39779627 -0.59132457 0.3981571 0.3118109 0.6719738 -0.46809494 -0.982802 -0.4752396 0.36762923 -0.60368514 1.0048624 -0.047908854 0.7740736 0.4894438 -0.2790152 -0.5355806 0.87474686 -0.36400577 -0.71624416 0.79788053 -0.94845194 0.70919 0.14660192 -0.08161634 1.0508817 -0.41458407 -1.0800833 0.65555644 -0.5344724 -0.29356685 -0.37822708 -0.21317036 0.26653424 -0.8783605 1.2620596 -0.4186559 -0.009757845
('느낌','Noun') -0.4558708 -0.13819109 -0.04747138 -0.24588288 -0.83325046 0.26534018 0.20734842 0.221696 -0.48258597 0.40567908 -0.14618608 0.17142174 -0.76257664 0.10426092 -0.5538232 -0.20262443 0.097208634 -0.06268506 0.56396306 -1.3060452 -0.63984126 0.7893843 -0.54861045 1.0367641 -0.63185936 -0.17251176 0.5160212 -0.62836385 -0.26766166 1.2901058 0.6604203 -0.5478582 0.7295504 -0.009729034 0.7506804 -0.76322424 0.8843015 0.99162686 -0.71499324 0.4747718 0.5590533 -0.18701385 0.18711932 1.0972719 -0.4537295 0.2646553 -0.28376573 0.07163616 -0.026510688 1.0485967
('3','Number') -0.6916678 0.1458786 0.80145025 -0.1383889 -0.5923217 0.8748706 0.14395197 0.26236242 -0.26012653 -0.5844427 -0.40141237 0.08594643 -0.8233763 -0.4142628 -0.35541 0.42953828 -0.19881836 0.53001124 -0.40261394 -0.67228854 0.025328642 0.88963383 -0.49219248 -0.49192587 -0.9103211 -0.48602453 0.29861662 -0.5682638 0.5018869 0.15884247 0.06923567 -0.25658768 0.4779289 -0.042841677 0.5573876 0.5833508 0.33501518 0.99851996 0.32935715 0.20026721 0.7491026 -0.40381467 -0.6495344 0.36740565 0.12415817 0.06735146 -1.0154748 0.7438492 0.9810223 0.9754488
('성적','Noun') -0.5988858 0.9325012 0.6987278 -0.9853452 0.3384267 -0.16197033 0.70767236 -0.13905576 -0.10311255 -0.19428787 0.34959322 0.38712266 -1.0295419 0.9544269 0.22685902 -0.26412266 0.49988395 0.5118356 -0.6112663 -1.0669739 -0.51392716 1.080043 0.5855958 -0.22263518 -0.05119895 0.53936344 -0.077318095 -0.117726214 -0.8889689 0.6374483 -0.1041206 -0.5702993 0.45766872 0.3813805 0.008283387 0.3420008 -0.21712156 0.3303394 0.47667453 0.34661216 -0.35326257 0.4735575 -0.5152539 0.33299318 -0.6850233 -0.09290563 -1.0944381 0.7760028 0.63472474 0.07648807
('4','Number') 0.006713899 0.5050719 1.0831285 -0.38142407 -0.48482963 0.18608902 0.1136037 -0.79071414 -0.8089741 -0.35005453 0.56161195 0.8428429 -1.1545744 -0.30231392 0.8143633 -0.6031114 0.024802236 -0.48180217 -0.38200352 -1.240067 -0.53425604 0.8170008 -0.20809978 -0.26675305 0.28847337 0.7426623 -0.21323161 0.69106764 0.036190744 -0.009564292 -0.46651912 0.52018577 0.19411093 -0.47606933 -0.25832763 0.92995685 0.45062298 0.92249626 0.69608635 0.48158884 0.8818609 -0.17266239 -0.16611226 -0.25015232 -0.020492403 -0.89577454 -0.28315365 1.3436167 1.1239145 -0.17807566
('부분','Noun') 0.4256052 -0.47334844 0.3444936 -1.0474156 -0.89450234 1.0267498 -0.42183682 0.25716728 -0.21740822 -0.06512728 0.66553634 -0.7952405 -0.23840776 1.273152 0.5749946 0.5159612 -0.3885164 0.6862091 -0.46110675 0.26616797 0.106264874 -0.2338602 -0.39784357 -0.3300847 -0.9353743 -0.710591 -0.7804374 0.11612064 -0.8985932 0.041238956 -0.27888897 0.08684586 0.21668711 0.104334034 -0.19567733 0.8979302 -0.056177177 1.051094 -0.6636019 -0.22221108 0.40189117 -0.8308352 -0.5152798 -0.18461739 -0.14997047 -0.45001754 -0.83024395 0.9253752 0.5690829 0.8205945
('알','Noun') 0.10887478 0.31717357 0.6747818 -0.3706517 0.12221084 0.11153176 -0.25383967 0.360119 -1.0510362 -0.57468617 0.5886154 0.18981314 -0.71032244 -0.439851 0.12760061 -0.7642971 -0.1550567 -0.46033356 0.028196238 -0.17967232 -1.1454363 -0.09024627 0.26252684 -0.47744873 -1.2196791 -0.25327647 -0.21374232 -0.76778084 0.44698098 0.8467805 -0.2852278 -0.2598166 -0.7557268 0.53378916 0.008375396 0.2637946 0.01032651 -0.03990629 0.3029273 0.11569108 -0.2714398 -0.92395204 -1.0296884 0.52422607 -0.5671314 -0.75794846 -0.41996893 0.40445304 1.1480714 -0.22872786
('서','Josa') -0.31504536 0.7823096 -0.03933981 -0.17186679 0.6064865 0.6279034 0.74408704 0.05613155 -0.08803832 1.0346777 -0.19257753 -0.4947943 0.5125369 0.89466965 0.26063818 -1.1200285 0.18815869 0.72803456 -0.6758843 0.17579275 -0.02319365 0.64651704 -0.14373702 0.1313256 -0.39704475 0.51357627 0.7397404 -0.2441905 0.21242434 -0.45352387 0.049382642 0.20919953 -0.93757737 -0.49031198 0.6076972 -0.71717596 -0.15004492 0.57319593 0.041565895 -0.027402299 1.0148536 -0.57433116 -0.08612237 -0.5269727 0.08581588 0.720165 0.037749965 -0.09242476 -0.24505448 0.41351286
('구조','Noun') 0.17450626 0.22157045 0.18705724 -0.66365945 -0.43846175 -0.6647291 -0.23761763 -0.559985 -0.4024603 -0.2069479 1.1616402 0.7488234 -0.37447774 0.43542632 0.8370482 -0.69700557 -0.25426257 -0.4442452 0.3911806 -1.4209219 -0.4672801 0.74921316 -0.43962914 0.7424779 -1.0660766 -0.4947144 0.294159 0.24158515 -0.37724492 -0.035183594 0.778692 -0.13626853 -0.18987842 0.35461476 0.751748 1.0471122 -0.44334927 1.4108229 -0.3286036 0.58674854 0.17347957 0.40130666 -0.0035803737 -0.32758433 0.50854117 0.35388187 -0.43688053 0.008596243 0.01144393 0.3179717
('못','VerbPrefix') -0.16625819 -0.423581 1.0927435 -0.36975244 -1.0110224 0.35269034 0.3877662 -0.74487144 -0.14762399 0.4078427 0.18117037 -0.6161075 -0.88765526 1.0906223 -0.53464794 -0.41634262 -0.48945987 -0.2859886 0.07733092 0.5948009 -0.8420592 -0.001566275 -0.35503745 -0.2173795 0.41022623 -1.0338708 0.7112667 0.03308449 -0.1176573 -0.11934937 -0.915111 0.055695083 0.46755457 -0.9462305 0.32766604 -0.47420278 0.26140243 -0.5476306 -0.45638192 0.46099758 -0.061985493 0.00020909018 0.5067288 0.65198547 0.76345 0.45777494 -1.0837171 -0.22575665 0.09483267 0.73881745
('빡세','Noun') -0.7767403 0.24701859 -0.23956761 -0.3903721 -0.05396125 0.5139131 0.16425225 -0.76479876 0.45093295 0.6700933 0.12203562 0.73627335 -0.91090906 0.9174853 0.41535145 0.28693265 -0.4741834 -0.58677375 -0.09106418 -0.61206824 0.3750335 0.5566234 0.62411517 -0.080991164 -1.0846496 -0.33467275 -0.038890142 -0.46385264 0.12855981 1.0907413 -0.6446893 -0.027982181 0.69052315 0.42382476 0.06514069 -0.49992472 -0.26552206 0.89901006 0.35949698 -0.643658 -0.020027604 -0.024446502 -0.46672112 0.39863724 -0.19835031 -0.39452392 -0.33797738 0.36822814 0.5655735 -0.42934233
('인데','Josa') -0.3233774 0.40370077 0.21040216 0.32080647 0.6043202 0.30021793 0.112170264 -0.6652172 0.57662475 -0.06329029 0.68626386 -0.24160574 0.49664065 0.42535967 -0.77310646 0.5545685 -0.46099654 0.5486838 -0.29977876 -0.72664475 0.11856347 -0.42456114 0.06745684 -0.05723048 -0.08012195 -0.3621857 0.2656452 -0.44079727 -0.49188685 0.44973043 -0.6418047 -0.36003864 0.50502086 -0.7716843 0.7293427 0.5686432 -0.2941158 -0.27392283 0.31888193 0.8975756 -0.17157204 0.28556874 -0.3240558 -0.56342226 -0.564614 -0.5342889 0.07967105 -0.32056835 -0.031096779 0.09282605
('1','Number') -0.6391606 -0.015072327 -0.0049970597 -0.2906588 -0.64406437 0.6733377 0.100488536 -0.14070779 -1.337895 0.20224985 -0.22202806 -0.06462947 -1.0876701 -0.009115144 -0.23295668 0.6788703 0.04947548 -0.3458216 0.012648252 -1.1651564 -0.15019147 1.1535797 -0.119999304 -0.294058 -0.47530717 -0.062369835 0.5134281 -0.21824376 0.38282812 0.6430626 0.5717961 -0.10803542 -0.6369242 0.005566669 -0.1192496 0.42482123 0.9643943 1.0524741 -0.26103628 -0.52656025 -0.31027576 0.6673588 -0.50532025 -0.39449453 -0.6161409 -0.44585463 0.56161314 0.92878443 1.2268368 -0.08474451
('A','Alpha') 0.09766972 0.15056895 0.034743354 -0.58197165 -0.1552926 -0.6618978 -0.59459937 -0.4774055 0.2691788 -0.25522944 0.79076463 0.8063936 -1.053645 -0.11781394 1.1781907 -0.42456564 -0.4469503 0.26281184 -0.1129685 0.25648907 -1.2180125 -0.2042635 0.41593516 0.78975505 -1.4681079 -1.0649652 0.19352861 -0.43748763 0.6877728 0.4086044 -0.6867881 -0.6541737 0.34925768 0.3069535 1.0430641 0.8975125 0.16591886 1.0430597 0.60854673 -0.17365791 0.13967203 -0.83015597 0.24706487 -0.33717474 0.034736183 -1.2177005 -0.8317424 1.0389308 -0.02973769 -0.287913
('처음','Noun') -1.138026 -0.3753258 0.63150847 0.54638433 0.063892365 -0.76813537 0.43699378 0.36803287 -0.5133149 -0.3262148 -0.24057147 -0.118332684 -0.8039937 1.1598451 0.038106333 -0.4614759 -0.11718801 0.7393036 0.5802355 -0.32680932 -0.031259973 0.0029463267 -0.19227198 0.016949946 -0.92064613 -0.28788826 0.44223645 -0.30441508 0.44508177 0.17683344 0.72455454 -0.48200372 0.76784056 -0.6707237 -0.36318234 0.48617148 0.4194696 0.44905138 -0.78408283 -0.66088635 0.26487485 0.5297719 0.31270048 0.091747366 -0.31385753 -0.66342765 -0.91735655 1.367263 1.118988 0.74159586
('하십니다','Verb') -0.4484989 0.6307322 0.57364315 -0.8674045 -0.2714414 -0.29448465 -0.09671409 -0.21668887 0.4357419 -0.63617146 0.45555812 0.21416226 0.110737786 0.32008526 0.20515884 -0.68717915 -0.8344421 0.22463492 -0.16308326 0.003270554 -0.8023502 0.11564989 0.86156833 1.1605058 -0.2030272 -0.044846788 1.0277612 0.28759027 -0.9871865 0.16851765 0.9069386 0.13596344 -0.014444249 0.17205632 -0.5707217 0.5337392 0.58504933 1.4039509 -0.25352275 -0.9735231 0.8834377 -0.48214793 -0.6129302 0.85100627 -0.25091845 0.13915709 -0.31756887 0.50240326 0.42290092 1.0665283
('영어','Noun') -0.63225055 0.1523808 0.9809024 -0.68980306 0.2505973 0.16152832 -0.5389475 0.3045824 -0.8154693 -0.57234937 0.44280335 -0.4025451 0.22057113 -0.457279 0.9886004 -0.5850847 0.38014853 -0.35666952 -0.9383445 0.016819112 -0.8609036 0.16972877 0.8181247 0.6277756 -0.99519897 -0.7682982 -0.37266108 -0.7790616 -0.14095883 0.5849396 0.81083316 -0.37654477 -0.44804898 0.032178085 0.6984774 -0.2210324 0.4207777 0.3063891 -0.71803313 0.7644468 0.29988158 -0.2897597 -0.45098314 0.7369204 -0.66508067 0.7110578 -0.33061612 0.9100081 0.9428958 -0.3180831
('보다','Josa') -0.51422846 -0.6698477 0.3337729 -0.53020906 -0.023667825 -0.67092174 1.0067514 0.486679 0.050078675 0.10325243 0.8126512 -0.3329829 -0.72275597 0.9874319 0.705911 -0.30159196 0.32905263 0.1680024 0.13147001 -0.45820844 0.60407454 0.9356786 0.7186779 0.24945448 0.26218504 -0.7197745 0.5806365 -0.62006146 0.32092968 -0.755468 0.31171525 0.34058222 -0.26845643 -0.09181965 0.043713875 -0.70835173 0.021987181 0.5476237 -0.7107944 -0.16269447 -0.5993142 0.4837924 0.9658433 0.6016392 -0.010544802 -0.4032974 0.041094597 0.11623345 -0.40227666 -0.21659721
('다','Josa') -0.95699126 -0.30926457 1.1134346 0.2492835 -1.0637451 -0.62945837 -0.90463984 -0.4586312 0.2724231 0.44298118 0.20431376 0.27237692 0.08422475 0.040664922 0.606051 0.09607173 -0.80824876 -0.85184073 0.5581962 -0.25610712 0.17135693 0.6218171 0.5331093 0.83445776 0.29559788 -0.5850157 -0.029129637 -0.47757432 -0.7080164 0.4270604 -0.5900781 0.15101591 0.10894297 -0.6604643 0.5488562 0.61524236 -0.21115701 0.51450497 0.5320482 0.053981412 0.25449455 -0.47755006 -0.26250732 0.65772235 0.7871455 0.49144208 -1.0335469 -0.21079078 -0.16494094 0.65831745
('랩','Noun') -0.6343219 0.9242797 0.57781804 -0.3171697 -0.5304899 0.6457965 -0.57753456 0.34548202 -0.7123512 -0.6964233 -0.5023706 0.034377143 -1.2750533 1.2133405 0.60093284 -0.8657659 0.0045853117 -0.28313497 -0.4729623 -0.4256311 0.06737787 -0.17651564 0.45814818 0.48059583 -1.0668924 -0.41295883 0.5516296 -0.35799843 0.45122048 -0.10925606 -0.5020436 0.5433654 -0.57547474 0.58863646 -0.0773833 0.19367863 -0.2851047 0.31056798 -0.7770198 0.0011791885 0.20468107 0.6041528 -0.21052797 0.32025772 0.47305435 -0.26479906 0.8163963 1.1669106 0.82329065 1.0683922
('경우','Noun') -0.5139325 1.0575285 0.41845918 -0.4018498 -0.2997607 0.512737 -0.68361765 -0.5160388 -0.98696095 0.33543718 0.48291606 0.4791215 -0.76257265 0.2596726 0.5013698 0.32518303 -0.49142665 -0.4252282 0.28149664 -0.18932715 0.058927935 0.59396034 0.89156455 -0.4833001 -1.1580985 0.13489684 0.17442787 -0.09257968 0.19168678 -0.017662894 0.041584585 -0.23076268 -0.3424963 -0.28489637 0.61285216 0.849663 -0.41775274 0.5178431 0.47824934 -0.8536936 0.4311794 -0.6915574 -0.042443834 0.6284577 0.1222896 -0.44521692 0.1546865 0.28529352 0.112980284 0.7974355
('코딩','Noun') 0.25509533 -0.5553736 0.42878303 0.46901986 0.014938068 0.12052069 0.3049952 -0.23557858 0.47445524 0.114408076 0.62671673 0.04539333 -1.0176733 0.5268421 -0.10045163 -0.067166254 -0.41743654 0.6853652 -0.78771484 0.14467949 -0.8611173 0.85357124 -0.00011739234 0.6112756 0.2139005 -1.0705765 0.60339713 -1.1471993 -0.26359898 1.0726758 0.43914792 -0.8581609 -0.012018254 -0.1639745 0.20792747 0.9871347 0.83283556 0.13788801 0.8097422 0.7857726 0.687932 0.16491705 0.12093583 0.9673116 0.15129702 -0.3931727 0.34307578 0.7864416 -0.3784789 0.9803237
('점수','Noun') -0.9381461 1.0508503 0.34297174 0.13961744 -0.41150522 -0.033963922 -0.007901455 -0.18925619 0.15466513 -1.1175339 1.2348856 0.5109426 0.13755327 1.2758251 0.87238824 -0.54760134 -0.49581957 -0.27811763 -0.3923464 -0.29156294 -0.2386562 0.545883 0.84629154 0.3700028 0.11499327 -0.4213745 0.51070476 0.33830467 -0.7764135 -0.2827446 0.1024043 -0.8061238 -0.033313327 0.2389665 0.5986584 0.44086418 -0.13809858 0.089476936 -0.4953269 0.4515967 -0.08982757 0.41162848 -0.2702709 -0.26187673 -0.80008864 -0.49265015 -0.10137184 0.77626187 1.3431944 0.51855886
('언어','Noun') -0.06628543 0.19484034 -0.27294308 0.6562619 -0.19781394 0.9724606 0.68972117 0.23944084 -0.7933435 -1.1060735 -0.2538389 0.7527944 -0.8202657 0.08904914 0.34783828 -0.49874866 -0.75057477 -0.75296247 0.2741013 -0.8495951 0.35576424 -0.29545656 -0.061208356 0.5791005 0.07748559 -0.25813562 -0.97407347 0.252457 0.31198895 0.6292735 0.6612021 -0.82224864 0.3651008 -0.6614061 -0.50359297 0.8034277 0.09359103 1.6372325 0.5218929 0.34071872 -0.39103055 -0.034830384 -0.12290929 0.8697108 -0.6207622 -0.9392762 -0.23867139 1.4586211 0.9692928 -0.18426314
('개념','Noun') -0.21805835 0.262601 0.8458201 -0.9395668 -0.58801055 -0.51212966 0.78404665 -0.9609036 -1.007677 0.13341321 1.2107139 -0.62110424 -0.66827166 0.18891604 1.1457844 -0.41701058 -0.5239557 -0.31296453 0.7206918 -1.3701897 -0.8542236 -0.027300213 0.10261403 -0.13017654 0.10659248 0.50236034 0.8837909 -0.21595623 -0.686671 1.2446429 0.41286576 -0.4209191 0.7847669 -0.0470377 0.16483353 0.3481879 0.7897022 1.4111817 -0.0672849 -0.67382514 0.69154096 -0.10930763 -0.47295684 0.016443642 -0.6713877 -0.19565862 -0.18608299 -0.32816845 -0.1404153 -0.19588766
('평균','Noun') 0.06319602 -0.31421754 1.5805639 -0.75542533 -1.1384279 -0.2620397 -0.2476839 -0.77166 -0.15740563 0.04848509 0.88197 -0.3490619 -0.47720584 0.40733936 -0.13567717 0.83957565 -0.6692529 0.5127717 1.0371736 -0.71734303 -0.30826306 0.96816367 -0.2447931 0.9989574 -0.16236755 0.5101852 -0.51433235 0.13313054 -0.064339705 0.89050484 -0.16302893 -0.62800246 0.013860546 0.5098061 -0.0921166 0.8957871 0.5288425 0.925834 0.51009303 0.09831091 -0.20643352 -0.82707787 -0.2872639 -0.5250917 -0.8306946 -0.5484205 -0.61692363 0.32643872 0.24389738 -0.11356187
('책','Noun') -0.9329531 0.34437692 0.501989 -0.68179923 0.35633025 -0.31198803 -0.7848663 -0.45354956 -0.9171137 -0.81114674 0.35533985 0.55297804 -0.1828065 1.1150101 -0.16485982 -1.0796523 -0.7178527 0.28638792 0.57958865 -0.25659612 -0.55845875 -0.05952778 -0.22251289 0.4682159 -0.9284966 -0.28173214 -0.37525108 0.088681445 -0.01931669 -0.022794772 0.1671353 0.36698067 0.568171 -0.19007418 0.23776321 0.53227186 0.5540896 0.10523819 -0.20039187 -0.5480469 -0.42755368 0.41536152 -0.43575647 0.8054079 -0.7430642 -0.20932649 -0.28910792 0.8028861 -0.20940445 1.0011644
('발표','Noun') -0.016997196 -0.31321418 0.09884688 -0.92801505 -1.0330015 0.9858602 0.70358926 0.5110598 -0.87468624 0.033567954 -0.5198151 -0.007419719 0.07127947 0.49074942 0.78886354 0.8108293 0.14747196 -0.41946006 -0.4285777 0.052044716 0.54721546 0.60185 1.1104186 0.6232343 -0.4017198 -0.7151186 -0.88117415 0.27025795 0.1311553 0.9390648 1.0150722 0.35563418 -0.34609756 -0.9714443 0.33567885 0.63637555 0.8026031 1.0189646 0.52565503 -0.791589 -0.0103376405 0.15581827 0.38377398 0.98605454 -0.95939386 -0.2552375 0.10534656 0.87316316 1.0315206 0.58444756
('분','Noun') -0.2206621 0.83200693 1.0582613 0.10299063 0.04606084 -0.5883722 -0.47013897 0.2842861 -1.1303606 -0.41733828 0.6872539 -0.60464185 0.44637144 0.33452114 0.21572414 -0.28161114 -0.85294545 -0.5680552 0.380594 0.14714675 -0.50932866 1.0200878 0.074216105 1.1133926 -0.7407121 -0.24416451 0.03923137 -0.21804564 -0.45979398 -0.2147495 -0.5141365 -0.47821733 -0.7815754 -0.8550681 0.81050366 -0.50902045 -0.00035060788 0.19199236 0.16440742 -0.24544665 1.0183429 -0.4467945 -0.7680665 -0.2063996 -0.8009241 0.18450847 0.14424278 0.8042321 1.3764173 -0.041270208
('집중','Noun') -1.006094 0.42030025 0.5972322 0.17347683 0.4060703 -0.12531325 -0.9311315 0.71699274 -0.87730706 0.14551754 -0.49616188 -0.7644139 -0.66513395 -0.64323187 -0.07777449 -0.61674815 -0.17748089 0.8473885 0.7764436 0.8913313 0.5170366 1.0274644 0.78831035 0.04826395 -1.1438202 -0.28882575 -0.8804084 -0.52314895 0.41029766 0.6897514 -0.10686249 -0.81680274 0.74223685 -0.7886147 -0.16529033 -0.52768826 -0.044091538 1.0695584 0.8482647 -0.8009609 0.60408086 -0.21309264 0.43274152 -0.07596375 0.6800437 0.50092447 0.19475286 0.05484095 0.55419534 0.4354477
('나','Josa') -0.6149007 -0.01877373 0.11274859 -0.12981424 -0.7719814 0.8734441 0.6361889 0.7425475 -0.39563587 -0.73069876 0.31154802 0.8738967 0.48608908 0.09941716 0.29407674 0.75925153 0.19646603 0.08053705 0.5866663 0.5732508 -0.7306855 -0.16622472 0.5402893 0.082568966 -0.5629381 0.746996 0.19646685 0.58475864 0.4800668 0.6778215 -0.48531008 0.47604492 0.28121856 0.059406355 0.19152935 -0.856347 0.36842343 -0.15205096 0.089593135 0.48032576 0.36318272 0.038067747 -0.002805411 -0.18483165 0.37967256 0.5737635 1.0235478 0.31311637 0.48334992 0.36441734
('안','VerbPrefix') -0.8672126 0.3951619 0.83195806 -0.063076615 -0.54050833 -0.29074115 0.34337613 0.7957243 -0.5176954 0.6677404 -0.15641384 0.60521376 0.26162696 0.29926676 -0.7116676 0.07958673 -0.60006416 -0.16846815 -0.17372599 -0.2854989 -0.15059192 0.11636859 0.8337783 -0.4876515 0.8216205 -0.14676046 -0.14680097 0.8493504 0.18831348 -0.1990509 -0.38740394 -0.097397976 0.27394015 0.25118613 0.17809765 0.5244097 -0.36669114 0.111429706 0.70376617 -0.24303028 0.05093275 -0.79535437 -0.64864105 0.92399913 0.3763865 -0.95217174 -0.7404592 -0.47672465 -0.10727901 0.46180388
('됩니다','Verb') -0.4119332 -0.14644644 0.41632995 -1.187005 0.38195953 -0.29215014 -0.25303876 0.52888966 0.1196558 0.27709833 -0.0066903 -0.76852846 -0.49203202 0.25703588 0.48479027 -0.4770576 -0.62843055 0.678358 0.87702805 -0.64387834 0.5823047 0.876055 0.36630818 0.11426525 -0.71033657 -0.63427055 0.14025505 -0.5673498 -0.59398097 1.1796345 0.32030132 -0.42456993 -0.17330532 0.043966353 1.1590576 1.0549812 0.71265596 1.3274356 0.53730726 -0.0163299 0.42745468 0.4452394 -0.11639055 0.46235663 0.016568338 0.40738294 -0.5597845 0.7884262 0.60570383 0.13591075
('중간고사','Noun') -0.4922756 -0.50903445 1.4716566 -0.42807057 -1.0841514 0.47794953 -0.4109575 -0.9120473 -0.93652934 -0.036277745 0.25334045 -0.4669618 0.26611477 -0.02221368 0.20106998 -0.023326784 -0.34204423 -0.4279224 0.7086687 -0.20459066 0.30071867 0.74306613 0.50285864 0.114225596 -0.41920868 -0.5319192 0.5309826 0.1031072 -0.1713078 0.52778417 0.8427891 0.32248762 0.81543624 -0.90715533 0.11660643 0.40307572 1.0241041 0.35863763 -0.11789812 -0.35989043 0.7958179 0.08761278 -0.122868545 0.2114614 -0.6593567 -0.53901553 0.3710946 1.323807 -0.14299746 1.0341456
('프로그래밍','Noun') 0.3882368 0.7873316 0.5749936 -0.52257097 -0.6139786 -0.21466932 0.4396961 0.33069393 -0.26817623 -0.50643426 -0.45000973 0.1171783 0.19344726 0.5024445 -0.21174462 0.26620713 0.5875362 0.43853247 -0.13412602 -0.69848245 -0.88454217 0.71312505 0.5585245 -0.3271852 -0.8764792 -0.0059772213 -0.21858533 -0.78811187 -0.86561555 0.9663231 0.6782923 -0.28620976 -0.6270913 -0.34120163 0.8481201 -0.52866477 0.3470407 1.3216327 -0.76054496 -1.0863538 0.8764168 0.73866373 0.214785 0.75343823 0.26452702 -0.4191347 0.23027945 0.6398588 1.1771654 0.19081768
('플젝','Noun') -0.7657829 0.060453698 0.665701 -0.81425 -1.0102265 0.93785673 0.41100478 0.5117056 -0.9970935 0.46272832 0.51636523 -0.21494195 -0.66560376 0.61710095 0.5303488 0.026473064 0.78319454 -0.8794839 -0.3181358 -0.03595054 -0.63952446 0.41913313 0.422254 0.98301345 -0.9416645 -0.45189276 -0.47299132 0.4200814 0.102120325 0.08604965 -0.3307894 -0.021651093 -0.80592626 -0.829739 -0.57039523 0.20624134 0.09693815 -0.398066 0.1447002 0.64152694 0.9513059 0.3748736 0.07156562 0.28585008 0.052373923 -0.72745556 -0.33796716 1.3581259 0.46020675 0.926104
('전','Noun') -0.30533102 -0.14104432 0.48815128 -0.13508594 -0.10065347 0.4852935 0.025970114 0.61844677 0.07180954 -0.5109545 -0.021963116 -0.42393035 -0.957584 0.073244184 0.90843 -0.3060364 -1.1104534 0.33170024 0.52568233 -0.72390693 -0.3679236 -0.07841587 0.06567841 -0.0500688 -1.0033953 0.21026903 0.61702555 -0.03191511 -0.23477767 0.62874556 -0.32868344 -0.31929028 0.3661317 -0.69685155 0.54330087 0.6065823 -0.3106925 -0.13975751 -0.8138021 0.16397592 1.084486 0.0038189162 0.45686457 0.11770008 -0.63385856 -0.9514257 -0.7410588 1.3545533 1.0859034 0.84861004
('대해','Noun') 0.044951733 0.72499764 0.60353106 0.06790953 -1.0981644 0.10319919 -0.61876816 -0.69050586 0.5393982 0.2632436 1.0607606 0.57042503 -0.98621744 1.1993016 -0.08587848 0.24333993 0.45821917 0.0635246 -0.5515818 0.059393156 0.39813605 1.0962008 -0.41770333 0.5073751 -1.0246993 -0.42179444 -0.13954182 -0.568219 0.5121356 0.37534356 0.2632076 -0.7266751 -1.013187 -0.43340665 -0.22193964 0.2580928 -0.0031432402 0.23678988 -0.5036539 -0.5689214 1.1420869 -0.452729 -0.9415763 0.9275976 0.34921792 0.34859183 -0.19748773 1.069668 0.40762615 0.8291944
('기말고사','Noun') -1.1689006 -0.21486737 0.39946073 -0.13533925 0.30879235 0.6950354 0.6927072 0.4940607 -1.2092628 -0.9739182 0.11065473 0.6903376 -0.5349825 0.6904753 0.6330656 0.5939791 0.17969392 -0.21843712 -0.25531545 -0.075980715 0.2693672 0.5977879 -0.07444172 -0.4884461 -1.2179983 -1.07278 -0.530322 -0.57445693 0.030240022 0.17289883 0.7976666 -0.5015679 0.18590085 -1.0112301 -0.08578915 0.20117627 0.24243192 0.6665259 0.7486777 -0.5209123 -0.23906884 0.6699961 -1.033833 0.96222174 0.6484085 0.16928338 -0.36331397 0.5012879 0.94657654 0.04776537
('보면','Verb') 0.19612797 -0.33717686 0.66234434 -0.69150347 -0.32788968 0.9830954 0.60503954 0.401802 -0.505926 0.54387885 0.7987955 -0.045991782 -1.3593633 0.907594 0.4944769 -0.6254619 -0.4343426 -0.07737104 -0.40542006 -1.1175876 -0.056720212 -0.19832733 1.0557959 -0.18104635 -0.14998914 -1.009008 -0.0007338681 -0.78357637 0.60036707 0.3044111 0.115977526 -0.13406166 0.12778285 -0.94471693 0.32689378 0.203801 0.15047416 0.77838427 0.57388 -0.06865882 -0.1433628 -0.343496 -0.3781044 0.006491 0.2331121 -0.18067126 -0.67856145 0.95951426 0.1470507 -0.07841669
('한번','Noun') 0.037319794 0.8395534 -0.03152919 -0.67842937 -0.647974 0.2785308 0.20573905 0.37192366 -0.6745429 0.7280034 0.3781326 -0.97267205 -0.27461782 0.14947264 0.6755793 0.44544452 -0.7071601 -0.8861068 -0.24311307 -0.86225075 -0.100999065 0.28484964 0.7494149 0.9456339 -1.1450888 0.19140798 -0.19296907 0.29938823 0.4529342 0.6745796 0.79211193 0.24837814 -0.34817168 -0.669326 0.8766874 0.5829943 0.8279277 0.7988222 0.8259966 -0.5899516 -0.03316777 0.27964196 -0.8045468 0.20864204 0.63526624 -0.64023715 -0.89742345 0.85199374 0.6877356 -0.4634326
('거','Noun') -0.20155454 -0.0015624886 1.131993 -0.9222148 0.75875735 -0.33835563 0.16365072 -0.8631718 0.18830992 -1.0735636 0.9695538 -0.21556161 -0.8922634 0.2767707 -0.34598666 -0.44090572 0.46455425 -0.30269653 -0.610584 0.24521351 -0.7257066 -0.22606215 0.83773625 -0.34557614 -0.61239 -0.8072357 -0.7541431 -0.25783002 -0.27407855 0.39672205 -0.694578 0.43010482 -0.02849245 0.69315267 0.9959436 0.0716268 -0.35261962 -0.0042401603 0.6655814 -0.8209227 1.091201 -0.93059623 -0.48302433 0.26060447 0.52222407 -0.8240514 0.53590894 1.1933725 1.246514 0.93971056
('자체','Noun') -1.144856 0.69254005 1.1443932 -0.3964989 0.44313583 -0.18473347 0.40500107 0.1517233 -0.35400614 -0.67680544 0.54216075 0.5525284 -0.51828295 0.98604614 0.75482494 -0.2743864 -0.75533646 -0.16047874 -0.53629977 0.18479526 -0.18689692 -0.04711853 0.03985322 -0.4962923 -0.49172083 -0.030082876 0.342199 -0.8973087 0.14657597 0.7598803 -0.52650994 -0.34711748 -0.4239558 0.64724755 -0.53922844 0.28594315 0.6844374 0.7389276 0.46603575 0.49852696 0.4093479 -0.8492685 0.38524827 0.5756516 -0.042161535 -0.22961374 0.47939214 1.519033 0.018062353 -0.21340366
('알고리즘','Noun') -0.7330165 0.21516347 -0.0962031 -0.20196977 0.22520483 0.69466484 0.064288445 -0.26259798 -0.3844734 0.6737884 0.98082274 0.8201812 -0.45553103 -0.29883504 0.7671563 0.7306093 0.5475585 0.28315693 0.785922 -0.770145 -0.10099917 0.5171784 0.30122927 0.45674598 -1.4406363 -1.1197492 -0.12790738 -0.8861707 0.3551917 0.026003476 -0.59623265 0.12647158 -0.51568997 0.28220874 -0.09145323 -0.3963868 0.30235785 1.1246587 0.37395778 -0.97262824 0.1130916 0.069194354 -0.46570298 0.2627616 -1.0053836 0.14297222 0.11818679 1.5373223 0.2632463 0.07386746
('이번','Noun') -0.75793463 -0.054670006 0.088008165 -1.1151568 -1.0353209 0.3903931 -0.64379317 -0.1319989 -0.23335412 0.5252729 0.43652523 0.32730448 -0.068621285 0.6145481 -0.29441062 -0.7395867 -0.5199834 -0.3100201 0.84376734 -1.0575209 -0.096839234 1.1594609 0.3207228 0.88156736 0.12459632 0.30102772 -0.13722508 -0.70491195 -1.0241259 1.1039072 -0.18737012 -0.24990302 0.3932936 0.08799859 0.04909713 0.8546756 1.0307025 1.3309814 0.74800134 -0.24829496 -0.50674134 -0.9472207 -0.024411945 0.3127944 0.3747298 -0.18181075 -0.21068805 0.014203488 -0.16103576 0.21779707
('는','Verb') -0.96250796 0.8936147 0.88505226 -0.88166314 -0.26186866 0.9856985 0.5687234 0.26170695 -1.0283294 0.09336636 1.05092 0.44857967 -0.6969513 -0.366293 0.51179725 0.6822442 0.053078916 -0.6451305 0.049830146 -0.68499213 -0.6423644 1.224649 -0.011703106 0.21010482 -0.21632294 -0.035680283 0.07928676 0.23912653 -0.9928624 0.6132321 1.048162 0.13207449 0.32709673 -0.56751186 -0.57404745 0.026431354 0.9298272 0.26238814 0.1706347 -0.15079245 -0.36786234 -0.064017795 -0.8313653 -0.53093463 -0.48749137 -0.9759828 0.5871322 -0.21381068 0.12215303 0.824812
('난이도','Noun') -0.9549662 0.7166209 0.8746363 -0.36818224 0.5268172 -0.52361584 -0.47400978 0.16132729 -0.9768729 0.34412566 1.0648346 -0.58755195 0.119954206 0.90213275 -0.31584135 0.3917975 -0.45629737 -0.9985003 -0.50474894 -0.010755135 -0.91689676 0.76131296 -0.15406075 0.00835683 -0.98935086 0.72525537 -0.06295629 -0.7514239 -0.35412917 0.4969781 0.6751433 0.074126534 -0.67177004 0.25445104 0.4658538 0.43449834 0.7484242 -0.15807363 0.64593786 0.38603956 -0.19694117 0.35858694 -0.6334527 -0.7157054 0.10042445 0.20477912 0.6365686 0.94895965 0.9231826 1.1859283
('구현','Noun') -0.6617912 0.25915557 1.1146116 -1.2223723 0.11669562 -0.1454733 -0.4146423 -0.312726 -0.74335307 -0.40966862 0.42030406 0.06974444 -0.6915166 -0.38899842 -0.57653403 -0.24513061 0.2368464 -0.6013176 0.36850086 -0.024257274 -0.49004236 1.0214723 1.234887 -0.15052746 -1.085134 0.58352005 -0.4487895 0.4746403 -0.32782963 -0.28912303 0.26279858 0.0026776462 0.5139748 -0.8654979 0.9214279 -0.79673666 0.4924983 -0.01892643 -0.099245004 -0.54977983 -0.27016035 -0.28056502 -0.19789167 0.7540254 -0.72199434 -0.25566033 0.5707763 1.4183092 1.0039724 0.6051741
('ppt','Alpha') -0.28526354 -0.29192293 1.2946935 -0.28380907 -0.93771243 0.518516 0.36550686 -0.15396413 -1.1239116 -0.75341904 0.007877969 0.1889412 0.20059982 0.6038626 0.46470472 -0.4709966 0.3336541 -0.2502357 -0.75469726 0.2142897 -0.18795547 -0.53477496 -0.69912076 0.21387748 -1.099193 -0.9744988 0.1735489 -1.2373867 0.19732057 1.1330043 -0.8154317 -0.8081498 -0.06268013 0.05911239 -0.42229563 0.80185705 0.023772232 1.0969787 -0.4692271 -0.18553928 0.1749955 -0.39408883 0.54043764 0.9416908 0.6920477 -0.9294082 -0.42964903 0.44864917 0.69779253 -0.23333752
('하지','Verb') 0.33570144 0.09638509 0.91172713 0.4386315 -0.2375668 0.7651388 -0.47892487 -0.3606013 -0.16048774 -0.06545201 -0.48383224 -0.82347023 -0.85411793 1.1751196 0.12907729 0.7780572 -0.15766588 -0.84500396 0.35670093 -1.2004459 -0.94573 0.65940523 0.3573535 0.010293497 -0.7608583 -0.77300066 0.013376792 -1.1431189 -0.19520685 1.103548 1.0432987 -0.9943256 -0.42892775 0.119822934 0.93686914 -0.28624424 0.9135367 0.4404687 -0.3382472 0.037855636 -0.3013513 0.34423944 -0.121383935 -0.440725 0.07759767 -0.5092504 -0.49432227 0.2664177 -0.37270093 -0.4903839
('력','Suffix') -0.17395756 -0.07143309 0.24463005 0.024246283 0.58905154 -0.24217796 -0.5740934 -0.6636362 -0.09312035 -0.18553753 -0.49007592 -0.89978486 -0.022474255 0.39306664 -0.5640464 -0.025402637 0.2632878 0.43993387 0.78161895 -0.11828499 0.29456604 -0.0066923955 0.79185927 -0.3705336 0.097249106 -1.0679466 -0.26630655 -0.52832294 -0.098633476 0.19588386 -0.21868415 0.4887891 0.8987879 -0.11284857 0.19863135 0.68136054 0.5932889 0.6180547 -0.34243214 0.6466149 -0.5350015 -0.051910892 0.31198144 -0.051516753 -1.0089355 -0.31619576 0.7446366 -0.67488784 0.1386947 -0.59403723
('편이','Noun') -1.0242467 -0.22829826 0.54023284 -1.2149198 -0.0037569855 0.19410405 -0.50483805 -0.32921064 0.24697462 -0.44468975 0.6636212 0.28181204 -0.9365491 0.046204023 -0.6340442 0.15279397 -0.6496003 0.136611 0.12796918 0.06569199 -0.020592095 0.10845668 0.45687267 -0.42299306 -0.8098517 -0.108761676 -0.47184646 0.19930784 0.47108215 0.61993396 0.011844938 -0.9923623 0.21876776 0.6048874 1.1457024 0.26335263 0.8663162 0.562782 -0.0016686943 -0.39271235 -0.022653494 0.4262755 -0.77175444 0.048385665 -1.0271357 -0.50497407 -0.16135909 1.4382223 -0.048607636 1.1482588
('면','Josa') -0.024561316 0.21803343 0.5589723 0.4005392 -0.43479586 0.19799258 -0.6259679 0.18703723 -0.8669791 -0.19965385 0.12086381 -0.75928795 0.38853398 0.3902046 -0.21770298 -0.061775256 0.068022266 -0.73157436 -0.027387174 0.36454678 0.6002399 0.16235948 -0.11757181 0.77744156 -0.41228426 0.08560327 -0.017539093 -0.48927292 0.11416629 0.2436917 -0.660377 0.55631465 0.3544529 0.3906484 -0.8097993 0.17208962 -0.41046247 0.91907424 0.029739104 -0.055823803 0.0011442103 0.08423937 -0.7932738 0.7481011 0.25173876 0.0918513 -0.7474204 0.2598662 -0.49123517 -0.476983
('이후','Noun') 0.19647428 -0.5264033 1.2387712 -1.041193 -0.022533484 0.8183635 0.24185562 -0.057919066 -1.0346458 -0.6036227 0.9942234 0.31759495 -0.1308837 0.16097198 1.097338 -0.66023535 0.35014796 0.48193625 0.22169167 0.21647246 0.3797878 0.05885636 0.40278268 -0.1735316 -0.5501298 -0.717097 -0.09171279 -0.5412268 -0.26799357 0.66773564 -0.36129534 0.4994694 0.667756 0.21108396 0.41237217 -0.56986845 0.2681546 0.4180661 0.6083383 0.6890296 0.264231 0.236843 -1.1104095 -0.25216192 -0.86607015 -1.0227258 -0.6412904 0.64355654 1.091555 0.05850807
('까지','Josa') -0.7081059 0.47489974 1.3754777 -0.69792 -0.6774712 -0.028893918 -0.75274116 0.7280545 0.42618248 -0.500496 0.58561605 0.627428 -0.33434528 1.0804205 -0.17200626 -0.8479526 0.2668062 0.67183656 0.7448434 -0.52233833 -0.058276575 1.1330328 0.24144192 -0.5256581 -1.0936215 0.07241386 -0.107519545 -0.4679332 -0.9714399 0.7638929 0.76661736 -0.83908004 0.96445507 -0.81264085 -0.62862027 0.062660255 0.52210516 1.0839206 0.40400377 0.60614896 0.8016667 -0.85306025 -0.4399368 -0.012858212 0.29432493 0.50665563 0.09905882 -0.47456917 0.6295261 0.026507955
('들어','Verb') -1.0138702 0.9988976 1.2081447 0.4100087 -0.92673784 0.0826736 0.69340235 -0.70048517 -0.6597193 -1.10087 -0.12109941 0.48664144 -0.5479216 0.014766107 -0.68558717 0.60261714 0.8335789 -1.0355313 0.022012528 -0.37695578 -0.13517745 0.896299 0.1816422 0.00096192467 0.14543572 0.2543867 -0.16220865 -0.5752938 -0.38863558 1.0328553 0.2753565 -0.69915676 0.3823948 0.038017005 0.87621963 -0.17981035 -0.26065174 -0.40064287 0.010355461 -0.4864713 -0.5589291 -0.59361804 -0.50573903 -0.6751942 0.27117053 -1.0088161 0.43424127 0.0731797 -0.20946708 0.3240794
('이라','Josa') 0.51942605 0.7258185 -0.46308303 0.90576875 -0.15121481 0.65943855 0.5547714 0.5789479 0.25076368 -0.09248519 0.9332185 0.6474509 -0.8828889 1.0448115 -0.4226148 0.3521457 0.7103956 -0.5517388 0.2132168 0.33399513 0.7032756 0.8008627 -0.869789 0.46917164 0.005104455 0.27631912 0.43986043 -0.93732375 -0.17273413 -0.42903855 0.90243405 -0.35828155 0.029280175 -0.037222855 0.9437081 -0.3480167 -0.19097915 0.7726063 -0.06617329 0.015314432 0.33047947 0.1588952 -0.44640708 -0.17793694 -1.2244381 -0.30441248 -0.5429042 -0.40124333 0.33559865 -0.8064154
('수학','Noun') -0.8204955 0.3779317 1.0017776 0.16783914 0.5398018 0.29686683 -1.0113994 0.31374332 -0.25097185 -0.5786427 -0.44761857 -0.01837411 -0.3910318 0.7516474 -0.45560348 0.55072343 0.3463244 -0.8154933 -0.6451448 -0.3101827 0.0076281503 -0.011715801 0.82475835 -0.100661814 -0.30776027 0.040468622 0.7395855 -1.1135224 -0.50861526 -0.41181377 0.7138345 -0.39475524 0.44626275 -0.7371699 1.2884914 -0.3942409 -0.37236083 1.1320891 -0.22831686 -0.7717899 0.89606994 0.2057436 0.03091682 0.22188812 -0.42269164 -0.5476846 -0.39538363 0.28373343 1.3509748 1.0400356
('방법','Noun') 0.31921363 0.6290615 1.1498897 -1.1684746 0.20540468 -0.21148145 0.6484703 0.879711 -0.51403797 -0.5266007 -0.38710508 0.83958614 -0.21027897 1.1920584 0.5421517 -0.13846676 -0.5119031 0.4669419 0.014427499 -0.43658787 0.45903873 1.0830147 -0.47952726 -0.32321045 -0.28932026 -0.0914964 -0.97443914 -1.2062984 -0.98849696 -0.113871895 0.5976095 -0.62381274 0.27320614 -0.27670658 -0.54693174 1.0389308 0.043735962 0.08703569 -0.6731427 0.58761245 0.061249718 -1.0024565 -0.12589908 0.061129496 -0.30619237 -0.06595749 -0.75293195 0.15052442 0.64181817 1.3772832
('시작','Noun') -0.2938983 0.28752288 0.46246973 -0.8853417 0.69172114 -0.48446155 0.48584083 0.3887204 -0.17217514 -0.3077387 1.3900784 0.37964058 0.45097327 0.86758876 -0.4207164 -0.38677263 0.5406732 0.050763708 -0.4910801 0.517241 -0.37373284 0.007314201 -0.12080557 0.71185267 -0.6523443 -0.5728218 0.5002011 -0.15582915 0.21165144 0.8034379 0.33375278 0.71302545 0.2554438 0.6502452 0.88083714 1.0552834 -0.3380394 0.72527915 0.8069932 0.5922722 0.15327844 -0.117529534 0.11093853 0.31716645 0.43279284 0.18738025 -0.13926667 -0.4241194 0.3709498 0.9856975
('평가','Noun') -0.5931355 0.406373 0.8948535 -1.1909113 -0.8303052 0.07400721 -0.49677083 -0.324038 -0.8147124 -0.8448235 0.60016906 -0.62416124 -0.7908798 0.2635447 -0.22962964 0.9704631 0.015299858 -0.2598484 0.2259812 -0.76438653 -0.4726754 0.10270469 -0.074151374 0.6616989 0.33430782 0.24380155 -0.55157954 -0.41503128 -0.7623514 0.95147127 -0.55331296 0.19636671 -0.20573558 -0.060410246 0.20259748 0.22594216 -0.25125548 1.2424496 -0.75745106 0.7329581 0.42281824 0.3994041 -0.6833158 -0.16645035 0.67812717 0.5210021 -0.7244599 0.040484503 0.035671752 0.95368
('해야','Verb') -0.30092597 0.27423772 1.1072867 0.41857907 -0.76052517 0.7267583 -0.39348796 -0.15852986 0.28434193 0.07528718 0.45324677 0.28636125 -0.2181227 -0.2562996 -0.24953456 0.39485583 0.781317 0.37874907 0.69863564 -0.033823617 0.5815996 1.3392403 -0.5822632 -0.276462 -0.7537084 -0.36104754 0.57669824 -0.86056024 -0.13058613 0.8379917 -0.57704145 -0.36382785 0.4296508 -0.39291772 0.7268279 0.54486144 -0.6813447 1.4679534 -0.08253749 0.43214095 -0.23442328 -0.8999996 -0.28266233 0.65963244 -0.7518562 -0.13485412 0.29767326 -0.15642612 1.2016956 0.6443858
('방식','Noun') -0.69238424 0.70045334 -0.06358072 0.12476026 -0.32255548 -0.450745 -0.09211033 -0.11275586 -1.2812302 -0.68343425 -0.18290049 -0.0011896682 0.40749517 1.1596824 0.57510114 -0.16426301 -0.39961955 0.4662216 0.46185657 -1.0550066 0.6418718 0.3211315 -0.4125167 -0.09033261 -0.93276244 -1.0896653 0.11489707 -0.035995796 0.30016175 1.1527005 -0.50552917 -0.63240993 -0.5742961 0.6523935 -0.2208892 0.7615837 0.3287398 0.90228885 -0.3749587 0.55912155 -0.19047199 -0.6911749 -0.7297318 -0.56634504 -0.9099927 -0.5775146 -0.28193092 -0.286101 0.21337683 0.44971138
('진행','Noun') -0.43884492 -1.0696918 -0.7362372 -0.93852574 0.6035824 0.013255694 0.38257948 -0.47151932 -0.4973112 -0.08251874 0.59584683 -0.7873635 -0.4935048 -0.18833412 -0.46986032 -0.6159396 0.031375382 -1.0089885 0.3058111 -0.8068498 -0.5945071 0.18239512 -0.24985312 -0.7156624 0.109837145 -0.8257884 0.74211055 -0.32516572 -0.37004438 -0.7944401 0.99750197 0.38531077 -0.3843589 0.61501837 -0.5807986 -0.86870235 -0.8629713 0.43203416 0.044276047 0.37056658 0.23508744 -0.34279644 -0.40986332 0.77194095 0.39840183 0.17212659 0.58094585 0.27935624 -0.014386104 -0.8355834
('친구','Noun') -0.9044756 -0.031239385 1.511653 -0.1820003 -0.47143072 0.49505502 0.6222262 -0.16737929 0.17872459 0.67051685 0.17139423 0.36483607 -0.6429566 -0.038147204 -0.5213427 0.11171667 -0.7654967 0.2548157 -0.34881973 -0.87267196 0.11976731 -0.05240714 -0.16300696 0.28963876 -0.033605363 -1.3141718 -0.8404719 -0.4035752 -0.6193684 -0.10995712 0.5580839 -1.0176792 0.30294442 -0.93043464 0.7057095 0.021107703 0.739518 0.68649393 0.3418333 0.70752746 1.2137715 0.3642042 -0.5053367 0.51570493 -0.33465222 -0.047316857 0.5171266 0.93253815 0.5162653 0.27617708
('이','Noun') -1.143179 0.9682322 0.9257071 -0.5825265 0.31566453 1.0797216 -0.23700677 -0.30309787 -0.32280958 0.5197164 0.3755323 -0.3633919 -0.5300723 0.4471414 -0.3282912 0.2594964 0.2829258 0.0039127013 0.60015035 -0.9253715 -0.8815299 0.42576662 0.8861591 0.608241 -0.18964352 -1.0847926 0.01312552 0.20984858 -1.0543419 -0.03344132 0.325147 -0.58317053 0.6493855 -0.5892215 0.07882371 0.62192094 -0.60250276 1.2467747 0.77624613 0.019607384 -0.44134125 -0.33425424 0.27519283 -0.20751594 -1.2317026 0.14828403 -0.018178111 0.6413266 -0.016492402 0.38672966
('도움','Noun') -0.6742174 0.53354114 0.32910913 -0.71668124 -0.5314765 -0.19346061 -0.23193862 -0.30031034 -1.0610758 0.17585821 0.31522074 0.49041858 -0.9200923 1.2382487 0.47037733 -0.27979028 0.83905506 0.06344442 -0.7150895 -0.199677 -1.1344857 0.009864794 -0.3985679 1.0550722 -0.8587189 -0.56232226 -0.1046774 0.5534032 -0.7275154 0.5271109 0.867419 0.4319482 -0.7404837 0.40296528 -0.1619233 0.7501137 -0.15206553 -0.043320492 -0.045967247 -0.3153849 0.5478974 0.06745659 -0.33321032 0.27462822 -0.20963348 0.27671358 0.21152563 -0.14817974 0.13887331 1.2982395
('개인','Noun') -0.85864544 0.82731426 1.2732596 -1.1391213 0.16530809 0.34042034 -0.36004093 -0.88420033 -1.3469408 -0.7464374 0.00027874543 -0.76511884 -0.6294669 -0.1332784 -0.64431185 0.070967235 0.32022637 0.5722329 0.12399707 -0.5195792 -0.4916105 0.028655736 0.67636573 -0.07299701 0.031050902 0.6126971 0.38030392 0.15494978 -0.9452383 -0.12261385 0.23888373 -0.42498893 0.2766136 0.16140363 0.4223598 -0.2730241 -0.70055157 0.041419357 0.9017395 0.28576753 1.0072778 -0.38280743 -0.68427086 0.39725325 -0.7348206 0.14291373 0.47903356 1.1474417 1.3394723 0.8810418
('하는데','Verb') -1.4195365 0.23931904 0.9044444 0.1458244 -0.8380908 -0.27229238 0.04991471 0.6004934 -0.23716253 -0.92750525 0.47072098 0.14185281 -0.729268 -0.2808928 -0.030098042 0.41685385 -0.28875303 -0.6703739 0.21279913 -0.5555643 -0.25385764 0.12883693 1.0216197 0.56451356 0.008686241 -0.52003115 -0.7045203 -0.15260434 0.41404548 0.035866305 0.46789846 -0.80114746 -0.43567488 0.36301044 0.5435951 0.7552462 0.87061465 0.19838607 0.06115956 -0.26229402 0.0935685 0.6466429 0.03522212 0.94084156 0.17356326 -1.2961766 -0.3826831 1.3641993 0.5086916 -0.4183693
('코드','Noun') -0.9093223 0.35898325 0.1536102 0.38801152 0.34834632 0.15200043 -0.08372546 -0.413386 -0.8712741 0.12204493 0.44922814 0.039944645 0.31111917 0.94480896 0.908552 -0.8798937 -0.75735885 -1.0054964 0.3523665 -0.12294959 -1.0169606 -0.008714272 -0.47499827 0.32868916 -0.12945184 -0.91846687 0.79928035 -0.47584206 -0.8850926 0.67397934 0.71310264 0.21813856 -0.6164252 0.03559821 1.1618664 0.4193642 0.8701269 0.5119857 -0.21935517 0.3377203 1.0734911 0.18934411 -0.8995383 0.6189923 -0.8538014 0.10801762 -1.1311471 0.6513601 -0.1367331 0.32769895
('등','Noun') 0.4712911 0.55147207 -0.03975956 -0.2332445 0.1863026 1.1884383 0.64621633 -0.47360003 0.46248177 -0.81378007 0.9470925 0.3757943 -0.6460448 1.0188473 -0.3527948 -0.97787505 -0.38460326 -0.6231016 -0.09391156 -0.20998082 -0.8216187 0.21649598 1.0892869 1.0648394 -0.15418197 -0.7546356 -0.22660984 -1.194497 -1.1351146 0.06883189 0.5558558 0.62903285 -0.23055232 -0.84093916 0.75649923 0.36738655 -0.47483358 0.19959085 -0.23553559 -0.45631006 0.3989909 -0.85725176 0.07944664 0.09172665 0.48379597 -0.90578854 -0.6426746 0.7640732 1.1808654 -0.12036268
('라고','Josa') -0.70686716 0.23383744 0.7280967 -0.7902895 -0.019109733 1.1835833 -0.51145244 -0.56831616 -0.42635036 -0.012943712 0.99164796 0.81076926 0.03802849 0.7991004 0.25463283 -0.8038931 -0.86620957 -0.03956235 -0.04615091 -1.3824855 0.4122516 -0.033284027 -0.18531646 0.52675426 0.009508457 -0.50951564 0.606497 -0.956488 -0.6135149 0.39353347 -0.58342063 0.13624127 0.49045214 0.31311595 0.35843846 -0.104492374 0.057838537 0.12130835 0.37019932 0.46000823 -0.39879745 0.41407487 0.03929037 0.45049727 -0.36188608 0.2841018 -0.26900724 1.1240063 1.1438006 0.05317848
('C','Alpha') -0.32943246 0.5941358 0.9180375 0.43117365 -0.7791094 -0.7687446 0.6218249 -0.95057786 -0.9976866 -0.680216 -0.15635179 0.2980876 -0.31513536 0.18101798 -0.35949433 -0.97376376 0.49318728 -1.0460702 -0.043234657 0.34593365 -0.82702535 -0.28685737 0.27164412 -0.26418513 -1.218286 -0.5498593 -0.4026061 -0.30989283 0.63240814 1.3062497 -0.6360422 0.800667 -0.039485306 0.34601462 0.8684975 1.1025344 0.50813943 1.1357185 -0.18494152 0.10540015 0.6763904 0.7099199 0.60088575 -0.1535205 -0.088826805 -0.25586727 0.5628425 0.851506 -0.10753957 1.1280122
('후','Noun') 0.20165418 -0.6328011 0.9679352 0.06356881 -0.75476754 -0.22087175 0.5716741 0.7825196 -0.5277892 -1.008335 1.0580016 -0.45576492 0.31898212 0.7811316 -0.037382703 0.5557363 0.6042313 -0.2083887 0.5797638 -0.88565946 -0.92516017 1.2189795 -0.3588334 -0.1254138 -1.344678 0.579442 0.47070274 0.28144357 0.707376 0.87724346 0.050833996 0.15102217 -0.9920718 -0.25095883 0.33743015 -0.16482548 0.8005523 0.5810014 0.7580182 0.63872993 0.8366364 0.7091667 -0.25419098 0.754785 0.379961 -1.2562622 -0.9197952 0.09741729 1.2851216 0.39810207
('하게','Verb') 0.19107436 0.8054734 -0.11552247 -0.36605015 0.37901372 0.9880105 0.81640124 -0.39823875 -0.56097513 0.12908873 1.2856144 -0.45118523 -0.92627084 -0.15791301 -0.6547861 -0.17665374 -0.6381562 -0.03596243 0.37180728 -0.14191587 -0.5637021 0.2803931 -0.35656285 0.8873417 -0.467762 -0.7137151 -0.08743795 -0.60232687 -0.89688784 1.228138 0.8113307 -0.4312106 -0.6508182 0.2856487 0.01128223 -0.691339 -0.21942055 1.347881 -0.4781052 0.73778623 0.36909887 -0.38032025 0.33064753 -0.3447929 -0.68269956 -0.44603527 -0.6810739 1.4558371 0.24707548 1.1390033
('가','Verb') -1.0287561 -0.33164155 -0.32254955 -0.1318106 -0.68743736 0.87439096 -0.5243704 0.0033183035 -0.0056198076 0.4264527 0.79515994 -0.29688045 -0.21531284 0.05042953 0.69763356 -0.73645407 0.21383947 -0.662762 0.20970307 -0.9179284 0.45648134 0.82841825 -0.1550585 0.8976897 -1.1081426 -0.4581147 -0.2195507 0.6696178 -0.2610031 1.128706 -0.7655955 -0.0798834 0.48045352 0.5380022 0.9602481 -0.6653931 0.23361024 0.07190419 0.020443015 -0.5942577 0.72906977 0.13810213 0.63946027 -0.63384575 0.03642352 -1.2207375 -0.08230184 1.5895432 0.62846434 0.35055423
('만점','Noun') -0.014191691 -0.22652069 0.5757905 0.1280007 -0.34909144 -0.55133647 -0.68575794 -0.1416073 -0.6901201 0.6974844 0.6213754 0.10108002 -0.4871411 0.51721317 0.5615509 0.107207604 0.7410402 0.17130716 0.19230697 -0.75575715 0.105095565 0.8058617 1.0093533 -0.23415644 -0.5394931 -0.90264 -0.0008427627 0.63679147 -0.65419525 1.2300382 0.21036106 -0.92146754 -0.36433774 -0.940281 0.049463846 -0.28820905 -0.3592672 0.21654665 0.6736943 -0.3267866 0.42624417 -0.22067685 -0.70285165 0.095039904 0.63689315 -0.52032095 -0.89891124 1.1941925 0.87165505 0.13105169
('참고','Noun') -0.17471266 0.6458929 -0.5463353 -0.084382705 -0.6791151 -0.34958357 -0.564094 0.41425124 -0.11197177 -0.92457753 0.71970665 0.3262965 -0.61839277 1.1322159 0.012912681 -0.4048652 -0.789638 -0.6011564 0.5092855 -0.87558365 -0.13288848 -0.42516688 0.29216307 0.8368759 -0.7003293 0.46966282 -0.55043006 -0.49891466 0.8262582 0.517771 -0.6014508 -0.69486374 -0.78544366 0.45852327 -0.19429415 0.8443214 0.3469459 1.013464 -0.08693856 0.67461365 1.0866433 -0.08232389 0.4845355 0.6440078 -0.03151915 0.15643401 0.017357145 0.20838657 0.5585459 0.05868946
('실습','Noun') 0.03244958 0.3945483 1.1576382 -0.9503004 0.10197957 1.1905273 0.11848806 -0.0014940242 -0.9800172 0.6780139 -0.33843935 0.13128391 -1.000016 1.2322495 -0.15318128 -0.43029332 0.18377104 -0.14079913 0.8160963 -0.03778975 -0.69812673 0.24967442 -0.20250706 0.89970845 -1.0204644 0.53298557 -0.6408284 -0.50821227 -0.55212766 -0.039576158 -0.20960256 -0.14650571 -0.79565555 -0.4494771 0.10098973 0.36183563 -0.62449235 1.7118603 -0.43841198 -0.6582517 0.5087341 -0.46105206 -0.43193215 -0.64171886 0.37445912 -0.15128072 -0.281549 0.24162544 0.12886387 0.8164094
('하기','Verb') 0.027521566 -0.15623966 0.91270995 -0.18125325 -0.9904565 1.0072389 0.5879218 -0.355764 -1.0697576 -0.5868755 -0.071689636 0.67101246 0.06598558 0.0041395603 -0.31751424 -0.25111586 0.1969003 -0.68212897 -0.7175641 -0.07951575 0.43787396 0.9354298 0.10304858 0.70496476 -0.6292801 -0.52337295 0.7761124 -0.45324397 -0.7647163 0.41671667 -0.7142008 0.6008498 -0.060726143 -0.7259429 -0.048294228 0.6576014 0.97502375 0.36233926 0.54748124 -0.41858998 -0.046488944 0.6545038 -0.61492074 0.30985513 -0.4708448 0.103690036 0.108990386 1.1947904 0.801861 -0.273808
('널널','Noun') -0.7651247 0.0286681 0.28762642 -0.65867907 -0.04664751 0.00474487 0.5147186 0.57031983 0.5662767 0.47979292 0.9965873 0.88835734 -0.8142728 0.69269127 -0.33949187 0.37971944 -0.58358413 -0.24307248 0.17225176 -1.006499 0.1174306 0.9477113 -0.36867383 -0.36743054 -0.714132 -0.8908935 0.7475696 0.55563015 -0.8204183 1.0720377 -0.08533513 0.10974462 -0.46991745 -0.6891057 0.22408357 0.8319666 -0.6722176 -0.12402843 -0.6518936 0.65716493 0.51523715 -0.8276081 -0.727707 0.38617063 -0.595379 -0.033024345 -0.5079255 0.49399263 0.94631475 0.5001751
('하시면','Verb') -0.80579776 -0.14729837 1.0472105 0.2254896 0.0753131 -0.4418616 -0.045266118 -0.85814315 -1.1107874 -0.28311417 1.1552225 0.5453532 0.16929631 -0.11549729 -0.3099857 -0.007970484 -0.52586335 0.40557775 -0.28445765 -0.6220739 -0.34036443 0.4063293 -0.38259116 0.51246905 -0.90472037 0.12633213 -0.9286856 -0.43989542 -0.5262763 1.0302178 -0.093859054 -0.2677308 -0.20226227 -0.35146555 0.37863687 -0.4464443 0.12351623 0.31688595 0.25744414 0.032153904 -0.4116856 -0.67713654 -1.0191845 0.52477866 0.58829206 -0.6922774 -0.9497297 0.36871964 0.9048047 -0.50265807
('편','Noun') 0.03577384 0.9186782 1.1358635 -1.0401663 -0.40807676 -0.13260697 -0.3119501 -0.81625664 0.5094658 0.5745074 0.8201794 -0.17349835 0.3703059 1.1687906 0.8771592 -0.42488015 -0.5972264 -0.45009923 0.24167144 -0.8473428 -0.15907599 0.9061354 0.13065127 -0.2559603 -1.0591153 -0.4827562 -0.38344097 -0.7894426 -0.9123019 -0.578312 -0.7528482 -0.010503573 0.6494305 -0.72373503 -0.6068639 0.11789047 1.1258019 0.3967918 -0.07254292 0.33370274 0.9250875 -0.39692178 0.33721793 0.51566696 0.71798486 0.21232878 0.7437987 0.8544531 0.5670856 -0.18029943
('마다','Josa') -0.4383324 -0.024807518 -0.29884174 0.22505036 0.8123825 0.278829 0.38117298 0.57901067 -0.99178934 -0.46397302 -0.53892046 -0.6106515 -0.27304953 0.79650307 -0.722269 0.34426403 0.24481364 0.6047233 0.9213308 -0.85718805 0.35156992 0.01154516 0.52229804 -0.38750568 -0.59209174 0.48289388 0.19844647 -0.73328644 -0.49520373 -0.6174488 -0.6647165 -0.6125218 0.2709803 -1.0487459 -0.54618514 -0.62696004 0.32888353 -0.52273786 0.1383847 -0.025271593 0.99659413 -0.69148034 -0.16771099 -0.4199088 0.07074783 -0.7775997 -0.8582463 -0.3107983 -0.052146062 0.088576086
('필요','Noun') -0.11699943 -0.46035936 -0.048927236 -1.1622317 -0.1773327 0.51440626 0.42629892 0.76894766 -0.825856 0.009312704 0.78152233 0.84513116 0.13812098 0.443955 -0.43850797 0.069500215 0.47629887 -0.8745335 -0.5092063 -0.121326 -1.0288876 0.35419297 -0.3322512 0.9591704 -0.44406193 -0.6035048 0.3367447 -1.0254139 0.43867946 0.17630012 0.81305516 0.38195148 -0.77680385 -0.28876987 0.39480868 1.1939365 -0.4058819 0.22983555 0.17095865 -0.54102576 0.054972846 -0.45921734 -0.14224678 0.34991673 0.39588407 0.44041452 0.2925256 1.7333267 1.0180924 1.225702
('0','Number') -0.98427224 -0.24486952 0.3417237 0.21460606 0.40384948 1.0834098 0.5785221 -0.39439356 -0.92790526 0.3828565 0.5972978 0.7385773 -0.14974241 0.864439 -0.39153177 -0.18043453 -0.5283777 -0.8817396 0.4431273 -0.6887247 -0.28419608 0.339121 1.1119434 -0.5909027 -1.5785018 -0.70917267 -0.63496304 -0.53850406 -0.99149907 1.4657772 0.20472038 0.5336662 -0.19434293 0.38860324 -0.24826734 -0.5526753 -0.65682113 0.31966308 0.62144613 0.40491834 -0.05436735 0.63165987 0.21132657 0.21881743 -0.015882954 -0.39650267 -0.3815303 0.38272053 0.89719677 0.5342763
('진도','Noun') -0.13503852 -0.26889202 0.054164477 0.46073595 -0.55256957 -0.30006164 0.6789199 0.2286268 -1.03134 -0.8185792 1.1364369 0.38334492 -1.1366583 1.2577748 0.07990415 -0.67031336 -0.32919928 -0.8686699 -0.5154758 -1.3385595 -1.1776888 -0.47556 0.7072461 -0.37602228 -0.9841415 -0.66579 0.6740025 0.32266724 0.30381286 1.3601145 -0.48903477 -0.5057421 0.32749334 -0.5425522 1.0393351 0.53942716 -0.124124944 -0.115942895 0.6355683 0.40739793 0.3850835 0.16556375 0.37515876 0.36478472 -0.77179927 -0.56560105 -0.26502633 0.20360793 0.69407636 -0.2900845
('노력','Noun') -0.9219235 0.08029238 0.69691926 -1.0229458 0.12101204 0.5667454 -0.45072222 -0.033241563 0.5636237 -0.4491481 1.0570704 -0.28777218 -1.1267791 1.1067078 0.5212645 -0.31917816 -0.74242413 -0.6712604 0.1944196 -0.77118766 -0.43602604 -0.14357737 0.13758305 -0.70129687 0.4739163 -0.21651037 -0.75207394 0.19494165 -0.61750233 0.5806565 -0.70122963 -0.50528896 -0.24618018 0.8104141 0.53233176 0.3312481 -0.61896634 1.3292898 -0.4406655 -0.9305935 -0.40994796 -0.12177241 0.70918083 -0.37002397 0.50001305 0.403379 -0.7840476 -0.16634746 0.81974715 0.1671483
('채점','Noun') -0.49560592 -0.5289131 0.57857496 -0.7862744 -0.7780169 -0.4501795 -0.4036302 0.5126911 -0.76655114 0.5066117 1.2033714 -0.39519882 -0.60196316 0.22809032 0.8564907 -0.7720031 -0.5448031 -0.36921734 0.22709537 -0.73666155 -0.6525354 0.5301624 0.14225541 1.0964502 0.35615295 0.5264415 -0.0018255553 0.51783913 0.049141385 1.2928164 -0.026048092 -0.028790077 -0.838607 0.49998748 0.53977 0.15104672 -0.65963215 1.3468398 -0.7659894 0.08130575 -0.0692317 -0.82551986 0.5661211 0.625297 -0.7856998 0.2266586 0.5867153 1.2778543 -0.13633122 1.0367956
('출첵','Noun') 0.20258935 0.800143 0.86636716 0.07543983 0.28487203 0.38682607 0.20154457 -0.52866215 -0.7503144 -0.19619119 0.697836 0.29825568 -0.6975944 0.8585217 0.6390565 0.5417281 -0.9821559 -0.81933755 -0.1830073 -0.6953822 -0.87385905 0.75652456 -0.1562383 -0.3983811 -0.45389122 0.7028723 -0.14090016 -0.07447071 -0.5355092 0.028494556 0.38374722 -0.8476934 0.3920443 -0.50710964 0.3353289 -0.019653749 -0.4610501 0.7704821 0.9643343 -0.48316652 0.4031781 0.023741478 0.40580505 0.39034846 -0.75548416 0.29666853 -0.27227977 0.013892214 0.42338228 0.32955435
('제출','Noun') -0.08326663 0.8717425 0.80502546 -0.95880616 -0.2786723 0.39824057 -0.3757244 0.29845318 -1.6198983 -1.0905715 -0.121588476 -0.067889385 -0.12934715 0.1206026 -0.3030479 0.7160473 0.109545246 -0.07141189 -0.61840945 -0.13023382 -0.18102674 -0.14841072 -0.19464844 0.19237293 -0.31206757 -0.938392 0.67656434 -0.8176264 -0.44636616 1.6500417 -0.17368533 -0.7229728 -0.23670344 0.66207546 0.20054011 0.8434353 -0.28653935 0.47493064 -0.6786853 -0.03358214 0.7253239 -0.06435789 0.17463604 0.2751125 -0.86789525 -0.97238326 0.26369745 0.86654466 0.16478653 1.0169028
('답','Noun') -1.2926778 0.9389397 -0.0053656176 -0.576224 -0.5906099 -0.37242863 0.036553174 -0.29272777 0.21735945 0.6546876 0.56106293 -0.22061528 0.34878042 0.4914257 1.0485336 -0.725686 -0.2246952 -0.049168956 0.2079251 -0.7010445 -0.106437184 0.4954875 0.056474596 -0.51264495 -0.31893408 -0.9572747 0.6237804 -1.3939973 -0.016476592 0.51755285 -0.30804983 -1.0449191 0.083252914 0.24451558 -0.11985248 1.0956769 -0.67766273 0.5548506 -0.8990792 -1.0679573 -0.23073177 0.47178835 -0.8124247 0.69149846 0.46092638 -0.23973134 -0.44303444 1.2215338 0.20488203 0.12403737
('비','Noun') -0.38814548 -0.7801838 -0.75285435 -0.4461669 -0.16594356 -0.82662976 0.08439827 0.33953425 -0.7371906 0.4780449 0.8788447 -0.63301855 -0.2004495 0.7514227 -0.43210444 0.797228 -0.049123984 0.26799956 -0.21406566 0.4271288 0.38464335 0.59180635 0.5907855 0.23440003 0.71554124 0.6124416 0.19084522 0.64689684 0.4914488 0.4791273 0.4850266 -0.10444371 0.064781494 0.2835951 0.79791605 -0.49465457 0.5296902 -0.01390193 0.12341386 -0.6457696 0.67318773 -0.055254683 -0.82701963 -0.4572778 0.48653078 0.34619632 -0.09117771 0.7167039 0.6991848 0.043834686
('해','Verb') 0.50470054 0.45431498 0.33565915 0.35061935 -0.6405537 -0.7377597 -0.70479566 0.52552754 0.30339617 0.35036156 0.565582 0.7846431 -0.41109234 0.18969913 -0.70967185 0.50531965 -0.57869965 0.031967513 0.52537596 -0.7399575 -0.2698995 -0.5187824 -0.10103805 0.5277548 -0.32272094 -0.4148665 0.66932464 -0.38040924 -0.6269003 0.89124316 -0.65881747 0.18050615 -0.02787554 -0.88149077 -0.50252455 0.7531861 -0.4782275 -0.18557844 0.77816284 -0.12026537 -0.8263457 0.087384105 0.28147087 -0.14920217 -0.044943444 0.29170305 -0.347479 0.4395511 0.29504701 0.1508027
('이용','Noun') 0.3055044 -0.4845136 0.36238316 0.1691046 0.42177215 0.58438265 0.87398887 0.72712857 -0.15983695 -0.8433163 1.0585123 -0.81530267 0.34591594 0.20760782 0.115799196 -0.018123237 -0.43902868 0.17385387 0.7822004 -0.9255907 -0.21430972 0.9841823 0.21121716 -0.4951342 0.08491568 0.23699978 -0.13548952 -0.5782556 0.5909056 0.6160211 0.6286821 0.08299748 0.5280061 0.21912917 0.7793539 -0.7395777 1.1804558 0.1366876 0.8323823 0.10406178 0.7818136 0.4901262 0.32068887 0.6971581 -0.7507836 -0.7662336 0.56565654 1.2218688 -0.26757288 1.043624
('주','Noun') -0.8647404 0.6655844 -0.08704602 -0.26639825 0.42144302 0.21683744 -0.48446986 -0.60829896 -0.23676905 -0.11948184 -0.08308832 -0.76412284 -0.73370457 0.938244 0.70607907 0.79182345 -0.18618621 -0.5038459 -0.4454992 -1.0423385 -0.42925423 0.554738 -0.806944 0.64782006 0.11996461 0.3651506 0.6387683 -1.0575079 0.03132558 0.9088342 -0.6114351 0.15943362 -0.3087469 0.4583934 -0.6496323 0.77145475 -0.015198849 -0.045603994 0.54904 0.88698626 0.63147295 0.74618125 0.70815814 -0.65309876 -0.69513696 -0.9149829 -0.7664186 0.80576426 0.44232202 0.9021404
('위','Noun') 0.2755738 0.42206457 1.068497 -0.014290923 0.6182305 0.492368 0.5811117 -0.25500172 -0.34264076 -0.06637092 0.49891886 0.7378516 0.4100189 0.73294735 0.021274565 -0.9430913 -1.0517082 -0.7317401 -0.6223349 -0.5787418 -1.225713 -0.28406084 -0.35597157 -0.4270232 -1.4148039 0.39523253 0.11783848 0.35558417 -1.0575255 1.0532069 -0.8364647 -1.0550504 -0.10160752 0.11858376 -0.3251079 -0.0029100259 0.64980006 0.6806912 -0.0028499789 -0.25338253 -0.16451038 -0.77681726 -0.9525873 0.7925357 0.31987157 0.12857012 0.076528795 0.35573834 0.33397788 0.6225967
('결과','Noun') -0.6422478 0.9536875 0.67129844 -1.0899196 0.5998533 -0.37434906 -0.08309606 -0.52071893 -0.32777157 -0.42335194 0.61784 0.39082438 -0.4572448 -0.47015566 0.51984423 0.6505236 0.5255683 -0.046581924 0.538748 -0.8025922 0.025644243 0.32873473 0.7780005 0.8543467 -1.0390435 0.28533152 0.5783605 -0.5299974 0.4034741 0.29403454 -0.21482079 -0.58995956 0.05739385 -0.03569579 -0.20899475 0.4600579 -0.61060905 0.66139376 0.84518 -0.29864135 0.4583704 -0.95680404 -0.40369076 0.41937503 -0.9559705 -1.0372882 -0.4526531 0.65369016 0.32882872 -0.1201914
('렉','Noun') 0.43545642 0.17314094 0.56473637 -0.95993876 -0.26657876 -0.39114496 -0.5409784 0.23128559 0.028590161 0.23379071 0.28345868 -0.71987826 -1.0960562 -0.19976702 0.17493968 -0.7668154 0.5271912 0.7886117 0.25136936 0.5970237 -0.636999 0.7074606 -0.41614762 0.30423045 0.07059408 -0.24316065 -0.3366509 -0.55832857 -0.2094698 0.5428419 0.8485637 0.39748937 0.40555105 -1.0180763 -0.5084808 0.5518228 0.8584651 1.0894005 -0.03858276 -0.04413945 0.47420356 -1.0589607 -0.014638675 0.52286553 -0.86509013 0.53379864 0.6798788 -0.28790227 -0.51039505 -0.16596083
('쳐','Verb') -1.0550718 -0.3662812 0.37037373 0.35544586 0.8619582 -0.31907007 0.53179765 -0.39684948 -0.19514625 0.72522455 -0.5978029 -0.90880203 -0.16467488 0.9538162 1.0725622 -0.11558211 -0.5988212 -0.57905906 0.35848415 0.67863226 0.81185424 0.77722543 0.68053055 0.60060364 0.19270182 -0.9481902 0.60378677 0.30068678 -0.1525412 0.5742469 0.20427354 -0.98902166 -0.48844185 0.029151563 -0.015398761 0.72701776 -0.17622194 -0.16728586 -0.13024734 -0.70716494 0.98058003 0.49829108 -1.0222824 0.3337923 0.6326573 -0.4303495 -1.0360898 1.1508288 1.0508457 1.0085446
('체크','Noun') -0.72466075 0.9352553 0.04453963 0.4902383 -0.5574776 -0.62026507 -0.47696927 0.78564745 -0.36983588 0.3072551 -0.5978056 -0.070677176 -0.31310228 1.1188534 1.0760106 0.53595734 -0.11308568 -0.39091963 0.609065 0.14391719 -1.07093 0.05778286 -0.49207142 0.23495631 -1.1596926 -0.21748367 -0.9810218 -1.1603864 -0.7953322 0.36841762 0.34623763 0.31700042 0.7439393 0.3537775 -0.140384 0.16416259 -0.02883019 1.257329 0.3706553 -0.60656464 1.0588144 0.72973865 0.68788415 0.69425786 0.52234834 0.40245554 -0.1368881 -0.2585293 0.71849793 -0.3387303
('수준','Noun') -0.123226285 -0.399577 0.34672627 -1.1352341 0.70618933 0.2735935 0.4463185 0.09326066 -0.6751051 0.61677575 0.071476124 0.23398027 -1.4386873 0.42282993 -0.15745048 0.0025801177 0.04618629 -0.20119406 -0.31892502 0.05761613 -0.74354994 1.300292 1.110509 -0.027135082 0.19340983 -0.3142915 0.23609447 -0.25509915 0.7221142 1.0888836 0.3186465 0.112369046 0.1324935 0.46618098 0.6805283 0.45791364 0.86838585 -0.28827482 0.9867584 0.62991613 1.0610397 0.13917644 -0.45896575 0.24796341 -0.18926223 -1.0323036 -0.64142895 0.85095674 1.229591 0.7573705
('기초','Noun') -1.1213531 0.103167385 0.86247075 -0.899217 0.3848189 -0.500361 0.038373563 -0.035572667 -0.47820625 -0.22579779 0.37774518 -0.7896201 -0.037546568 0.008654451 0.6596004 0.12899715 -0.11446154 -0.5967471 0.021388749 -0.07323465 0.15128452 0.06185288 0.9926637 -0.06624249 -0.16424988 -0.59007585 -0.06396705 -0.9765521 -0.14288446 0.37547323 -0.08189232 0.3974278 -0.46946073 0.5493512 1.1398634 1.051929 0.4778199 1.1153618 0.09419098 -0.72673064 0.7415929 0.26439032 0.35585758 0.1924298 -0.7688256 -0.5079857 -0.69857436 0.2582627 0.27725223 1.3035206
('한','Determiner') -0.17553565 0.32119393 0.5412024 -0.9197642 -0.023185859 0.5773643 0.54680336 0.45924905 -0.5163328 -0.026721692 0.45329836 0.07518247 0.44583634 0.40410653 -0.955845 0.8976698 -0.6616432 0.75539804 -0.82117033 -0.33240643 0.09528147 -0.7750883 0.59858125 0.15174912 0.27498302 -0.17308562 0.7478016 -0.81425136 -0.86209196 0.7535544 0.89553577 1.0352995 0.8950251 -0.29232013 -0.73293716 0.5005161 -0.10249347 -0.9147258 0.62699896 -0.6247713 0.13756493 -0.5555436 -0.5037705 -0.81259257 0.25250024 -0.04798962 0.7039638 -0.43026522 -0.23813207 -0.7665049
